nep4 2 C H 
cutoff 8 4 7 7
n_max 4 4
basis_size 8 8
l_max 4 2 0
ANN 30 0
 -3.5318545e-01
  1.5770838e-02
  3.5217535e-01
 -6.6588193e-01
  1.2094755e+00
 -5.0115347e-02
  1.2127884e-01
  3.1737065e+00
 -1.1205086e+00
  2.1330073e+00
  1.4902687e+00
 -6.3302857e-01
 -3.7738230e+00
 -3.0832571e-01
  1.2325573e+00
  5.5051619e-01
  1.8306550e+00
  1.3493245e+00
 -7.8467333e-01
  2.3208091e+00
  2.0978041e+00
  2.8540902e-02
  1.9334055e+00
  3.3460701e-01
  2.9573146e-01
  4.4018611e-01
  2.5666838e+00
  2.1951585e+00
  6.4908475e-01
  3.9796779e-01
  1.0113544e-01
 -2.9548222e-01
  2.2591114e-02
 -5.1029909e-01
  4.2474389e-02
  9.8810662e-03
  5.5269573e-02
 -4.5860913e-03
 -3.7874047e-02
 -1.9312872e-02
 -3.4384001e-02
 -1.0616926e-02
 -2.1191536e-01
  4.0450795e-03
  1.8177218e-03
 -9.1690168e-02
 -1.6386089e-01
  4.5948371e-02
 -2.1832801e-02
 -3.4224372e-02
  2.9298015e-02
 -3.3490721e-02
  5.2876726e-02
  9.9602945e-02
  1.4621550e-02
  3.3191841e-02
 -2.8762627e-02
 -1.7599119e-02
  9.1748305e-02
 -1.8922498e-02
  2.3103851e-01
  6.5317512e-02
  6.3419312e-02
  1.5354452e-01
 -2.2780150e-02
 -8.0271559e-03
  5.2997049e-02
  4.8352564e-03
 -1.7882718e-02
  6.9392100e-02
  2.2514364e-02
  3.8959399e-02
 -4.9182795e-02
 -6.7785983e-03
  9.6213169e-02
  1.1675836e+00
 -5.4002292e-02
  3.0026948e-02
 -1.4438654e-02
 -8.9637816e-02
 -3.6706805e-02
 -1.4987776e-01
 -5.2469205e-02
 -4.8957616e-02
 -5.7437658e-01
 -3.1350590e-02
  7.7900290e-03
 -5.0885908e-02
 -1.5319300e-02
 -1.5371228e-02
 -7.9335365e-03
  2.5736945e-02
 -1.2147282e-02
 -7.3659688e-01
 -1.0184376e-02
 -7.2885230e-02
 -1.7647607e-02
  1.1078649e-01
  7.8137815e-02
  1.9442081e-03
  3.6430210e-02
 -9.1965497e-04
 -1.3374561e-02
  1.1231988e-02
  4.2729534e-02
 -9.5395632e-02
 -9.4291661e-03
  1.0432515e-01
 -5.6621771e-02
  2.8489621e-02
 -1.0235518e-02
  1.9649092e-02
 -2.5617978e-02
 -1.5926765e-02
  1.3608584e-02
  8.6957263e-03
 -2.0002706e-02
  1.9309189e-02
 -6.6313639e-02
 -4.4441156e-02
 -1.4009230e-02
 -1.6149243e-02
 -1.6475150e-02
 -5.3362119e-01
  7.2585628e-03
  1.3935840e-02
 -1.8201351e-02
  6.0108316e-01
  4.2299014e-03
 -1.8220255e-02
  1.7599318e-02
  9.5708314e-03
  9.7454153e-03
  3.3962992e-03
  1.8039757e-02
  1.3639241e-02
  1.7165855e-02
 -3.2450572e-02
  8.3123166e-03
 -5.3936844e-03
 -3.1809376e-03
  7.1760386e-02
 -2.9330904e-02
 -1.3762578e-02
  9.6088871e-03
 -1.3668081e-02
  3.5005208e-02
 -3.5665594e-02
  8.4999643e-02
  8.0204085e-03
  1.0915217e-02
  2.8160024e-03
 -2.6772036e-03
  4.8792267e-01
  1.5540446e-02
  7.3722191e-04
  6.5184031e-03
 -1.8584965e-02
  6.1156377e-02
 -3.5775047e-02
  4.3540075e-04
 -4.9981125e-02
  2.9584192e-02
 -5.2726667e-02
 -5.8497284e-02
  1.7170470e-02
 -1.3627535e-02
  9.3529075e-02
 -8.0374004e-03
  2.9649364e-02
  1.7126411e-02
  1.1131591e-02
 -2.7814325e-02
  3.3174520e-03
  4.0238034e-02
  5.5598378e-02
  7.1620189e-02
  9.4629517e-03
  3.5307866e-02
 -1.5399836e-02
 -1.8161139e-01
  1.6076867e-01
 -4.6703521e-02
 -8.2341634e-02
 -8.0507195e-01
  1.8638857e-02
  1.3428112e-03
 -8.5743882e-02
 -2.4513975e-02
  3.8805421e-02
  2.9380398e-02
 -1.7641542e-03
 -7.0548534e-02
  1.1311810e-02
  7.0766091e-01
  1.8809959e-01
 -1.7317726e-01
 -9.8036849e-01
  8.9240789e-01
 -3.3666935e-02
 -3.2894187e-02
 -2.2862245e-01
 -7.5502241e-01
  4.0763084e-02
 -1.2912499e-03
  8.2421221e-02
  2.3800321e-04
  4.0570572e-03
  2.6161438e-03
 -2.0044507e-02
  4.1816402e-02
 -1.7970555e-02
 -9.3434714e-03
  3.8313004e-01
 -2.2705283e-02
  5.5932514e-03
 -4.2122063e-01
 -3.2110076e-02
  2.5258899e+00
  5.3316228e-02
  2.8576924e-02
  5.0126597e-02
  2.4226842e-02
 -2.8924074e-02
  2.0636320e-02
  3.5725448e-02
 -6.6963232e-01
  1.8664889e-02
 -3.2189839e-02
 -5.6275353e-03
 -1.6346568e-02
 -1.8181670e-02
  1.5041056e-01
 -1.0654845e-02
  1.2921829e-02
  1.2135237e-02
 -3.7953395e-01
  5.3868574e-01
  3.0511710e-01
  1.4444143e-03
 -4.1338980e-01
  8.2668191e-01
  1.0715526e+00
  1.0769249e-01
 -2.5034357e-02
  3.5394263e-04
  9.1138482e-01
 -1.3395523e+00
  9.5193541e-01
  2.0837491e-02
  4.2342272e-01
  1.0497510e+00
  4.6659547e-01
  3.4558511e-01
  2.7491552e-01
 -1.0276352e+00
 -8.8539362e-02
  3.1268165e-01
 -2.5335935e-01
 -6.0855532e-01
 -2.6145029e-01
  2.1431535e-03
  2.8056657e-01
 -9.8864384e-02
  1.7547349e+00
 -3.3386639e-01
 -7.0014849e-02
 -1.5901304e+00
 -3.3610052e-01
 -1.3859003e+00
 -1.0475585e+00
 -9.8500192e-02
  2.2614311e-01
 -7.6867819e-01
 -1.4002719e+00
 -4.1971582e-01
  1.7846040e+00
  2.9583437e+00
  1.3014714e-01
 -1.8085629e+00
  1.9021674e+00
  2.9753965e-01
  3.6856437e+00
 -1.7463254e+00
  1.6355568e+00
 -1.2233084e+00
 -1.0186894e+00
  9.5573181e-01
  1.2094626e+00
  2.0103230e+00
  1.8824215e+00
  1.2655207e+00
  1.8927275e+00
  6.6971678e-01
 -3.6248654e-02
  1.8841683e+00
 -1.4906973e+00
  6.3619487e-02
 -3.4392946e+00
 -3.3347266e+00
  2.9083226e-02
  2.2475054e-03
  2.8353259e-02
 -1.7024547e-02
  3.3438785e-03
 -6.2806499e-01
  4.9931832e-02
 -1.4387420e-01
 -1.9438813e-02
  7.9821602e-02
 -3.3811197e-02
 -6.0032550e-03
 -1.3780713e-02
 -9.3986548e-02
  3.0695942e-01
  4.3132361e-02
 -1.5161168e-02
  3.5902258e-02
 -6.1379280e-02
  1.6530190e-02
  1.0771114e-02
 -8.7360911e-02
 -1.1699035e-02
  3.3615008e-02
 -3.5031389e-02
  1.0776605e-01
 -1.8641401e-02
 -1.5187604e-02
 -3.4348052e-03
 -4.0095687e-02
 -1.9204602e-02
 -1.3429206e-04
  3.6899954e-02
 -6.4025980e-01
  2.1012295e-02
 -4.6065092e-02
  3.2034378e-02
  1.8673331e-02
 -6.9433386e-03
 -5.3606988e-03
  3.0458177e-02
  4.5580029e-02
  7.8319181e-03
 -1.2095418e-02
 -1.4516613e-02
 -1.8113023e-02
 -7.2623491e-03
  9.9477433e-02
  3.3160619e-02
  1.3179632e-02
 -2.8318541e-02
  1.2519374e-02
  9.6130576e-03
  1.2737717e-02
 -5.6147203e-02
 -6.3336161e-03
  3.1620268e-02
 -1.1189098e-02
  2.7432503e-02
 -7.9386473e-02
 -7.9062380e-02
  1.6105015e-02
  2.3908331e-04
  1.6430704e-01
  7.2554469e-02
  1.3013529e-02
 -1.7998915e-02
  7.0561484e-02
  2.2980407e-02
  2.1020841e-02
 -1.6352056e-02
 -2.0484239e-02
 -5.8886614e-02
 -3.9068379e-02
 -1.9548458e-01
 -1.5758498e-01
  8.5423999e-03
  5.4853346e-02
  1.0781284e-02
  1.5145933e-02
  3.7236173e-02
  5.5518489e-02
  3.2158470e-04
 -6.5365555e-03
 -4.3414198e-02
 -2.8674599e-02
 -4.5298904e-02
  6.5889116e-03
 -3.5901722e-02
 -8.4485095e-03
  1.1901668e-01
 -7.4827233e-03
  1.5101963e+00
  3.5882452e-01
  4.7078054e-02
 -3.3782594e-02
 -6.3390667e-03
 -8.4090326e-03
 -1.2794925e-01
 -9.6344799e-02
  2.6393326e-02
 -4.4377930e-03
 -5.5354785e-02
  1.1572727e+00
  4.2622767e-02
 -2.7321221e-02
  5.5594454e-03
 -1.1263256e-02
 -7.1291984e-03
  8.2662858e-02
 -1.4530095e-02
  1.6185103e-02
  1.5288374e-01
  7.4637597e-03
  6.0952906e-03
  5.8485162e-02
 -3.5682498e-03
  2.0498531e-02
  1.0977069e-02
 -7.6209996e-03
 -5.8134562e-01
  1.2804078e-01
  8.2261272e-02
  1.6785394e-01
  5.1499265e-01
  6.3677929e-02
 -1.3062446e-01
 -9.3995434e-01
 -5.5924058e-02
 -6.4939097e-02
  2.5907689e-01
  1.3811871e-01
 -7.1916366e-01
 -8.4849102e-03
  7.3463792e-01
 -1.5715845e-01
 -2.3892449e-01
  3.0138546e-01
 -4.8610529e-01
  6.4083809e-01
 -8.2853936e-02
  7.7281195e-01
 -2.0729220e-01
 -1.3455044e+00
  7.4212646e-01
  3.7937865e-01
  8.2375342e-04
 -5.4342020e-02
  1.1902335e-01
 -7.2426394e-02
  4.3051389e-01
 -1.6194935e-01
  5.1649928e-01
  5.3575773e-02
 -4.0810493e-01
  7.2225761e-01
 -8.1304371e-01
  2.0829396e+00
 -4.1292322e-01
 -1.4073638e+00
 -1.2047646e+00
  2.2295025e-01
 -1.3141615e+00
  8.7468944e-02
  1.1183113e+00
  1.4571631e+00
  1.5068206e+00
  1.5906316e-01
  2.6411300e+00
  7.2675574e-01
  2.8643250e-01
  5.9406763e-01
  1.1736881e-01
 -2.1664050e-01
  2.9069126e-01
  9.8644257e-01
  2.4626981e-01
  1.0449406e+00
  6.2637675e-01
  9.7254229e-01
 -5.4400802e-02
  8.0039501e-03
 -4.3661732e-02
  5.4625285e-01
 -4.3158436e-01
 -1.6414184e-02
  7.3477757e-01
  5.4301871e-03
 -1.3520638e-02
 -2.3040064e-02
  3.0057464e-02
  2.4116583e-02
  4.7886677e-02
 -3.5248362e-02
  3.3718381e-02
  1.7312472e-04
 -9.6623860e-03
 -4.8575718e-03
 -4.8031434e-02
 -1.0279706e-02
 -4.3475188e-02
  5.8709472e-02
  8.9013673e-02
  2.1167135e-02
  5.0223309e-01
 -6.0800657e-02
 -7.6774610e-03
 -1.7035371e-03
 -2.9308936e-02
  2.0823961e-03
 -1.2673852e+00
 -4.6693731e-02
  3.2806799e-01
 -6.0194588e-01
  3.5636422e-01
 -5.0543351e-03
  1.3355622e-01
 -1.8088495e-02
  1.1676150e-01
  4.5866454e-03
  8.0891632e-02
 -2.9188937e-01
 -8.9585471e-01
 -4.5817634e-01
  5.2490425e-03
  6.1218388e-02
  7.4353322e-02
  4.8663553e-02
  1.1920926e-01
  2.4385637e-01
 -6.9483179e-01
  6.1853196e-02
 -2.8864512e-01
  3.1927639e-01
  8.9859076e-02
 -7.8693837e-02
 -1.8277969e-02
  5.4132640e-02
 -9.9530198e-02
  9.2316493e-03
 -4.6633044e-03
  7.5691730e-02
 -8.7795489e-02
  7.4967584e-03
 -8.1172213e-03
  3.0199597e-02
  1.1683326e-02
  4.9628355e-03
 -7.8329192e-03
  5.0546587e-02
  3.1694699e-02
 -5.3279176e-02
 -1.6140681e-02
  4.2213462e-02
 -4.8933424e-02
  1.0008053e-02
  1.6232051e-02
  8.4484536e-03
 -2.1717913e-02
 -6.7667766e-03
 -4.3797139e-03
  3.7734099e-02
  1.4023037e-02
 -3.7340309e-02
  5.4374132e-02
 -1.4463206e-02
  2.4014987e-02
 -3.5835858e-02
 -2.0095268e-03
  2.3213737e-03
 -1.0690314e-01
 -1.9938171e-02
 -3.0112445e-01
 -5.9592938e-01
  6.8418503e-02
 -1.7084723e-02
 -7.1367234e-02
  3.8925789e-02
  2.8293971e-02
 -4.9514621e-03
  2.0340066e-02
 -4.3496229e-02
 -1.6403822e-03
 -1.3103398e-03
 -9.3528908e-01
 -2.3595402e-03
  1.8810667e-03
  2.8905436e-02
  1.0685399e-02
  2.3007199e-02
 -5.2793771e-03
  2.0137981e-02
 -1.6666688e-01
  8.9047700e-03
 -8.4223719e-03
 -1.8334737e-02
 -3.3503710e-03
  3.8579784e-02
  2.9116295e-02
  4.6815979e-03
 -7.4509621e-01
  1.1544247e+00
  2.2120950e-01
  1.0226098e+00
  6.4616549e-01
  9.4675326e-01
 -1.3636321e+00
 -4.1964614e-01
 -5.3501338e-01
  2.0282445e+00
 -6.6427410e-01
 -5.3333968e-01
 -3.6780298e-01
  2.3032656e-01
  8.0169821e-01
 -1.0067009e+00
  1.8560922e+00
 -8.3212548e-01
 -9.8102295e-01
 -6.0083729e-01
  9.8620093e-01
 -1.9752334e+00
  1.4766900e-01
 -4.0483841e-01
 -2.3020461e+00
  8.5819036e-01
  1.0978276e+00
 -6.4473933e-01
 -1.5524361e-01
 -2.3557382e+00
  7.5811046e-01
 -8.3582723e-01
  4.3929797e-01
 -1.6104801e-01
 -2.7776715e-01
 -3.1131166e-01
  9.2609018e-01
 -9.7857302e-01
 -1.2669104e-01
 -1.1156771e-01
  1.8079549e+00
  9.7134417e-01
 -3.5395053e-01
  1.0602992e+00
 -2.6420355e-01
 -9.9358447e-02
  4.8355490e-01
  9.5096910e-01
 -3.9405355e-01
 -7.5301266e-01
 -1.3342640e-01
  2.2202716e+00
  1.0471044e+00
  2.3244312e-01
  6.0036474e-01
 -4.5625663e-01
  3.0042875e+00
 -4.0491238e-01
 -1.7172942e-01
 -1.5300196e+00
 -3.2341253e-02
 -9.6998643e-03
 -2.8532503e-02
  8.2458913e-02
  3.9367307e-02
 -1.1961068e-02
  8.7258369e-03
 -2.1630954e-02
  1.3855284e-01
 -1.4423766e-02
  6.5798522e-03
 -6.3350946e-02
 -1.4680341e-02
 -9.0762049e-02
 -1.8491241e-01
 -1.0080263e-01
  8.9093838e-03
 -4.0842965e-02
 -1.3698350e-01
 -1.4055252e-02
  3.9450310e-02
 -3.7751619e-02
 -2.8840704e-02
 -2.3320334e-02
 -8.0972202e-03
 -8.2852587e-02
  8.3133057e-02
 -4.1330427e-02
 -2.9928242e-03
 -4.1065238e-02
 -8.0547780e-03
  8.7589398e-03
  2.5593814e-02
  6.3869655e-01
  5.8072422e-02
  6.8866789e-02
 -1.0236606e-01
 -1.4726369e-02
 -2.6997445e-02
 -1.6584637e-03
 -4.2115703e-02
 -2.3801714e-02
  4.9177203e-02
 -9.5493399e-02
 -7.5973673e-03
 -3.0757770e-02
 -1.2223280e-02
  9.2375772e-03
  1.3229703e-02
  3.8159657e-02
  1.2101005e-02
  4.5688059e-02
 -1.3365698e-02
 -2.9824346e-02
  2.7341880e-03
  1.2607681e-02
 -8.6476900e-02
  9.7574266e-03
 -1.1632718e-03
 -3.4344133e-02
  3.2362691e-01
  4.8423428e-02
 -3.2562457e-02
  1.1893213e+00
 -4.5492254e-02
  2.8236918e-02
  2.2215074e-02
  5.1639648e-03
 -1.4759074e+00
 -6.5194406e-03
  3.3158503e-02
  4.8308601e-03
 -3.2490581e-02
 -9.5568169e-03
  4.6164710e-02
 -5.8635853e-02
 -1.9809228e-01
 -9.7665694e-03
 -5.8474034e-02
 -3.5203159e-02
  1.4927465e-02
 -3.9559990e-02
 -4.5092985e-02
  3.9769370e-02
 -6.0135961e-02
  1.4657232e-02
 -4.5261160e-02
  7.3309927e-03
  1.4826801e-02
  1.3049355e-02
 -1.5644485e-02
 -1.7921488e-01
  1.0895755e-01
 -1.8527880e-01
 -3.4466189e-01
  3.7691207e+00
 -5.5547088e-01
  3.2128034e+00
  6.3871193e-01
  5.2212346e-01
  5.9005821e-01
  1.5757484e+00
  1.7957389e+00
 -1.1785443e+00
 -3.1304038e-01
  4.0323728e-01
  9.6035838e-01
  1.9203080e+00
 -2.4330645e+00
 -2.0802042e+00
 -6.3753289e-01
 -4.6726610e-03
  7.9890853e-01
 -1.3847038e+00
  5.3411293e-01
  1.9749297e-01
  1.8009158e+00
  3.8977149e-01
 -9.2786384e-01
 -9.0150803e-01
 -5.5867958e-01
 -2.0032708e-01
 -2.9124841e-01
 -7.8474557e-01
 -5.9754634e-01
 -6.0020393e-01
  2.3842321e-01
  2.0573995e-01
  2.6199120e-01
  1.6950613e+00
 -3.4178999e-01
 -7.8970128e-01
 -6.7354000e-01
 -6.6029496e-02
  6.1194998e-01
  1.5278645e-01
  2.7176374e-01
  1.1613724e+00
  2.0436484e-02
  8.6458945e-01
  6.5156007e-01
  9.5654584e-02
  7.1282482e-01
  1.3787612e-01
 -6.1891621e-01
 -1.3000607e+00
 -1.4170866e-02
  7.0938647e-01
 -7.6670982e-02
  1.9964640e+00
  5.0304823e-02
  5.6203991e-02
  1.0979578e-02
  4.5889174e-03
 -1.1562318e-02
 -8.6147569e-02
 -1.9706436e-02
  1.1010247e-02
 -3.8119610e-02
  2.6613921e-02
 -9.2542116e-03
  3.0999286e-03
  1.9800209e-02
  2.0322099e-02
  2.1865310e-01
  1.6026270e-01
 -4.4863182e-03
 -4.5849625e-03
 -5.6613900e-02
 -2.7631262e-02
 -6.0384929e-02
 -1.7672142e-01
 -2.4272144e-02
 -8.7378144e-02
 -1.6640243e-04
  2.5388062e-02
  1.1392131e-02
 -2.4221871e-02
 -2.6717139e-02
  9.5013559e-02
  4.3208155e-01
  5.7136679e-01
 -5.6617055e-02
 -9.1193974e-02
  1.0640858e+00
  2.0026376e-03
  2.6223272e-01
  1.2239382e-01
  2.4011891e-01
  7.0185931e-03
 -4.6605576e-02
 -7.3335576e-01
 -3.9376792e-01
 -7.9581296e-01
 -9.3276665e-02
 -3.2356676e-01
 -1.1275877e-01
 -1.1196337e-01
  9.6252970e-02
 -2.6779401e-01
  7.5113401e-02
  1.5983621e+00
 -1.9852487e-02
 -1.3828422e-01
 -3.1412816e-01
 -2.4607509e-02
 -4.9847290e-02
  1.1859763e+00
 -2.6784923e-02
 -1.1280138e-01
 -2.3307551e-01
  3.3333609e-01
  1.0058598e-03
  5.2270006e-02
 -1.3678662e-01
 -2.9362860e-01
 -3.9925811e-01
 -2.4160495e+00
  3.3181489e-01
  1.8365494e+00
 -2.6946878e+00
  5.6348675e-01
  2.5233861e-02
 -1.4132508e+00
  3.3616157e+00
 -1.5225804e+00
  6.7607385e-01
 -5.4133075e-01
 -3.5335630e-01
 -1.7589628e+00
  5.4367685e-01
  1.3359004e+00
  2.1157709e-01
 -1.7737476e+00
 -2.1203589e+00
  1.1344520e+00
  5.3966475e-01
  8.7625253e-01
  1.5757662e+00
  5.9019482e-01
 -8.0651796e-01
 -1.5204240e-02
  5.5430150e-03
  1.0605739e-02
  5.8350824e-02
  1.0880645e-01
  1.4892246e-01
  3.5813428e-02
 -4.1713229e-01
 -1.9848186e-01
 -4.0369686e-02
  1.0236222e+00
  1.8268118e-03
  3.3157486e-02
  6.7555040e-01
  7.5436109e-01
 -4.9983487e-02
  3.6632487e-01
 -7.4650638e-02
 -7.0773244e-02
  3.6109418e-01
  3.4362964e-02
  4.8868251e-03
  3.1491503e-02
 -3.3389032e-02
 -1.4733353e+00
 -1.2369487e-01
 -3.7273012e-02
  3.4271258e-01
 -1.6535332e+00
 -2.9886869e-01
  5.7046864e-02
 -2.8482892e-02
 -3.1513110e-02
  8.5300729e-03
 -1.1092413e-02
 -4.6949930e-02
  4.7657886e-03
  4.5154950e-01
 -6.5391684e-01
 -7.8299772e-03
 -1.6146066e-02
  9.4759561e-02
  5.4857727e-02
 -3.5252661e-01
 -1.3021009e+00
  2.0965901e-01
  5.0785565e-01
  1.2885018e-03
  9.9366494e-02
  2.0008039e+00
  8.7345988e-01
  5.2123364e-02
  1.2703141e-02
 -1.1219866e-02
  1.2667837e+00
  9.7689205e-01
 -3.5904236e-02
  7.5818229e-01
  3.4101060e-01
  7.1062183e-01
 -4.6359627e-03
 -1.1518095e+00
 -3.8805425e-01
 -5.6510532e-01
 -4.7134627e-02
  4.4506720e-01
 -1.0125396e+00
  2.8318444e-01
  2.9989153e-01
  9.4084114e-01
  9.4383544e-01
  7.3568988e-01
  1.7181700e-01
 -4.4122825e+00
 -8.4336352e-01
  3.4091747e-01
 -2.3000160e-01
 -1.0533037e+00
 -3.8490978e-01
  3.6750324e+00
  7.6650274e-01
 -2.2276185e-01
 -6.8899617e-02
  6.3124903e-02
 -1.5186656e+00
 -2.4584348e+00
  1.6041172e+00
  2.0422950e+00
  1.2272424e+00
  2.2772441e-02
  5.3325236e-02
  2.0504773e+00
  1.0526874e-02
  3.7644347e-03
 -2.0345245e-02
  1.5412698e-02
 -8.7755397e-03
  3.7328523e-02
 -1.3474805e-02
  2.6982743e-02
  1.0614211e-02
  1.1197818e-02
  7.1354046e-02
  9.4848327e-02
 -3.7643887e-02
  3.1732019e-02
 -9.0951383e-02
  1.2358198e-02
 -2.6246144e-02
 -1.3728117e-02
  5.0933748e-03
  3.2641996e-02
 -5.7502454e-03
  7.9737045e-03
 -2.9099077e-02
 -2.7869469e-02
  6.3628584e-02
 -4.7225128e-03
  6.4110681e-03
  8.8390708e-02
  1.6244414e-01
  2.6493254e-01
 -1.2504350e-01
 -1.2298165e-01
  5.2583045e-01
 -6.2906116e-01
 -3.1271803e+00
 -2.3206697e+00
 -1.6187140e-01
  3.0131190e+00
 -2.7819771e-01
  2.2121022e-02
 -2.3859913e+00
  2.8881055e-01
  8.8902377e-03
 -6.4348805e-01
  2.8948012e-01
  1.6128445e-01
  7.0252818e-01
 -5.9381950e-01
 -6.2655091e-02
  3.5712567e-01
  9.9020183e-01
  6.6430360e-02
  6.8903035e-01
  7.5126535e-01
  8.7732263e-02
 -6.9120640e-01
  4.6403828e-01
  8.8944379e-03
  2.0576937e-01
 -3.8728771e-01
 -2.5345722e-01
  1.2613191e-01
 -2.8375927e-01
  6.4843625e-02
  3.3672532e-01
 -4.8000004e-02
  2.4600880e-01
  1.2171906e-01
 -3.1616136e-01
 -2.2718450e-01
  5.1183946e-02
  1.2761104e+00
 -7.1744084e-02
  5.4597724e-02
 -3.0148751e-01
  4.8810009e-02
  5.8269125e-01
  1.2644047e-01
 -1.3157578e-01
 -7.3010552e-01
 -8.6285424e-01
 -8.2389212e-01
  1.3856108e-02
  2.1877488e-01
 -8.5013569e-05
  9.4542342e-01
  4.2711338e-01
  1.7504838e-01
  2.9479533e-01
 -5.6703675e-01
  7.4089843e-01
 -3.0189991e-01
 -4.0813616e-01
  4.6404660e-01
  4.0632534e-01
 -1.4353943e+00
  5.6077522e-01
 -3.8300189e-01
 -1.2402286e-01
  2.4564591e-01
 -6.7433909e-02
 -1.3803326e-01
 -1.0498731e-01
 -3.2393584e-01
  3.7593421e-01
  1.7103736e-01
 -1.6594875e+00
  2.2607312e-01
 -1.0106752e+00
 -9.3749732e-01
 -1.4460263e+00
 -1.3823595e+00
  5.9588295e-01
  1.1860725e+00
 -7.1842885e-01
  1.0921322e+00
  7.4123728e-01
  3.2122687e-02
 -1.5318848e-01
 -5.2111153e-02
  4.3305859e-01
 -4.9780379e-03
 -3.6172349e-02
 -1.7818490e-03
 -4.1739948e-02
  5.6023006e-03
 -5.4833088e-03
 -6.0379258e-03
 -4.4564731e-02
 -2.4517715e-02
  2.0507166e-02
 -1.9353440e-02
  4.3818280e-02
 -7.9054311e-03
 -4.0015601e-02
 -9.9592201e-02
 -4.4398710e-02
  4.8953678e-02
  2.8151896e-02
 -3.5902556e-02
 -4.0135710e-03
 -1.9513223e-02
 -5.5710927e-02
  3.0212723e-02
 -2.7626224e-02
 -1.4874621e-01
  6.6046149e-02
 -4.8734829e-01
  5.1185894e-01
  1.6901809e-01
  3.3478001e-01
  5.0947565e-01
 -2.5797135e-01
 -2.6813634e-02
  2.0618008e-01
  5.7922322e-01
  2.4605289e-01
  3.9167717e-01
 -1.0046881e-01
 -2.7865753e-01
 -4.5642981e-01
 -1.6466251e-01
  6.1196674e-02
  7.2075762e-02
  1.2519363e+00
 -9.3685642e-02
  8.4545410e-01
 -1.3940254e-01
 -4.3239826e-03
 -1.4295866e-02
  5.5895901e-01
  1.3623852e+00
 -1.0116957e-01
 -1.1546948e-01
 -1.0791947e-03
 -2.7132976e-01
 -1.2119396e+00
 -3.1054860e-01
  5.5686027e-02
 -2.4453560e-02
 -1.7214458e-02
 -4.1829798e-01
 -2.5275659e-02
  8.8602584e-03
  3.3279520e-02
  3.9707592e-01
 -2.8901789e-02
 -6.9848999e-02
 -5.8043431e-03
 -2.8637061e-02
 -2.1350661e-01
 -4.7545422e-02
  2.2545168e-02
  2.2433870e-03
 -8.0387928e-02
 -5.2257750e-02
  2.4638303e-02
 -1.2867151e-01
  6.5938234e-03
 -2.7792688e-02
  5.6454100e-02
  1.3533877e-01
 -3.3770755e-02
 -5.2709240e-02
  4.9961880e-03
 -4.5574777e-02
  1.2023909e-01
  2.7801586e-02
 -3.8986269e-02
 -1.7981028e-02
  9.1433339e-03
  9.9901086e-01
 -1.5896793e-02
 -2.0905431e-02
  6.9666795e-02
  1.0211328e-02
 -3.9792568e-03
 -1.5598653e-02
  7.9496801e-03
  3.2553516e-02
  1.8585367e-02
 -2.5428437e-02
  2.2885259e-03
  3.2058861e-02
 -4.1697263e-03
 -1.4567515e-02
  5.9099156e-02
 -2.3169514e-02
  1.1378101e-01
 -1.0040617e-02
 -9.7936355e-03
 -2.6401877e-04
 -6.8101965e-02
  1.1094471e-02
 -1.2934105e-02
  2.0943275e-02
 -5.4484863e-02
  4.1356170e-01
  5.2185860e-03
  2.7006699e-02
  2.0765123e-01
  4.4333369e-01
  1.8142236e-02
  3.6285095e-02
  2.5933780e-02
  2.2739669e-02
  3.2269456e-03
 -6.7258078e-01
  3.9442163e-02
 -1.5849609e-02
  3.2180578e-02
  4.1350937e-03
 -2.1571871e-02
  1.2877482e-01
  5.8515057e-02
 -5.9250197e-03
 -4.5145866e-02
  2.5314566e-01
  3.4301568e-02
 -9.0623240e-04
 -2.5026195e-05
 -3.3426233e-02
  2.8540308e-02
  8.2094790e-03
  5.6797229e-03
  2.2748504e-02
 -1.1704846e-01
 -4.3975833e-01
  1.3163399e+00
 -6.8961501e-01
  8.6511278e-01
 -5.6884372e-01
 -2.0960021e-01
 -8.5181218e-01
 -2.0940994e-01
 -8.1063032e-01
 -4.7869124e-02
  5.2108485e-01
 -1.9360898e+00
 -2.1687276e+00
  2.0826642e-01
 -3.1712219e-01
 -1.9590266e-01
 -1.6103725e-01
  2.2340967e-01
  1.0783836e-01
  4.6960613e-01
 -2.1111565e+00
 -1.4121902e-01
  1.1243995e-01
 -6.8397605e-01
 -9.8197603e-01
  1.6738897e-02
  7.0037842e-01
 -3.5120532e-02
 -5.6950313e-01
  3.0613986e-01
  1.9181062e-02
  1.0681423e-01
 -1.5239874e-01
  4.6547934e-02
  2.4064067e-01
 -5.9325516e-02
  3.7498339e-03
 -1.3147750e-01
  5.6122839e-02
  1.8002300e-02
 -2.6879169e-02
  4.6929069e-02
 -6.6421561e-02
  3.8464925e-01
 -4.1128270e-02
  3.8801558e-02
 -2.9798318e-03
 -4.5074888e-02
 -6.3802592e-02
 -3.3308543e-02
  6.9950074e-02
  6.2806368e-02
  2.2844709e-02
  2.1129490e-01
 -2.3527520e-02
  4.0010568e-03
 -1.3957923e-02
 -1.5808626e-01
  2.0240346e-02
  1.2561142e-02
  1.9841774e-01
  1.7519881e-01
  7.4019581e-01
  2.7716368e-01
  1.2013962e-01
  1.3688624e-01
 -8.1073880e-02
 -1.4153379e-01
 -6.4025193e-01
 -2.9356346e-01
 -4.1417804e-01
 -1.3070562e-01
  5.8011267e-02
  1.0685561e+00
  1.3264364e-01
 -4.6257950e-02
  3.0428877e-01
  1.0887918e-01
 -6.2317282e-02
 -4.2356020e-03
  5.3013015e-01
 -4.2395376e-02
  2.3667429e-02
 -1.2664062e+00
 -8.1521130e-01
  1.4471701e-01
  1.7347959e-01
 -3.7505305e-01
 -1.2366743e-01
  7.3939514e-01
  7.2033751e-01
  8.4628057e-01
 -3.4838843e+00
 -4.0122518e-01
 -1.2849051e+00
 -1.1654862e+00
 -1.1454891e+00
 -9.5182914e-01
 -2.0566363e+00
  2.1512428e-01
 -2.0044663e+00
 -3.7057157e+00
  2.3809241e-01
  1.0011636e+00
 -7.4360716e-01
  2.3704175e-02
 -1.8279457e+00
  4.3730937e-02
  9.2976195e-01
  9.8985672e-01
  1.8625022e+00
 -3.6503199e-01
  1.9192474e-02
 -2.7369076e-01
  7.4921018e-01
 -7.8721410e-01
  2.5303488e+00
  1.1356510e-01
  2.4121540e+00
  1.2678788e+00
 -8.2278132e-02
 -1.9418413e-02
  3.8753375e-01
 -2.1696967e-01
 -7.6001860e-02
 -1.3532341e-02
  4.0523782e-02
 -1.5926348e-02
 -9.0859644e-04
 -2.6788745e-02
 -1.7333575e-01
  3.4181669e-02
 -4.8894761e-04
  6.7037148e-03
  1.2938561e-02
 -1.0506434e-02
 -2.9234391e-02
 -8.1184153e-03
 -1.2571268e-01
  1.6208338e-02
  1.6063806e-02
 -2.8500170e-01
  9.0458713e-02
  3.3095963e-02
 -2.3239508e-02
 -5.4919619e-02
  3.1477645e-02
  3.2859351e-02
 -1.5192439e-01
 -8.5459173e-02
  3.9666481e-02
 -3.3830178e-03
  1.0413611e-02
  5.3990781e-03
 -2.3933670e-01
 -1.2873037e-02
  1.1298112e-03
 -7.1605578e-02
  3.9386982e-04
  4.0568143e-02
 -7.1773511e-01
  3.6798185e-03
  3.0920181e-02
 -4.2550378e-02
  2.1830900e-03
  1.9347403e-02
  2.7671082e-02
 -4.9813550e-02
 -3.0839106e-02
  1.3609296e-01
 -1.0509688e-01
  1.4127390e-02
 -9.5878512e-02
  2.6420243e-02
 -1.7703867e-02
 -8.2751848e-03
 -7.0811026e-02
  2.7283443e-02
  5.2541461e-02
  4.7079748e-03
 -3.0220563e-02
 -8.4869228e-03
  6.1433993e-02
  4.1401420e-02
 -7.0980465e-01
  7.6204568e-02
 -5.9758954e-02
  4.0108070e-02
 -2.2131134e-02
 -4.5831162e-02
 -3.8666397e-02
  9.4555886e-03
  4.0848605e-02
  3.4417331e-02
 -7.6719508e-02
  1.6559877e-02
  3.5073001e-02
  2.5451459e-02
 -2.3511596e-02
 -3.9692588e-02
 -1.5495354e-02
  4.0389462e-03
 -1.3948148e-03
  2.5173698e-03
  5.1920850e-02
  3.6003347e-02
 -1.6394518e-02
  3.1594599e-03
 -8.2892410e-02
  3.0089878e-02
  3.3184413e-02
  5.7461524e-01
 -4.5202649e-03
 -9.2672454e-03
  3.0494973e-01
  6.6878414e-01
  1.0109375e-01
  5.9516556e-03
  9.8456495e-02
  9.1370350e-01
 -5.2770428e-02
  1.0249198e-01
  5.1301293e-02
  3.2815033e-01
  5.2901328e-02
 -1.6988647e-01
 -1.5194540e+00
  4.4658878e-01
  1.0187141e+00
  2.0152932e-01
  9.1935605e-02
 -7.1941632e-01
  1.1336292e+00
  1.4744200e+00
  6.4741701e-02
 -3.2641813e-03
  1.2269384e-01
  3.0864527e-02
  5.3486979e-01
  4.7031060e-01
  1.1289366e+00
  4.2631727e-01
 -1.8494652e-01
 -1.4256827e+00
 -9.2102444e-01
 -1.8871969e-01
  2.5099155e-01
  9.6000361e-01
  1.2384928e+00
  2.0116436e+00
 -5.6125870e+00
  3.1292370e-01
  1.6610214e+00
  2.0601518e-01
 -4.2367607e-01
 -2.5387530e-03
  3.0334532e-01
  1.7908169e-02
 -4.1793375e+00
  7.3172039e-01
  1.0571449e-01
 -1.2993835e+00
  7.1733391e-01
  9.5075542e-01
 -1.1820086e+00
 -1.5345272e+00
  2.5605583e-01
  3.1260781e-02
 -3.7012870e+00
  3.7743163e-01
  9.3448851e-03
 -7.2606549e-02
  6.0946085e-02
 -2.2951551e-01
  5.1554978e-01
 -2.2113606e-02
  1.7616367e-02
 -2.4187420e-02
 -5.8945976e-02
 -1.5083445e-02
 -2.6449400e-01
 -1.1635531e-02
  8.1703095e-03
  2.8194197e-02
 -6.8192077e-01
  8.4365206e-03
  3.6600134e-03
  2.1167874e-02
  1.8721503e+00
 -9.3514025e-03
  3.0286502e-02
 -1.8567869e-02
 -3.5125494e-02
  2.2462096e-02
 -1.3376534e-02
  1.0789966e-02
  1.5203562e-04
 -3.2839885e-01
 -1.3632141e-01
 -1.2595231e-02
 -5.9541696e-01
  1.0086254e-01
  1.3167126e-02
  3.0941617e-01
  1.4823352e-01
 -1.5335717e+00
 -1.7822857e-01
  9.4443470e-01
  6.3245851e-01
  3.9269635e-01
 -9.3740925e-02
 -2.2153349e+00
  1.7634662e+00
 -1.5718461e+00
  2.0185382e+00
  1.3335799e+00
 -3.0081329e+00
 -1.9188740e+00
 -6.8006110e-01
  1.2918922e+00
 -1.0236484e+00
  2.0327568e-01
 -3.3388100e+00
 -2.2101633e-03
  1.6031301e+00
  4.6390080e+00
 -3.0212858e+00
  1.6240142e-01
  1.1727649e+00
 -6.5891558e-01
 -6.6252065e-01
  1.6330063e-01
  9.3806200e-02
  2.8251722e-01
 -1.8874955e-01
 -1.1197978e-03
 -2.4792062e-01
  4.5580519e-03
 -3.7845337e-01
  6.0175732e-02
 -1.2867747e-01
 -4.6099460e-01
  1.0614888e-01
  8.2866766e-02
  7.7062689e-02
  3.8933963e-02
 -9.9182613e-03
  2.4084037e-02
  4.5735080e-02
  2.5103822e-01
 -5.6641906e-01
 -4.3475330e-01
 -6.3222256e-03
 -5.0430310e-01
  3.1433597e-02
  3.1756166e-01
  2.1453784e-01
  1.2430266e-02
 -9.0599187e-02
 -1.3788413e-01
 -9.9932728e-03
  2.1129601e-01
  3.5451528e-01
  1.0266728e-01
 -3.6239088e-01
 -5.7943773e-02
  4.3813188e-02
  3.6546898e-01
 -6.0485733e-01
  8.0521278e-02
 -6.7101285e-02
  8.6439610e-02
 -3.9848667e-03
 -1.7412724e-01
  3.1424496e-01
 -1.6430570e-02
 -1.2161943e-01
  2.8435607e-02
  7.7976929e-03
  7.9379395e-02
 -3.0982611e-01
  1.0452973e-02
  4.9198382e-02
  6.6038609e-02
  2.4421822e-02
  2.6795944e-02
  1.1761901e-02
  5.7118940e-03
 -4.3599290e-01
 -3.3878554e-02
  9.1426760e-02
 -1.0016787e-01
 -2.9958982e+00
 -6.1998647e-01
 -1.3303585e+00
 -3.6376855e-01
  5.2465242e-01
  7.4618953e-01
 -1.8148708e+00
 -3.3206615e-01
 -1.7411128e-02
  3.3098024e-01
 -1.3267463e-01
 -7.2362822e-01
  2.2490599e+00
 -1.3778863e-03
 -1.2310524e-03
  5.8888365e-03
 -3.1406176e+00
  1.1711138e+00
 -5.3425926e-01
 -1.5018392e-01
 -8.8199470e-03
 -1.7352579e+00
  2.9421165e+00
 -2.7635826e-02
 -3.8965151e-01
  4.3896552e-02
 -8.4378719e-01
  5.5244637e-01
 -2.6383419e-02
 -1.3401670e-02
 -1.5869223e-02
 -7.6666889e-03
 -5.0758302e-01
 -9.7888494e-03
 -1.0938333e+00
 -3.1672465e-03
  3.5995837e-02
  1.0887789e-02
 -2.8697804e-02
 -3.6711685e-02
 -2.4178365e-02
  6.9141649e-02
  7.2141504e-03
 -3.0349202e-02
  1.7253019e-02
 -1.3587711e-02
  2.2286043e-02
  2.0276448e-03
  3.2741550e-02
 -1.4308587e-02
  9.0623535e-03
  1.1138965e-02
 -2.9649932e-02
 -1.4349998e-02
 -1.7918041e-01
 -3.6173820e-02
  3.9151877e-02
  4.8782309e-03
 -2.1065220e-02
 -1.5162993e-02
  5.6257818e-02
 -3.9497931e-02
  2.1783078e-01
 -9.8267458e-03
  3.6377609e-03
 -1.5281957e-02
  4.2790733e-03
 -8.4725954e-03
 -8.0355257e-04
  1.4534403e-02
 -3.1140117e-02
  9.2468904e-03
  1.9760145e-02
 -9.4561674e-02
 -2.1448717e-02
 -2.3696134e-03
 -4.3509413e-02
  4.4880281e-03
 -3.9464887e-03
  7.3787267e-03
  2.2599082e-03
  1.4735905e-02
  3.0375697e-02
 -1.9490384e+00
 -2.8015068e-02
  1.2687495e-02
  4.6452973e-02
 -1.5464474e-02
 -6.5481681e-01
 -4.4729578e-01
  1.9591360e-01
 -1.1085645e+00
 -4.2496166e-01
 -5.4585171e-01
  3.1972535e+00
 -1.3454450e+00
 -7.8010684e-01
  2.5847322e-01
 -2.5410738e+00
  3.6252281e-01
 -6.2549049e-03
 -1.1920595e-01
  7.0641679e-01
  1.8951374e-01
  3.1262598e+00
 -8.5398376e-01
 -3.0649183e+00
 -2.0644972e+00
 -8.3926696e-01
 -6.9623220e-01
 -6.2776732e-01
 -2.4176767e+00
  1.2916276e+00
  2.1067746e+00
  4.8681861e-01
 -5.5335253e-01
  9.3629295e-01
  3.3104166e-01
 -4.6979573e-02
  3.9843004e-02
  4.7499251e-02
  4.2751487e-02
 -4.4397122e-01
  8.1362180e-02
  1.6649661e-04
  1.2699027e-02
 -6.2387634e-02
 -8.4134027e-02
  5.3727478e-03
  3.7166327e-02
  6.8694472e-02
  1.0280716e-01
  6.5145209e-03
  6.8135709e-02
 -9.5168557e-03
  1.4723809e-02
 -4.2609707e-02
 -5.6518777e-04
 -5.8644032e-03
 -5.7205777e-03
  1.1419797e-02
 -2.7563192e-02
 -3.6789250e-02
 -2.2727035e-02
 -2.0429803e-02
 -1.3145183e-02
  1.3165548e-02
  1.4473283e-01
  2.5587088e-01
  3.1000257e-01
 -1.7357872e+00
 -1.9794680e+00
 -1.7356623e+00
 -2.7219912e-01
 -3.0530539e-01
 -2.7517939e-01
  7.7983683e-01
 -1.8656226e+00
  1.0936638e-01
 -2.4641930e-01
 -2.5991435e+00
 -5.4933059e-01
 -1.0683917e+00
  1.2031269e-01
 -8.7675053e-01
 -7.6678604e-02
 -3.4373474e+00
 -1.3714447e+00
 -3.0238118e+00
  2.2699848e-01
 -6.5628089e-02
 -5.5350389e-02
 -1.0939242e+00
 -2.3241284e+00
  4.8488927e-01
  8.2368624e-01
  2.2020378e+00
 -1.0353261e+00
 -7.5009006e-01
 -2.1125050e-01
 -3.3908623e-01
 -1.6917458e-01
 -5.5032438e-01
 -5.3890501e-03
  2.8994124e-02
 -2.3372961e-02
 -2.9703978e-01
 -7.4117810e-02
 -7.1035422e-02
 -1.3994280e-01
 -5.7787141e-03
  2.3294702e-01
 -7.3430642e-02
  1.7134519e-02
 -2.7513433e-02
  6.2867706e-03
 -1.7063282e-01
 -7.0342142e-03
 -6.2819415e-01
 -1.5405288e-01
 -3.1477123e-02
  5.7370018e-02
 -4.8449486e-03
 -4.3331649e-02
  5.2563392e-02
  6.3451655e-02
  2.9214997e-02
  4.2969128e-03
  2.7464802e+00
 -4.7831270e-03
  8.8322896e-01
  3.3417684e-01
  3.6702350e-01
 -1.8441930e-01
 -7.0429975e-01
  1.7621281e-02
  2.6262558e-01
  1.0139568e-01
  1.1171008e+00
  2.4356470e-02
  1.7030269e-01
  2.0766237e+00
  4.3980755e-02
 -7.1926050e-02
 -3.7960395e-02
  4.5543149e-01
 -1.1531725e-01
 -1.9875782e-02
 -1.5166557e-01
  1.5483998e-02
  3.6359718e-01
 -1.8807464e+00
 -7.7408347e-03
  2.1953771e-02
  1.2996854e-01
 -1.5095220e-02
  7.6381791e-01
  2.0068733e-01
  7.9282606e-01
 -8.0017112e-03
  9.1466203e-02
 -1.0988772e+00
  5.1577276e-01
 -2.6097301e-02
 -4.9713764e-01
 -8.0329823e-01
  1.4381240e-02
  3.1177571e-01
 -9.9306569e-02
  7.9659447e-02
 -3.7033924e-01
 -4.2454648e-01
 -4.0794618e-02
  2.7294341e-02
 -3.6678098e-02
  1.0138726e+00
  3.0307112e+00
 -7.9049355e-01
 -6.0646588e-01
 -1.6288763e-01
 -1.0396603e+00
 -9.0250629e-01
 -1.5756398e-02
 -5.8324849e-03
 -1.6658668e-01
 -1.2179012e-02
 -1.7673644e-01
 -1.3120069e-01
  1.8064702e-01
  2.1933915e-01
 -2.4800520e-01
  2.7224123e-01
  1.1435500e+00
  1.7496253e+00
 -2.3930407e+00
  2.0322809e+00
  4.1218113e-02
 -2.7768192e-01
 -1.1022136e+00
  2.2317994e+00
  1.9002832e+00
 -1.1176658e+00
 -7.0702714e-01
  2.0452316e+00
 -1.0499074e+00
 -3.7446558e-01
  2.2308719e+00
 -1.4460130e+00
  1.8633889e-02
 -2.2379445e-01
 -7.5093251e-01
 -1.0638690e+00
  2.0962048e-01
 -6.5420264e-01
  4.7312865e-01
 -6.6886306e-01
  3.8382966e-02
  5.3170252e-01
 -1.2338301e+00
 -1.5067302e+00
  4.4929078e-01
 -9.2664462e-01
  9.4038177e-01
 -9.5078655e-02
  2.2819890e-02
 -1.3002986e+00
 -1.5179856e-03
  6.3364166e-01
  1.0339028e-01
 -9.3978298e-01
 -1.3425822e+00
  6.3466161e-01
  6.9549255e-02
  1.8943149e-01
 -5.1678628e-01
  3.6953676e-01
 -1.9095328e-01
  5.0174456e-02
 -1.4594285e+00
  5.9049070e-01
 -1.1995004e+00
  1.9817416e-01
 -4.5011443e-01
 -1.4453489e+00
 -7.2748756e-01
  1.8720467e+00
  4.5766342e-01
  2.6305780e+00
 -1.1518416e+00
  1.1767228e+00
 -5.0553453e-01
 -1.0819732e+00
 -2.7246374e-01
 -3.8771778e-01
  8.3084273e-01
 -1.8865633e-01
  7.2077692e-02
 -7.9264820e-01
  1.0677400e-02
  1.2920693e+00
  3.8988638e-01
 -1.3485870e-02
  4.4840658e-01
 -1.4741451e+00
  7.3863536e-02
  1.9653994e+00
  1.9541488e+00
  9.9779743e-01
  1.4813821e+00
  1.2501265e-01
 -3.1879480e+00
 -9.1485924e-01
  1.0245150e+00
  1.4163195e-02
 -1.1900068e-01
  5.2038389e-01
 -1.8539761e-01
  9.0151089e-01
 -4.0703363e+00
  3.8573682e-01
 -6.7853940e-01
  1.0577101e-01
 -9.1814351e-01
  2.8510809e+00
  9.0866631e-01
  3.7685308e+00
 -1.7913090e+00
  4.3057621e-01
 -8.2999837e-01
  1.4154608e+00
 -1.6108460e+00
  1.3756590e+00
  1.1889248e+00
 -1.5867147e+00
  1.6044863e+00
  9.3192764e-02
  2.7297497e-01
  6.7169821e-01
  1.4815211e+00
 -9.3974382e-01
 -7.5265847e-02
 -2.0398252e-01
  8.7733045e-02
  2.7096777e+00
  2.0189676e+00
 -7.2510195e-01
  6.0548985e-01
  9.0452397e-01
 -2.8174093e+00
 -1.1707517e-01
  1.9664915e+00
 -1.5588393e+00
  9.4382727e-01
 -2.1200703e-01
  1.6600056e+00
 -9.2012846e-01
  7.4221128e-01
  1.2557675e-01
  6.7054170e-01
  5.0407195e-01
 -4.1874591e-01
 -6.0235500e-01
  5.7928056e-01
 -3.8179177e-01
  8.1003815e-01
 -1.1931051e+00
 -4.4559896e-01
 -4.2870026e-02
  1.1320440e-01
 -9.3017107e-01
  4.9846253e-01
 -5.7374942e-01
  1.8731311e-01
 -2.1050174e+00
  2.9686320e-01
 -2.0738635e+00
 -9.6896696e-01
 -2.6901373e-01
 -3.4877803e+00
 -9.9466890e-01
 -1.9672469e+00
  5.0067419e-01
  1.2914968e+00
 -2.2802787e+00
 -3.2661953e+00
  1.7105184e-01
  2.5032058e+00
 -3.5105500e+00
 -7.6142991e-01
 -9.0662849e-01
  6.8518806e-01
 -1.4675413e+00
 -1.1018915e+00
  1.1358479e+00
 -4.0125000e-01
  3.2632020e+00
 -1.7609220e+00
  1.3246628e-02
  1.2106656e+00
 -2.4782612e+00
  3.0430433e-01
 -5.4350525e-01
  2.1105252e-01
 -3.4285912e-01
 -2.5353334e+00
  4.3862844e-01
  1.2992715e+00
 -1.1688549e-01
  8.2808459e-01
  1.3416624e+00
  1.7289032e+00
  6.1977905e-01
 -1.4610270e+00
 -1.1795012e+00
  5.6592298e-01
  3.4418736e+00
  8.9310527e-02
 -3.2621367e+00
  1.6306272e-01
 -1.3633388e-01
  1.9333454e+00
  1.6661199e+00
 -1.7166882e+00
 -1.9716974e+00
  1.7940503e-01
  6.9267952e-01
  4.1313985e-01
 -7.9550654e-01
 -6.2406683e-01
  2.1685774e+00
 -5.8699512e-01
  2.6055276e+00
  3.4347489e-03
  3.8221064e-01
  2.6135033e-01
  1.3234606e-01
  3.7845924e-01
 -2.0808043e-01
  9.5213681e-01
 -1.4950988e+00
 -2.6066816e-01
  1.7165154e+00
 -1.8312895e-01
 -2.7560780e+00
  5.2985203e-01
  7.0708507e-01
 -5.1915663e-01
  3.4360714e+00
  7.6084936e-01
 -3.2728727e+00
 -4.7238845e-02
  2.1798556e+00
  1.9908494e+00
 -1.0279583e+00
 -1.7310078e+00
 -9.8095644e-01
 -1.5538950e+00
 -1.8134940e+00
  1.9842215e+00
 -1.1195081e+00
 -2.9641616e-01
  2.7774813e+00
 -3.2315764e-01
 -2.7450898e-01
  1.8467593e+00
 -4.9655395e+00
 -2.6583543e+00
 -4.6545684e-01
 -1.1097814e+00
 -7.6867098e-01
  6.5479034e-01
  9.8979807e-01
 -1.1387616e+00
  2.2498102e-01
 -3.3814282e+00
 -7.1184164e-01
 -9.9011457e-01
 -8.5163480e-01
  1.2540287e+00
 -7.0859897e-01
 -1.0871439e-01
 -5.6662554e-01
 -9.5987290e-01
  3.1472900e+00
  1.3692458e+00
  1.8176551e+00
  6.0201075e-02
 -2.2641385e+00
  1.1900930e+00
 -2.0267744e+00
 -2.1807553e-01
 -3.7095327e+00
 -3.0940983e+00
  3.1080675e+00
 -1.5174225e-01
  8.2186955e-01
 -2.4114287e-01
  1.2979609e+00
  7.5145513e-01
  4.2512783e-01
  1.4499309e+00
 -1.5735376e+00
 -1.2871433e+00
 -1.8806548e+00
  1.8117375e+00
  1.3227909e+00
 -7.8954381e-01
  3.6973205e-01
 -9.5831275e-01
  6.8174177e-01
  9.2520863e-01
 -3.8087759e+00
 -3.8090301e-01
 -4.1733387e-01
  1.5634145e+00
  1.2862244e+00
 -3.0476728e-01
 -5.0036585e-01
  1.0998259e+00
  3.1539878e-01
  1.7362638e+00
  3.6085054e-01
  2.0818953e-01
 -2.8193007e+00
 -5.2825356e+00
 -4.6807295e-01
 -1.5514936e+00
 -5.0684953e+00
 -3.8174915e-01
 -5.0417715e-01
  9.0311241e-01
 -2.1520207e+00
 -3.3486738e+00
  1.3360542e-01
 -6.5567875e-01
 -4.8976222e-01
 -1.4458643e+00
  1.6781119e+00
  2.3061915e-01
  1.5928274e-02
  2.7568144e-01
 -1.9992141e+00
 -1.1173360e+00
 -1.7056081e+00
  1.3216977e+00
 -2.7684090e+00
 -8.1859726e-01
 -2.2415073e+00
  5.5353481e-01
 -7.8378892e-01
  1.1486439e-01
  9.3422490e-01
 -4.5248559e-01
 -2.4119925e+00
  8.2112081e-02
 -2.0602903e-01
 -1.9830920e-01
 -1.8576664e+00
  5.6504804e-01
 -4.1359600e-01
 -3.1455216e+00
 -5.8002228e-01
  2.0120833e+00
  3.2738612e+00
  3.4509271e-01
 -5.3882468e-01
  8.4091419e-01
 -1.2728726e+00
 -1.3298255e-01
 -1.0656101e+00
 -2.1204779e+00
 -2.7812150e+00
  5.4210311e-01
  3.2459242e+00
 -1.2747872e+00
 -6.1019742e-01
 -3.0235490e-01
  4.4613445e-01
  4.5783946e-01
  1.0632703e+00
  8.2936600e-02
 -6.8094265e-01
 -4.7885770e-01
  6.9673175e-01
 -2.7462032e-01
 -2.5880620e-01
 -1.4131700e+00
 -1.2750241e+00
  2.9425135e-01
  2.3987573e-01
  2.3987573e-01
  2.3987573e-01
  2.3987573e-01
  2.3987573e-01
  2.7517227e-02
  2.7517227e-02
  2.7517227e-02
  2.7517227e-02
  2.7517227e-02
  3.7265792e-02
  3.7265792e-02
  3.7265792e-02
  3.7265792e-02
  3.7265792e-02
  1.0258595e-02
  1.0258595e-02
  1.0258595e-02
  1.0258595e-02
  1.0258595e-02
  1.7763009e-02
  1.7763009e-02
  1.7763009e-02
  1.7763009e-02
  1.7763009e-02
  2.7190140e-02
  2.7190140e-02
  2.7190140e-02
  2.7190140e-02
  2.7190140e-02
