nep4 2 C H 
cutoff 8 4 7 7
n_max 4 4
basis_size 8 8
l_max 4 2 0
ANN 30 0
 -9.8003894e-03
 -7.2141849e-03
 -5.8365619e-01
  1.2362368e-01
 -8.0275133e-02
  4.1034231e-03
 -2.0551018e-03
 -3.4217655e-03
 -1.0328804e-02
  5.0464747e-03
 -1.8373172e+00
  7.2625908e-04
  4.6332541e-04
  1.5446364e-02
 -8.1275381e-02
  5.0791883e-04
  9.9933369e-04
  9.6750502e-03
  1.1392576e-03
  3.9383566e-01
  2.5362521e-01
 -4.5851484e-02
 -6.2701078e-03
 -1.1193511e-01
 -4.7102178e-04
 -4.4680666e-04
  5.8832904e-04
 -1.5642706e-02
  5.7787746e-03
 -6.7459922e-03
 -1.3746529e-02
  9.0809040e-02
  1.2541509e-02
 -1.3460997e-01
  8.7676616e-04
 -1.0477611e-02
  2.1899869e-03
  4.9970797e-03
 -2.5962065e-03
  5.9269156e-02
 -2.8935610e-05
 -1.6798982e-02
  7.8311739e-03
  2.5432399e-03
  1.0298885e-03
  8.1202513e-01
 -1.1048865e-02
 -8.9780912e-03
  9.5214378e-03
 -2.1819221e-03
  2.4694412e-03
  1.4596940e-02
  7.7782245e-03
 -1.0553030e-02
  1.1045101e-01
  3.3486933e-03
 -3.8277339e-03
 -1.8627778e-02
 -6.0516596e-04
  1.3246708e-02
  7.6805450e-02
  1.1736919e-02
  1.9264326e-04
 -4.8457249e-03
 -1.1451889e-02
 -7.9112509e-03
 -3.1119855e-03
  1.5979310e-02
  2.9905041e-04
 -1.9759640e-02
 -5.5665500e-04
  4.2883107e-03
 -2.7680543e-04
  1.4652584e-02
 -2.6950731e-03
 -9.9029206e-03
 -4.4184620e-04
  9.0753324e-03
  4.4824388e-03
  2.8341566e-03
  4.4323290e-03
  1.1945456e-02
 -1.5228994e-01
  1.7117443e-02
  6.2546693e-03
 -1.6215313e-02
 -1.5235357e-02
 -3.2574893e-03
  1.4015567e-02
 -6.3898093e-03
 -2.4186373e-01
 -1.2173734e+00
  2.7062979e-01
  9.8719960e-01
 -1.7575181e-01
  3.9172126e-05
 -1.4127959e-02
 -9.1460161e-03
 -3.2188258e-01
  4.6084642e-02
  1.4527130e-02
  4.9774244e-02
 -3.6287561e-02
 -4.4117053e-03
 -1.9195174e-01
  2.5565070e-01
 -5.2882824e-05
  2.2014569e-02
 -6.1733818e-01
 -8.6169578e-02
 -1.3286462e-01
 -4.0687681e-03
  1.3234551e-02
 -2.3395238e-02
 -3.5221927e-02
 -2.5576005e-02
  1.0375734e-02
 -1.8112600e-02
 -1.0994690e-02
 -4.4324775e-03
  8.5309111e-02
 -3.4672368e-01
  1.7445320e-01
  5.9728935e-02
  2.4655671e-01
  1.7342329e-02
  9.0275826e-03
 -5.4410887e-03
 -1.4910826e-02
 -5.7089284e-02
  3.5972837e-02
 -5.2435389e-03
  1.3665064e-03
  1.5091787e-01
  3.2235358e-02
 -1.7521808e-02
  3.3899588e-03
  9.0152677e-04
 -8.5804588e-01
 -1.4110866e-01
  5.3861747e-03
 -1.3342828e-02
  9.7362753e-03
 -7.9544829e-03
 -3.0870658e-01
  1.4681377e-02
  8.4150955e-03
  1.1509405e-02
 -1.0453026e-02
  2.0969853e-02
 -4.4495299e-01
 -2.0748955e-01
  2.4694338e-01
  2.5193849e-01
 -2.3662102e-01
 -6.7137831e-01
 -1.9569311e-03
 -3.1080944e-03
  1.4395064e-01
  1.7815708e-01
  2.1475166e-01
  3.1679180e-01
  4.4827450e-02
  1.5228999e-01
  8.2765841e-01
  1.0924992e-02
 -4.0405166e-01
  6.0456810e-03
  5.0863308e-01
  5.3107244e-01
  1.3637019e-02
  1.2206942e+00
 -5.2484143e-01
  3.0255610e-01
 -3.5648406e-01
  1.6396912e-02
 -3.5026308e-02
 -1.4238050e-02
  2.8817043e-01
 -2.5365657e-01
 -2.5646398e-02
  3.5096684e-03
  4.0094633e-02
 -1.3030398e-02
  1.2035566e-02
  3.4825993e-05
  4.9794903e-03
 -4.7124084e-04
 -1.6494364e-02
  1.1068808e-02
 -1.7676335e-02
 -9.7944792e-03
  1.7303875e-02
 -2.7796970e-04
  1.6687645e-02
  9.8900329e-03
  9.0528606e-04
 -3.1414488e-03
 -7.7211512e-03
 -1.6169652e-02
 -1.3058022e+00
  2.5595823e-01
 -1.2569258e-02
  4.0462613e-03
 -6.3654245e-03
 -1.2339409e-02
 -3.6715921e-03
 -3.6414689e-04
  1.9240426e-03
  2.6911227e-02
 -2.4038097e-01
  4.1820282e-01
 -4.0955273e-03
  6.8964016e-01
  1.0110168e-01
 -3.7853234e-04
  1.9527404e-03
 -1.0113957e-02
  5.0011883e-03
  5.4995721e-04
 -1.0768424e-01
 -1.3078433e-02
  8.5621879e-02
 -5.5859755e-03
  6.4789001e-03
 -2.2521008e-02
  5.0848010e-03
  2.9660618e-02
  2.0257659e-01
  1.5898040e-03
 -1.1499494e-01
 -9.9793524e-03
 -4.5019225e-04
  1.7068028e-03
  2.1304743e-01
  1.3125292e-03
 -9.4818007e-03
  1.3612051e-02
 -7.9880818e-04
  2.5107335e-02
  1.7757898e-02
 -2.0979963e-02
  2.5445670e-01
 -9.0184936e-04
  2.7832114e-03
 -3.0077932e-02
  4.4164259e-02
  3.3157279e-03
  2.7807425e-03
  1.9708853e-03
 -3.2605382e-04
  9.8397927e-03
  2.7941247e-03
 -8.3882408e-04
 -4.3935888e-02
 -4.6148757e-03
 -7.5997147e-03
  1.4986931e-02
  4.9852952e-02
  4.7200676e-03
  1.5154485e-02
  6.8206186e-03
 -1.4674518e-03
  1.9558482e-03
 -1.8846754e-02
  1.7890889e-02
 -4.2970115e-03
 -1.8228502e-03
  4.3501523e-03
  4.7058333e-05
 -1.1486422e+00
  5.0925344e-02
  2.0175353e-02
 -1.0642828e-04
 -2.6294304e-02
 -1.7083205e-02
  1.7632078e-02
 -4.5365929e-03
  1.8016240e-03
  1.5469863e-02
  9.9980878e-03
  8.7467842e-03
 -5.3204177e-04
  1.1570702e-02
  6.3665770e-03
  9.9650696e-03
  1.2130418e-04
  9.4600152e-03
 -7.9105212e-04
 -2.3741296e-02
 -1.7929165e-02
  9.1207298e-03
  7.3397839e-03
 -2.4348078e-03
 -3.5614446e-03
 -5.5099856e-03
 -2.2814040e-01
  1.3135030e-02
 -2.1588461e-02
  6.0496000e-03
  4.2628173e-02
 -4.8083302e-01
  5.7143912e-02
 -8.7512061e-02
  8.4230766e-02
  1.5213590e-02
 -6.7736865e-03
 -4.0443253e-02
 -8.0011766e-03
 -9.7541166e-03
  9.8549835e-03
 -5.0245887e-03
 -2.9352861e-02
 -1.0443216e-02
  4.6199720e-02
 -2.7319044e-03
 -3.6803499e-02
  6.0684560e-03
  1.5260344e-03
  7.8718709e-03
  5.2295825e-03
 -2.1445774e-03
 -3.3278197e-02
 -1.6865149e-02
 -2.0894065e-01
 -2.1590522e-02
 -5.2268216e-03
 -1.0183564e-02
 -1.7036397e-02
 -2.6998235e-02
  6.4453703e-01
  1.9311546e-01
  4.5718007e-02
 -3.5062885e-01
 -4.1458985e-05
  1.3608475e-01
 -3.9694935e-01
  2.6475614e-01
 -5.2273858e-01
 -1.1115321e+00
  1.7919502e+00
  1.6559622e-01
  6.4701200e-01
 -2.2823901e-01
  2.8696103e-02
  4.1461059e-01
  1.6727485e-01
 -4.1830644e-01
 -2.6320174e-01
  3.3515710e-02
  4.7835570e-02
 -1.0614363e+00
  1.3976009e+00
 -6.7050678e-01
 -4.5757699e-01
  2.1625915e-01
 -1.4643120e-03
 -3.4286953e-03
  8.0555817e-03
 -3.0218300e-01
 -1.5078315e-01
  2.3501267e+00
 -2.0504265e+00
  3.1039579e+00
  6.8980068e-01
 -4.3398803e-01
  5.2905157e-03
  3.7625516e-03
 -7.1812486e-03
  2.4758288e-01
  3.3334465e+00
 -8.6170156e-03
  1.9907447e-02
  3.5023507e-02
 -1.0546268e-01
 -4.9102563e-01
  3.4485023e-02
 -1.6410096e-02
  3.2930163e-01
  4.9719024e+00
  1.5669640e-02
  1.9909056e-01
 -3.0671310e-01
  3.4675694e+00
 -1.0451970e+00
 -6.7689875e-03
  4.3517463e-02
  1.0429636e-02
  1.7045841e-02
 -3.1192264e-01
  3.7783843e-02
 -3.4493990e-02
  3.1346887e-02
 -9.4559804e-02
  1.2974747e-01
  9.2916936e-03
  2.0126414e-02
 -5.3107427e-03
  2.4245971e-01
  1.0542032e+00
 -6.6437393e-02
  9.7434381e-03
 -1.0390098e-01
  1.8102127e-01
 -1.2017153e-02
  3.5528649e-02
 -1.8600391e-01
  2.9044747e-03
 -2.9670033e-01
  6.6968262e-02
  3.6008265e-03
  2.8233004e-01
 -2.6838699e-01
  3.0314919e-01
  5.6504476e-01
  1.2829248e-04
 -2.6163657e-03
 -1.3834371e-03
  7.0387498e-05
 -2.6762897e-01
 -2.0140150e-01
  1.1858676e-01
  3.3352333e-01
  1.0729575e-02
 -2.6842716e-01
  2.1071467e-01
  4.8324162e-01
 -6.6602707e-02
  1.2768398e-02
  1.3680208e+00
 -5.7938927e-01
 -3.7871806e-03
 -1.2851326e-01
 -6.8584353e-01
 -2.3865029e-01
  7.2539002e-01
 -2.2748569e-02
  4.8893742e-02
 -4.1491738e-01
  3.1449300e-01
  2.3128815e-01
 -2.3916082e-01
  1.9922411e-01
 -1.4338807e+00
  2.9186946e-01
  2.1859616e-02
  1.1941284e-02
  3.4501515e-03
 -9.7921686e-03
 -3.2495728e-01
 -4.6946958e-02
  1.0217032e-01
 -4.8159808e-03
 -2.9084522e-02
 -6.8714232e-03
 -4.7925678e-03
  2.2278118e-03
 -1.0341012e-03
  4.2899880e-03
  1.7043141e-01
 -1.2713658e-02
 -2.6213758e-02
 -9.4548613e-03
 -5.6905246e-01
 -7.8749634e-02
  5.2013253e-03
 -4.8026838e-03
 -6.0726157e-03
 -5.1887222e-03
 -6.5176964e-02
 -1.8292771e-01
  7.8309990e-02
 -3.0385979e-02
 -8.0508262e-02
  1.2217353e-01
  1.1818344e-04
  9.9045811e-03
  2.5277125e-02
  3.1187957e-02
 -2.7837313e-03
  3.6992587e-02
  9.0470776e-02
  3.5594780e-02
  1.4131729e-01
  2.9691792e-01
  6.0882079e-03
  8.0904039e-03
  1.9287463e-02
 -5.3008789e-01
  1.6250405e-01
 -1.1935956e-03
 -4.0880695e-02
 -5.8638237e-02
 -8.0667341e-01
 -7.2962952e-01
  3.2677002e-02
 -2.4987807e-02
 -1.8983990e-01
 -5.6245658e-03
  3.4409884e-01
 -6.9994545e-03
 -6.8160933e-03
 -1.0810939e-03
 -3.1522819e-01
  5.1803923e-01
  6.2309960e-03
  2.8183296e-01
 -3.2507502e-03
  3.5473583e-03
  6.9652265e-03
  1.6879103e-01
 -6.0253626e-01
 -6.6996790e-02
 -5.3415072e-01
  2.7210686e-02
  4.3761982e-03
 -4.4205762e-03
  5.3983661e-03
 -1.8837681e-02
  5.4294232e-02
  2.5052980e-03
  7.0261965e-03
 -7.9120118e-03
  2.6358101e-03
 -3.8579263e-02
  7.7477783e-02
  9.6911630e-03
 -1.3413119e-02
 -7.6057394e-03
 -1.5387970e-01
  6.2056236e-02
  4.5625884e-03
  3.5730131e-02
  3.9345294e-02
 -1.3983952e-01
 -9.1347201e-03
  1.3664769e-02
 -3.6992314e-03
 -7.9340730e-03
  1.1533039e-02
 -5.3684875e-02
  6.7395526e-01
 -9.8135346e-04
 -4.2646044e-01
 -1.9849713e-01
 -3.7401539e-01
 -2.3412917e-02
 -7.9402328e-03
 -6.9449559e-02
  3.0065358e+00
  1.5996961e-01
  6.4270335e-01
 -8.7770596e-02
  1.0343587e+00
 -4.0477088e-01
 -4.6815363e-01
 -3.2235375e-01
  8.7024468e-01
 -3.8654855e-01
  4.1913852e-02
 -1.6921372e+00
  6.4899814e-01
 -1.8486267e-02
  1.2337734e+00
 -1.1508913e+00
 -3.8772240e-02
  1.7571001e-03
  6.0002338e-03
  5.4878891e-01
 -5.0379211e-01
  2.3673345e-01
 -2.1070021e-01
 -2.0575698e-02
 -8.1624508e-01
  4.0383178e-01
 -9.5775038e-01
 -2.8056324e-01
  9.0110785e-01
  9.4774270e-01
  1.3386699e+00
 -4.3483764e-01
  4.2726240e+00
  3.1892097e+00
 -1.6327067e-01
 -8.4916365e-01
  1.2487401e+00
 -1.1275851e+00
  2.8160431e+00
  3.2895601e+00
 -1.5975878e+00
  1.1153568e+00
  8.8993657e-01
 -9.9372607e-01
 -1.4901896e-01
  4.3042862e-01
  1.4397411e+00
  3.8446335e-03
 -3.3532074e-03
  1.1827988e-01
  2.3088889e+00
 -3.5289640e-03
  1.0554806e-01
 -9.8425239e-02
 -1.1535919e-01
 -5.3616734e-03
  1.2324073e-03
 -2.8553111e-03
  2.9981742e-04
  2.5169229e-02
  2.7830261e-01
 -7.8154439e-03
  1.2071212e-02
 -3.5874426e-02
 -7.6743133e-02
 -1.3129059e-03
  2.1448909e-01
 -9.2997335e-02
 -3.6796473e-03
 -1.6320704e-03
  3.1027928e-01
  6.6711791e-02
  4.6171326e-02
 -2.4491627e-02
  1.1978703e-01
  1.3763391e-03
 -2.0361345e-02
  2.4171886e-03
 -1.6017446e-02
 -1.4411807e-02
 -3.0164226e-04
  4.0288322e-02
  8.2046300e-02
  9.8322235e-02
  4.5289022e-01
 -3.0165720e-01
 -2.5672691e+00
  4.7130205e-02
  1.4935794e+00
 -5.4893094e-01
 -2.2287306e-01
  4.5542613e-01
  5.9586391e-02
  6.4393818e-01
  5.9161073e-01
 -1.5956797e-01
  7.6027310e-01
  7.2630912e-02
  1.2558310e-01
  1.1052716e-01
 -2.0514297e+00
  1.3912108e+00
 -1.2938914e+00
  4.7098342e-01
  1.0588967e+00
 -4.9958929e-01
 -1.2252485e+00
 -3.8431868e-01
  2.4768603e+00
 -2.3927367e-01
 -2.5603929e-01
 -2.5677821e-01
  1.8856883e+00
 -1.5520929e+00
  2.8659466e-01
 -4.0162930e-01
 -8.1840330e-01
  2.1693081e-01
  3.4558043e-01
  1.3024842e+00
 -1.0127857e+00
 -3.5936257e-01
 -1.7630674e-01
  2.3238307e-01
  3.4946930e-01
  4.3439311e-01
  6.6771722e-01
 -1.0344468e+00
  7.6018781e-03
  2.0292768e+00
  2.8965634e-01
 -9.1587037e-01
 -1.3920256e+00
 -1.5050980e-02
 -1.2391510e+00
  9.3546353e-02
  1.1847146e-03
 -5.9681684e-03
  1.8029330e-02
 -5.3895259e-01
  2.5102353e+00
  2.0933818e-02
 -2.1207003e-02
 -1.2226611e-02
 -7.7058174e-02
  3.7303139e-02
  1.1049730e-03
  9.4488654e-03
 -1.0993435e-03
 -1.0771384e-03
 -6.1591081e-02
 -1.8143518e-02
 -2.4296995e-04
  2.9255142e-03
  3.2199880e-01
  1.8585324e-02
 -5.2418958e-02
  1.1674844e-02
  5.4524695e-03
  5.8637084e-03
  1.7804727e-01
 -8.3810501e-03
  4.8205843e-03
  2.9422054e-03
  4.7160190e-02
 -4.9577095e-02
  1.1670870e-02
 -7.4131829e-03
 -2.7826058e-02
 -1.5945559e-02
  5.4788075e-02
 -3.2351103e-01
 -3.4104109e-01
  1.5320681e-01
  1.2109119e-02
 -3.5577239e-03
  2.1596216e-03
 -1.3203034e-04
 -2.3207631e-02
 -1.8486127e-02
  6.0698111e-03
  4.3901621e-04
 -8.1101321e-02
 -1.2217161e-02
 -7.8533497e-03
  4.1875234e-03
 -8.1888987e-03
  5.2408846e-03
  2.5124487e-03
 -1.0764432e-02
 -7.1874663e-02
 -6.5281759e-03
  2.7526228e-02
  3.8637577e-03
 -4.3967250e-04
  5.3719706e-03
  1.0872730e-02
  6.1835661e-03
  2.1612923e+00
 -3.0268352e-03
 -2.4308804e-02
  5.4588951e-02
 -1.6648713e-02
  1.4414177e-02
 -3.7668517e-03
 -5.9779929e-03
  5.3760153e-03
 -7.0692934e-03
  5.1450524e-03
 -2.6121888e-02
  1.4139565e-02
 -8.0798194e-03
 -2.4636956e-02
 -1.2113941e-02
 -9.5375404e-03
 -1.4845380e-01
  1.0814606e-03
 -7.5851753e-04
 -2.8307622e-02
  3.9174687e-04
  1.0918716e-01
 -5.5588316e-04
 -6.0824826e-03
  2.8872915e-02
  3.3045705e-02
 -2.7112719e-01
 -1.0106385e-02
 -1.5660714e-02
  6.9283997e-03
  2.2973584e-03
  3.8858275e-03
  3.9680223e-03
 -4.9769678e-03
 -2.3383634e-02
 -3.2161421e-03
 -1.2694279e-02
  8.3800387e-03
 -7.8438092e-03
 -1.3507440e-02
 -2.7043212e-02
 -4.4089514e-03
 -1.1272340e-02
  2.5166707e-02
 -5.5551704e-04
 -1.1679770e-02
  5.1817303e-03
 -4.2261602e-03
  6.2508811e-04
 -3.0614525e-02
 -2.4655759e-03
  1.6503315e-02
 -5.2703619e-03
  7.3264414e-03
 -8.5944636e-04
  2.2382230e-02
 -1.8868763e-02
 -7.4255065e-04
 -8.1402725e-03
 -1.2121689e-02
 -1.8403251e-02
  5.0961440e-03
 -2.1890174e-01
 -4.0838492e-01
  4.8323363e-01
 -7.0961975e-02
 -2.9722154e-01
  5.6584936e-02
 -1.8395321e-04
  1.3408727e-02
  4.8461437e-02
  9.9844325e-01
 -2.1693373e-01
  6.8418263e-03
 -2.7301860e-01
 -1.3321781e+00
 -4.7582275e-01
  2.2684385e-01
  3.3425719e-01
  1.7885845e-02
 -3.6370698e-02
  5.1041210e-01
 -3.5722786e-01
 -4.7949694e-02
  1.7300852e-02
 -6.1802721e-01
  3.4383699e-01
 -7.4541089e-03
 -1.0946239e-03
 -2.0600550e-02
 -1.1428200e-02
  2.4515795e-04
  1.6809637e-02
  2.6449240e-03
 -8.9576636e-03
 -2.2392310e-02
 -1.3039663e-02
  4.6891822e-03
  7.8185294e-03
  1.0802511e-02
 -1.6011512e-02
 -4.7698575e-03
  1.8085575e-02
  1.2797666e-01
 -2.8515137e-03
 -5.4155067e-03
 -5.6897337e-03
  5.3521302e-03
 -2.1671068e-02
  6.9702039e-03
  4.3963878e-03
 -4.5175096e-03
  1.7146189e-02
  1.0380759e-02
  1.5481063e-03
  5.9865182e-05
 -2.6153462e-02
  8.3797229e-03
  9.1539044e-03
 -3.7575979e-04
 -2.9793556e-04
 -5.5408846e-03
 -1.6928902e+00
 -2.0270109e+00
 -4.2610061e-01
  5.4648817e-01
  2.1720014e+00
  1.7758656e-02
  1.9619182e-02
 -1.4515915e-02
  4.2997878e-02
  6.7472315e-01
 -2.3594537e+00
  1.8657511e-02
 -3.3609336e-03
  7.6861632e-01
 -2.4970263e-01
 -1.8840958e+00
  3.3744338e-01
  1.3925681e-01
 -3.1137080e-03
  6.9679022e-01
 -4.5275792e-01
  1.3588214e+00
  1.1572575e-02
  6.7111927e-01
  6.7095900e-01
 -8.2503129e-03
 -2.8039310e-02
  4.3780040e-03
  1.1097079e-02
 -2.3163013e-02
 -6.8217672e-02
  3.7908300e-03
  1.0758063e+00
  5.8332902e-01
 -6.1604464e-03
 -5.7621497e-01
 -2.0387647e+00
 -1.6702415e-02
 -7.5533879e-03
  1.5781526e-03
  1.6732937e-02
 -1.1049632e-01
 -2.0510447e-01
 -8.2104526e-02
 -1.0058348e+00
 -3.4171411e-01
  3.3698969e-02
 -1.1738877e-01
 -4.7447491e-01
  3.6152557e-01
 -7.1557850e-01
 -7.8078330e-01
 -1.5916408e+00
  2.8028609e-02
 -2.6469287e-02
 -5.0854273e-03
 -4.1263346e-03
 -9.6473739e-02
 -4.5285001e-03
 -9.4844365e-01
 -4.0634254e-01
  3.1188419e-02
  4.3476652e-03
  8.1210770e-02
 -4.5088194e-02
  3.8766536e-01
  2.8301477e-02
 -2.7116477e-01
  2.1418199e-02
  2.4326916e-03
 -4.2868800e-02
  1.6479034e+00
 -1.2987126e+00
  1.0037346e-01
  2.2792898e-01
  7.5979598e-02
  4.6525050e-02
  5.1873934e-01
  1.4927810e+00
  6.4265192e-01
  1.7995276e-01
  1.7543091e+00
  1.2397901e+00
 -5.5463538e-02
  2.4155509e-02
 -2.4324454e-02
 -1.0994676e-02
  1.3505131e-01
 -7.4580293e-03
 -1.9844067e+00
  2.7658057e-01
  6.5618612e-02
  6.2125182e-04
  9.7038709e-02
 -6.9821849e-02
  7.7532604e-03
 -2.3387386e-01
  1.7933965e-01
  1.6724724e-02
  3.3704821e-02
 -4.6629450e-01
  1.5705226e-02
  1.1571487e-02
 -2.4311231e-01
 -6.0728542e-03
  2.1343495e-01
 -5.7037270e-01
 -2.8747718e-03
 -2.0754217e-01
 -5.7996204e-04
 -3.5299009e-01
  1.1054664e+00
 -7.9407454e-02
 -6.0855146e-02
  3.8205236e-01
 -6.0479897e-01
 -2.3562929e-02
 -2.9192138e-03
 -2.0722540e-02
  6.9610260e-02
  1.5184256e+00
  2.0711322e-01
 -1.4185305e-01
  7.2313608e-03
  3.7211210e-01
  1.0771216e+00
  5.5562103e-01
 -3.8562122e-01
  4.5271296e-02
  3.9415905e-01
  5.4713643e-01
  3.2826191e-01
 -1.0108384e-01
 -1.3180211e+00
 -5.2639014e-01
 -1.1164592e-01
  2.6142970e-01
 -6.7024225e-01
 -1.8825427e-01
 -5.0639355e-01
 -1.0045196e+00
 -3.9686214e-02
 -1.8903200e-01
 -4.8709860e+00
  8.9882982e-01
 -5.6501329e-01
  7.5637907e-02
 -5.5628824e-01
 -4.5553915e-02
 -4.7733539e-01
  1.1419828e+00
  1.6956244e-01
  1.2123729e-01
  4.2100751e-01
  5.7065248e-01
  5.2769411e-01
 -2.6491165e-01
 -1.8370531e-01
  8.5037804e-01
  1.6582558e-01
  3.4807867e-01
 -5.3580701e-03
 -7.2883558e-01
  8.8724208e-01
 -9.0453869e-01
  4.0451504e-02
  2.4976874e-02
  4.2473104e-02
  1.9598944e-02
  8.6380849e-03
 -6.2130910e-01
  2.9114008e-01
  7.5048769e-01
 -6.7822235e-03
  2.7318199e+00
  4.9177241e-03
 -1.0218155e-02
  2.9253988e-03
  3.7080142e-01
 -4.2550933e-01
 -7.5897440e-02
 -5.6358528e-01
  1.8841197e-01
  4.5646271e-01
  9.6272051e-01
  7.7442288e-01
  1.0078959e-02
 -5.8668252e-02
 -6.1147642e-01
  1.8177807e+00
 -1.1298451e+00
 -1.2261964e+00
  1.7389894e+00
  1.7542800e-01
  9.8046251e-02
  3.2638291e-01
 -2.4412392e-01
  1.4196060e-02
 -8.4166857e-04
  2.2094220e-02
 -9.2032933e-01
  3.9085996e-01
 -1.4057561e+00
  3.1532660e+00
  1.8634957e+00
 -1.2303678e-03
  4.4339064e-01
  4.0549251e-01
  3.8028803e+00
 -4.2963109e+00
 -9.9361503e-01
  7.2649056e-01
 -2.8966764e-01
 -1.1504365e-01
 -1.5190059e-01
 -5.0495900e-03
 -1.0832205e-01
  8.6103630e-01
  1.3132147e-01
  1.7516683e-01
 -1.0516974e+00
 -5.2747244e-01
  5.1244402e-01
  3.7677374e-01
  2.6954165e-01
 -6.6872466e-01
  5.4356015e-01
  1.3425122e-01
  2.0450839e-01
  1.4010957e-01
 -8.2299882e-01
 -2.2009084e+00
 -1.0508819e+00
 -4.0960425e-01
 -7.1681041e-01
  4.2173581e-04
  9.2933398e-01
  3.9534798e-01
 -2.1862569e+00
  9.2906111e-01
 -2.2750410e-01
  3.5868755e-01
  6.0441744e-01
 -8.1143044e-02
  4.4613892e-01
  1.3822283e-01
 -3.1441515e-03
  5.9850717e-01
  1.2638417e-01
 -8.0822825e-01
  1.5339598e-01
 -1.6329209e+00
 -3.7398957e-02
  2.9663312e-01
  1.6154009e-01
  5.9926938e-02
  1.6522069e-02
  1.3610968e-02
  1.6904606e-01
  6.0747731e-01
  6.9475487e-02
  3.2021359e-01
  6.5567118e-01
 -1.5372919e-02
  2.7547640e-01
 -5.0135721e-02
 -1.5809733e-02
  4.3384778e-01
  1.5954275e-01
 -1.2804388e+00
  3.9396156e-03
 -1.5785865e-03
  3.6000531e-02
  1.4523122e-02
  7.2945375e-03
 -2.2710869e-03
  1.1910542e+00
 -1.4280988e-02
 -2.7199939e-02
 -3.3929339e-04
  8.7795453e-04
  3.2510306e-04
 -2.6843848e-02
  1.9947352e-02
 -1.3384289e-01
 -2.2177817e-03
  3.4232900e-02
 -6.8135578e-03
  1.9691706e-02
 -6.0773790e-03
 -3.9494829e-03
  1.1298872e-02
  2.2804108e-03
  2.5082657e-03
  1.2968150e-02
  8.2658548e-03
  4.2030197e-03
 -6.7465482e-03
 -1.0643238e-02
  1.1282393e-03
  2.2011306e-02
  5.3330036e-03
  5.9772891e-01
  6.1116768e-03
 -1.4857287e-02
 -1.2577961e-02
 -1.4597047e-02
 -1.6206044e-03
 -4.2537763e-03
  4.2619845e-01
 -4.1546752e-03
  8.9043879e-04
  2.5875764e-03
  1.0954171e-02
  1.4623764e-03
 -1.5983344e-03
 -4.0249974e-02
  5.3964313e-03
 -3.3550818e-02
 -1.9366414e-03
  8.9634256e-04
  1.8009762e-03
  3.8953908e-03
  6.4824161e-04
 -9.4174426e-03
  2.4296211e-03
  2.8936297e-03
  5.3013111e-03
  3.4642315e-03
 -5.4200692e-04
 -6.5007848e-01
  2.8415638e-01
 -5.3027356e-01
  1.7267998e-01
 -6.6720492e-01
 -1.2653743e+00
 -3.2487069e-03
 -2.1612500e-01
  1.7824501e-01
  2.3707558e-01
 -7.7249497e-01
 -6.6286194e-01
 -4.9309412e-01
  2.5504407e-01
  6.4374852e-01
  2.0028315e-01
 -8.1686839e-02
  1.0863621e+00
  8.3173651e-01
  3.0627877e-01
 -5.0501561e-01
  9.1707104e-01
  4.4115046e-01
  6.1879367e-01
 -2.3734334e+00
 -7.4817173e-02
 -2.3074872e+00
  5.0663280e-01
  9.8553058e-03
  1.6904346e+00
  5.9070581e-01
  7.1343893e-01
 -2.2207828e-01
  5.5225372e-01
 -6.5507191e-01
 -5.0313091e-01
 -1.7328714e+00
  1.0414979e-02
  5.5391532e-01
  4.3545303e-01
  2.0860013e-02
  1.4459070e+00
  7.1926698e-02
  1.1551988e+00
 -1.3529929e+00
  1.0513419e+00
  2.1332133e+00
 -4.9043366e-01
 -1.4123759e+00
  1.0844005e+00
 -3.7279522e-01
  1.3521675e+00
  4.1531107e-01
 -2.1323203e-01
 -1.8122246e+00
  1.3092083e+00
 -6.6265512e-01
  2.2005093e-01
  1.1661229e+00
  1.3242510e-01
 -6.8883920e-01
  1.1524315e+00
  3.3528468e-01
  8.2053649e-01
  1.5809033e+00
 -1.0527586e+00
 -2.1977904e-01
 -2.4623026e-01
  1.6295575e+00
 -2.5204561e+00
  1.4598832e-01
  1.2937278e+00
 -4.2865369e-02
  1.5913944e+00
 -2.0401223e+00
  7.6570982e-01
  2.7828357e+00
 -1.0256560e+00
 -7.6626700e-01
  1.5633075e-01
 -1.2139388e+00
  2.5634897e+00
 -1.3223255e+00
 -9.6399581e-01
 -6.1745077e-01
 -1.5295726e+00
  4.7868133e-01
 -9.2349946e-01
 -1.8623029e-01
  1.2164615e+00
 -2.8790804e-02
  5.8756489e-01
  3.3910674e-01
 -1.6692086e+00
 -3.3746278e-01
  2.4163904e+00
  9.3317181e-01
 -1.9551897e+00
 -1.9166982e+00
  1.5835724e+00
 -2.2235012e+00
  1.6357062e+00
 -1.5708112e+00
 -1.5589558e-01
  1.6344522e+00
 -6.3356560e-01
  2.3459101e-01
 -7.2093628e-02
 -3.1343713e-01
 -8.2482040e-01
 -1.9701812e+00
 -2.4069777e+00
 -4.0474229e+00
  2.2951419e+00
 -1.2001730e+00
 -2.7533302e+00
 -2.9154595e-02
  2.3237207e+00
 -2.0798159e+00
  1.7765310e+00
 -2.1349958e-01
 -1.6736145e-01
 -8.6039680e-01
  7.0772266e-01
 -1.5495204e-02
  4.5154884e-01
 -1.9286127e-01
 -6.5243131e-01
  7.0903957e-01
 -6.2125504e-02
 -8.5349225e-02
 -4.1597866e-02
 -5.7062054e-01
  3.3218798e-01
  1.0202162e+00
 -1.1548063e-01
 -1.1757548e-02
 -9.6164036e-01
  1.9142304e-01
  3.6270726e-02
 -7.1250296e-01
  6.7648262e-01
 -6.1207300e-01
  5.4536575e-01
 -3.5925947e-02
 -1.6912524e-01
  5.8265322e-01
  1.0398000e-01
  1.1916140e-01
  9.0497755e-02
 -3.0793294e-01
  3.9403509e-02
 -7.7148922e-02
  4.7477746e-01
 -3.2392398e-01
 -5.5771261e-01
 -6.0733765e-02
 -7.4213535e-02
  3.2229161e-01
  1.3687609e-01
 -4.5006707e-01
  2.2141178e-01
 -8.5346878e-01
  3.9861840e-01
  5.1719546e-01
 -7.8455102e-01
  9.7521134e-02
 -2.7037554e+00
  7.1663028e-01
  7.3184961e-01
 -2.9605016e-01
  4.5313698e-01
  3.4923416e-01
  1.6621941e-01
 -6.0125458e-01
  2.4095517e-01
 -2.3491932e-01
 -2.6270688e-01
  5.7762218e-01
  5.8348614e-01
  3.8549140e-01
 -4.8804244e-01
  3.9564006e-02
  2.0324828e-01
  3.6936897e-01
  9.0487599e-01
  2.2834998e-01
 -5.9791118e-01
  6.8760270e-01
 -3.0590525e-01
  9.8209369e-01
  3.4653652e-01
 -5.3522801e-01
  1.3336311e-01
 -7.4460804e-02
  2.2796525e-01
  5.1400828e-01
  1.8662918e+00
  1.2014112e-02
  2.7775893e-01
  2.7065086e-01
  1.0004457e-01
  8.8395961e-02
  4.9106038e-01
  4.3925619e-01
  9.2220277e-01
 -3.3882591e-01
  5.8910424e-01
  5.5468297e-01
 -1.8066694e-01
  1.7558485e-01
 -3.0828617e-03
 -3.6460426e-01
 -4.1407339e-02
  8.5031390e-03
  1.0485814e-03
  7.9410663e-04
 -3.4771767e-04
  2.1249302e-02
  7.0257373e-03
  3.3827799e-03
  9.4698723e-03
  2.7897232e-03
  1.8066927e-03
  1.3336754e-02
  2.9774536e-03
 -6.1147027e-03
  1.9561671e-02
 -2.0829909e-03
 -1.3705892e-02
 -8.1035169e-04
  2.6925148e-03
  1.0621073e-03
  3.5359877e-01
  1.8020571e-03
 -4.7402900e-02
  2.5411409e-03
 -4.4308603e-04
 -4.7769132e-03
 -1.4915278e-02
  1.2444409e+00
 -1.7526534e+00
 -7.3574078e-01
  1.0849595e+00
 -1.1380254e+00
 -3.5750744e-01
  9.5392302e-02
 -8.6948499e-02
 -1.3070979e+00
  8.9065415e-01
 -2.0843525e+00
  2.6690814e-01
  2.0108435e+00
 -1.7726065e+00
 -7.4252748e-01
 -6.2970910e-04
  5.8916283e-01
 -1.4070341e-01
  8.8420585e-02
  2.2507710e+00
 -2.8418136e+00
  3.3715808e-01
  9.6913880e-01
  1.3498098e+00
  1.2528721e-02
  4.9926613e-02
  1.6001701e+00
 -1.6904112e+00
 -1.0954199e-01
 -1.9660281e+00
 -6.5565687e-01
  2.2803555e-01
 -1.0958154e-01
  1.0511020e+00
 -1.0582536e-01
  6.2799495e-01
  2.3792319e-01
  1.1419901e+00
  3.2875590e-02
  4.3403590e-03
 -7.9847699e-01
  1.7693342e-01
  1.3011125e-01
  9.2275751e-01
  8.8187307e-01
 -6.9685847e-01
 -1.7793113e+00
  7.6361173e-01
  1.3467595e-01
  1.2271245e+00
 -1.3100555e+00
 -5.0403273e-01
  2.2162037e-01
  1.1628228e+00
 -2.4413438e+00
 -2.3681135e-01
  1.7407360e+00
  5.4612285e-01
  1.0392312e+00
 -9.9250853e-01
 -1.2148088e-02
 -1.4157665e-03
  1.2421543e-02
 -7.7364771e-03
 -4.1258737e-04
  7.6526916e-03
 -2.7249695e-03
 -1.7095212e-02
 -1.7666981e-02
  4.8369924e-03
 -1.1643018e-02
  7.5371736e-03
 -2.1312274e-02
  1.0256613e-02
  9.7082078e-04
  4.9994402e-03
 -2.8086396e-02
 -2.2414317e-03
  1.7059087e-03
 -9.7929714e-03
 -7.2463811e-03
  2.3997173e-02
  2.9156663e-02
 -7.4763708e-03
 -5.2906023e-03
 -3.0322757e-03
  2.0633291e-03
 -5.0157513e-03
  1.2167618e-02
  3.2226760e-02
 -5.8490163e-01
 -1.2419895e-01
 -3.5527247e-01
  3.9671543e-01
  9.7303158e-01
  2.0390584e-01
  2.4475763e-03
 -5.2449936e-01
 -2.9233453e-01
 -6.1118507e-01
  2.0368369e-01
 -1.5148123e-01
 -1.4852056e-01
 -1.2547801e-01
 -3.5042775e-01
 -2.4463998e-01
  8.9607574e-04
 -4.3102142e-01
 -7.9427324e-02
 -4.2801447e-02
 -1.3419397e-01
  8.8382609e-02
 -9.8194510e-02
 -1.0039536e+00
  1.3566783e-01
  4.5950410e-01
 -1.9703965e-01
 -3.8591053e-02
  6.0782839e-02
 -1.1504996e+00
  3.6367565e-02
 -3.1437387e-03
  6.0641128e-01
  1.3652596e-02
 -1.1423499e-01
  7.2518259e-01
 -1.9199427e-03
 -1.1014492e-02
 -4.3224040e-03
 -9.3265511e-03
 -2.5757518e-02
  5.6134965e-03
 -1.1591578e-02
  8.0703674e-03
 -1.3849363e-04
 -1.0121743e-02
  3.2701853e-03
 -6.6682458e-01
 -8.6375531e-03
 -3.3058419e-03
  8.2317814e-03
  1.1125030e-02
 -8.9600257e-04
 -8.6992700e-03
 -8.7396661e-03
 -1.5144870e-03
 -1.7244555e-01
  8.2505867e-06
 -6.4247670e-03
  1.3634736e-03
 -2.0537831e-02
 -1.6323753e-02
  1.8986859e+00
 -8.9869811e-04
 -2.7311670e-02
 -7.7897864e-03
  8.5894484e-03
  3.0825124e-03
 -1.3835523e-02
  1.0005547e-02
  9.8670786e-04
  4.4890353e-04
 -6.6395728e-03
 -1.6369265e-02
 -1.3761419e-02
  1.8608933e-02
  4.4673432e-02
  7.1022371e-03
 -1.3784333e-03
  9.7417645e-03
 -1.4738814e-03
 -4.2492161e-03
 -9.9620363e-03
  1.4284844e-02
 -6.9649133e-04
 -1.6509330e-02
 -6.6233883e-03
  1.8539011e-02
 -2.0185688e-03
 -1.0250874e-02
 -2.6419151e-01
  3.0188042e-01
  1.2787867e-01
 -2.7882791e-01
 -1.4254411e-01
  9.4178474e-01
  2.0900993e+00
 -2.5491352e+00
  6.8404800e-01
  1.2737635e+00
 -1.7358639e+00
 -1.2907690e+00
 -2.2257762e+00
 -1.3695787e+00
  6.5240878e-01
  4.9515486e-01
  1.8561423e+00
  8.4959316e-01
 -1.2428261e+00
  1.2757430e+00
 -2.0346644e+00
 -1.0695425e+00
 -1.8825469e+00
 -1.8612342e+00
 -4.8788548e-01
 -5.0891047e+00
  1.7508974e+00
 -2.5865738e+00
  1.2186468e+00
  2.4998455e+00
 -1.8506038e+00
  1.8021642e-01
 -1.6260159e-01
 -5.9324723e-01
  6.3340411e-02
  4.8086509e-01
 -7.4431169e-01
  3.0677322e-01
  4.8030615e-01
 -1.0157987e-01
 -4.8850077e-01
  1.0670238e+00
 -1.2073871e+00
 -2.6249823e-01
 -2.0148626e-01
 -6.9877583e-01
 -2.9287905e-01
 -1.4886719e+00
 -1.5385201e+00
 -6.8444210e-01
 -6.5776366e-01
 -7.4999288e-02
  7.7061331e-01
 -5.0832075e-01
  1.5899932e-01
  1.1732235e-01
 -1.2963722e+00
 -2.2594105e-01
  3.1137282e-01
 -1.0325638e+00
 -4.9436535e-03
  2.3363423e-02
  6.0461646e-01
 -1.1425269e-01
  1.6407207e-02
  6.2253792e-03
 -1.3367947e-02
  3.5192352e-06
 -8.3894040e-03
 -1.4645870e+00
  6.2636705e-04
 -8.1715770e-03
  8.0164105e-02
  4.5038257e-03
  1.2778732e-02
  2.9005567e-02
 -1.8310472e-02
 -2.4116165e-03
 -3.7799473e-04
  2.7868343e-03
  5.6996415e-03
  1.0927563e-02
  1.0089951e-03
 -7.0101423e-03
 -2.2716278e-02
 -4.9357936e-03
  4.8324582e-03
  6.4668909e-02
  2.1550894e-02
 -5.6713326e-03
  5.9989190e-01
  4.7607523e-01
  5.9325367e-01
 -2.4023849e-01
 -6.5596277e-01
  1.8560179e-01
 -4.2859781e-01
  5.8745164e-02
 -2.0638029e-01
 -2.9933718e-01
  2.2077465e+00
  1.1337738e-02
  2.1467914e-01
 -2.4282449e-01
  4.2496932e-01
  3.9302453e-02
 -6.9131976e-01
  3.5165388e-02
  3.0058950e-01
  1.3627458e+00
 -3.9058784e-01
  2.5602025e-01
  1.7085242e-01
  4.7611374e-01
 -9.1771863e-02
 -4.4948269e-02
  4.6147805e-01
 -1.3058730e+00
 -9.9867284e-01
 -1.4094299e-01
 -1.4659764e-01
  1.3533053e-01
 -4.1256481e-01
  1.2960061e-01
 -7.4173789e-03
 -8.6397054e-03
  1.2632367e-02
  5.8226180e-03
 -1.2575211e-01
 -3.1544384e-02
  5.3479914e-03
 -4.9483385e-03
  3.5105445e-03
 -8.1826888e-02
 -2.4437357e-01
  4.3367269e-03
  1.6359476e-02
 -3.0444464e-02
  4.2545446e-04
 -1.6121924e-03
 -3.2144060e-04
 -3.2555386e-03
 -8.4930584e-02
  4.7844015e-03
  1.1524661e-02
  6.1881803e-03
  2.5151153e-03
  8.0754154e-04
 -4.3801195e-03
 -6.9459900e-03
  2.9653711e-03
  2.8787531e-02
  4.8572996e-01
 -8.4994268e-03
  7.4177850e-03
 -2.3837094e-03
 -1.4718855e-04
  4.4460697e-03
 -2.0224202e-02
  6.1053786e-02
  1.7895313e-02
  2.1115564e-02
 -9.1056041e-03
 -1.5014724e-04
 -6.4498838e-03
  1.3082754e-02
 -1.1745007e-02
  5.9426329e-03
 -4.5481129e-03
  7.6802126e-03
  8.2403130e-04
  3.3512758e-04
 -1.3188994e-02
  2.8264677e-02
  2.0852551e-04
 -2.0793460e-02
 -1.7267660e-03
  9.8159099e-03
  2.5265526e-02
 -8.8593410e-04
 -4.6537467e-03
 -5.4720495e-02
  9.8864220e-02
  1.2336732e-01
  9.7868619e-03
  2.3553705e-02
 -2.7115238e-03
  1.0044709e-02
  1.4902011e-03
 -8.1282649e-03
 -1.4268075e-03
  9.0747857e-03
  4.3831384e-03
 -9.6432082e-03
  1.8164847e-02
 -2.2849802e-02
  6.4319614e-03
  5.5518246e-04
  2.3783844e-02
  1.7910491e-03
  2.4707751e-02
 -4.2312238e-03
 -2.1984137e-04
  5.6676166e-03
  3.6179232e-03
 -1.4015668e-02
  4.6384563e-03
 -7.8952536e-03
 -1.0844179e-03
  6.7550126e-03
  5.0050753e-01
  7.2874352e-02
 -1.3127810e-01
  8.3452024e-02
 -2.7511647e-01
  2.2580045e-01
 -1.5461975e-01
  1.2347096e-01
 -3.3077158e-02
 -2.6998034e-01
 -4.0191252e-02
  5.3301755e-02
  1.1298197e-01
 -6.7043972e-01
 -3.5857526e-04
  5.1035756e-01
 -5.4591242e-02
  4.1167641e-01
 -6.0863864e-01
 -2.4983843e-04
  4.3810061e-01
  2.4048579e-01
  1.0328607e-01
 -4.3529817e-01
 -2.2747062e-01
 -3.8822915e-02
  7.8903278e-04
 -1.1072784e-02
 -1.7126693e-01
 -9.5574707e-03
  8.8035129e-02
  2.8984168e-01
  1.0718577e+00
  4.1794196e-02
  4.1892087e-01
 -1.5119432e-01
 -4.5224228e-03
  5.6195450e-03
  2.1912917e-01
  8.3154410e-01
 -1.2933559e+00
 -1.7791291e+00
  7.2004259e-01
  2.0720465e-03
 -3.1629775e-02
  1.5127935e-01
 -1.5325333e+00
  5.4221783e-02
  4.7910158e-03
  2.5012043e-01
 -2.4778415e-02
  6.5879938e-03
 -1.2538918e+00
 -1.2686777e-01
 -1.1985262e-02
 -3.7638122e-01
  1.2095950e-01
  1.2615601e-02
  1.3213448e-02
  6.5626577e-02
  2.6355270e-02
 -1.7950673e-01
  1.0715501e-02
 -1.7506592e-01
 -2.9164690e-01
 -3.4891367e-01
 -4.7089639e-03
 -5.0977357e-02
 -6.7276818e-01
  3.2340810e-01
 -9.9483198e-01
 -8.8292569e-01
  9.9645168e-01
 -1.7449246e-01
  1.2757532e-01
  1.4254372e-01
 -2.4210721e-01
  2.4246649e-01
 -2.9235828e-04
 -6.4527906e-02
 -2.1359522e-02
  9.7669223e-03
 -1.6752480e-01
  1.9837460e-01
 -8.0291323e-02
  1.8738885e-01
 -1.5018927e-01
 -7.3990352e-02
  5.3773911e-05
  5.1007405e-02
 -3.9386222e-01
  9.5895767e-01
  5.3028300e-02
  1.0813835e-01
  1.1481569e+00
  1.8166528e+00
  1.8631670e+00
 -1.6465288e+00
 -3.9430714e-01
  1.0803203e-01
 -1.0993077e+00
  5.7842672e-02
  1.3476436e+00
 -5.6391770e-01
 -1.0458573e+00
 -5.0475043e-01
 -2.0635352e+00
  9.7022355e-01
  2.2595904e+00
  4.4384122e-01
  9.2453921e-01
  6.1688054e-01
  7.0756361e-02
 -1.2049065e+00
  4.8951957e-01
  5.0796622e-01
  4.5460290e-01
 -1.5114875e-01
  1.9458166e+00
  1.6468129e+00
  5.3472411e-02
  1.7092819e+00
 -1.1490428e+00
  1.3635832e+00
  2.2769639e-01
 -1.4154589e-01
  8.6522467e-02
  1.2331164e+00
 -3.7426126e-01
  2.5050931e-03
  1.9831283e+00
  1.0835153e+00
 -1.9921937e+00
  4.2686170e-01
  1.7159938e+00
  1.0086750e+00
 -3.5668747e+00
  5.9057510e-01
  1.3966081e-02
 -8.0560911e-01
 -9.6249312e-01
  3.6612231e-01
 -1.0035025e+00
  1.2624161e-01
 -4.7244352e-01
  2.5513992e+00
  8.0142736e-01
  2.5058925e+00
 -6.2869567e-01
  2.5436194e+00
  1.5710065e+00
 -2.3062646e+00
  2.7779167e+00
 -4.4627899e-01
 -4.6483046e-01
  9.8624539e-01
 -3.8562247e-01
  6.8314475e-01
 -7.2392261e-01
  1.4401890e-01
 -1.4849025e+00
 -4.5752048e+00
 -1.6367501e+00
  2.1266689e+00
 -1.6716317e+00
  1.2150431e+00
  3.6012340e-01
  3.7363663e-02
 -2.9048598e+00
 -5.7646739e-01
  5.8598794e-02
  2.8905313e-02
  2.4448328e+00
  8.8819641e-01
 -3.2592695e-02
 -7.9815602e-01
 -1.9479655e+00
 -1.3453758e+00
 -5.3829533e-01
  5.7994801e-01
  1.3682806e+00
 -3.2538407e+00
 -1.5729542e+00
  6.5140682e-01
  6.6524649e-01
 -6.1132121e+00
 -2.4138064e+00
 -8.8412419e-02
 -1.6025368e+00
  3.3372921e-01
  1.0559340e+00
 -4.8384762e-01
 -1.8862279e-01
 -9.1448033e-01
 -7.6650381e-01
  5.5089796e-01
  3.4778491e-01
 -3.1775556e+00
 -9.1592008e-01
  5.6846708e-01
 -4.3844479e-01
 -2.8478370e+00
 -7.3541743e-01
  1.8147917e+00
  1.6656331e+00
  1.5972153e+00
  4.0679431e-01
  8.7478590e-01
 -2.6732904e-01
 -2.0221007e+00
 -2.6144144e-01
  1.2486885e+00
  3.8872436e-01
 -5.9835505e-01
  8.3306164e-01
 -1.5248361e+00
 -3.2720971e-01
  4.8905501e+00
 -1.3994185e+00
 -2.1388967e-01
  1.7876907e-01
 -6.3336068e-01
  5.0292736e-01
 -2.0378616e+00
 -1.1750356e+00
  7.2353733e-01
 -2.8989286e+00
  9.3457806e-01
  9.0481365e-01
  2.3756037e+00
 -1.4645411e+00
 -4.4146138e-01
  2.7277213e-02
 -6.3674521e-01
 -6.8412131e-01
  1.4649397e+00
  6.4448923e-02
  2.3367691e-01
 -1.4069518e+00
  1.2035878e+00
 -7.4292845e-01
 -7.8686273e-01
  4.3917589e+00
  4.3733832e-01
  5.0682133e-01
  1.5227208e+00
  6.5426922e-01
 -6.4866138e-01
 -1.0081729e+00
 -1.7933699e+00
  7.3382568e-01
  1.5308032e+00
 -1.1495402e+00
 -6.4698923e-01
 -4.2192438e-01
  3.9706278e-01
 -1.0802772e+00
 -1.2165673e+00
  3.5027695e-01
  1.8393028e-01
 -8.7554520e-03
  7.2736645e-01
  7.3992091e-01
 -9.2696828e-01
  3.1026131e-01
  7.6488793e-01
 -7.2088569e-02
 -1.3079408e+00
 -7.5916505e-01
  1.6590719e-01
  6.7648089e-01
 -3.6141852e-01
  3.3899599e-01
  1.9806756e-01
 -4.6369354e-03
 -3.0962685e-01
  6.5638149e-01
 -1.0324296e-01
 -2.0888848e+00
  2.0401967e+00
  1.1828400e-01
  2.1689060e+00
 -1.0083433e-01
  4.8661390e-01
 -1.0756710e+00
  5.0452596e-01
  1.2896034e-01
 -9.7925752e-01
  8.0310738e-01
 -5.5860406e-01
  6.4395070e-01
 -1.1361492e+00
  1.8446741e+00
 -1.0595105e+00
  4.5227475e+00
 -2.6130778e-01
 -4.7481376e-01
 -4.7651072e+00
 -5.7311052e-01
  1.6094276e+00
 -2.4499464e-01
  2.2719073e+00
 -2.7120125e+00
  1.5545888e+00
 -8.4334415e-01
  3.0932295e+00
 -2.1835117e+00
  8.6385089e-01
 -1.2561102e+00
  2.9825945e+00
  9.5598805e-01
  2.3231876e+00
  4.9512517e-01
 -9.9265349e-01
 -5.6230181e-01
 -4.9132008e-02
  2.6797149e-01
 -1.1422460e+00
  1.4246929e+00
  1.5440048e+00
  1.0496709e+00
 -3.4823031e+00
 -1.8597097e+00
  1.0048596e-02
  1.2686255e+00
  1.5752698e+00
  6.5368193e-01
  5.1386029e-01
 -2.9384878e-01
  8.7916833e-01
 -5.0494128e-01
 -1.3656934e-01
 -1.5299091e+00
  1.5573698e+00
  9.7377872e-01
 -1.4378911e-02
 -2.2548497e-01
 -1.0579398e+00
  2.1485729e-02
 -1.5987754e+00
  5.1700819e-01
 -1.1315536e+00
 -4.8716512e+00
 -7.4750072e-01
 -3.9947894e-01
  1.1142938e+00
  1.5792611e+00
 -7.1513474e-01
 -1.4432494e-02
 -1.6920754e-01
 -2.6511353e-01
 -6.0842675e-01
 -1.8417511e+00
 -2.3359247e-02
  1.6483871e+00
 -7.4679756e-01
  1.5198593e+00
  1.9277427e+00
  8.0356854e-01
  1.2534424e+00
  2.0473692e-01
  2.2386456e+00
  4.1958940e-01
 -1.2097932e+00
 -2.7274983e+00
 -4.5916796e+00
 -9.6513337e-01
  1.2495975e+00
 -4.6259895e-01
 -7.0131940e-01
 -4.1663668e-01
  1.2233865e+00
 -2.3969471e+00
  3.0578291e+00
  9.2169785e-01
 -1.1714379e+00
  1.5523237e+00
 -9.9087840e-01
  1.8928674e-01
 -1.7683177e+00
  5.8811177e-02
 -4.5659237e+00
  3.9365539e-01
  1.6554791e+00
  4.8391539e-01
  4.8627514e-01
 -1.5601643e+00
 -8.3226037e-01
  8.4198540e-01
  6.5759087e-01
  4.0387254e-02
 -1.0110993e+00
 -4.7206759e-01
  3.1242964e+00
 -5.3248382e-01
 -5.4477638e-01
  6.2409282e-01
 -6.3333136e-01
 -2.2603512e+00
 -2.0597223e-02
  6.2009674e-01
 -9.1897726e-01
  2.4457544e-01
 -7.1747357e-01
  2.3188610e+00
 -2.1232917e+00
  2.4756958e+00
 -2.3600633e-01
 -5.9426904e-01
  4.1033074e-01
 -3.9822432e-01
 -1.1923007e+00
 -1.7064035e+00
  3.6067995e-01
 -2.2298779e+00
  2.7745661e-01
  1.0418186e+00
 -2.1738365e+00
  3.3314695e+00
 -1.1332067e+00
  8.9398950e-01
  1.6779617e+00
  1.2798640e+00
 -9.8667693e-01
 -2.4633803e+00
 -7.4542141e+00
  3.0155635e-01
  4.4921827e+00
 -4.9736068e-01
 -2.3908415e+00
  3.0292538e-01
  1.8123479e+00
  1.8253061e+00
  2.1224637e+00
 -3.3596671e-01
 -3.1453323e+00
 -4.8513302e-01
  6.1263078e-01
 -1.8136597e+00
 -9.8013401e-01
 -1.7309760e+00
 -7.3186100e-01
  4.1234065e-02
  9.4863814e-01
 -1.0115807e+00
 -3.6728156e-01
  3.4441191e-01
  8.1381279e-01
  1.8893485e+00
 -2.4830092e-01
 -1.4117519e+00
  2.3987573e-01
  2.3987573e-01
  2.3987573e-01
  2.3987573e-01
  2.3987573e-01
  2.7517227e-02
  2.7517227e-02
  2.7517227e-02
  2.7517227e-02
  2.7517227e-02
  3.7265792e-02
  3.7265792e-02
  3.7265792e-02
  3.7265792e-02
  3.7265792e-02
  1.0258595e-02
  1.0258595e-02
  1.0258595e-02
  1.0258595e-02
  1.0258595e-02
  1.7763009e-02
  1.7763009e-02
  1.7763009e-02
  1.7763009e-02
  1.7763009e-02
  2.7190140e-02
  2.7190140e-02
  2.7190140e-02
  2.7190140e-02
  2.7190140e-02
