nep4 2 C H 
cutoff 8 4 7 7
n_max 4 4
basis_size 8 8
l_max 4 2 0
ANN 30 0
  4.4714831e-02
 -1.3603860e-01
  3.1846675e-01
  3.9234020e-02
 -6.5838315e-02
  1.3783397e-01
  6.7496091e-01
 -5.7572395e-02
  2.4441011e-01
 -2.1038914e-01
 -7.0245691e-02
 -9.7524226e-02
  1.2454010e-02
  2.6813694e-03
 -3.8765348e-02
  1.7291595e-01
 -2.0543976e-02
  2.9711568e-01
 -1.2726431e-01
 -5.9687693e-02
 -1.2700646e-01
  7.4230164e-02
 -4.2336460e-02
 -6.6818766e-02
 -7.1686572e-01
 -2.3165283e-01
 -2.4882821e-02
 -1.4931306e-01
 -1.3155686e-02
  1.5371646e-01
 -1.7988096e-01
  3.5821714e-02
 -1.3756995e-01
  2.0662537e-01
 -2.4649127e-01
  1.7355748e-01
 -2.0653124e-01
 -2.9934304e-02
  1.6470087e-01
  7.4603915e-02
 -3.8039380e-01
  1.9455692e-02
 -2.9461399e-01
  1.5173304e-01
 -5.8781046e-01
  5.8933601e-02
 -1.1511222e-01
  2.2485394e-02
 -4.2270589e-01
  2.1038321e-01
  1.0025286e-01
  2.4894247e-02
  7.1147718e-02
  3.1661624e-01
  5.6599353e-02
 -4.9292115e-03
 -7.6762997e-02
  4.7222950e-02
  1.4899595e-01
 -2.4078336e-01
 -3.3167917e-01
  3.1042779e-02
 -2.3824024e-01
  3.2545477e-02
  1.6556177e-02
  3.6867073e-01
  4.9334398e-01
  4.5895979e-02
 -7.3906556e-03
 -1.1532448e-01
  2.6385096e-01
  2.4920124e-01
  1.6537329e-02
 -1.3104515e-01
  1.1350006e-02
 -1.4662729e-01
 -1.6944188e-01
 -1.2478646e-01
  1.4772651e-01
 -7.9133525e-02
 -1.9498389e-02
 -1.7714727e-01
 -2.3946928e-02
  9.3082309e-02
  1.0517874e-01
  1.1384183e-01
 -1.8925436e-01
  3.8109608e-02
  1.3319896e-01
 -6.2753726e-03
  3.3257246e-01
  8.8077664e-01
  8.2108486e-01
  6.0849690e-01
 -5.7736301e-01
  7.4296886e-01
  2.0897298e+00
  1.6539581e-01
  5.6117952e-01
 -1.7747849e-01
  2.6822350e+00
 -2.9573545e+00
  1.1741060e+00
 -4.4251302e-01
  6.4405191e-01
  7.3297173e-01
  2.9662362e-01
  6.5464184e-02
  1.5075706e-01
  2.3905985e+00
 -2.3633718e-01
  1.6207907e+00
  2.0085087e+00
 -1.6779798e+00
  7.8902394e-01
 -6.5049893e-01
 -1.1328496e+00
 -1.6333601e-02
  1.3057566e+00
 -4.3046612e-02
 -1.0405755e-01
 -3.0650416e-01
 -3.7439504e-01
  2.6811868e-01
  4.9963790e-01
  9.0513700e-01
  6.8500742e-02
  1.1712029e-01
  6.6118008e-01
 -3.2057995e-01
 -1.0389189e-01
  9.9725656e-02
 -4.9231127e-02
 -7.5409286e-02
  1.9945003e-02
  1.0006613e-01
 -6.3733140e-04
 -1.0106648e-01
  1.1843082e-01
  4.6059471e-01
  2.6694399e-01
 -1.8285623e-01
 -6.7993176e-01
 -1.7831181e-01
  2.5904787e-01
 -1.7122403e-01
  2.2677639e-01
  3.0339333e-01
  1.3625096e-01
 -3.3807245e-01
  6.8696296e-01
  8.7414242e-02
  5.3904276e-02
 -1.3972224e-01
  2.2489914e-01
  2.0865045e-01
 -1.3956718e-01
 -8.6395875e-02
 -1.1449719e-01
 -1.6965222e-01
  1.4092236e-02
 -4.1361198e-01
 -1.3828024e-01
 -6.4614356e-02
  6.3090362e-02
 -4.3573144e-01
  2.6123095e-02
 -1.1128273e-02
 -1.3928522e-01
  2.7626875e-01
 -1.2948072e-01
  4.8407629e-01
  3.0278578e-01
  5.7965522e-03
 -1.9892860e-02
 -2.0453930e-01
 -6.5397128e-02
  2.8158113e-01
 -4.2400584e-02
 -1.5412170e-01
 -4.8142383e-01
  4.0744248e-01
  1.5842061e-01
  8.9284994e-02
 -1.6302280e-03
  5.3911503e-02
 -4.1704234e-02
 -3.5180107e-01
  3.7866808e-02
 -1.6414915e-01
 -2.6347023e-02
  1.1257721e-01
  5.9046000e-02
 -1.5869218e-01
  2.0420064e-01
 -4.7561865e-02
  3.0780500e-01
  4.2011768e-02
 -1.6037585e-02
  2.1312943e-01
  1.3070459e-02
 -4.7019187e-02
  2.7913800e-01
 -1.1812266e-01
 -2.5200367e-01
  1.3815889e-01
 -2.2132780e-01
  5.0119355e-02
 -7.1919136e-02
  2.8803197e-01
  1.4211330e-01
  3.9843656e-02
 -6.4913869e-02
  2.4304948e+00
 -1.2349071e-01
 -5.3369846e-02
 -5.0371852e-02
  5.2806534e-02
 -2.0737813e-01
  1.1902411e-01
  7.8267060e-02
 -1.2075315e-01
 -2.3428697e-02
  5.9062604e-02
 -1.5091643e-01
 -2.9480726e-01
  2.3139272e-02
  2.5133157e-01
  1.4075803e-02
 -2.3455469e-01
 -1.2955317e+00
 -1.4818538e-02
 -9.3269750e-02
  3.0449077e-01
  8.9220023e-03
 -1.8009920e-01
 -7.6849297e-02
  1.2436140e-01
 -1.3322215e-01
 -8.1084840e-02
 -5.1824383e-02
  3.9416105e-01
 -3.2588825e-01
 -9.7286798e-02
 -5.9421211e-03
  5.9532639e-02
 -6.1111659e-02
 -1.2156836e-01
 -2.8544766e-01
  7.1087696e-02
  3.7780654e-02
 -1.3862175e-01
 -8.5214656e-03
  5.5642825e-02
 -1.2377220e-01
  8.7703660e-02
  1.1603106e-01
 -1.2863928e-01
 -1.2074068e-01
 -5.8928363e-02
 -7.7421024e-02
  2.6741993e-01
  4.9755108e-02
  9.5339084e-01
  4.2097192e-02
  1.6320981e+00
 -3.1406343e-02
  7.2048843e-02
  8.2726493e-02
 -1.5357110e-01
  1.4945048e-01
  4.8157510e-01
 -3.4440737e-02
  9.7898223e-02
 -2.4939053e-02
 -1.3003109e-01
  9.0014362e-01
 -7.1869004e-01
  2.5361681e-02
 -2.9601601e-01
 -3.7167603e-01
 -7.2088741e-02
 -1.2894939e-01
  1.0687295e-01
  1.0170101e-01
  1.5183666e-02
  3.2421690e-01
 -1.7584372e-02
  5.4060249e-03
  4.8472753e-01
  3.5679099e-01
  6.2066738e-02
  2.5065616e-02
 -6.5228470e-02
 -5.2304515e-03
 -8.7722465e-02
 -1.0754098e-03
  6.5521777e-02
 -6.7809895e-02
  9.8211784e-03
 -1.0239929e+00
 -9.5329845e-01
  2.3112202e-01
  1.5592164e+00
 -1.6039143e+00
  1.9440763e+00
  2.3983453e-01
  1.8794063e+00
  1.3517190e+00
 -2.4427891e-02
  1.8212701e-01
  4.8836745e-02
 -1.9736148e-01
  4.2243719e-01
 -2.0901634e-01
 -3.2738864e-01
 -3.5076746e-01
 -6.1304969e-01
  1.2601347e+00
 -8.8195455e-01
 -4.0007155e-02
  4.6381199e-01
  2.0643804e-02
  7.8193498e-01
  2.8107383e+00
  3.3628455e-01
  2.5101004e+00
 -6.9110140e-02
  2.3309794e-01
  4.8472914e-01
 -2.3187934e-01
 -5.7311136e-01
 -9.5747001e-02
  2.7238199e-01
  2.1996140e+00
  1.9212961e-02
 -6.0236079e-01
  2.5900757e+00
 -3.2355204e-01
 -9.8448470e-02
 -4.0906173e-01
  1.6287123e-01
 -9.6806985e-01
 -1.4284552e+00
  5.5125058e-01
 -6.3121937e-02
  4.1658487e-03
 -2.7290919e-01
  8.6922622e-01
  8.0185759e-01
 -5.3883803e-01
 -1.0943590e+00
  1.4069978e+00
  5.5641752e-02
 -3.6406226e+00
 -3.7335342e-01
 -2.1301578e-01
  1.2548400e-01
  1.7111930e-01
 -9.6256644e-02
 -8.2690054e-01
 -1.3802177e-01
 -3.2677874e-02
  1.7351535e-01
 -5.8491966e-03
  6.0271036e-02
 -1.2627819e-01
  7.4507535e-02
  1.3166219e-01
  6.4215109e-02
 -3.2625355e-02
 -1.8607892e-01
 -3.1454206e-02
  8.6721316e-02
  1.1530058e-01
 -5.2101128e-02
 -1.1682823e-01
  9.3350887e-02
  1.9909634e-01
  8.6451568e-02
  2.3231868e-02
 -1.2923197e-01
  9.3282558e-02
  5.9654675e-02
 -3.6049455e-02
  3.0900171e-01
  1.7282295e-01
  1.2462229e-01
  6.6516344e-03
 -3.0521756e-01
  2.6194724e-01
 -1.6278069e-01
 -2.0873523e-01
  2.0602325e-01
  3.6009923e-01
  4.4362983e-01
 -3.6579296e-01
 -6.6600084e-01
  1.4213464e-01
  1.2263241e+00
  1.6014822e-01
  3.8944492e-01
  2.3114774e-02
  1.6256203e-01
 -2.4810059e+00
 -8.6401179e-02
  4.4027764e-01
  4.7845662e-01
 -6.1035907e-01
  7.8568792e-01
  6.0486728e-01
 -8.2710728e-02
  1.2433330e+00
 -2.7251840e-01
  1.0971519e-01
  5.4859197e-01
  5.7522360e-02
  7.1605898e-02
 -1.5033366e-01
  3.3200678e-01
 -1.5854082e-01
  8.1531930e-01
  6.1442107e-01
  4.6573582e-01
 -1.5606327e-01
  5.9762210e-02
 -1.9251744e+00
 -1.1686918e+00
 -1.2520645e+00
  5.4883161e+00
 -9.8989725e-01
  2.9555559e-02
  3.7233145e+00
  7.8777307e-01
 -1.7653757e-01
  1.3714334e+00
 -4.3763018e+00
 -1.6486434e+00
  2.2106762e+00
 -1.3889831e+00
  3.4590074e-01
  2.0758297e+00
  5.8098769e-01
  2.5528479e-01
 -9.7854607e-02
 -1.7227015e-01
 -3.1966254e-02
  1.8357390e+00
 -1.8079672e-02
  3.6453226e+00
  7.7765357e-01
 -8.9835793e-02
 -1.9013920e+00
 -8.7352180e-01
  7.1011192e-01
  1.7567930e+00
 -1.2490259e-01
  2.7734870e-01
  1.9717650e-01
  1.7026168e-01
 -2.0640682e-02
 -3.6387238e-01
  5.4555855e+00
 -2.1494137e-01
 -1.0219225e+00
  2.4277918e-01
  3.2038927e-01
 -1.1248422e+00
 -1.2483592e+00
  3.5670790e-01
  2.6254604e+00
 -2.3334930e-02
  1.3759316e+00
  7.9561007e-01
  1.4650838e-01
  3.2449433e-01
  6.1567873e-04
  1.5813110e+00
 -3.4921023e-01
 -1.2001012e-01
  8.7204225e-02
  4.8781213e-01
 -6.0356194e-01
 -8.2241303e-01
 -5.6492674e-01
  4.6172184e-01
  2.6900646e-01
  7.3826045e-01
  1.0894108e+00
  3.2702994e-01
 -3.3956608e-01
  1.9341901e-01
 -5.0130416e-02
 -8.0016953e-01
  4.2270514e-01
  1.6346876e-01
 -1.5621489e+00
  1.0470890e+00
 -1.5632861e+00
 -7.1702993e-01
  5.0904386e-02
 -1.4105442e+00
 -4.5550039e-01
 -2.7034254e+00
  4.1500804e-01
  2.7825174e-01
  1.3038297e+00
  5.1657468e-01
 -1.1148149e-01
  9.3138833e-03
 -7.5859374e-01
 -1.6500074e-01
 -6.0908735e-02
  1.4526862e-01
  1.5993376e-01
  3.5812411e-01
 -3.9238557e-02
 -8.0704302e-02
 -1.0891680e-01
  1.4173511e-01
  1.3983938e-03
  2.1584199e-01
  6.6898495e-02
  2.6506552e-01
 -1.9198544e-02
 -1.1518604e-01
  1.2097257e-01
  7.4966863e-02
  9.2791714e-02
 -6.9453764e-01
  1.7095132e-01
 -1.4955987e-01
 -7.2901684e-01
  1.0246748e-02
  6.8166053e-01
 -1.3937210e-01
 -1.2049202e-01
  3.8916625e-02
  1.6243826e-01
  5.4879040e-03
  3.1422940e-01
 -8.9399099e-02
  6.9969541e-01
 -9.2279121e-02
 -6.2146284e-02
 -8.9336716e-02
 -2.2612562e-02
  1.8329738e-01
 -5.5294748e-02
 -2.6549833e-02
  3.9256774e-02
 -6.2479753e-02
  6.5855649e-03
  6.5466538e-02
  2.3705940e-01
 -4.2241253e-02
  2.7770296e-02
  1.6324222e-01
 -1.0427988e-01
 -2.1851619e-01
  1.8691039e-02
  1.2471396e-01
 -7.2505510e-01
 -4.8609233e-01
  8.4081180e-02
  1.9184281e-01
 -5.3235859e-01
  1.2671836e-01
 -1.5917681e-02
  1.3738829e-02
  4.0176332e-01
 -8.0335051e-01
 -1.0700989e+00
  9.8056480e-02
 -1.6728653e-01
 -1.0064477e+00
 -4.5344357e+00
  3.4029560e+00
  2.9134390e-01
  7.2167408e-01
 -2.6644711e+00
  1.4334401e+00
  1.2917333e+00
  1.1339272e+00
  5.2397525e-01
  3.7608483e-01
  4.9499926e-01
 -6.1199862e-01
  3.1941800e+00
 -2.5141845e+00
 -1.8318398e+00
  3.1294546e-01
  9.1177750e-01
  1.5009125e+00
 -2.7714565e-01
 -1.3940287e+00
  1.2187508e+00
 -2.0102310e+00
  8.3987468e-01
  4.1225183e-01
  4.8515152e-02
  1.1739941e+00
  1.3147044e+00
 -5.7511681e-01
  4.2016640e-01
 -7.8027970e-01
 -3.8800302e+00
  1.8443335e+00
  3.7007406e+00
  6.3958204e-01
  1.2044666e+00
 -6.4583078e-02
  8.9685804e-01
 -1.0746522e-01
 -2.6012678e+00
 -7.5429755e-01
 -2.7912278e+00
 -1.6955779e+00
 -8.7890053e-01
 -3.3507667e+00
  1.5805113e+00
 -7.0209998e-01
 -8.4744179e-01
 -1.0774615e+00
 -2.1992030e+00
 -1.1181748e-01
 -1.3045799e+00
  1.3326322e+00
 -2.2134709e+00
  1.7664427e+00
  3.2135338e-01
 -3.0157986e-01
 -8.7060131e-02
  1.8680533e-02
  1.3860638e-01
  3.9895463e-01
  3.0025631e-01
  5.3320879e-01
  2.8210755e-02
  1.5290605e+00
  1.7877713e-01
  5.9581363e-01
 -1.2464256e+00
  7.2870731e-02
 -3.4462658e-01
  1.0596148e-01
  1.8574591e-01
 -1.7532964e-01
 -6.1040085e-02
 -1.2502828e-01
  7.5040817e-02
  2.0993814e+00
  5.5840957e-01
 -1.4323005e-01
  8.6243701e-01
 -1.9058298e-01
  7.3931009e-01
  3.4848422e-01
 -1.0878519e-02
  4.6114352e-01
  9.7849354e-02
  3.5386276e-02
  3.5128537e-01
 -2.0837165e-01
 -8.6314946e-02
  1.4725187e-01
  5.2545819e-02
  1.2092683e-01
 -8.5047267e-02
 -1.6296862e-01
  6.9526710e-02
  6.4779609e-02
  3.5600376e-01
 -2.2012007e-01
 -1.9375719e-01
 -1.4115076e-01
  9.2765421e-02
 -2.9584045e-02
 -1.8126354e-01
 -7.8402944e-02
 -1.4196093e-01
 -4.9343318e-02
 -2.0662066e-01
  5.6644082e-02
  3.3133004e-02
  3.0882874e-01
 -1.5258844e-01
 -7.7675009e-01
  6.9120243e-02
  2.1724023e-02
  3.8583174e-01
  2.8323579e-01
 -5.0424162e-02
  1.2798265e-02
 -4.0958397e-02
 -1.9316900e-01
  3.3885258e-01
 -4.3670356e-02
  2.1068099e-01
 -1.2163507e-01
 -1.0412601e-01
  1.8756278e-01
 -5.0774616e-01
  2.6858455e-01
  2.6683927e-02
  1.7961688e-01
  3.8174355e-01
  6.3286573e-02
  2.8983587e-01
 -5.0205430e-03
  1.1923490e-01
 -1.2022350e-02
  2.8295350e-01
 -1.4318837e-01
  6.4711832e-03
  2.5878280e-02
 -4.6337355e-02
  1.3013405e-01
  1.1397560e-01
 -1.8569498e-01
  7.4130609e-03
  4.9370151e-02
 -9.9735633e-02
 -5.5553030e-02
  6.7871547e-01
  4.4362918e-02
  2.7227321e-01
 -1.2668908e-01
 -2.6603034e-01
  1.7126952e-01
 -3.7226048e-01
  6.2474944e-02
 -1.6425733e-02
  1.7479604e-01
  2.9409802e-01
  3.7946120e-01
  3.6002079e-01
 -1.2131178e+00
  2.1406549e-01
  1.5433347e-01
 -4.9494367e-02
 -5.6536399e-02
  5.5453891e-01
  6.5894455e-02
  1.9480181e-01
 -4.9465679e-02
 -2.5431940e-01
  7.1710065e-02
  3.1589624e-01
  4.0531863e-02
 -4.1223604e-02
 -3.9898913e-02
 -1.8889420e-02
 -1.4114442e-01
  6.2359899e-02
 -2.1355562e-01
 -9.4279692e-02
  1.2360364e-01
 -4.6720567e-01
 -1.5934740e-01
  6.4828858e-02
 -4.4592354e-02
 -7.0185445e-02
  9.1662385e-02
 -1.2390929e-01
 -3.4647316e-02
 -2.3831727e-02
 -6.4903922e-02
 -2.9822698e-01
 -3.3150724e-01
  1.4487953e-01
 -1.1461914e-01
  1.6402562e-01
  3.2472149e-01
  1.9545701e-01
 -3.2657076e-02
 -6.4905353e-02
 -3.5603832e-02
 -3.5627007e-01
  8.5926674e-02
 -5.4420960e-01
 -1.6494548e+00
 -7.2448216e-02
 -1.0833911e-01
 -5.0603002e-01
 -4.7423464e-01
  1.6401844e+00
 -1.1932679e+00
  1.8475123e-01
 -5.5844128e-02
  1.4814725e+00
  2.4785191e-01
  1.0331504e+00
 -7.7489483e-01
  7.0615608e-01
  1.9490067e-02
 -5.4138750e-01
 -8.1260163e-01
 -1.0202028e+00
  4.0446502e-01
 -6.8677914e-01
 -3.7878922e-01
  1.6070119e-01
 -1.1489351e+00
 -1.9339396e+00
  2.7007151e-01
  6.4575052e-01
 -2.9764509e-02
  6.7489696e-01
  2.6040912e-01
  1.0828866e-01
  4.5577487e-01
 -4.5937559e-01
  1.1019665e-01
 -7.0176415e-02
 -6.2140822e-02
  1.2525257e-01
 -1.9972624e-01
  1.3644746e-01
 -5.6391634e-02
  1.7746739e-01
  3.4245971e-01
  1.7206857e-01
 -7.0305467e-02
 -9.9367425e-02
  1.4887364e-02
  2.6919611e-02
 -1.2659335e-01
 -1.3796534e-01
 -2.7864906e-01
  3.0821902e-01
 -7.2293535e-02
  3.1678166e-02
 -1.9613868e-01
  5.6777354e-03
 -8.8219255e-02
  1.6383708e-01
  2.8192279e-01
  7.2471030e-02
 -1.5796356e-02
  7.4335599e-01
  8.5750014e-02
 -6.1254936e-01
  3.0508790e-02
 -8.4662803e-02
  3.7036163e-01
  8.6399741e-02
  1.8142447e-01
  1.6565154e-01
 -4.4993296e-01
 -1.6937307e-01
 -2.2258094e-01
 -2.4685413e-02
  4.8500739e-02
  4.6900619e-02
 -1.5173285e-01
  4.6261042e-01
 -3.0238256e-01
 -2.2480115e-02
 -3.2652971e-01
 -3.4269318e-02
 -1.9408803e-01
 -8.5977167e-03
  1.4298406e-01
  9.0377711e-02
 -4.2565995e-01
  1.9389445e-02
 -7.8276191e-03
 -2.9164100e-01
  2.0671610e-02
  8.2010619e-02
 -4.2770001e-01
  2.3285021e-01
 -1.8009712e+00
 -3.4299216e-01
 -4.3015036e-01
  1.4426199e-01
 -9.3950874e-01
 -3.2849997e-01
 -3.9170071e-02
  3.7219062e-02
 -2.4918014e-01
  4.1668576e-01
 -2.2718304e-01
 -3.3016238e-01
 -2.0395033e-02
  6.9121458e-02
  4.7056943e-01
  1.3240557e-02
 -6.4508653e-01
 -4.5837667e-02
  2.6077306e-01
  3.9911447e+00
 -9.9741673e-01
 -3.1893006e-01
  7.2325957e-03
 -1.5265308e-01
 -8.9603007e-02
 -2.2217804e-01
  3.3538467e-01
 -3.3453298e-01
  9.8161198e-02
 -2.4101174e-02
  1.1830926e+00
  1.5718026e+00
  1.8580706e-01
  1.1612293e-01
  1.2289947e-01
 -3.0924234e-01
 -8.4214486e-02
  9.6232527e-01
 -1.6066848e+00
 -1.1587256e-01
  4.6097761e-01
 -1.0119765e+00
 -1.0298637e+00
 -7.0689064e-01
  2.9040179e-01
 -5.6079066e-01
 -1.3341994e+00
 -2.2679002e+00
 -1.4166107e-02
 -2.6670110e-01
  3.8124219e-02
  4.1530538e-01
  3.2080603e-01
 -3.2879966e-01
 -2.9021800e-01
  1.2039738e+00
 -1.5513703e-01
  1.7117044e-01
 -5.0259288e-03
  1.3404229e-01
 -3.3126221e+00
  2.0676801e-01
 -3.0259117e-01
 -5.2974415e-01
 -3.4602229e-02
 -1.0524514e-02
 -2.2305977e-02
 -3.1628144e-01
  1.4149055e-01
 -5.3317476e-02
  2.8483239e-01
  3.5574943e-01
  5.4607528e-01
  8.2303649e-01
  1.4638464e+00
  9.4991080e-02
  7.9264498e-01
  3.4306708e-01
  1.8041307e-01
  1.6915640e-02
 -7.4211210e-02
 -6.9928691e-03
 -2.4899693e-02
 -3.2259607e-01
 -1.1918613e-03
  2.5405213e-01
 -2.8190601e-01
  1.7402580e+00
 -1.6079412e+00
  4.6787292e-01
  8.9711255e-01
 -4.4814500e-01
  3.7100801e-01
  2.9641968e-01
  6.6873586e-01
  6.4178199e-01
  1.7371626e-01
 -4.8134080e-01
  4.7459879e+00
 -6.0673845e-01
  1.9451655e-01
  8.9286005e-01
  7.6805726e-02
  6.4326960e-01
 -4.4440046e-02
  4.2604774e-01
  6.2666535e-01
  1.4697000e+00
 -9.5693797e-01
  1.1282163e+00
 -1.3283185e+00
  4.1708818e-01
  6.0050897e-02
 -1.7737735e-02
 -3.8594005e-01
  3.2649806e-01
 -1.1461903e-01
 -1.9023670e-01
 -1.3081847e-01
  6.5236002e-01
  4.0276161e-01
 -9.3398184e-02
 -5.3112123e-02
 -2.3663959e-01
  1.8641791e-01
 -1.0481362e-01
 -2.6732743e-01
  2.7311659e-01
  9.1233617e-03
 -1.0948679e-01
  8.5571237e-02
 -2.5661811e-01
 -5.3991552e-02
 -3.9737815e-01
  1.9027885e-02
 -2.1698698e-02
  3.1649721e-01
 -5.5656940e-01
  3.1628169e-02
  4.9159434e-01
 -1.2594184e-01
 -2.1872845e-01
  1.4751572e-02
  2.8841950e-03
 -7.2796717e-02
 -3.0392525e-01
  4.2878389e-02
 -5.4871571e-01
 -7.7976334e-01
  2.7616063e-01
  1.5560137e-01
 -1.0654413e+00
  2.2113729e+00
 -7.5264789e-02
  1.6209516e-01
 -1.0830817e+00
  1.0706034e+00
  1.1887379e+00
  6.9975698e-01
 -1.4821800e+00
  4.9789083e-01
 -1.0536935e+00
  2.0662539e+00
  1.9026642e-01
  5.7461172e-01
 -1.8228444e+00
 -7.8300047e-01
  2.4485562e+00
 -4.6068990e-01
  2.2731259e+00
 -3.0652484e-01
  3.7622466e+00
  4.2241243e-01
 -4.3819135e-01
 -7.0646226e-01
  5.5351669e-01
 -4.3923967e-02
 -1.3916776e-01
  3.2535192e-01
  5.4705924e-01
 -3.3769697e-01
  6.1366506e-02
  1.9855964e-01
 -6.2747115e-01
 -4.5663786e-01
 -2.4102151e-01
  1.2694570e-01
  2.8633678e-01
  8.6240776e-02
 -4.4420853e-01
 -2.3058619e-01
  1.9262321e-01
 -1.3292681e-01
  1.4898999e-01
  2.6953143e-01
 -1.6100013e-01
  8.3104357e-02
  9.4973284e-01
 -1.3478374e-01
  6.1141916e-02
  1.2285256e-01
 -2.1509145e-01
 -6.0390405e-02
  3.5424557e-01
  4.7652245e-01
 -4.8597234e-01
 -3.4673519e-02
  4.4093800e-01
  8.9556390e-01
  1.0253724e-01
 -4.5583364e-02
 -8.1876487e-01
  6.4369744e-01
  7.6608461e-01
 -1.6129558e+00
 -1.0501643e-01
  4.0710460e-02
  3.1069988e-01
  6.3516551e-01
 -7.3196840e-01
 -1.2729442e-01
 -4.8807170e-02
 -1.3013844e-01
 -1.7036647e+00
 -1.6795805e-02
  1.2768947e-01
 -5.4565972e-01
 -1.2789105e-01
 -5.2881506e-03
 -7.8298885e-01
 -1.9718088e+00
 -1.4064510e+00
 -2.3515661e-01
 -2.6283261e-01
  9.4509864e-01
  3.5359368e-01
 -1.0160769e-01
  1.3555618e-01
 -1.6079541e-01
  2.5878328e-01
 -9.1452050e-01
  7.0319110e-01
  8.7169342e-02
  3.9192209e-01
 -1.8192776e-01
  4.4476604e-01
 -1.0517994e-02
  7.3656183e-01
  9.6212029e-02
  2.7240705e-01
  2.6558894e-01
 -2.4349040e-01
 -2.8152550e-02
  1.0205507e-01
 -3.2041767e-01
  2.5993076e-01
 -1.4347985e-01
 -5.4643619e-01
  1.8081751e-01
 -2.7846524e-01
  1.5353304e-02
  9.3422942e-02
 -4.9581822e-02
  2.5782472e-01
 -4.5382354e-01
 -2.0401770e-01
 -1.4135011e-01
 -6.3436842e-01
  5.8884293e-01
  7.4972636e-01
 -5.3508329e-01
  5.2132285e-01
 -5.4047090e-01
 -2.5281098e-01
 -1.2637394e-04
 -1.1787967e-01
  2.7554132e-02
 -2.8616335e-02
 -9.9489853e-02
 -8.4278034e-03
  5.5441037e-02
 -3.5902956e-03
  3.0575700e-02
  3.9304554e-02
 -1.2037372e-02
 -1.0972615e+00
 -8.6013407e-02
  7.9236352e-01
 -3.5109289e-02
 -1.6778375e-01
 -2.1109492e-01
  2.8330597e-01
 -1.0469273e-01
 -4.9909249e-01
 -9.1866106e-02
 -3.1991780e-01
 -6.9453232e-02
  1.0413070e-01
  9.5979400e-02
  7.2468102e-01
  5.5871207e-02
 -9.8594151e-02
 -1.9486027e-02
 -4.1920561e-01
 -3.9648429e-02
 -2.0310669e-01
 -1.3360026e-01
 -1.5761600e-01
 -8.7824303e-01
 -2.1179345e+00
 -2.4081168e-01
  2.6249391e-01
  2.9328648e-02
  2.5772154e-01
 -5.8043832e-01
  7.8749813e-02
  3.2081270e-01
 -1.3558377e-01
  3.3586887e-01
 -2.3560531e-01
 -4.7883973e-01
 -3.3068693e-01
  2.3152988e-01
  2.1599855e-02
  2.2142470e-01
 -3.1677328e-02
 -1.5929566e-01
  1.1036041e+00
 -2.1659384e+00
  1.4136181e+00
 -3.1202734e-01
  1.0692944e-01
 -2.4904082e+00
 -4.7113052e-01
 -1.9938031e+00
 -5.1184998e+00
  3.3920988e-02
 -2.0221272e+00
 -3.8287511e+00
  2.6964650e+00
 -4.8077571e-01
 -7.7123451e-01
  2.8049016e-01
 -1.5453447e+00
  4.2050046e-01
 -3.9424500e-01
  4.5997646e-02
  5.6591576e-01
  5.1313244e-02
  6.4132571e-01
  2.5981846e+00
  1.6203612e+00
  1.4508888e+00
  1.0989331e-01
 -1.9878112e-01
  4.3352067e-02
  1.8696442e-02
  1.7146775e-01
  4.3187045e-02
 -4.6848738e-01
 -4.7348976e-02
 -3.0989636e-02
  5.2837797e-02
 -5.3802389e-03
 -8.8824421e-02
 -8.8042632e-02
 -2.0442087e-02
 -2.4305359e-02
 -2.2600885e-01
  1.7557846e-01
  4.4779070e-03
 -4.3265026e-02
  2.4206925e-02
 -5.2162535e-02
  4.3983921e-02
 -1.9021760e-01
  7.7134520e-02
  1.0912639e-02
 -1.1078713e-01
 -2.1450158e-02
  1.6231770e-02
  1.9954775e-01
 -3.8676851e-03
 -7.0512690e-02
  4.6847227e-01
 -1.5407055e-02
 -1.6971825e-01
  1.3199648e-01
 -2.0427197e-01
 -9.6539542e-02
 -4.4121698e-01
 -2.3874348e-01
 -1.6902423e-01
 -2.0798920e-01
 -2.4207385e-01
  8.5066753e-03
  1.4603187e-02
 -5.7773158e-02
 -3.3661133e-01
 -4.4284362e-02
 -3.6589067e-02
  5.1586044e-01
 -4.2434059e-02
 -6.2189162e-02
  7.6440774e-02
 -5.8689173e-03
 -5.7132840e-03
  3.3385757e-01
  1.7214037e-01
  3.5212886e-02
  2.5884250e-01
 -1.4263833e-01
  6.7966454e-02
 -9.7593069e-03
 -1.2114989e-01
  6.8398997e-02
 -6.6012275e-01
 -1.3333026e-02
  4.4915834e-01
 -1.2707211e-01
  3.7961960e-01
 -1.5190391e-01
  2.6263022e-01
 -1.1000976e-02
  1.1854509e-02
  4.7409941e-02
  6.3549519e-02
 -1.2796888e-01
 -6.6129573e-02
 -5.7228331e-02
 -2.3145196e-01
 -5.6189202e-02
  2.7493448e-03
  7.3270500e-03
  3.7931618e-01
  1.6401948e-01
  3.3331788e-01
  3.0059524e-02
  6.3921995e-02
 -8.6687811e-02
 -3.5699192e-01
  1.8075188e-01
 -4.6723500e-02
 -1.8915636e-03
 -1.4328800e-01
 -6.5730572e-02
 -1.1656391e-03
  5.7685828e-01
  6.8251240e-01
 -1.7403172e-01
 -1.5973541e-01
  7.9422766e-01
 -2.0355228e-02
 -5.6054604e-01
 -4.7843766e-01
  1.9556536e-01
  1.3027191e-01
  1.4452400e+00
  7.3627174e-01
  1.8081119e+00
 -3.2825177e+00
  2.0038583e+00
  2.9038182e-01
 -5.9808421e-01
  2.7504277e-01
 -2.7201197e+00
  3.3754830e+00
  6.7233586e-01
  7.6065218e-01
 -8.6150670e-01
  5.5517238e-01
 -7.2828275e-01
  1.1371795e+00
 -6.0311741e-01
  1.1152873e+00
 -1.0365565e+00
  5.0335860e-01
 -7.5662963e-02
  1.7427972e-01
 -6.6475040e-01
 -7.2999142e-02
 -7.5904898e-02
  3.8912126e-01
  5.8396071e-02
  1.9386803e-01
  7.8513497e-01
  2.6027767e-03
 -2.5547013e-01
 -1.9990103e-01
  1.2300725e-02
  8.0811244e-01
 -9.7511403e-02
 -5.1442333e-02
 -6.4514123e-02
 -1.8314231e-02
 -1.3541368e-01
  4.0060842e-01
 -3.4571800e-01
 -3.6417413e-01
 -9.0005890e-02
 -3.0822048e-01
  1.9456949e-02
 -6.6771053e-02
  1.6725391e-01
 -1.8493846e-01
 -3.8643196e-02
 -8.3104977e-03
 -4.2344695e-01
 -1.1525171e+00
 -4.3063320e-02
  1.1320534e-01
  7.9600793e-01
 -4.8862913e-01
  1.9537985e-01
 -4.5561150e-01
 -3.3753800e-01
  3.2293192e-01
  1.4928341e-02
 -7.1588087e-01
  1.3200057e-01
 -1.7217231e-01
  2.1458447e-02
 -6.5665376e-01
  3.4322542e-01
  5.9000410e-02
  1.9141777e-01
  7.0293677e-01
  9.4224399e-01
  1.2271490e+00
  2.2305067e+00
  2.3038125e+00
  1.3390871e+00
  3.4625602e-01
  1.0675734e+00
  1.1491557e+00
 -4.2798764e-01
  2.7919379e-01
  5.1929329e-02
 -1.2942880e+00
  1.3905203e-01
 -1.7622058e-01
  1.2795958e-01
  4.9674306e-02
  3.4441689e-01
  3.0107790e-01
  1.6231527e+00
 -7.8475863e-02
  4.9613628e-01
  1.3329415e+00
 -5.4953146e-01
 -2.4450975e-02
  4.3363330e-01
  7.7501059e-01
  1.3024750e-01
  2.4433400e-01
 -1.1934645e-01
  1.1949489e+00
  2.2206748e+00
  1.2253471e-01
  4.7521940e-01
  1.4334388e-01
  8.0092633e-01
 -4.6486056e-01
  7.9219925e-01
  3.2034916e-01
  1.5329742e-02
 -6.8868175e-02
 -4.1248628e-01
 -1.3049399e-02
 -7.9745555e-01
  1.1741208e-01
  1.7983152e-01
  1.2722161e-01
  4.1550353e-02
  3.5694662e-02
 -1.1403976e-01
  5.2189305e-03
 -2.2426911e-01
 -1.6141158e+00
  7.2950624e-02
  2.2510548e-01
 -3.3846818e-02
 -2.6690185e-01
  5.1363647e-02
 -4.3429799e-02
  1.6056795e-01
 -1.6277069e-01
 -1.7535341e-01
  4.1134693e-02
  6.1490562e-02
 -5.0926447e-01
  5.6970680e-01
 -2.7883920e-01
  3.6610964e-01
  5.7975793e-01
  3.3329591e-02
 -1.3495095e-01
 -3.1054547e-01
  1.1279744e-01
  2.8058451e-01
  9.9473611e-02
  1.5208928e-01
 -2.9584593e-01
 -4.8529437e-01
 -1.4185135e-02
  5.4986726e-02
 -1.9842906e-02
 -1.8878672e-02
 -4.9285179e-01
 -1.2053531e-01
  4.5753099e-02
 -2.2082804e-01
 -7.3594442e-03
 -2.3941784e-01
 -1.0881929e-01
 -2.7607181e-03
  1.2598002e-01
  1.2717592e-02
  8.4610462e-02
  1.9545376e-01
  2.9468879e-02
 -1.3635866e-01
 -8.5866995e-02
 -1.7922960e-01
  2.7131028e-03
 -3.3452964e-01
 -2.8444389e-01
  3.3008937e-02
  3.6456338e-03
 -2.0487474e-01
 -4.9103883e-01
  5.6084287e-01
 -4.3268036e-02
 -2.5916579e-01
 -1.5143819e-01
  9.7398646e-03
 -7.0097111e-02
 -1.3860777e-01
 -1.5799654e-01
 -8.1795730e-02
  4.2088714e-01
 -1.3496985e-01
  4.3199956e-03
 -8.2442445e-01
 -1.9296782e-01
  5.9128904e-01
 -2.1341234e-04
 -2.2859228e-01
 -1.3850161e+00
 -2.6629499e-01
  4.7259122e-02
  3.5011747e-03
 -9.2115909e-02
 -6.2727079e-02
  2.0040332e-01
 -2.0194820e-01
  5.7216316e-02
 -5.9596586e-01
  4.6078652e-02
  8.8991123e-01
  5.8688238e-02
 -3.5194245e-01
  1.9410618e-01
 -1.5441859e-01
  4.8884869e-01
  5.9292931e-02
 -5.2238982e-03
  2.1267405e-02
  5.5196190e-01
  1.5318698e-01
  6.1537247e-02
  3.3770552e-01
 -2.2560714e-01
 -8.0851294e-02
 -2.0842861e-01
  3.4304112e-01
  1.8437050e-01
 -5.8141291e-01
  6.5864906e-02
 -1.6136685e-02
 -1.2151065e-01
 -1.4129507e-03
  6.4507717e-01
  7.2713435e-02
 -1.0185599e-02
 -1.5447909e-01
 -1.9533372e-01
  3.5335931e-01
  1.8898796e-01
 -9.3373978e-01
  1.2029228e-01
 -1.5162963e-01
  1.6577235e-01
  1.5971012e-01
  4.0677853e-02
  4.1416436e-02
  1.3216985e-02
 -1.8948199e+00
  1.6216359e-01
  2.4542756e-01
  4.6725452e-02
  5.4894251e-01
 -3.9853841e-01
 -3.8564357e-01
 -3.3002070e-01
  1.0705143e-01
 -4.8693925e-02
 -7.0742823e-02
  5.3871885e-02
  1.2032330e+00
 -9.5293969e-01
  5.5306560e-01
 -2.1023203e-01
 -4.1359621e-01
 -5.0148834e-03
  1.3864148e-01
 -3.1868368e-02
 -9.8033255e-01
 -1.4045135e+00
 -2.6519790e+00
  3.3893499e+00
 -7.3574471e-01
 -2.0710595e+00
  1.3769511e+00
 -4.6214730e-01
  4.6003040e-02
  1.9194141e-01
 -1.2043028e-01
 -1.7290810e+00
  8.3279836e-01
 -7.3892778e-01
  8.9949852e-01
  1.0035648e+00
  4.0314593e+00
  4.2963144e-01
  1.3133754e-01
  5.2738219e-01
  4.0968499e+00
 -2.2495499e+00
 -8.1774339e-02
  3.1500089e+00
  4.8395458e-01
  3.0377248e-01
  3.1177653e-02
 -1.6430722e+00
 -6.9275640e-02
  9.4328389e-02
  3.3271071e-01
  2.6757808e+00
 -7.6079470e-01
 -2.9979339e+00
  1.7170848e+00
 -3.2955570e+00
  1.0157025e-01
  3.9116763e-02
 -1.2597710e-01
 -1.7273119e-03
 -7.7893382e-01
 -9.7528966e-03
 -7.6437110e-01
  3.1602955e+00
 -5.6604318e-02
 -8.0400276e-01
 -8.8059658e-01
 -1.2009562e+00
  2.4809377e-01
  7.5706378e-02
 -4.9627397e-02
 -2.2588735e+00
 -1.2046111e+00
 -1.9394389e+00
  1.7671905e+00
  8.6359608e-01
 -2.5933767e-02
  4.4262353e-01
  8.0214493e-02
  2.8353129e-03
  1.7217334e-01
  4.5465958e-01
  4.1733414e-02
 -2.3894009e-01
 -3.0940300e-01
 -2.2738706e-01
 -7.5419259e-01
 -2.7790964e-01
  1.0825517e-01
 -2.2881809e-01
  1.9282421e-01
  1.5831508e-01
  1.3542026e-02
 -2.0763791e-01
 -1.0982239e-01
  1.3774270e-01
  2.8463740e+00
 -5.6714006e-02
 -5.0611652e-02
  2.0505749e-01
  1.4903490e-01
  8.4211642e-01
  4.0972772e-01
  1.8756185e-01
 -2.8708905e-02
  4.5868915e-01
 -1.0568366e-01
  1.1031744e-01
 -9.5635049e-02
 -1.2304332e-02
  1.5060501e-01
  1.6586603e-01
  9.7291695e-04
 -1.8268989e-01
 -6.0670104e-02
 -2.5295711e-01
 -3.9552744e-02
 -2.9706552e-03
  2.0854920e-01
  8.5834004e-02
 -1.2616295e-01
 -1.4331163e-02
 -5.1331989e-02
  1.1185317e-01
  1.8387891e-01
  1.5358163e-01
 -3.6350247e-02
 -3.6592636e-02
  1.4292155e-01
 -1.0776791e-01
  7.3273227e-02
  6.0063235e-02
  2.1762711e-01
 -1.1154524e-01
  7.3371106e-01
  2.9337275e-01
 -6.7631528e-02
 -2.2531584e-02
 -6.8934661e-01
 -2.7928558e-01
  1.1325011e+00
  1.3918546e+00
 -6.7036027e-01
 -9.5635307e-01
 -2.7193087e-01
  2.4002707e+00
  8.8484019e-01
  2.2328840e-01
 -9.4343632e-01
 -1.0143108e-01
  5.2261746e-01
 -1.4978181e+00
 -3.0167210e-01
 -2.2444296e+00
 -1.6878622e+00
 -1.1270032e+00
 -2.1918999e-02
 -1.7510695e+00
 -1.3471453e+00
  6.9749326e-02
  3.6847208e-02
  7.0202315e-01
  3.8785918e+00
 -6.1485326e-01
  2.9801074e-01
 -3.1678785e-02
 -1.0408785e+00
  1.3596246e+00
 -4.2472422e-01
 -1.6470155e-01
 -4.1166089e-02
 -3.5906371e-02
  1.2185844e+00
 -1.4029832e-01
 -2.0966102e-01
 -1.0405299e-02
 -5.8801883e-01
  5.5762466e-02
  9.1464654e-02
  5.1595435e-02
 -8.3779283e-03
 -2.4539377e-01
  1.5441330e-01
  3.3650762e-01
 -5.5417910e-02
  1.0425347e-02
 -1.5242803e-01
 -1.3705638e-01
  5.5742990e-02
  2.0593122e-01
  1.2900986e-01
  1.5954278e-01
 -4.4288561e-02
 -1.3241969e-01
 -5.9374049e-02
  1.9930605e-02
 -4.7683664e-02
 -1.3131431e-01
 -1.0093278e-02
  1.0767968e-02
 -6.2817663e-01
 -7.3906690e-02
  2.0084684e-01
  6.9874775e-01
 -1.3602044e-01
  2.0503950e-01
 -1.6120116e-01
  1.7912266e-01
  1.0472091e-01
 -9.7405285e-02
 -7.4126929e-02
 -5.0219601e-01
  2.8858161e-01
 -3.3744714e-01
  1.0323785e-01
 -4.4883150e-01
  3.6353484e-01
  3.9373678e-01
 -3.4944171e-01
 -2.8155151e-01
 -8.8621043e-02
  1.4966749e+00
 -4.9479669e-01
 -2.4039702e-01
  4.7034219e-01
  7.8365421e-01
  6.0419463e-02
 -3.1993976e-01
 -3.5416950e-02
 -7.9838842e-01
 -1.1306040e+00
 -4.1031365e+00
  1.5755498e+00
  2.1292174e+00
  1.4158243e+00
  2.2079177e+00
  1.2250722e-01
 -1.5273610e-01
 -2.9117949e+00
  3.0371964e-01
 -1.5215291e+00
  2.4110749e+00
 -2.6097786e+00
  1.6991409e+00
  1.7856071e+00
  1.8168844e+00
 -1.4543402e+00
  1.8048035e+00
 -2.2710936e+00
  1.4757282e+00
  3.7179452e-01
 -3.1997187e+00
  2.1760225e+00
 -3.6017849e+00
  2.2242422e+00
 -1.8522658e+00
  4.3581587e-01
 -3.8873973e+00
 -3.5172369e+00
 -1.2438374e+00
  6.2294221e-01
  4.1303551e-01
 -7.1336001e-01
 -9.0209779e-04
  1.0681453e+00
  6.2035137e-01
 -6.5478146e-02
  9.3089432e-01
 -6.3246483e-01
 -7.7534586e-02
  5.9979528e-01
 -6.3544512e-01
  9.0370417e-01
 -1.0778356e-01
  2.4089038e-01
 -2.3746903e-01
 -1.4304319e-01
  3.1576064e-01
  2.2528581e-01
 -4.2319361e-02
  1.9817113e+00
 -3.2020062e-01
 -2.8553522e+00
 -3.6965895e-01
 -2.4950200e-01
 -3.1256016e-02
 -4.9311887e-02
 -1.3756696e+00
  5.0569348e-02
  8.9672036e-02
 -7.6139581e-01
 -1.1150126e-01
  2.6934173e-02
  3.2228506e-01
  1.3296582e-01
 -4.3936208e-01
  9.8106176e-02
  1.8872733e-01
 -1.7377325e+00
  5.6923032e-01
 -2.4557498e-01
 -1.0411187e-01
  1.6153592e+00
 -8.2858533e-02
 -7.3652896e-03
 -6.2457943e-01
  5.9746988e-03
  4.2320704e-01
 -3.4500811e-01
 -5.6953501e-02
 -1.2892765e-01
 -9.1087967e-03
  8.3418563e-02
 -4.4800524e-02
  2.0661253e-01
 -3.2603877e+00
  6.5299056e-02
  3.7293413e-01
  2.1775482e+00
 -1.9786128e+00
 -5.8011568e-01
 -6.5652925e-01
  3.0065551e-01
  1.9439304e-02
 -1.5975079e-01
 -5.9490137e-02
  1.3405299e-01
  9.8539218e-02
  5.3257287e-02
 -1.9593142e-02
 -7.6414938e-03
 -8.5292093e-02
  4.4006816e-01
 -4.5175150e-02
 -2.4387763e-01
  6.9373089e-01
 -3.3800316e-01
 -1.4407561e-02
 -1.0213201e-01
 -1.0091994e+00
 -5.4799814e-02
  4.5822427e-01
 -1.6021023e+00
  3.7208091e-02
  4.3440573e-03
  2.2635076e+00
  1.4114195e-01
  2.5476947e-01
  5.4965752e-01
 -3.2206875e-01
  5.2493011e+01
 -5.2968919e-01
 -1.8536763e-02
  7.4719203e-01
  2.6782012e-01
 -7.4392490e-02
  1.4671571e+00
  2.5064423e+00
  1.4320946e+00
  1.5774573e+00
  1.2825638e+00
 -3.9151776e+00
  1.9299486e+00
 -1.3942727e-01
 -3.2033648e+00
 -1.5901062e+00
 -9.2726171e-01
 -4.7110188e-01
 -3.3704609e-01
  1.1090567e+00
 -5.2698213e-01
 -1.5815690e+00
 -2.9619105e+00
 -8.8860571e-01
 -9.4111580e-01
 -1.2449291e+00
 -4.5013916e-01
 -2.4658996e-01
 -5.2846092e-01
  3.0890453e-01
 -2.5255725e+00
  2.6054007e-01
  1.0290725e+00
  1.0805433e+00
 -2.1981777e-01
 -4.2138302e-01
  6.3907349e-01
 -8.1314570e-01
 -6.4738315e-01
 -4.3239710e-01
 -4.2575186e-01
 -5.9992027e-02
 -2.2194296e-01
  5.4930311e-01
 -1.8567577e-01
 -1.9225180e+00
  1.1569521e+00
  3.3996519e-02
 -5.2704859e-01
  4.8796096e-01
 -2.0957002e-01
  3.2837720e+00
  2.7325850e+00
 -1.2126191e+00
  1.0089715e+00
  3.0478865e-01
  3.5826841e-01
  1.7146976e+00
  2.2341526e+00
  5.2972299e-01
  7.8141832e-01
 -2.5402675e+00
 -6.6822028e-01
  3.5054979e-01
  1.1863407e+00
 -2.1646800e+00
  5.3362155e-01
  4.4876456e-01
 -1.9027978e-01
  2.2783964e+00
 -8.3965242e-01
  5.6232429e-01
  6.4845210e-01
 -5.1326692e-01
  8.7551594e-01
 -1.2154334e+00
  5.2707911e-01
  2.8358904e-01
 -9.3119150e-01
  3.2949018e+00
  1.0762576e+00
 -1.6614799e-01
 -9.3515885e-01
 -3.3059356e+00
 -1.7523925e+00
  3.2788572e+00
  3.4403554e-01
 -3.8668923e-02
  3.4431150e+00
 -3.2891375e-01
 -9.9158514e-01
  1.0089498e+00
  6.4545923e-01
 -7.9804528e-01
 -2.6297867e-01
  3.5670936e-01
 -1.4122209e-01
  1.4472327e+00
 -1.5954944e+00
 -2.5849099e+00
  9.5281661e-01
 -2.1737878e+00
  8.4651881e-01
  9.6196359e-01
 -8.7246346e-01
 -3.0232680e+00
 -3.5130766e-01
 -1.4564182e+00
  1.0963751e+00
 -2.8479214e+00
  5.7915115e-01
 -1.0816724e+00
  1.6141624e+00
  4.7798234e-01
 -9.0738600e-01
  7.8901005e-01
 -9.3114674e-01
 -2.4969182e+00
  2.4506884e+00
  7.8801358e-01
 -8.1543350e-01
  4.6942377e-01
 -2.2904347e-01
  2.2625358e+00
  9.2900741e-01
 -3.4827429e-01
 -6.3289201e-01
 -1.5329025e+00
  9.1640517e-02
 -1.8967322e+00
 -3.8735741e-01
  2.2312021e+00
  8.0139726e-02
 -3.6426103e-01
  2.7444175e-01
 -2.1282149e-02
 -3.4998479e-01
 -8.4763163e-01
  2.0623319e-01
 -7.8471936e-02
  1.1987457e+00
  1.0273669e+00
 -2.8121793e-01
  2.4408634e+00
  8.7046248e-01
 -4.5321509e-01
  6.4581764e-01
  1.2306989e+00
 -3.2191511e-02
  9.5402986e-02
  3.8407943e-01
  4.7069955e-01
 -1.2963302e-01
  1.1524410e-01
  2.7736001e+00
  2.4980490e+00
  7.7407517e-02
  4.7275886e-01
  1.3237706e+00
  9.1958714e-01
  1.5055342e+00
 -1.5509673e+00
 -7.2853994e-01
 -6.7619443e-01
 -8.5842848e-01
  8.4091306e-01
 -1.9507508e+00
  1.2728674e+00
  1.2293894e+00
  9.4050109e-01
  1.0297264e+00
 -4.5239541e-01
  1.3817592e-01
 -8.2278842e-01
 -7.5942326e-01
  3.2343554e-01
 -6.8364877e-01
  2.2986525e-01
  3.7761191e-01
 -2.1853399e+00
 -3.2077828e-01
  4.5398898e+00
 -2.0345917e+00
  7.2063953e-01
  8.7741005e-01
  6.4140463e-01
  2.1583941e+00
  2.2404141e+00
  1.5085645e+00
  1.8793108e+00
  2.6845083e-01
  3.2219818e+00
 -2.1476021e+00
 -3.5779476e-01
 -1.7670063e-02
 -5.3839158e-02
  9.3389118e-01
 -4.6183339e-01
 -1.3564417e+00
  8.1019956e-01
  6.4182228e-01
 -1.5895481e+00
  1.6157813e+00
 -2.5841446e+00
 -1.4431626e+00
 -2.6671052e+00
 -2.2938991e+00
  2.6069117e-01
 -1.1023316e+00
 -3.3864626e-01
  2.0739563e+00
  3.5921528e+00
 -1.5721262e-01
 -1.3801812e+00
  8.3709121e-01
 -5.6720581e-02
  1.3974565e+00
 -1.7847127e+00
 -3.2216363e+00
  1.1492000e+00
 -1.2380763e+00
 -5.9234482e-01
  1.7579774e+00
  1.3947917e+00
 -8.7203282e-01
 -4.3388662e+00
  5.1901312e+00
  9.5272189e-01
 -4.1877493e-01
 -8.1494249e-02
  6.3368458e-01
  1.5183231e-01
 -1.1003712e+00
  1.7351795e+00
  2.7081466e-01
 -4.2370674e-01
 -1.5877892e+00
  2.7359691e+00
 -1.6463673e+00
  3.0668649e-01
 -3.7352097e+00
  4.2330551e-01
  8.2706267e-01
 -8.7505233e-01
  2.6774919e-01
 -4.8599643e-01
  7.3012424e-01
  1.0139909e+00
 -4.2773941e-01
 -1.7675982e+00
  4.5358124e-01
 -1.0095671e+00
 -1.0964395e+00
 -2.0368083e+00
  1.1555483e+00
 -2.0957269e-01
  6.3598669e-01
  4.2133692e-01
 -4.4222283e-01
  2.0409038e+00
  7.0973831e-01
  2.2364159e+00
 -6.7605561e-01
 -1.5192100e+00
  1.2124186e+00
 -5.8716428e-01
 -2.4933200e-01
  1.4416770e+00
 -5.7869470e-03
 -3.8376963e-01
 -1.7734609e+00
 -2.5578144e+00
  1.8477349e+00
  1.4801120e+00
  8.3398509e-01
  7.4803960e-01
 -3.4579802e+00
 -2.7166646e+00
  1.8878795e+00
  5.1987596e+00
  4.9563977e-01
 -1.2063742e+00
 -4.0890527e-01
 -8.5837197e-01
  2.2373281e+00
  4.2830551e-01
 -1.4877579e+00
  5.4390657e-01
  1.1822612e+00
 -1.6898161e+00
  6.3359070e-01
 -9.3863267e-01
 -1.3177319e-01
  4.3336108e-01
  1.2482560e+00
 -2.2203526e+00
 -1.4366697e-01
  2.8005075e+00
 -2.0883105e+00
  1.7570968e+00
 -7.6281112e-01
 -9.1382205e-01
  1.9239493e-01
 -1.3064890e+00
 -1.8290949e+00
 -3.0739257e-01
  1.2275230e+00
  1.3289860e+00
 -2.9673490e-01
 -1.4511927e+00
  1.4750626e+00
  1.1070224e+00
  1.2082136e-01
  9.1665417e-01
  1.6382664e+00
  9.2553818e-01
  4.4140849e-01
  1.5375166e+00
 -8.9631647e-01
  7.2941452e-01
 -1.7573554e-02
 -1.8635261e+00
 -3.1971719e+00
 -2.0718577e+00
  4.1306514e-01
  4.1945505e-01
  1.8072485e+00
 -1.7921531e-01
  5.8915132e-01
  2.3995314e+00
  1.1332367e-01
 -6.0687218e+00
 -1.2852217e+00
  6.7117858e-01
 -1.5200342e+00
  4.1891284e+00
 -2.1030189e-01
 -4.5620272e-01
 -1.6531286e+00
  1.4359379e+00
  3.7902808e+00
  1.2991393e+00
  7.1049315e-01
  8.1836738e-02
  2.0587818e-01
  3.9477870e-01
 -3.3781454e-01
  1.2816596e+00
  9.9217847e-02
 -6.4128679e-01
 -1.8112259e-01
 -1.5257667e+00
 -1.0647494e+00
  1.2587231e+00
 -7.4304327e-02
  2.7682784e-01
 -1.4803587e+00
 -1.0820236e+00
  1.4465892e+00
  1.4066176e-01
 -1.5978174e+00
  2.1688472e-01
  2.1688472e-01
  2.1688472e-01
  2.1688472e-01
  2.1688472e-01
  2.6874218e-02
  2.6874218e-02
  2.6874218e-02
  2.6874218e-02
  2.6874218e-02
  3.6623668e-02
  3.6623668e-02
  3.6623668e-02
  3.6623668e-02
  3.6623668e-02
  1.0234203e-02
  1.0234203e-02
  1.0234203e-02
  1.0234203e-02
  1.0234203e-02
  1.8126732e-02
  1.8126732e-02
  1.8126732e-02
  1.8126732e-02
  1.8126732e-02
  2.6483987e-02
  2.6483987e-02
  2.6483987e-02
  2.6483987e-02
  2.6483987e-02
