nep4 2 C H 
cutoff 8 4 7 7
n_max 4 4
basis_size 8 8
l_max 4 2 0
ANN 30 0
  1.4020450e+00
  3.0407367e-02
  4.0839523e-01
 -1.9659258e-01
  4.5365614e-01
  1.9953443e+00
  1.3070602e+00
  2.0329309e+00
 -4.0232635e-01
 -9.7510058e-01
  1.0349649e+00
 -2.4578426e+00
 -1.9348608e-02
  7.5229490e-01
  9.0278262e-01
  1.8235067e-01
 -3.8116860e-01
  4.6459955e-01
 -3.1967121e-01
  2.7109151e+00
  1.7434508e-01
 -9.9892959e-02
  1.3414706e-01
  1.0654718e+00
  2.2073823e-01
 -7.2474986e-01
 -6.8684384e-02
 -1.2135608e+00
 -2.7624479e-01
  4.7514634e-03
  3.8409308e-01
  1.1506894e-01
  3.6472487e-01
 -3.9052838e-01
 -1.1273419e-01
  2.3797174e+00
  2.2814997e-02
 -9.3454283e-01
 -1.2811754e+00
 -1.0270952e+00
  2.5795069e+00
  1.1782737e+00
  2.1601784e-01
  1.7006417e-01
  1.5502226e-01
 -2.7013879e+00
 -8.1032240e-01
 -7.4359572e-01
  1.7518294e+00
 -1.0750352e+00
 -2.4058247e-01
  1.1447501e+00
 -1.3218796e+00
  5.4763669e-01
 -1.8630272e-01
 -9.9591035e-01
  7.1845847e-01
 -1.3781656e+00
  3.6721015e-03
 -2.0106222e-02
  5.5463845e-03
  5.8338832e-04
  2.0950753e-04
 -1.4867628e-01
 -2.4337620e-03
 -4.6771937e-03
  1.0337791e-03
 -4.1590175e-03
  3.2780515e-03
 -1.1712159e-03
  4.3754661e-03
  6.5885028e-03
  7.3672162e-04
  1.4016926e-03
 -5.8573573e-03
 -3.1694613e-04
  1.9966373e-03
 -7.3153741e-04
 -4.3681641e-03
  1.8851099e-03
 -7.6612080e-03
  2.9481277e-03
  1.4996156e-03
  2.0817493e-04
 -3.1608995e-03
  1.2689108e-02
 -4.4278018e-03
 -7.3275026e-03
  2.5999746e-03
  3.9259619e-03
 -1.3468766e-01
  4.5030105e-01
  3.8367960e-01
  4.1059983e-01
 -3.5324346e-02
  1.3141491e+00
  4.7383043e-01
  2.5762212e+00
  2.0576909e+00
  1.5767763e+00
 -2.9175732e+00
  1.4281595e-01
  3.6352083e-01
  8.6395591e-01
 -4.2964602e-03
  3.5233268e-01
  3.5899180e-01
 -4.2660370e+00
  1.2965250e-01
 -1.3792140e+00
  3.6620429e-01
 -4.2747730e-01
  1.1907924e+00
  7.6792151e-01
  5.0012618e-01
  1.9850255e+00
 -6.9693238e-01
 -4.1569245e-01
 -1.1238050e-01
  8.5889501e-04
 -1.0699197e-02
 -4.2614829e-02
  1.6641252e-01
 -3.0435206e-02
  2.4248831e-01
  2.1908018e-03
 -8.8264281e-03
 -1.7436779e-03
  2.3047135e-03
 -1.5805220e-03
 -3.7367016e-02
  3.1152385e-01
  4.2950832e-03
  1.9537925e-03
 -2.2841366e-03
 -1.3609906e-02
 -5.5130534e-03
  1.5220243e-01
  7.8098697e-04
  5.3272534e-02
 -5.4271980e-03
  2.1300660e-02
  1.7673755e-03
  2.8681604e-03
 -9.6336938e-03
 -5.0675203e-03
 -4.9373321e-03
  3.0519179e-04
  2.1373148e-03
 -4.1620415e-03
 -5.4603559e-03
  1.8016489e-03
 -1.5155534e-03
 -1.8218420e-03
  1.7886161e+00
 -1.4490585e-03
 -5.9086885e-03
 -3.0780383e-03
  4.6068430e-04
 -3.3980878e-03
  8.3197944e-04
 -7.9671834e-03
  4.1676797e-03
 -1.7865048e-03
  1.3827521e-03
 -3.1942071e-03
 -1.5015149e-02
  7.4085244e-03
 -1.0702644e-02
  5.9279143e-03
  6.7719200e-04
 -6.4900937e-04
  4.1048224e-03
  1.5288123e-03
  9.1651892e-03
  1.2413668e-04
  4.0338063e-03
 -7.4669598e-03
 -2.7065345e-03
  1.5956737e-02
  3.2755975e-02
 -4.5276541e-02
 -1.0564654e-01
  2.8966615e-01
  6.4036325e-02
 -1.6788918e-01
 -9.6982270e-03
 -7.3510818e-03
 -1.1227701e-03
 -2.3146307e-03
 -4.7559619e-01
 -3.5022084e-02
  2.0126514e-01
 -4.6349899e-03
  1.1391342e-03
 -5.0305480e-01
 -6.3682529e-03
 -2.7960834e-01
 -7.4460258e-05
 -8.8441242e-03
 -4.0419513e-01
  2.1514433e-02
 -1.2525092e+00
 -7.5836971e-02
  2.5952367e-02
  3.8385333e-04
  1.8437265e-03
 -1.0442732e-02
  1.5250256e-03
 -7.0098173e-03
 -6.4417878e-03
 -4.6535782e-03
 -2.4999022e-03
  2.4311456e-03
 -9.0565914e-03
 -2.2614051e-03
 -1.2446002e-03
  2.1193870e-03
  2.4654691e-03
  2.3828933e-03
 -8.7707827e-05
 -7.2420440e-03
  4.4053062e-03
 -1.2285732e-02
  3.4411114e-03
 -7.7023096e-03
 -2.2798155e-03
  3.1599874e-04
  2.6121596e-04
 -4.1186796e-03
  7.0411097e-03
  7.5187767e-03
  1.2166180e-02
 -1.2593487e-03
 -4.2660725e-03
 -5.7301768e-03
  2.3950893e-03
 -6.5624183e-03
 -1.7022688e-03
 -7.4992850e-03
 -9.7985214e-01
 -1.0438451e+00
 -5.4371446e-01
 -5.8533561e-01
  1.0171441e+00
 -3.1489045e-03
  1.0870278e+00
  6.2199533e-01
 -5.4473835e-01
  6.8805559e-04
  1.8025682e+00
 -1.3872142e+00
  3.1894441e+00
 -9.9626756e-01
 -6.3040358e-01
  5.4979151e-01
  2.6349089e-01
 -2.4667587e+00
 -1.3378040e+00
 -3.6923897e-02
  1.4930084e+00
  6.5257084e-01
  4.4261804e-01
 -2.6877055e+00
  1.4732096e-01
  5.4744653e-02
 -1.8734568e-03
  1.0887283e+00
  2.6370138e-03
 -6.0953228e-03
 -1.0851165e-03
  2.7383536e-03
 -5.6268303e-03
  3.3927949e-03
 -2.4531262e-03
  2.0355913e-03
  7.5257534e-01
  2.8682174e-04
 -1.8926439e-03
  1.6482018e-03
 -1.6297807e-03
  4.0952871e-03
 -3.9125429e-03
 -6.7710895e-03
 -3.9177169e-03
 -1.0066533e-02
 -1.0949642e-02
 -9.6727267e-04
  3.4411973e-04
 -5.2691810e-03
  8.5168323e-03
 -3.9257766e-03
 -1.0906688e-03
 -4.3647019e-03
  4.0992525e-01
  4.2361058e-03
 -1.2438048e-02
  1.0214830e-03
 -1.4419985e-03
 -3.2143313e-03
  1.6328777e-01
  6.4424139e-01
  4.3019736e-01
  3.1979363e+00
 -2.7747734e+00
 -1.0499389e-01
 -2.2953501e-01
 -3.6271751e-01
  7.6072291e-03
 -3.2982785e-01
 -6.5178685e-02
 -2.7915309e-03
  9.9590858e-03
  2.1869020e+00
 -1.1000418e-01
 -2.0463517e-01
 -9.2141038e-01
 -1.2184013e+00
  2.1079500e+00
 -2.4309534e-01
  1.1555419e+00
  1.6201818e-01
  1.4621112e+00
  3.0283876e-02
  6.7597193e-01
  1.1584590e-01
  9.2352042e-03
 -2.2753426e-03
 -5.1404028e-03
 -6.2862914e-03
  6.7122495e-03
  2.6364210e-03
 -4.2975582e-03
  2.2551827e-02
 -2.7381160e-04
  7.3808129e-04
  2.9671700e-03
  1.0690098e-03
 -3.5468994e-03
  2.0724218e-03
  7.8095944e-04
  2.6907139e-03
 -6.9831237e-03
  7.1799764e-03
  1.6804779e-03
 -2.5340304e-04
 -7.3141098e-04
 -7.0396334e-02
  4.9612898e-04
 -2.4118577e-04
 -1.0978460e-01
  4.7113337e-03
 -8.2365207e-02
  3.0069323e-03
  1.7612291e-02
 -3.8464954e-03
 -3.3432364e-01
  3.4644839e-01
  6.1805211e-03
  3.7346447e-03
 -6.5930843e-01
  5.8438039e-01
  8.9078021e-01
  6.9280648e-01
 -1.0050222e-01
  1.0956324e-01
 -5.5733833e-02
  6.1994702e-01
  1.2641124e-01
 -4.5916334e-01
  3.9094687e-01
 -1.3052930e+00
  8.8023120e-01
 -1.0716643e+00
  1.6455731e+00
 -1.3466543e-01
 -2.8062185e-02
 -3.6555669e-01
 -2.5270524e-02
 -1.7696323e-01
 -2.4193150e-01
 -6.5566814e-01
  3.8792405e-02
  1.8991041e-01
 -1.0365831e+00
 -3.7677007e-04
  4.2069563e-01
 -5.8272409e-01
 -4.7115039e-02
  1.5292931e-03
  1.8439764e-02
  1.5301676e-04
 -4.7484681e-02
 -1.8312354e-02
  5.5464043e-04
  1.6350327e-03
  1.8563035e-03
  2.8008863e-03
  1.7253862e-03
  5.2777771e-03
  1.4217080e-03
  2.1988847e-03
  1.0411053e-02
 -3.3874183e-03
 -3.0942964e-03
  1.3453694e-02
  5.5120257e-03
 -7.7204150e-04
  6.9977404e-03
  2.0403296e-03
  3.3732358e-04
  3.4855322e-03
 -1.9296525e-03
 -3.7757147e-03
 -2.7755089e-04
  4.5310124e-03
 -1.0610522e-02
  1.1622896e-01
  2.8029028e-03
  6.4815152e-03
  5.3645954e-02
  2.6149657e-01
 -4.4248957e-02
  4.8296323e-01
  5.7645697e-02
 -6.7988751e-03
  4.8068594e-03
  1.1349336e-04
 -2.6920170e-02
  1.8864172e-03
 -2.3724150e-02
 -7.1928315e-02
 -2.2548139e-03
 -1.5440718e-03
  5.2537718e-03
 -2.7508858e-01
 -4.2419476e-03
 -2.6892844e-01
  7.8858204e-02
 -1.4658545e-03
 -1.4399882e-01
  9.4616033e-02
 -6.2337071e-01
 -5.8896497e-02
  1.2073860e-02
 -1.0699387e-02
 -1.5048945e-01
  3.5707366e-02
  6.9041895e-03
  3.7554298e-03
 -2.6797920e-01
 -3.2466387e-03
  3.2927132e-01
  1.0862307e-02
 -3.3808950e-02
  1.7721318e-02
 -2.3312736e+00
 -1.6967319e-02
  3.4183398e-01
 -2.4341699e-04
 -5.4246347e-02
  1.0997115e-02
 -5.8639809e-03
 -2.7059922e-01
  5.3513809e-03
 -2.2143509e-02
  4.1367464e-02
  2.8280532e-01
 -3.6645398e-01
  3.7365463e-03
 -5.1040910e-02
 -5.0622672e-02
  8.7487726e-03
  5.9860636e-02
 -5.1914971e-02
 -2.4806933e-02
  2.0184436e-01
  3.3145463e-03
  1.8585445e-02
  4.9812351e-03
  5.0559831e-01
  2.4950145e-01
  1.0123965e+00
  4.3448982e-01
  6.2489104e-01
  7.9627134e-02
  6.4550442e-01
 -1.9344214e+00
  1.5485214e+00
  1.1136321e-02
 -9.6011154e-02
  7.2934236e-03
 -1.5523158e+00
  1.7827641e+00
  5.7773404e-03
  2.0790586e+00
 -1.2458279e+00
 -9.6653861e-01
 -1.0585219e+00
 -6.7666227e-01
  3.7341368e-01
  3.4125056e+00
 -4.1980314e+00
 -5.2197337e-01
 -4.6821260e-01
  1.7052031e-01
  1.1983776e-03
  3.0206703e-04
  5.2631143e-02
  1.3253405e-02
  7.0117866e-03
  3.6845566e-04
  3.5662035e-04
  8.3949920e-03
  8.8714762e-03
 -3.8107438e-03
  1.9028143e-03
  4.3732096e-03
  1.8717148e-03
  5.0784014e-03
 -1.6566692e-04
 -2.6397272e-03
  8.3083985e-03
  7.2521605e-03
  3.7250631e-03
 -1.5742853e-02
  3.0618818e-03
  6.8110130e-03
  2.1042072e-03
 -2.2274049e-03
 -4.6659429e-03
 -2.0780344e-03
  6.0722680e-04
 -2.7032152e-03
 -1.0805320e-02
 -1.2701935e-03
  3.4540654e-03
 -3.4973333e-03
 -2.5462680e-03
  1.3533566e-03
 -4.6374365e-03
  2.1899312e-03
  1.7223222e-03
 -8.4712217e-04
 -1.8404672e-02
 -5.1292526e-03
  3.5012672e-03
 -4.9771750e-03
 -3.7273541e-03
 -1.2607531e-03
  1.2978991e-02
 -6.7880255e-04
 -2.8934382e-04
 -1.2576655e-02
 -1.1377403e-02
 -9.7528426e-04
  9.2540784e-03
 -5.5900728e-03
  3.2923708e-05
 -5.5189361e-03
  2.7325463e-03
  3.7713654e-03
  2.2593453e-03
  1.4569622e-03
 -6.7321461e-04
  1.1185189e-03
 -1.1850899e-02
 -3.8753601e-03
 -2.1224448e-03
 -7.1094534e-04
  1.9002862e+00
  1.7117609e+00
 -4.0636707e-02
 -5.3479701e-01
  2.9684064e-01
 -1.0776225e+00
 -1.8711181e+00
  8.1002630e-02
  1.0956920e+00
  1.9406331e-01
  7.1221799e-01
  2.9741304e+00
  8.0195165e-01
  4.1627262e-02
  1.0646634e+00
 -1.1984063e+00
 -6.4814538e-02
  2.0231715e-01
 -5.6248546e-01
 -1.9267868e-01
 -5.2353793e-01
  1.3065230e+00
  1.0589538e+00
 -4.4736925e-01
 -1.0414745e+00
  1.2805570e+00
 -3.2531559e-02
 -3.3111337e-01
 -4.4120215e-03
  2.0054104e-02
 -7.3323026e-06
  5.2838633e-03
 -2.0215630e-03
  9.4053363e-03
  4.4565520e-01
 -5.0227914e-05
 -5.8656689e-03
  1.0349890e-02
  2.6041218e-03
  4.7043366e-03
  3.2459828e-03
  2.0683031e-03
 -6.7736022e-04
  1.4570325e-03
  1.0759349e-02
  3.5759781e-03
 -2.5807465e-03
  2.8084898e-03
  2.7376884e-03
  6.1576017e-03
  1.6650334e-03
  1.8877072e-03
  7.8301987e-04
  4.1929809e-03
 -4.5545092e-03
 -5.2188765e-03
 -6.7511364e-03
 -5.3862962e-03
 -4.1349721e-03
 -3.2074917e-03
 -4.6733570e+00
  2.2268420e-01
 -2.4138279e+00
  7.3876315e-01
 -5.9626657e-01
  1.1451819e+00
 -5.8951640e-01
 -1.6824770e+00
  2.5649614e+00
 -5.2910978e-03
  8.9341126e-02
 -5.2617475e-02
  8.1799068e-02
 -3.0039489e+00
 -3.9688674e-01
  3.0609801e-02
 -1.2997237e+00
  5.5404980e-02
 -2.9073045e+00
  1.9871516e+00
  1.7422689e+00
  6.8863422e-01
  1.2821351e+00
  1.6278387e+00
  1.1694745e+00
  3.2417166e-01
 -8.3054684e-02
  1.2085810e-01
 -3.2146421e-01
 -3.0552451e-03
 -5.6062657e-01
  8.2633489e-01
 -6.1359555e-01
  6.6000599e-01
  1.0232699e-01
  4.9822524e-01
  7.5299251e-01
  2.6710199e-02
 -4.6654329e-01
 -1.4239630e-02
  1.3099524e-02
 -2.0850956e+00
  1.5219406e+00
  7.2388506e-01
 -6.8297642e-01
  1.1645465e+00
 -1.7355487e-01
 -3.2282968e+00
 -1.9200230e-03
 -5.4870443e-03
 -6.5848720e-04
  9.3676496e-01
  8.0724680e-01
 -4.8732808e-01
  8.9339143e-01
 -7.2832650e-01
 -4.7796243e-04
  4.7968701e-03
  1.2510801e-03
  6.2418533e-03
 -1.7317333e-03
 -2.3197625e-03
 -1.1018104e-03
  2.2526684e-03
 -8.6383829e-03
  1.5972746e-03
 -1.0792801e-02
  2.5324370e-03
 -2.9226011e-03
  3.8208629e-03
  5.8754655e-03
  8.6666184e-04
  2.0946709e-03
 -6.5682884e-03
 -2.8442112e-03
  1.0971727e-03
  5.8404035e-03
 -1.6866557e-02
 -1.2104434e-03
  1.3648212e-03
 -3.1673734e-03
 -1.8095011e-03
  5.9301467e-03
  3.1254727e-03
  1.7628290e-02
  7.9258758e-01
  8.1122881e-03
 -1.8745431e-03
  1.8032759e-03
  4.2386474e-03
  8.3464704e-04
  2.7858838e-03
 -1.4242175e-02
 -2.5895825e-01
 -2.0886859e-01
 -4.6239509e-03
 -5.1715933e-03
 -1.1632701e-03
  8.9836767e-04
  2.5236150e-03
  1.7780242e-02
  4.3098121e-03
 -3.9568217e-03
 -9.7593066e-04
  3.3282326e-04
  1.3177136e-03
 -2.2489286e-04
 -3.4459939e-03
 -4.3369178e-03
 -2.5357599e-03
  2.6604994e-03
 -5.0957752e-03
  1.7024335e-03
  1.0365937e-03
  4.8633805e-03
 -5.3515972e-04
 -1.9274063e-03
 -1.7451656e-03
 -1.9436417e-03
  2.4666814e-03
 -5.0319605e-02
 -5.1756371e-03
  2.6883092e-02
 -4.6201131e-01
  9.8495722e-02
  7.2457236e-03
  3.0212076e-03
 -1.4528855e-03
  2.6532973e-03
 -1.4178945e-02
 -5.2609187e-02
  6.0373838e-03
  1.3359531e-05
 -2.0802692e-03
 -1.8640419e-03
 -3.6414966e-04
  3.5411404e-03
  8.0990475e-03
 -1.2379635e-01
 -2.3964380e-03
  6.3047275e-02
 -9.9469419e-04
  3.8479280e-01
  4.5228470e-02
 -2.5500789e-02
  7.4078497e-03
  3.8362879e-03
  2.2974140e-03
 -2.6404201e-03
 -2.4326053e-04
  1.5484618e-02
 -1.8320654e-02
  2.7369452e-01
 -1.2197610e-01
  2.7215961e-02
 -2.9023294e-04
 -2.2527045e-03
 -1.1101912e-03
  8.2334168e-02
 -5.4086023e-03
  1.5535153e-02
 -3.5340346e-02
  7.0841494e-03
 -2.0605712e-01
  1.6605499e-04
  3.5104211e-02
  1.2345293e-02
  2.5018939e-01
 -2.8230533e-01
  1.4844012e-02
 -4.4702846e-03
  1.8926493e-03
  2.0916462e-02
  1.1595898e-01
 -3.2038480e-02
 -8.5083321e-03
  2.2959398e-02
  8.0275498e-03
  3.3545089e-03
 -4.4419793e-03
 -6.7281568e-01
  1.2689672e-01
 -6.3649762e-01
  2.4180925e-01
  4.3747216e-01
 -2.1114291e-03
 -1.1369309e-03
 -2.2161487e-03
 -5.5906305e-04
  1.8718488e-03
 -1.3831400e-03
 -6.8486352e-03
  1.4222518e-03
 -4.5863498e-02
  5.2890405e-03
 -4.9005878e-01
 -1.2391292e-02
 -4.1986373e-01
  3.9188846e-04
  7.2395159e-03
 -4.4403762e-01
 -6.6256728e-03
 -1.1502978e+00
 -9.4729558e-02
  9.6749980e-03
 -6.8450193e-03
  1.3741381e-01
 -5.9688124e-03
 -3.0745659e-03
 -9.3789044e-04
 -3.6681993e-03
  8.4015569e-03
 -1.3830904e-03
 -3.4186500e-01
 -1.2640801e-01
 -4.4882139e-03
  4.6737986e-03
 -2.0941531e-03
 -1.6135892e-03
  4.0217056e-03
  7.5821569e-03
  3.1285286e-03
  3.5262205e-02
  1.5829345e-03
  5.7381303e-03
  4.9224491e-03
 -9.0444954e-03
  3.0923425e-04
 -1.2750428e-03
 -2.1420282e-03
 -1.0872128e-03
  4.6412535e-03
  4.6382728e-01
 -1.5934557e-03
 -1.3018398e-03
 -2.3165252e-03
 -4.9445201e-03
 -6.0662383e-04
 -9.1415457e-03
  1.7980211e-03
 -9.0570122e-02
 -1.4622141e-02
  1.1587941e-01
 -3.7741002e-02
 -1.6433792e-01
 -4.1706781e-03
 -5.6279516e-03
 -9.3966548e-04
  1.8802850e-02
 -2.6287630e-04
 -5.2503836e-03
  2.4864818e-03
  6.9288886e-04
  1.2392618e-03
  7.8405831e-03
 -3.0259234e-03
 -2.4660940e-03
  2.2429174e-01
 -1.0004468e-02
 -4.2776810e-05
 -6.8890648e-03
 -2.8416016e-03
  3.5156555e-02
  2.0901489e-03
 -3.7064203e-03
 -1.4747812e-03
  2.0118302e-03
 -7.9274606e-03
  5.7160696e-03
  2.6449540e-03
  3.6136058e-01
 -1.7615621e+00
 -3.2357096e-03
  1.5507519e-01
 -7.9986488e-04
  1.9515274e-03
  1.0538987e-02
  2.8407739e-03
 -4.2064872e-01
  1.0151765e-03
  6.5956169e-01
  1.6916639e-03
  3.4577750e-02
  2.3822137e-03
  4.5897394e-01
 -2.1946069e-02
 -3.1599641e-01
  7.4859466e-03
  1.5039818e-03
  1.4502563e+00
  5.0010715e-02
  5.5015659e-01
  1.8705790e+00
 -1.4858326e-04
 -1.0172806e-03
 -5.3539142e-02
 -1.2198531e-01
  3.5850018e-01
  1.3835792e-03
  4.9161003e-03
 -1.3457150e+00
  1.2170630e+00
  2.9039292e-02
  9.8028636e-01
  9.0005107e-02
  9.5896320e-03
 -1.1420208e-01
 -2.5902833e-03
 -1.5400170e-01
 -1.6682005e-02
 -1.6670179e-01
 -1.0443372e-01
  6.5605956e-01
 -1.0095068e-02
 -3.6235219e-01
  2.7642080e-01
  5.9333843e-01
  3.4255065e-02
  4.7497236e-04
 -8.2854903e-01
  2.3335917e-02
 -1.6212068e+00
  1.8211967e-01
 -1.4578484e-02
 -9.1598041e-02
  1.8655306e-01
  1.7570139e-01
 -6.2171631e-02
 -4.6133161e-02
  9.2349753e-02
  1.7619167e-01
  6.4705834e-02
 -1.0666712e-01
  1.4992683e-01
  8.2621602e-03
 -9.4701514e-02
  1.2698586e-01
 -3.7366953e-02
  5.5287620e-03
 -2.2448684e-01
 -1.3346970e-01
  4.3511984e-01
 -9.2812508e-02
  1.1743657e-01
 -5.2543914e-01
  2.7090020e-04
  1.2651654e-01
 -8.0284933e-03
  8.7463155e-02
 -1.0230085e-01
 -1.0357040e+00
  1.0907049e-01
 -6.7170715e-01
 -2.5733942e-02
 -9.9665987e-01
  2.1433987e-02
  2.8592220e-01
 -1.1575073e-02
 -1.1011823e-01
  1.0026918e-01
 -1.2350444e-02
  1.4800983e-02
  6.8231793e-03
  2.3519624e-02
  2.1791745e-04
 -2.4106707e-03
  2.1361248e-03
 -2.0628064e-03
  5.2781147e-03
  1.1456979e-02
  3.9843479e-03
  1.1313120e-03
  1.5560010e-03
 -6.8654283e-03
 -1.1053181e-03
  2.4790687e-03
 -1.8723197e-03
  2.2617646e-04
  5.1311129e-03
  1.0766238e-02
 -9.4497821e-04
  6.0778309e-04
 -3.0202250e-04
  5.6394842e-03
 -8.6485520e-03
 -4.1320827e-03
 -1.1789309e-03
  5.9399381e-04
  9.1086078e-04
  5.2724648e-03
 -1.7142524e-03
  4.9723405e-03
 -1.4075678e-03
  5.8491658e-03
  4.6497509e-03
  3.2594195e-04
  5.8080740e-03
 -2.8851400e-03
 -4.9909395e-03
 -2.2162287e-03
  4.5328259e+00
  4.8669707e-04
  1.5547997e-04
  3.0718499e-03
 -4.3661748e-03
 -1.6986835e-04
 -2.6802472e-03
  2.6330564e-03
  3.4986073e-03
  2.5729509e-04
  7.0097623e-03
  1.7664908e-04
 -2.2574584e-04
 -1.3496475e-03
  7.0419686e-05
 -4.3866504e-03
 -1.8602669e-04
  1.4466143e-03
 -2.2149850e-03
 -2.5001599e-03
  1.1252416e-02
  1.0966212e-02
 -2.6762241e-01
  1.4728826e-02
  2.0378761e-02
  6.5266096e-05
  3.3733882e-03
  6.6039083e-03
 -1.4898858e-03
  3.9078773e-04
  4.2880452e-03
 -8.7679867e-03
 -7.9820212e-04
  1.7837208e-02
  2.4366574e-03
  5.8775386e-03
  7.1375998e-04
 -1.6919018e-01
  4.8870929e-03
  9.7939325e-04
  9.8168831e-03
  4.0501808e-03
 -5.1294756e-03
  4.8183715e-03
  1.0325757e-03
  1.8207467e-03
 -1.0586564e-02
  1.2567263e-03
  3.0521266e-03
  1.3373724e-02
 -5.6053174e-01
  1.3251446e-01
 -4.5710182e-01
 -1.3268924e-02
 -3.8053796e-02
  2.3949591e-03
 -4.2661820e-02
  1.2327847e-03
 -4.7191284e-03
  3.8325280e-01
  4.2060129e-03
 -8.4655893e-01
 -4.2094318e-03
 -1.2829923e-02
  6.5869145e-02
  3.8623163e-03
 -2.7045263e-03
  3.1814179e-03
 -2.6352634e-04
  4.4567925e-03
 -3.5537374e-03
 -8.0815435e-04
  1.4103400e-02
 -2.1029584e-01
  9.5978700e-02
 -7.6911791e-05
  7.4811196e-03
 -4.4045453e-03
  5.9921490e-03
 -1.6720624e-03
 -1.2679587e-03
 -1.3165234e-03
 -2.3357350e-02
 -1.1651134e-03
 -4.6267603e-03
 -2.0266687e-03
 -4.1046608e-03
  4.4770301e-03
  1.8959146e-03
  2.3407785e-03
 -2.8534024e-04
 -1.1069786e-04
 -8.9239078e-03
  5.9080943e-03
  3.8836577e-03
 -4.6048104e-03
 -1.0410885e-02
  5.8199238e-04
  1.8224120e-05
  8.5809716e-04
  4.8427107e-03
 -7.0959684e-03
 -1.3497218e-03
  1.2442290e-03
  2.7177855e-03
  1.3833082e-03
  3.0342867e-03
  5.9058922e-03
 -8.7865032e-05
 -7.9164626e-03
 -9.1270223e-02
 -4.0099220e-03
  6.3188942e-03
  4.4583655e-03
 -2.5395809e-03
 -7.7587613e-03
  3.0405738e-03
  2.1115715e-02
 -2.3598874e-03
  7.8930240e-03
 -2.1855605e-03
 -2.4223619e-04
  8.6730048e-03
 -1.9728590e-04
  7.8594268e-05
  5.5770115e-03
 -3.6600898e-03
 -3.7164129e-03
 -2.7621812e-03
 -4.2596096e-03
 -3.6577645e-04
 -1.1114911e-03
 -7.7376550e-04
  3.3059597e-03
 -4.2052362e-03
  3.8456209e-03
 -1.7349012e-03
 -1.8558902e-03
  5.7226154e-03
 -3.3076112e-03
  5.1863246e-02
  6.2671095e-02
  1.4232303e-02
 -1.3145305e-01
  2.7502126e-03
  1.4356840e-03
 -1.1304406e-02
 -8.9309350e-02
  4.5648636e-03
  1.5945701e-01
 -9.2896260e-03
  8.2131729e-02
 -1.0476413e-01
 -2.0202543e-01
  5.0829733e-03
 -1.3340848e-02
 -1.0532115e-03
  3.1942558e-03
 -8.6392081e-01
 -4.0510879e-03
  1.0114924e-02
  2.5032228e-03
  4.0141568e-01
 -2.0671377e-01
  1.6996013e-01
 -4.5136094e-02
 -1.5783538e-01
  1.0339468e+00
  2.0430016e-03
 -7.5939216e-02
 -1.2395215e-02
 -3.4472951e-01
 -1.6513379e-01
 -4.3984666e-03
  6.2145297e-03
 -8.2754536e-04
 -5.0869351e-03
 -1.3771231e-03
 -7.6697934e-03
 -2.8229784e-04
  6.2944433e-03
  3.6410806e-03
 -5.0191121e-04
 -7.3022749e-03
 -6.7560654e-04
 -5.8483187e-05
 -6.1788509e-04
  6.9283657e-03
 -5.4877610e-03
 -3.4267821e-03
  9.1666216e-04
  1.0193898e-02
  3.2842034e-03
 -2.6778709e-03
 -3.1234894e-04
  4.2325859e-03
  6.0186824e-03
  1.1879581e-03
 -2.3170090e-03
  8.6623197e-04
 -1.1993621e-01
 -3.3924538e-01
 -8.0415057e-03
  2.0532835e-01
  1.6320378e-01
  6.0687889e-03
 -5.1017195e-02
  4.0111553e-02
  5.6107906e-03
 -4.1169714e-04
  6.4979359e-03
 -7.7576262e-01
  4.1812235e-01
  7.6061058e-01
  2.1606572e-01
  3.1886001e-03
  2.1740322e-03
 -7.9703284e-04
  9.5213449e-01
  2.5576568e-01
 -2.7294911e-03
  1.7850654e-02
 -2.7374962e-01
  3.3660144e-01
 -1.1397137e-01
  7.1622785e-03
  2.3533185e-01
 -1.1990963e-02
 -2.6441906e-03
 -2.4651276e-01
 -2.9482760e-02
 -4.4031860e-03
 -2.2170616e-02
 -8.7219961e-02
 -3.7772623e-03
 -1.0713267e-03
  6.2572490e-03
 -5.9010042e-04
 -5.4945531e-03
 -3.7651006e-03
  3.0939540e-01
 -8.0082649e-03
 -2.0269570e-03
 -1.7579865e-03
  8.2349917e-03
 -6.9858446e-03
 -5.4639317e-03
 -1.8455624e-03
  2.0536899e-03
  1.1738546e-03
  4.7732960e-03
 -5.4408484e-03
  8.4405392e-03
  2.6133007e-03
  4.6651214e-02
 -9.3644388e-02
  9.1828266e-04
 -1.3716520e-02
 -5.8459945e-04
 -1.2510939e-02
 -8.9725880e-03
  4.2330951e-04
 -1.5193416e-03
 -5.9566987e-03
  5.1786320e-04
 -6.3125481e-04
 -5.4142927e-03
 -4.6863039e-03
 -8.5685467e-03
 -6.5452969e-03
 -9.2953676e-05
 -1.3561439e-02
  3.1277768e-03
 -5.4203153e-02
  3.2644649e-03
 -3.5408401e-04
 -3.8481697e-03
 -3.1587542e-03
  1.0363550e-03
  8.5114278e-03
  7.7843480e-03
  6.3537210e-03
 -1.1196814e-01
 -2.1852308e-04
 -7.2662826e-03
  1.4118500e-02
 -1.4774185e-03
 -3.8373431e-03
 -1.2949088e-03
  3.9881067e-03
 -1.6314454e-02
  4.8178574e-03
  3.1206849e-01
 -2.9148541e-05
 -2.6241774e-02
  5.1317229e-03
  3.2454862e-03
  2.0414637e-04
 -2.5744115e-03
 -4.4480740e-04
  7.7523505e-03
 -5.2215420e-03
 -1.3453006e-03
  2.0682439e-03
  2.4553030e-03
 -2.1441816e-03
  2.4440933e-03
  5.7153553e-03
 -7.9181874e-03
  2.9787922e-03
 -4.2439620e-03
  6.6789589e-03
  3.7370883e-03
  6.5555423e-03
  5.9900002e-04
 -4.7139893e-03
 -8.5170213e-03
 -7.9146521e-03
  1.1981146e-03
 -1.0528307e+00
 -2.9301611e-01
  2.7509382e-01
 -9.5256972e-01
 -5.0844628e-01
  4.0037718e-02
  8.0791518e-02
  1.0273731e+00
 -4.4168613e-04
 -6.2219304e-01
 -9.0509802e-01
  1.0086066e-01
  1.8314604e+00
  7.8341979e-01
  2.1093583e-01
 -7.9737270e-01
  7.2150910e-04
  7.2255149e-02
  3.3018592e-01
  3.9986327e-01
 -3.9857287e-02
  2.9068086e-03
  1.3341690e+00
  8.6591399e-01
  3.6472178e-01
 -1.1773714e+00
 -1.9228862e-03
  1.0607249e+00
 -5.3116755e-04
  5.5043739e-01
  1.3331764e+00
 -3.2557386e-01
 -1.0590608e-01
 -1.2424052e-01
 -2.7728555e-01
 -1.4065406e-01
 -4.9714488e-03
 -3.6190459e-01
 -1.8052407e-01
 -5.0620854e-02
  3.6184192e-03
  1.0754527e-02
 -5.1642902e-02
 -1.6070378e-03
 -9.3503684e-02
 -1.2109070e-02
 -4.5171101e-03
 -1.0006154e-03
  2.0672642e-02
 -1.3653490e-03
  9.5637001e-02
  3.2047206e-01
  6.0883336e-02
  4.8861608e-01
 -4.5038927e-01
  1.9947741e-02
  3.8215774e-03
  1.5754739e-03
 -3.0764712e-03
 -2.2717931e-03
  4.6934526e-02
 -3.7922171e-01
 -3.0708194e-01
  3.6235139e-02
 -2.4361115e-02
 -9.9139363e-01
 -1.1221656e-02
  5.8624306e-04
  5.4433453e-01
  3.1822648e-02
  9.4897228e-01
 -3.1063105e-03
 -1.4556088e-01
  2.7307060e-01
  5.6716120e-01
  2.8014889e-01
  5.3178063e-03
 -1.7101166e-03
  4.4870243e-04
  2.9792634e-01
  2.1981417e-01
 -7.3144123e-02
 -8.0436352e-05
 -6.8836273e-03
  1.7821285e-01
  1.7668951e-02
 -1.3743668e-03
  8.6951777e-02
 -2.8952749e-03
  2.0798021e-03
 -4.0387142e-01
  1.0668388e-01
 -2.8974080e-01
  2.1654347e-01
  3.1406641e-02
  1.0618574e-02
  1.0040551e+00
  1.4928131e+00
 -1.1248184e+00
  4.3631893e-01
 -7.3694223e-01
 -1.5936188e-01
  1.3576534e+00
  2.2049809e+00
 -1.9326884e-01
 -2.7726093e-01
  2.6066380e+00
 -3.6798577e+00
  3.1933010e-01
  5.0221405e+00
 -1.1002865e+00
  2.2835281e+00
  2.1093035e+00
  2.9400513e+00
 -9.3465388e-01
 -2.6310930e-01
  1.0655464e+00
  2.3953128e+00
  1.4020193e+00
  3.5317414e+00
  7.8386709e-02
  1.4066336e-01
 -5.0182492e-01
 -8.5508086e-02
 -5.8644049e-02
  3.7431383e-01
 -1.9575071e-03
 -7.8205064e-02
  3.4794498e-03
  1.4016378e-02
 -6.7259726e-04
  3.2456936e-03
 -1.3628702e-01
  4.0450389e-03
  5.2971292e-01
 -1.7417265e-01
 -1.0655840e-03
 -1.2647435e-03
  9.2658535e-02
  6.5591093e-03
  6.9492601e-04
  2.7724863e-03
  9.7543783e-02
  5.1160961e-02
 -1.1118758e-01
  2.0670575e-01
  2.9277569e-04
  2.9559132e-02
 -3.7647716e-03
  6.1445553e-03
 -8.9410022e-03
  1.2075976e-01
  2.7872247e-03
 -3.2334817e-03
  1.6032858e-02
 -3.8365865e-04
  3.6524832e-03
  2.5322679e-03
  5.1082983e-03
  7.6425564e-04
  3.3317048e-03
 -1.4198904e-03
 -5.6750225e-03
 -1.2566757e-03
  7.7468851e-03
 -1.0877675e-03
  1.3262794e-03
 -2.0693260e-04
  9.1286907e-03
 -3.0100204e-03
  5.2072601e-03
  2.9469030e-03
  3.0068663e-04
 -8.4151467e-04
  9.0973917e-03
  2.7122867e-04
 -1.7186042e-03
 -1.1210198e-02
  1.1340703e-03
 -2.1306281e-03
 -2.0085452e-03
 -1.9325705e-01
  2.0211477e-02
  1.4228627e-02
 -1.8648616e+00
 -3.1283775e-01
  1.8896931e-03
  9.3524021e-01
  2.1260911e-01
  5.4096961e-03
  1.7671946e-03
  1.9536219e-03
 -8.6679295e-02
  3.3337057e-01
 -3.4364620e-01
 -1.1021397e-01
 -8.8815307e-03
 -5.7941233e-03
 -1.3417793e-03
 -1.0990590e-03
  7.4862405e-03
 -2.6496112e-01
 -7.3257154e-03
 -1.3549005e-02
  1.6578397e-01
  2.6820791e-01
  9.2872176e-03
  4.3541681e-02
 -1.1057592e-02
 -1.9188863e-03
 -1.3327517e-05
 -9.9470735e-02
  4.4446249e-02
  1.5185024e-01
 -3.2466199e-02
 -1.3048272e-04
 -1.3132987e-04
  9.4599360e-01
  1.2782019e-02
 -3.1643588e-02
 -3.0612054e-03
 -1.0070371e-03
  6.0893861e-03
  4.6559982e-04
 -2.3263106e-01
 -2.8839497e-02
  4.0531089e-04
 -9.9846453e-04
  2.3742449e-03
 -1.5490561e-03
  4.1156644e-03
 -3.7958408e-03
 -1.8282261e-02
 -1.9863360e-03
 -3.5197023e-02
 -2.4071661e-01
 -1.2615459e-03
 -5.2107996e-03
 -7.3007420e-03
  2.3757759e-02
  6.0272203e-03
 -4.7489887e-01
 -2.9726526e-01
 -9.3191586e-02
 -2.3086634e-02
 -2.2711758e-02
 -4.4231531e-03
 -1.0033491e-01
 -1.5223658e-01
  1.5020122e-02
 -2.4289112e-01
  5.5233099e-02
  2.1589026e-01
 -4.1828840e-05
  1.9037908e-01
 -2.6994927e-03
  2.4092451e-03
  5.7221055e-01
 -1.3465339e-03
 -4.4849358e-02
 -2.4005368e-02
  1.0190443e-01
  1.5530022e+00
  5.0807553e-03
 -2.5325137e-01
  8.9353509e-03
 -6.3854232e-03
 -5.0510222e-01
  1.1569158e-02
 -3.7052894e-01
  5.1200038e-01
 -5.6791131e-04
  3.6695958e-03
 -1.9968169e-02
  1.3469718e-05
 -4.5016452e-04
 -8.4726769e-04
  2.0151874e-02
 -1.3859151e-03
  2.9759263e-03
  6.7961521e-02
  1.0269183e-02
 -6.1458284e-03
 -2.2100101e-03
 -2.8474890e-03
 -1.4982931e-02
  1.2280421e-03
  8.5777277e-04
  8.2296925e-03
  7.3226180e-04
 -4.5220084e-03
 -2.4629456e-03
 -4.9402090e-03
 -6.4790072e-03
 -1.5521128e-02
 -3.5454514e-03
  2.8914138e-04
 -4.8435398e-04
 -5.3676181e-03
 -2.5984326e-03
 -2.1235212e-03
 -6.8473510e-02
 -1.9384986e+00
 -2.6258010e-01
 -5.1266527e-01
  1.7185082e-01
 -1.0263181e+00
  3.7274751e-01
 -1.0410414e+00
  1.6367385e+00
  1.1887157e+00
 -1.4413379e+00
 -4.6923411e-01
 -2.0860226e+00
 -3.1186515e-01
 -3.5662034e-01
 -1.8893714e+00
 -1.1345778e+00
 -2.8389519e-01
 -5.2168757e-01
 -5.2828336e-01
 -2.9093313e+00
 -2.3125148e+00
 -2.3248127e+00
  5.1612729e-01
 -7.6617432e-01
 -8.1654525e-01
 -1.8805481e-02
 -6.8389410e-03
  1.0902631e+00
  1.7501096e+00
 -1.9911079e-01
  2.9838288e-01
 -1.7489860e-03
 -2.4945154e-03
 -2.8243244e-03
  1.7344927e-02
 -4.5984262e-03
 -3.6811391e-03
 -2.0386672e-03
 -2.0121699e-03
  1.6090500e-03
 -4.1871574e-03
 -9.2275497e-03
  2.8054628e-03
  2.6460662e-01
 -2.7722488e-03
 -2.9263580e-03
  4.2008529e-03
 -4.9285619e-03
 -2.4017042e-02
 -5.3753611e-03
  2.6330296e-03
  4.1666767e-03
  1.2656307e-03
  3.2901058e-03
 -4.8957430e-03
  1.1395023e-03
  7.6388172e-03
  6.1680600e-03
  1.1671243e-02
  1.7927300e+00
 -2.2786969e-02
  2.5826480e+00
 -2.0072582e+00
 -1.3456014e+00
  7.2617689e-03
  4.4626033e-01
 -5.6100869e-01
  1.1151554e-02
  3.2587212e-01
  1.9244548e-02
 -1.8752676e+00
 -1.9951406e+00
  2.0661283e+00
 -1.3081144e-01
 -5.0754459e-03
 -1.6951553e+00
 -5.2084580e-02
  7.1830261e-01
 -1.3252990e+00
  2.2847574e+00
 -2.6177292e+00
  5.7636737e-03
  3.7246175e+00
  2.7202356e+00
 -3.2930926e-03
  2.0105894e+00
  1.4348070e-01
  1.5203061e-04
  1.0585641e+00
 -7.2357374e-01
  2.3570243e-02
 -1.4124798e+00
  1.7960248e+00
 -5.4671639e-01
 -5.4380771e-02
 -4.4972482e-01
 -3.2065124e-03
 -5.1416713e-01
 -2.1064062e-01
  1.3593701e-01
 -8.0176967e-01
 -4.0982881e-01
 -1.4648714e+00
 -8.1866193e-01
  2.6381975e-02
 -1.1787426e-03
 -1.5832867e-02
  3.3341683e-02
  2.2041885e-04
 -8.3539814e-01
  6.0866242e-03
  1.0912149e-01
  1.3396338e+00
  2.8324336e-01
 -9.2351320e-04
  2.0721757e-01
  9.2163011e-03
 -8.3041199e-02
  1.9984508e+00
  3.0437556e-01
 -9.0461470e-02
  3.4946209e-01
 -1.4428294e-01
 -8.5741019e-01
  6.9958813e-02
 -5.9818274e-01
 -4.5868489e-01
 -1.1168257e+00
 -8.1601113e-02
  2.6854938e-01
 -4.2760679e-01
  5.5291679e-02
 -6.3811950e-02
 -2.9616138e-01
  6.9220966e-01
 -1.2195259e+00
 -4.2766419e-01
  1.4928286e+00
 -3.9826328e-01
  1.9780315e+00
 -6.2013936e-01
 -1.3576460e+00
  2.0547223e+00
 -1.1433834e+00
  1.1344669e+00
  1.2110510e+00
 -3.7571472e-01
 -9.0918976e-01
  8.7891769e-01
  6.9318287e-02
  9.3903370e-02
 -2.3295777e-01
 -2.0862788e-01
 -2.9641485e-02
  6.8979599e-02
 -1.1650466e+00
 -4.2501307e-01
  4.4032523e-01
  1.8321594e+00
 -5.8358598e-01
 -6.9243002e-01
 -9.9602088e-02
  2.9054832e-01
  1.7107389e+00
 -4.6103796e-01
 -2.5291950e-03
 -2.2382932e-03
 -1.6632823e+00
  2.8870791e-01
  4.1785795e-04
 -2.0979844e-01
 -1.0217673e-01
 -1.4835845e+00
  2.2689711e-01
 -2.1645727e-04
  6.3347840e-01
  3.0487471e-03
 -4.5729838e-03
 -7.2352505e-01
 -3.1806919e-01
 -1.1483674e-03
 -3.7524052e-04
 -1.9486962e-02
 -3.6418898e-04
 -1.1399741e-02
  1.7361221e-03
  1.0600085e-03
 -8.6708851e-03
  9.2679486e-03
 -3.9817807e-01
 -5.0689297e-04
 -8.6862245e-05
 -1.1796339e-03
 -3.5229335e-03
 -5.2831275e-03
  1.0886857e-02
 -3.8749096e-03
 -1.0402136e-02
 -1.6215579e-03
  1.0258852e-03
 -3.5264899e-03
  1.9478626e-04
  2.4625699e-03
  1.0227625e-03
  3.4089158e-03
 -8.0412524e-03
  1.5517228e-03
 -7.1882820e-03
  8.9558372e-03
  1.3748132e-01
 -4.9779005e-04
 -7.8234856e-04
 -5.2196258e-03
 -1.0827960e-01
 -2.4950739e-03
 -1.9330309e-03
  3.7880316e-02
  6.5106675e-03
 -5.7812762e-03
 -3.6153125e-04
  6.6484590e-03
  1.0154756e-03
 -8.9246586e-02
 -4.3190770e-02
 -5.6325629e-02
  3.9990237e-01
  1.0768206e-01
 -2.2270600e-03
 -4.5331258e-02
 -1.5414566e-01
 -6.5903014e-01
 -2.5751863e-03
 -1.3571376e-01
 -1.2989846e-03
 -8.7161064e-01
 -1.3329367e-01
  6.9706774e-01
  2.7739874e-01
  2.2678891e-02
  1.4685538e-01
  5.1470026e-03
  4.4907271e-03
  4.4464752e-02
 -9.3930788e-02
 -3.4196982e-03
 -9.5019082e-04
 -6.1232291e-02
 -1.5479648e-02
  5.4492995e-02
 -8.5038031e-03
  2.6578780e-03
 -8.3674360e-03
  5.2248126e-01
 -1.6985655e-01
  4.2417958e-02
  5.6473148e-01
 -2.2904228e-01
  5.8178864e-03
  2.0758886e-02
  1.9198948e-01
 -6.1535805e-01
 -1.5526675e-03
 -3.7351173e-01
  2.2193727e-03
  4.6314698e-01
  1.5921879e+00
  1.3342887e-01
 -3.1467807e-01
 -9.6623674e-02
  1.8528665e+00
 -1.6864188e+00
 -2.0980401e+00
  1.9596295e+00
  1.6289428e+00
 -2.6640069e+00
  1.8476226e+00
  6.1800707e-02
  1.8488666e+00
 -5.2892294e+00
 -2.0548854e-02
 -4.8267409e-01
  3.9622891e-01
  2.7357981e+00
 -9.4496530e-01
  3.3519218e+00
  1.3598049e+00
 -2.3061695e+00
  1.2318969e+00
 -5.6051403e-01
 -3.1918597e-01
  7.4907809e-02
  1.9818001e+00
  4.6478338e+00
  1.5314611e+00
 -5.3857505e-01
 -7.6243991e-01
 -1.7226058e+00
  1.2067585e+00
  1.9788522e+00
  1.7102529e+00
 -1.7605433e+00
  1.2092475e+00
  2.2370382e-01
 -1.6561355e-01
  3.2956324e+00
  2.2477040e+00
  1.2325035e+00
 -1.1834176e+00
  1.8112130e+00
 -1.4261025e+00
 -3.8697785e-01
 -2.7177241e-01
  8.9561632e-03
 -5.7974154e-01
  2.3051797e-01
  3.5920757e-01
  5.0182626e-02
  2.9765055e+00
  1.5541449e+00
 -8.5368675e-01
 -2.7615323e+00
  1.0852733e+00
 -5.8821487e-01
  7.2327989e-01
 -2.0991280e+00
  1.1599349e+00
  3.2817857e+00
 -4.5428017e-01
  7.4338746e-01
  1.0699277e+00
  1.3374047e+00
  6.7268968e-01
 -4.0905333e-01
 -2.3324625e+00
  2.9375359e-01
 -2.1711957e-01
 -1.6856031e-02
 -3.8428047e-01
  1.7511052e+00
 -1.7380312e-01
 -9.2802995e-01
 -1.4055737e+00
 -8.2837939e-01
  1.0532479e+00
 -2.5721223e+00
 -4.4348127e-01
  2.9209192e+00
  2.5838414e-01
 -1.3043435e+00
  1.5844375e-02
 -1.7186899e+00
  4.5758027e-01
 -8.3216421e-02
  1.6743666e-01
  1.7077178e+00
  1.0252131e-01
  6.1426824e-01
 -3.1495312e-01
 -7.9711640e-01
 -5.6670308e-01
  9.5852512e-01
 -4.0031619e+00
  1.5117986e+00
 -7.3341280e-01
 -1.5508615e+00
  3.9637241e-01
 -5.9037733e-01
 -7.7104872e-01
 -2.6802039e-02
 -1.3281683e+00
  2.1598206e+00
 -6.0936129e-01
 -1.4139172e+00
  1.1187061e+00
  1.6956685e+00
 -4.6431318e-01
 -3.3641160e+00
  5.5515587e-01
 -5.1095700e-01
  1.2347980e+00
 -5.9554428e-01
  6.8548888e-01
 -2.0034521e+00
  6.2915897e-01
 -2.6246576e+00
 -2.3995996e+00
  8.0866003e-01
  5.7713890e-01
 -1.9027810e-01
 -5.3117293e-01
 -1.7783991e+00
  3.3784001e+00
 -4.0245175e-01
  1.2236334e+00
 -1.7420897e+00
 -9.6672332e-01
 -4.7085631e-01
 -9.7605102e-02
  6.0113275e-01
  1.7315912e+00
 -2.3648505e+00
  2.8293002e-01
 -2.8508060e+00
 -7.9233396e-01
 -1.0134917e+00
  7.5321150e-01
  8.0294126e-01
  6.1065793e-01
  1.0060270e+00
  9.8844860e-03
 -2.2627850e+00
  4.7958136e-01
  6.1251777e-01
  2.8104868e+00
 -2.1135390e-01
  3.9580184e-01
  1.5916226e+00
 -2.8543730e+00
 -6.0337204e-01
  1.1387557e-01
  1.9733961e+00
 -7.2283304e-01
  2.4655706e-01
 -9.4092518e-02
 -3.2044303e-01
 -2.6840401e-01
  3.0273499e+00
  2.8437987e-01
 -1.0735028e-01
 -9.1347468e-01
  1.0608453e+00
  6.3073859e-02
  4.5495567e-01
  9.5593816e-01
  4.5481663e+00
  5.6388360e-01
  1.9038218e-01
 -1.8541227e-01
  1.0869367e+00
  1.3417850e+00
 -6.2893862e-01
  5.8227980e-01
 -6.7072928e-01
 -8.0628490e-01
 -6.6564494e-01
 -1.9081560e-01
 -1.0813884e+00
 -1.3929726e-01
  3.2078046e-01
  1.7069893e-01
  5.7133734e-01
 -1.1886622e+00
 -3.0152676e-01
  5.9700513e-01
 -4.1980609e-01
 -5.7879692e-01
 -1.9158468e+00
 -6.3943768e-01
  1.2658480e-01
  6.8307942e-01
 -1.7937481e+00
 -2.4725277e+00
 -1.6969891e+00
 -1.5565010e+00
  4.6979904e+00
 -3.4340233e-01
 -2.4490783e+00
 -5.6652713e-01
 -2.2338610e+00
  1.2567687e+00
 -4.4380307e+00
 -4.0372068e-01
 -4.3092087e-01
  8.0807918e-01
  6.1278498e-01
  1.6085218e+00
 -2.6471941e+00
  6.5089589e-01
  1.5777931e+00
  1.3957388e+00
 -2.0326741e+00
 -6.1762050e-02
 -2.4388828e+00
  1.3315271e+00
  4.5501432e-01
 -6.9504082e-01
 -1.2035840e+00
 -5.1602423e-01
  1.4192626e-01
 -5.6474674e-01
 -1.0441359e+00
 -1.9946264e+00
  9.5876002e-01
  1.8623860e+00
 -1.5926576e-03
 -2.9534955e+00
  6.5371513e-02
 -1.3747432e+00
  8.7322634e-01
  2.4495521e+00
  4.4087458e+00
  5.2485943e-01
 -1.0793753e+00
 -2.8689983e-01
  6.3750452e-01
 -5.0458413e-01
 -2.4761665e+00
 -2.6932592e+00
 -1.7309048e+00
 -1.1121871e+00
 -6.4329125e-02
  1.5999397e+00
 -7.7350602e-02
  1.3045119e+00
 -2.3887553e+00
 -1.3562030e+00
  1.3092166e+00
  3.9299044e-01
  1.3403426e+00
  1.9896358e+00
 -8.7092727e-02
  1.4125189e-01
 -3.4208760e+00
 -4.0269476e-01
  1.9944800e+00
 -5.0524164e-02
  7.5368434e-01
 -3.0394664e-01
  1.4638989e+00
 -3.6196628e-01
 -9.7307360e-01
  2.3152978e+00
  1.1990427e+00
 -2.1854260e+00
 -2.1322134e-03
 -5.7732880e-01
 -2.6004943e-01
 -1.2417670e+00
 -7.6018655e-01
 -9.9540222e-01
  7.7582026e-01
  2.3863766e+00
  2.7280307e+00
 -3.1272051e-01
  1.5860170e+00
  1.2407980e+00
  8.5189414e-01
  1.6991562e+00
  6.7281604e-01
  8.5401320e-01
 -8.6604387e-01
  5.8722883e-01
  1.9898193e-02
  9.3896449e-01
  4.7737083e-01
 -1.3748162e+00
 -3.6818335e+00
  9.0361267e-01
  1.4909984e+00
 -6.2693197e-01
 -4.3114009e+00
  3.7967780e-01
  8.9628005e-01
  1.9052669e+00
 -1.6294436e-01
  7.1816403e-01
 -8.0687463e-01
  5.1395345e-01
 -2.9692852e+00
  2.7351952e+00
 -3.3235297e-01
 -8.1544745e-01
  1.1723863e+00
 -1.5276955e+00
  3.9538938e-01
 -1.0062200e+00
  2.2010131e+00
 -2.1901999e+00
  3.4731340e-01
 -1.2287340e+00
  4.2729845e+00
  1.2780055e-01
  1.3622360e+00
 -1.7704806e+00
 -1.9365872e+00
  3.2778239e-01
  1.7885849e-01
  9.2681724e-01
  4.0637865e+00
 -6.1006379e-01
  1.1828490e-01
  2.1533325e+00
  1.5221225e+00
 -3.6833456e-01
  6.8122691e-01
  1.4771049e+00
  2.4488570e-01
  3.6986241e-01
 -1.0357138e+00
 -3.9276853e+00
  1.3888799e+00
  1.9815058e+00
  3.8603517e-01
 -3.8324039e+00
 -6.0608478e+00
  1.0624959e+00
 -7.3289400e-01
 -7.0616466e-01
 -1.0380279e+00
 -6.8491757e-01
 -1.0114223e+00
 -2.7038646e-01
  3.5681729e+00
 -1.9937052e+00
 -2.9572227e+00
 -6.6428226e-01
  6.4341778e-01
  3.3561710e-02
 -2.0105798e+00
  2.6579373e+00
 -2.4880643e+00
  1.8712121e-01
 -2.2523765e-02
 -2.7073901e+00
 -8.8352352e-01
 -3.8823739e-01
 -2.1469877e+00
  1.9530884e+00
  2.7829497e+00
 -1.1620498e-01
  2.3987573e-01
  2.3987573e-01
  2.3987573e-01
  2.3987573e-01
  2.3987573e-01
  2.7517227e-02
  2.7517227e-02
  2.7517227e-02
  2.7517227e-02
  2.7517227e-02
  3.7265792e-02
  3.7265792e-02
  3.7265792e-02
  3.7265792e-02
  3.7265792e-02
  1.0258595e-02
  1.0258595e-02
  1.0258595e-02
  1.0258595e-02
  1.0258595e-02
  1.7763009e-02
  1.7763009e-02
  1.7763009e-02
  1.7763009e-02
  1.7763009e-02
  2.7190140e-02
  2.7190140e-02
  2.7190140e-02
  2.7190140e-02
  2.7190140e-02
