nep4 2 C H 
cutoff 8 4 7 7
n_max 4 4
basis_size 8 8
l_max 4 2 0
ANN 30 0
  6.6907108e-02
 -6.0045794e-03
  7.1234512e-01
 -6.2080447e-02
  4.8784785e-02
  3.3830260e-03
  3.0267296e-02
 -1.6653577e-02
 -7.2080540e-03
 -2.3532249e-03
  4.1940939e-02
 -3.7516400e-02
  1.2562958e-02
  6.8540625e-02
 -6.2818497e-02
 -7.0504416e-03
  6.9339000e-02
 -2.0380914e-03
  9.5078712e-03
  2.1337368e-02
 -1.8856540e-02
 -1.4153826e-03
  3.7058908e-03
  1.8182997e-02
 -1.6851877e-01
 -7.2345568e-04
 -5.1665336e-02
 -2.6930906e-03
  1.5818286e-03
 -1.7692348e-02
  3.2671040e-01
  3.1677786e-01
 -2.3682442e-01
 -1.1253928e-01
  8.5699700e-02
  2.7070902e-02
 -4.1424874e-02
  2.0071989e-02
  6.7680016e-02
 -1.6017599e-02
 -4.1489892e-02
 -6.3067746e-01
  4.6493042e-02
  1.5241778e+00
  2.9847565e-01
  3.6263281e-01
 -5.8088913e-03
 -5.8512028e-02
  1.2698958e-02
  3.2158207e-02
 -3.1738680e-02
 -4.1140434e-03
  9.8165311e-03
 -8.3799416e-01
 -1.9900778e-02
  3.4897029e-03
  4.8856609e-02
  9.3670655e-03
  7.9667747e-02
  1.4260331e-02
 -1.6392061e-01
 -1.8518463e-02
 -8.3082443e-01
  1.4702740e-02
 -3.8675044e-02
 -7.6504596e-02
 -8.0210064e-03
 -8.6004905e-02
  4.8557580e-01
  7.0132695e-02
  1.7039914e-02
  1.3387883e-02
  3.7633464e-02
 -1.3781562e-02
 -2.4911938e-03
  6.5765393e-01
 -2.5102232e-02
 -5.0432205e-02
 -4.0910836e-02
 -8.1282472e-03
 -1.1411020e-02
  5.2065384e-02
 -8.5000359e-03
  5.5728860e-02
  3.4438619e-01
 -1.4539163e-02
  7.5547220e-03
 -9.1089644e-03
  8.2535697e-03
  3.2723423e-02
 -8.6415567e-02
  6.2120069e-02
 -1.0203762e-01
  3.3383819e-01
  5.5576891e-01
  1.1093808e-02
  1.4819521e-01
 -3.0987984e-01
 -4.9648844e-02
  6.7937575e-02
  8.1121868e-01
 -7.2013170e-02
 -5.9727824e-01
 -4.8252508e-01
  5.1949114e-01
 -8.1709344e-03
 -5.0699092e-02
  1.1064557e+00
  2.5904325e-01
  2.6394358e-01
 -1.2120681e-01
  1.0952458e+00
 -7.8287020e-02
  4.1178778e-01
  1.4722441e-01
  2.0942548e-02
 -4.0352229e-02
 -1.1458692e-02
 -5.3153664e-01
  5.3777886e-03
 -9.4062366e-02
  5.0724000e-01
 -2.8425375e-01
 -5.6516659e-01
 -1.0325396e+00
  2.7715430e+00
  4.8044464e-01
 -1.0763308e+00
 -3.5679966e-01
 -2.9492912e+00
 -1.8972313e+00
  1.6229202e+00
 -1.9181808e+00
 -7.7073789e-01
 -3.4655017e-01
 -4.4895023e-02
 -1.3860515e+00
  2.1143498e-01
  1.0759605e+00
 -1.5873142e+00
 -1.4473463e+00
 -1.3135474e+00
 -1.5361274e+00
  1.4190783e-01
 -8.0302662e-01
 -3.0113637e+00
 -1.8441312e+00
  1.4620850e+00
 -2.3938527e-02
 -3.4376636e-01
  1.1355892e-02
 -1.0055339e-02
 -1.2723942e-01
  7.2632127e-02
 -5.5613674e-02
  4.8147082e-02
 -9.9480525e-02
  4.1621376e-02
 -3.4310915e-02
  1.9925009e-02
 -6.2646508e-02
 -6.8888655e-03
  1.0621868e-01
  8.3852209e-02
  9.4854292e-03
  9.3042471e-02
  8.7629948e-03
 -5.5687833e-03
 -1.2724935e-01
 -2.0482160e-01
  2.0032736e-02
 -1.1299097e-03
 -5.3206846e-02
 -1.8313913e-02
 -2.1036536e-02
  2.5514660e-02
  7.7838331e-02
  5.8752783e-03
  1.8575037e-01
 -7.9332227e-03
  1.0395708e-02
 -4.4189747e-02
 -8.7141901e-01
 -1.3211585e-02
  2.9262198e-02
  3.2685265e-02
 -1.5015999e-02
 -4.4035939e-03
  4.3816447e-02
 -6.5409102e-02
 -1.7952345e-02
  2.4860188e-02
 -4.0031955e-02
 -5.3785164e-03
  1.5713923e-02
 -2.1424823e-02
  2.0484589e-02
 -1.3887285e-01
 -4.5468111e-02
 -2.2544051e-02
 -3.5413906e-02
 -4.4366922e-02
 -1.4380355e-02
 -1.1101465e-02
 -4.2031545e-02
 -4.0778346e-02
  9.9769235e-04
 -3.4535117e-03
  3.2950034e-03
  3.3330105e-02
  1.6364484e-01
  5.2963650e-01
  6.9842869e-01
 -6.3507766e-02
 -2.9575560e-02
  8.2272408e-04
 -4.7926150e-02
 -1.7392837e-02
  5.9384257e-02
 -3.7737325e-02
  1.7451179e-01
  1.1678965e-01
  1.2073901e-02
  3.2239076e-01
 -7.9375722e-02
  1.2512039e-02
 -6.5500602e-02
 -3.0132202e-02
  1.4532785e-01
  3.2117739e-03
 -3.8995851e-02
 -1.5040070e-02
 -1.2922442e-02
  1.5018086e-01
  1.9405988e-01
 -1.6753333e-02
 -2.7342299e-02
 -2.0121850e-02
  4.6218820e-02
 -1.8868530e-02
  2.3381313e-02
 -1.8426159e-02
  2.8093079e-02
  4.0998980e-02
 -2.3745587e+00
 -1.5125812e-02
 -2.4824666e-02
 -3.6048260e-02
 -1.9067355e-02
 -1.7934555e-01
  5.2567989e-02
  7.0359875e-03
 -3.9879535e-03
  2.2477082e-03
 -3.6005452e-02
 -1.9115154e-02
 -1.2677395e-02
 -4.0705990e-02
  1.9169200e-02
  1.4216709e-01
  1.8701488e-02
 -2.3186531e-02
  2.6394287e-03
  1.3562770e-02
  9.3896031e-02
 -1.2427533e-02
  1.8613040e-03
 -5.2650057e-02
  2.0037230e-02
  5.9803031e-02
 -1.7463442e-02
  1.5228821e-02
 -5.3833300e-01
 -1.6428961e-03
  1.3277620e-01
  9.1400996e-02
 -1.4696375e-02
  4.5810580e-02
 -1.3416179e-02
  2.5479491e-03
  1.5578059e-02
  6.2720748e-03
 -3.4493852e+00
 -3.0670641e-02
 -1.4354229e-02
 -1.7303348e-02
 -3.9084673e-02
 -1.8374003e-02
  7.3578425e-02
 -1.7389387e-02
 -3.9769851e-02
  3.1535148e-03
 -8.3659656e-02
  6.2363088e-02
  4.1737324e-03
  2.7238358e-02
 -1.9017618e+00
 -3.5074484e-02
 -7.9578564e-02
  7.1537979e-03
  1.3766427e+00
  1.3258058e+00
  1.1925160e+00
  4.8058382e-01
 -9.2664951e-01
 -4.4666606e-01
 -2.2358496e+00
  3.3911336e-02
  1.1139294e+00
  3.0560527e+00
 -7.1034841e-02
  5.0876278e-01
 -2.8146746e+00
  3.0764931e-01
  3.5289153e-02
 -1.4843466e+00
 -2.6622072e-02
  4.4596335e-01
 -3.1356183e-01
  4.2468989e-01
 -7.4290830e-01
  2.1552885e+00
  6.8674886e-01
 -9.2002493e-01
  7.5047922e-01
  4.6156129e-01
 -1.0834836e+00
  3.5205964e-02
  2.0522931e+00
  3.5923269e+00
  9.3466836e-01
  8.5904663e-03
 -4.7676258e-02
  7.9072686e-03
 -3.6378931e-02
  1.9616775e-02
  3.7613325e-03
  4.9565297e-02
 -1.0392401e-02
 -1.4840827e-02
  4.5753226e-02
  8.7381415e-02
  3.6857001e-02
  9.2646134e-01
 -2.4292119e-02
  3.7827458e-02
  9.4532687e-04
  1.0947068e-02
  1.0773522e-01
 -1.5456446e-02
  4.4517569e-02
 -3.0717418e-02
  5.8888844e-03
  3.2611517e-03
 -4.0643262e-03
  7.7474033e-03
  8.9690257e-03
 -1.3387846e-03
 -1.9996937e-02
 -2.6825406e-03
  1.4386199e+00
  8.4702484e-02
  2.8073749e-01
  4.5649655e-02
 -1.5811307e-02
  4.9400469e-03
  5.4102454e-02
 -2.3386624e-02
  1.4599886e+00
  1.1925371e-02
  6.3707754e-02
  4.8255753e-02
  1.2705480e-01
  2.5511239e-02
  2.3923064e-02
  3.4003504e-02
 -5.1400013e-02
  5.3523798e-03
 -1.2362923e-03
 -1.1168672e-01
 -5.5572991e-03
 -3.8497597e-02
  3.2108240e-02
  1.1159309e-01
 -1.9594734e-03
  1.8436253e-02
  3.3524118e-02
  2.3436107e-02
 -1.7304774e-02
  9.1072107e-03
 -5.6256706e-01
  2.9992670e-01
  7.8808761e-01
 -1.3113185e+00
 -3.5636452e-01
  2.0959179e+00
 -2.3574801e-01
 -6.8784565e-01
 -1.7902871e+00
 -2.3900688e+00
 -1.5390078e+00
  5.2757823e-01
 -6.8898684e-01
 -1.5642402e+00
 -1.6413160e-01
 -4.1689131e-02
  2.0575733e+00
  2.7529740e+00
  7.9975498e-01
  2.1596255e+00
 -1.7307860e+00
  5.0051200e-01
  1.0649273e+00
  2.4426036e+00
 -3.6479359e+00
 -2.5198732e-02
 -1.4953059e+00
  3.5860542e-02
  9.1894585e-01
  3.1906414e+00
 -2.0794548e-02
  1.4022087e+00
  1.0744267e+00
  1.1431576e+00
 -2.0083194e+00
  3.2681024e+00
  6.1662823e-02
 -3.1676313e-01
 -7.3227072e-01
  1.3379120e+00
  4.8791346e-01
 -3.3477297e+00
  2.1902138e-01
 -8.8138145e-01
 -3.7728295e-01
  1.5536790e-01
 -2.2441859e+00
 -8.1321675e-01
 -6.6610861e-01
 -3.3766408e+00
  1.2355609e+00
  1.2461847e+00
 -4.9232836e+00
  4.3921620e-01
  5.6932861e-01
 -6.4529502e-01
  2.7482897e-01
  1.5314997e+00
 -7.2523588e-01
  2.9263896e-01
 -6.4353073e-01
 -1.4601942e-02
  5.2186209e-01
 -1.0965813e+00
 -4.1606528e-01
 -4.5145530e-01
 -7.5417019e-02
 -1.2910140e-01
  1.0644857e+00
 -6.0258199e-02
 -2.4225499e-02
 -1.1171045e-01
  4.1490316e-01
 -6.3021666e-01
 -9.7056550e-01
 -2.0906392e-02
 -2.7852845e-01
  5.9268624e-01
  1.6820815e+00
  6.4659826e-02
  7.7508107e-02
  8.9414738e-02
  2.4327259e-01
  2.8498678e-03
 -2.5604698e-01
  7.3785465e-03
 -6.9431342e-02
 -1.4733445e-03
 -3.7864900e-01
 -5.0104403e-01
  6.9722009e-01
 -1.7129855e-02
  2.3422410e-01
  7.8636289e-01
 -3.0016097e-01
 -9.6036446e-01
 -4.3549579e-01
 -8.5740286e-01
  5.1797990e-02
 -7.1257830e-02
  9.8240515e-03
 -2.6399970e-02
 -2.9891260e+00
  1.7428240e-01
  1.1057781e-01
  2.7831063e-01
 -1.3856353e+00
  1.4300162e-01
  5.7882899e-01
  4.3640040e-02
 -1.0428615e+00
  3.7636366e-01
  8.5321963e-02
  1.5702097e-01
 -1.2085608e+00
 -4.5422930e-02
 -2.7748359e-02
  1.0303018e+00
 -9.7518645e-02
 -3.1909708e-02
  1.6274272e-01
 -5.1163590e-01
  4.9441960e-01
 -5.3472078e-01
 -5.6104428e-01
  2.9003280e-01
  3.0181899e+00
  1.2718790e+00
  8.4397995e-01
 -8.1355423e-01
  8.8180059e-01
  1.8464567e-01
  1.0072142e+00
  5.0675631e-01
  1.1863483e+00
  1.2968316e+00
 -1.0972706e+00
  2.0529279e-01
  7.8907371e-01
 -1.0445867e-01
  2.4969740e-01
  1.6453739e-01
 -1.6634545e+00
  1.2474071e+00
 -8.0503482e-01
  2.7116925e-02
 -8.7948191e-01
 -7.5293761e-01
 -2.6226008e-01
 -2.2584093e+00
  1.6443966e-01
  3.6223870e-02
  1.0079447e+00
 -5.8211587e-02
 -1.4015790e-02
  2.0035530e-02
 -1.7031189e-03
 -4.6389140e-02
  4.2302348e-04
 -1.4027040e-02
 -2.6200090e-02
  2.5965488e-03
 -1.4935485e-02
  1.2366311e-02
  3.9022423e-02
  4.3570224e-02
  7.7055544e-03
 -4.3559592e-02
 -6.2389001e-02
 -2.0676598e-02
  1.8568616e-02
  4.8886497e-02
  1.6773175e-03
 -2.1470843e-02
  3.6205038e-02
  2.2206074e-02
 -4.2831056e-02
 -1.8004464e-03
  6.7157531e-04
  2.3045916e-02
  6.1889207e-01
 -3.7876406e-01
  1.1466093e-01
 -3.9950344e-01
 -3.3043921e-01
  6.3557141e-03
 -5.8728652e-03
  6.2296599e-02
 -3.4324519e-02
  5.1162895e-02
 -1.6143164e-01
  1.4413868e-03
  6.1235926e-03
 -2.2854339e-02
 -6.3290540e-03
  4.5475896e-02
 -1.4892964e-02
 -3.1610376e-03
  9.7080991e-02
  3.4159318e-02
  1.8228209e-03
  2.3748960e+00
  1.0820430e-02
 -5.6483740e-01
  5.0664055e-01
 -1.0140000e-03
 -8.0311038e-03
  1.4922261e-02
  7.4173582e-01
  7.6270826e-02
  7.5905047e-02
  1.6003186e-01
  1.7578502e-01
 -3.3086542e-02
  1.5303853e+00
 -1.3170013e-02
 -3.3927802e-02
 -1.7169282e-01
  1.9256246e-01
 -8.7442264e-02
 -2.4817688e-02
  2.5337595e-01
 -9.2676561e-03
  9.8650962e-01
  6.9919348e-01
  5.2862033e-02
 -2.8997891e-02
  5.1433578e-02
 -6.3562229e-02
  1.0269558e-01
 -3.7309849e-01
  9.3970872e-02
  1.3145848e-01
  6.4920771e-01
 -1.5597408e-01
 -4.5297544e-02
 -8.5243545e-02
  1.7883470e-02
  2.7974448e-01
 -8.7924823e-02
 -1.7764868e-01
 -3.6985919e-02
  5.3781116e-01
 -3.6787782e-02
  1.4421624e-01
  9.5240269e-03
 -3.1563219e-01
  5.2799466e-03
  4.8765081e-01
  1.0228654e-01
  5.2746635e-02
 -9.9345585e-03
 -7.6535242e-03
 -1.3900652e-02
 -1.8576268e-02
 -1.8677365e-02
  1.2636577e-02
  1.0201969e-02
 -3.6391929e-02
  5.2228817e-03
  8.0933966e-02
 -2.0118149e-02
 -2.9858153e-02
  1.6547015e-02
 -3.4003884e-02
  8.5875560e-03
  2.5079707e-02
 -5.9521440e-03
 -2.6690023e-02
 -4.9034487e-02
  1.6706523e-03
  2.8818277e-01
 -2.9147989e-01
 -3.6106244e-01
  1.4148417e+00
 -2.7692568e-01
 -2.8757327e+00
 -3.2654457e+00
  4.2671781e+00
  2.5054023e+00
 -1.6977750e-01
  5.4093593e-01
 -1.0635649e+00
  1.6410559e+00
  5.4598022e-01
 -8.3848697e-01
  1.9029062e+00
  1.5301069e+00
 -1.5773941e+00
  2.3904760e+00
  5.6101155e-01
 -8.3102429e-01
 -1.9933133e+00
 -2.6567447e-01
 -1.2057452e+00
  1.8232293e+00
  1.9729029e+00
  1.2398918e-01
 -2.7395153e+00
 -2.0520727e-01
  1.8930754e-02
  3.2992247e-02
 -6.4001626e-01
 -7.4110227e-03
 -1.6975665e-02
  5.5700604e-02
  7.6553762e-02
  6.0488779e-02
  1.6101077e-02
  8.9458106e-03
  3.4449015e-02
 -1.8610360e-02
  2.8871501e-02
  1.7308209e-02
 -2.9600850e-01
  5.1838506e-02
  2.7703518e-02
 -2.4591282e-02
 -1.4940321e-03
 -5.4746665e-02
  1.3119742e-02
 -2.2396266e-02
  2.2761688e-02
  2.7003035e-02
 -1.5823040e-03
 -7.8278771e-03
 -2.2631348e-03
 -1.1027024e-02
  5.1400959e-02
 -1.0786747e-02
 -1.6480417e+00
 -3.4018466e-01
 -2.7740309e-01
 -1.0539484e+00
  5.4567367e-01
  3.9552695e-01
  9.6054214e-01
 -6.5372813e-01
 -1.0387504e+00
 -3.9811617e-01
  7.9545313e-01
  4.3613374e-02
  1.4715532e+00
  2.9648885e-01
 -5.1835126e-01
  3.2068733e-03
  1.0655775e+00
 -1.0669888e-01
  2.8522766e-01
  1.7191839e+00
 -5.9710711e-01
  3.2918944e+00
 -1.0097532e+00
  3.3793801e-01
  3.3169991e-01
  2.2545367e-02
 -6.3994029e-03
  6.4567532e-03
 -1.7942874e+00
  8.4803331e-01
  1.5264241e+00
 -6.6630912e-01
  8.2790995e-01
  3.4878150e-01
  4.2969161e-01
  4.2449120e-02
 -3.5758369e+00
 -9.2352492e-01
 -4.4633212e+00
  4.0712709e+00
  2.8296497e-02
  1.6452298e+00
  3.4042349e-01
  1.3074787e+00
 -1.4121389e+00
 -2.7535391e+00
 -1.7752866e+00
  4.1556764e-01
  2.8589032e+00
  2.4533806e+00
 -1.1632111e+00
 -1.2652580e+00
  7.1997696e-01
  1.6907071e-01
 -1.9242761e+00
 -2.0033712e+00
  1.8457139e+00
  1.1183715e-02
  1.6663771e-02
 -1.1971638e+00
 -1.0902310e-02
  3.4072869e-02
 -9.5107168e-01
  2.6717266e-01
  6.5563291e-02
 -1.0206287e-02
 -5.2422628e-02
 -7.2219692e-02
  1.7253917e-02
  5.4777786e-04
 -3.1242548e-03
 -1.0850189e-02
  1.7995188e-02
  6.8459570e-01
  2.1754466e-03
 -2.9950589e-03
 -2.1155283e-04
 -2.0886742e-02
 -1.3549060e-02
 -1.2119983e-02
 -1.4639905e-02
  6.7963853e-02
 -4.5233765e-03
 -7.1612783e-02
 -9.7691584e-03
  1.5648190e-02
 -4.0051706e-02
  4.1010939e-02
  2.1441881e-02
  1.2480074e-01
  1.7741189e+00
  1.7715828e+00
  1.0253661e+00
  3.9811382e-01
 -9.8928863e-01
  2.9314322e+00
  4.0927231e-01
  1.1740737e-01
 -2.9166868e-01
  6.2883896e-01
 -2.4661310e+00
  3.4362223e+00
  2.8186700e-01
  1.7684979e+00
  1.5571960e+00
  1.8697318e+00
 -2.4589345e+00
 -8.2716835e-01
  1.0077052e-01
 -8.2419533e-01
  7.0316774e-01
  1.1174771e+00
 -9.3599737e-01
 -6.5923417e-01
  1.2988782e+00
 -3.3641577e-01
  2.7775750e+00
  4.5175417e-03
 -2.3519917e+00
 -2.2596915e-01
  1.7615488e+00
 -3.4592219e-02
  3.2727752e-02
  3.8792443e-02
 -2.3835907e-02
 -1.2655491e-01
 -1.3994068e-02
 -5.0190818e-02
  2.5879255e-01
  6.0927425e-02
 -5.6654729e-02
  8.5043488e-03
 -3.8621489e-02
  3.3930365e-02
 -2.2727117e-02
  1.0371322e-02
 -2.8655561e-02
  4.4970918e-02
 -7.0458569e-02
  6.0704425e-02
  3.2095809e-02
  1.9056691e-02
 -2.4353281e-02
 -4.8181289e-03
  1.6675182e-02
  4.5578605e-03
 -2.5134662e-02
  5.6830514e-03
  1.7638505e-02
  9.5444079e-03
  2.0833340e+00
 -1.8491834e+00
  5.1893890e-01
  7.8810072e-01
 -1.3812929e+00
  2.0378964e+00
  3.8405381e-02
 -1.4038827e-01
 -2.1108031e+00
  1.1438277e-01
  2.2539256e+00
  6.8641549e-01
  4.7911439e+00
  7.3096508e-01
 -1.2811886e+00
 -1.8058057e-01
  7.7794337e-01
 -8.5968691e-01
 -3.2150941e+00
 -7.0937365e-02
  2.0341108e+00
 -1.0955969e+00
 -1.6810795e+00
 -3.7883258e-01
 -1.4235461e+00
 -4.4960994e-01
 -1.4941941e-01
  3.1380542e-03
 -4.1460253e-02
 -9.5373215e-03
  2.8496321e-02
 -9.6418983e-01
 -5.5426385e-02
  3.7911455e-03
  2.7560639e+00
  1.1839198e-01
 -8.8288993e-02
  4.6903513e-02
 -4.2532936e-02
  3.5045519e-01
  2.8963351e-01
 -4.0502008e-02
  1.8916221e-02
 -6.9818115e-01
 -1.5042374e+00
  1.3064576e-02
 -3.1977838e-01
  1.4405304e+00
  3.6910962e-02
  7.6820886e-01
  5.1675804e-02
  2.3901191e-02
 -3.4305966e-01
 -2.1281876e-02
 -7.4422818e-01
  2.1131498e-01
  3.3870548e-01
  2.7323408e+00
  1.7570047e-02
  8.8763160e-01
 -1.2312198e-02
  1.2060248e-01
 -3.8960573e-01
  7.0359074e-02
 -8.2672423e-01
 -3.8797896e-02
  9.6511422e-03
  4.4573346e-01
  2.7471013e-02
  7.3764897e-03
  2.6357204e-01
  1.2871182e-01
  7.8047805e-02
 -4.0735927e-01
 -5.1405025e-01
  9.4040889e-01
  2.1832258e-01
  1.2706823e+00
  2.7209053e-02
 -4.1743565e-02
  5.7831573e-01
 -1.0990018e-01
  9.2119926e-01
 -4.3840623e-03
 -9.2350167e-01
 -4.4701517e-01
  6.0926187e-01
 -3.2647756e-01
 -2.4609359e-03
 -2.9384106e-01
  1.2001472e+00
 -7.5337710e-03
  1.1038796e+00
  3.0746568e-02
  8.8971281e-01
 -3.4592652e-01
 -1.8340939e-01
 -1.7886664e-01
 -3.6800943e-02
  2.3472811e-01
 -3.4247708e-02
 -4.2693620e-03
 -1.9717161e-02
  1.3569847e-01
  7.4989587e-02
 -3.8271450e-02
 -3.2570645e-01
  7.0100501e-03
  9.1683110e-03
 -2.6601776e-01
  2.4820341e-02
 -3.9801738e-01
  8.6558449e-01
 -5.1528043e-01
 -1.0192807e-01
 -3.1278142e-01
  2.8350234e-01
 -3.3977713e-02
  9.2122537e-01
 -3.5631973e-03
 -7.5002599e-01
  9.3567246e-01
  3.6162737e-01
  7.5539500e-01
  1.0480418e+00
 -1.6624788e-02
 -2.7891019e-01
  4.7742844e-02
 -6.6557033e-03
 -1.0047067e+00
 -7.8169364e-01
  1.1142122e+00
  9.7405243e-01
 -1.1593252e+00
 -2.1805093e+00
  3.6448991e-01
  3.1494671e-01
  1.8767372e-01
  4.2747159e-02
  1.5252537e-01
  4.5812041e-02
 -7.9728943e-01
 -7.5177497e-01
 -3.3398208e-01
 -2.3166814e+00
  6.5366310e-01
 -1.1808201e-01
  8.9139229e-01
  2.9645592e-02
  4.2071071e-02
  3.5291068e-02
 -1.0153983e+00
  8.5753989e-01
  2.8243440e-01
 -2.1423496e-02
 -1.2078555e+00
  4.5390657e-01
  2.5271031e-01
 -8.8531584e-01
 -4.4206028e+00
 -1.9256338e+00
  4.3564297e-02
 -1.1638463e-01
  2.0728207e+00
  1.9615570e+00
  2.1913922e+00
 -1.4191042e-01
  5.9132671e-01
 -8.9471720e-02
 -6.0314006e-01
  1.6991888e+00
  6.6229302e-01
  7.3409510e-01
  8.2002866e-01
 -4.5319736e-01
  2.2069860e-01
 -2.9025340e+00
  2.0107083e+00
  1.3651274e+00
 -1.3708350e-01
  3.8025373e-01
  2.7176365e-01
  2.5613418e-01
 -8.7117177e-01
 -5.8497900e-01
 -2.3348209e-01
 -1.2983580e+00
 -4.0332538e-01
  5.2422059e-01
 -2.8636096e-02
 -3.1136036e-01
 -1.7116972e+00
  8.4222621e-01
 -7.0929706e-02
 -1.4435849e+00
 -2.8902489e-01
 -2.2335961e-01
 -6.7219108e-02
 -1.2879753e+00
 -7.5524569e-01
 -3.9976445e-01
  5.4599386e-01
  7.9614425e-01
  5.8731967e-01
 -7.2132045e-01
 -8.1753314e-01
 -2.3627253e+00
  2.3612922e-01
  4.9825549e-01
 -1.1557927e+00
  2.0550725e+00
 -5.3616869e-01
 -2.1190119e+00
 -9.1948366e-01
 -2.2594443e-01
 -3.9921646e+00
 -1.0923600e+00
 -1.2178618e+00
 -2.0879500e-02
  4.4324046e-01
  8.5544765e-02
 -3.5191367e+00
  5.0816005e-01
  6.1720926e-01
  3.4043252e-02
  6.7231148e-02
 -2.7344637e+00
 -1.7510918e-01
  3.8450551e-01
 -1.4015696e+00
  1.7667427e+00
 -1.3433820e+00
  2.3408496e-01
  1.6258694e+00
 -9.6166205e-01
  1.0326879e+00
 -3.4892857e-02
  6.7946309e-01
  1.5071099e-01
 -3.1763566e+00
  6.9888607e-02
  5.9214849e-02
  4.9690142e-01
  2.3624204e-01
 -2.6633197e-01
 -8.0350667e-02
 -6.9839679e-02
 -1.5565002e-01
  9.1981459e-03
 -5.2195227e-01
  4.7416109e-01
  1.3070990e-01
  1.6081488e-01
  4.3399507e-01
 -5.0586212e-02
  4.9228981e-01
  8.9030534e-02
  1.0067435e-01
 -5.5531779e-04
  1.6252443e-02
 -1.0500307e-02
  6.7604758e-02
  2.3553459e-01
  2.8313941e-01
  1.7189208e-02
  4.4241086e-02
 -2.4334148e-02
 -1.7709818e-02
  6.3363664e-02
 -1.9580133e-03
 -4.4630170e-02
 -3.9069105e-02
 -1.3133902e-03
  1.0128078e-03
  3.5382859e-02
 -2.2671218e-03
  2.5026783e-02
  3.9376967e-02
 -3.4046475e-02
 -1.9430513e-02
  1.1239497e-02
 -1.3724155e-02
  9.9008242e-03
 -5.5716066e-03
  8.5913343e-03
 -3.2242369e-03
 -8.2740016e-02
 -3.7107579e-02
 -2.4505356e-02
 -3.8975704e-02
  1.5309453e-04
 -1.8777797e-01
  1.6749091e-02
 -9.7168162e-02
 -3.6235262e-02
  2.6510371e-02
 -1.4958673e-03
  2.7708180e-02
  1.1972586e-02
  2.1249656e-02
 -6.0415453e-01
 -2.3185267e+00
 -1.9683847e+00
  4.5717306e-02
  8.1702858e-02
  3.7091205e-01
  2.8066531e-02
  1.7944483e-01
  4.1762948e-01
  2.6590591e-02
  3.8659438e-01
  2.2723736e-01
  4.7839329e-01
  1.0791723e-01
  9.9140316e-01
 -3.2223441e-02
  5.4433078e-01
 -8.7127797e-02
 -1.7687309e-01
  7.6965249e-01
 -5.7264876e-01
  7.2663188e-01
 -1.0333310e-02
 -1.7934018e-01
 -9.7682762e-01
 -3.0385551e-01
 -3.0383415e+00
  4.7179767e-01
  2.3463187e-03
 -1.9947352e-01
 -6.1203426e-01
 -3.6277565e-01
 -5.2702504e-01
  5.1190373e-02
  9.2007941e-01
  8.4312946e-01
 -3.7786958e-01
  1.9406566e-02
 -1.6173108e-01
 -8.1055390e-04
  2.3538025e-01
 -2.2381301e+00
  1.4023079e-01
 -8.8565248e-01
 -3.0475685e-01
  4.0866515e-01
 -6.8196154e-01
  1.4823626e-02
 -4.8604196e-01
 -1.1672411e+00
  1.6183366e+00
 -4.8531232e+00
  2.0219545e+00
 -9.6056014e-01
  4.6313336e-01
  8.3076221e-01
 -1.4391564e+00
  1.0051942e+00
  1.6190016e-01
  1.0511691e-01
  1.2457826e+00
 -2.7032319e-01
  7.2336906e-01
 -1.0347313e-01
 -6.0935915e-01
  3.8861968e-02
  3.5955292e-01
  6.7726833e-01
  8.7662242e-02
  1.2076601e+00
  8.6911708e-02
 -1.0617307e-01
  3.7826893e-01
  4.0534934e-01
  6.8903702e-01
  9.7948980e-01
  1.5091889e-01
  1.8746020e-01
  3.2193020e-01
  2.9277477e-01
  8.9040518e-01
 -9.4798077e-03
 -2.0746483e-02
  2.2602361e-01
  1.1570830e-01
  6.0107982e-01
 -7.5768337e-02
  1.7408888e-01
 -5.4243910e-01
 -1.2664056e-01
  7.8116089e-02
  6.9175340e-02
 -1.5007950e-01
 -1.9187912e-01
  2.6982152e-03
  2.4761510e+00
 -1.6289980e+00
 -1.4951271e+00
  6.5931261e-01
  1.6911325e+00
 -2.2823682e+00
  6.9983011e-01
 -9.7653675e-01
  1.6504464e-01
 -1.2151557e+00
 -4.3759483e-01
  2.1867311e+00
  5.7832724e-01
  8.5676439e-02
 -2.8915915e-01
  2.0526862e+00
 -1.2915189e+00
 -2.4036698e+00
  3.5383713e+00
 -5.7579297e-01
  8.9512251e-02
 -2.1993995e+00
  1.3938605e+00
 -1.1352031e+00
  2.6165330e+00
 -8.1408542e-01
  7.8309298e-01
 -8.7613785e-01
  2.6658827e-01
 -1.3246759e+00
  1.2866106e+00
 -2.4386773e+00
  2.8503671e-01
  8.5785937e-01
 -2.2666271e+00
 -6.1040230e-02
 -4.1341842e-03
  2.6058272e-02
  1.0871952e+00
 -1.0769640e+00
 -2.8571960e-01
  6.1131191e-01
  1.4209647e-01
 -8.5677184e-02
  5.1657748e+00
  2.6318785e-02
 -8.6937428e-01
  1.9132687e-01
  3.6007792e-01
 -2.5052744e-01
 -1.5658082e-01
  5.3682953e-01
  1.0333031e+00
 -2.2102639e-01
 -1.4986658e+00
 -7.6415710e-02
 -1.5418738e-01
 -9.4872725e-01
 -4.1620475e-01
 -1.0640887e-01
  1.7756743e+00
  2.5433021e+00
 -1.1670916e+00
 -2.7046363e+00
  1.5316454e+00
  1.0441674e+00
  2.8570707e+00
 -2.3210948e+00
 -1.0582712e+00
 -5.6282330e-01
  1.4080514e+00
 -6.0725141e-01
  2.7065024e-01
 -1.9941663e+00
 -7.5066052e-02
  1.2440692e+00
 -7.8293800e-01
  1.9866923e+00
 -4.3739123e+00
 -2.0679533e+00
  6.4947367e-01
 -3.0686638e-01
  9.9083358e-01
  5.9355938e-01
 -2.3884070e+00
 -1.6772178e+00
 -7.2221145e-02
 -1.7565778e-01
 -1.2508045e-01
 -3.5357788e-01
  2.4421740e+00
 -1.5426856e+00
  4.4605479e-01
  4.2976964e-01
 -1.7139817e+00
 -1.2299289e+00
 -3.5660350e+00
 -1.8232018e-01
 -1.0278381e+00
  2.4987247e+00
 -4.4603875e-01
 -4.6916002e-01
  8.7737179e-01
 -7.4384669e-03
  3.5107160e+00
 -1.8424660e+00
  2.1361516e+00
  1.3143889e+00
  7.3284924e-01
 -1.1365590e+00
  2.0261717e+00
 -1.5597036e+00
  1.2104499e-01
  6.6748577e-01
  2.4444440e-02
  2.6068348e-01
 -2.5942013e+00
  3.3959776e-01
 -2.2802691e+00
 -6.7210644e-01
  2.8931928e+00
  3.7777421e-01
 -1.2040932e+00
  4.6281746e-01
 -1.4447451e-01
 -1.0251160e+00
 -1.8561862e-01
 -7.0803416e-01
 -1.2755476e+00
  2.1308327e+00
 -2.2783989e-01
 -1.5897270e+00
 -1.0477271e+00
  1.0291061e+00
  1.9503682e+00
  6.0617226e-01
  8.0907935e-01
 -1.5766759e+00
  1.4398003e+00
  1.1313117e+00
 -1.3837317e+00
 -5.3717704e+00
  2.2321904e+00
 -1.5752783e+00
  3.7202064e-02
  2.0048673e+00
  1.7614216e+00
 -6.5060484e-01
 -7.1153305e-02
 -3.2670477e-01
  1.0235302e+00
  3.2398742e-01
  1.3749064e+00
 -1.7887770e+00
  1.6417205e+00
  3.9104986e-01
 -1.4651395e+00
 -8.0581796e-01
 -3.3942327e+00
 -5.1249461e+00
 -8.2864058e-01
 -1.1626829e+00
 -2.5432053e+00
  1.1195439e+00
 -8.4932476e-01
  1.3045070e+00
 -3.2729658e-01
 -4.9377164e-01
  8.1716371e-01
  1.5677471e+00
 -1.1729182e+00
 -1.1000507e-01
 -1.3056992e-01
 -5.8932626e-01
  6.2116003e-01
  6.2953971e-02
 -1.2777396e-01
 -7.1096897e-01
 -1.5869558e+00
 -2.3834336e+00
  1.0832392e-01
  1.5338334e-01
  1.4610615e-01
 -7.0765001e-01
 -9.5109218e-01
  8.6377913e-01
  8.7292039e-01
  9.9371648e-01
  1.6327816e-03
 -2.1582308e+00
  5.5767751e-01
 -2.7485704e-02
  9.9463439e-01
  1.0196391e-01
  2.1631245e-01
  1.3903720e+00
 -4.2104694e-01
  1.5456651e-01
 -8.3987683e-01
 -2.2180717e+00
  4.7585568e-01
 -6.9267797e-01
 -2.1986673e+00
 -5.1150739e-01
  3.2021869e-02
 -6.2645185e-01
  1.4110347e+00
 -1.2565278e+00
  5.3009059e-02
 -1.6775753e+00
 -1.3442239e+00
  1.1138017e+00
  7.4082875e-01
 -1.3779342e-01
  1.6706699e+00
  3.4485564e+00
  1.4955360e+00
 -2.8092656e-01
 -1.9215404e+00
  1.9765543e+00
 -9.4116646e-01
  2.0661600e+00
  1.3792487e+00
 -1.4189343e-01
  4.7188571e-01
  1.1033223e+00
  6.9001073e-01
 -4.9249572e-01
 -9.9466369e-02
  8.4464610e-01
  1.7018842e+00
 -3.0177525e-01
  6.0832328e-01
 -1.3867839e-01
 -3.7449356e-02
  6.2403575e-02
  2.2637248e-02
  1.3295853e-01
 -1.2610123e-01
  1.0114504e-01
  1.2008066e-01
  1.1756577e-02
  5.3932168e-02
 -8.4773200e-03
  3.8887080e-02
 -6.5744273e-02
 -1.2270872e-02
 -6.7516871e-02
  1.5065353e-02
  4.7104023e-02
 -8.1691533e-02
  5.3047549e-02
 -1.2940793e-01
  2.4623748e-02
  4.6719242e-02
  8.1643328e-02
 -1.2019256e-02
 -9.2037760e-02
  1.1303157e-02
 -2.3794919e-01
  1.4827771e-02
 -2.6852101e-02
  1.5720464e-01
 -8.6052686e-02
 -3.7316225e-02
 -6.5876320e-03
 -1.7959310e-02
  1.7585723e-02
  3.5751456e-01
 -1.2239031e-01
  2.2272360e-02
 -3.2195222e-01
 -3.2679480e-02
 -2.1357423e-02
 -1.3458110e+00
 -7.9514802e-01
 -8.4912345e-02
 -2.1030005e-02
  3.4069277e-02
  8.3025759e-03
 -2.3417093e-02
  5.6748772e-03
  5.3327337e-02
 -4.6460822e-01
 -3.5986379e-02
 -5.8703471e-02
  7.2775106e-03
 -5.2630948e-04
  1.4513130e-03
 -3.9831746e-02
 -2.5481084e-02
 -2.2667048e-02
  8.5468665e-03
  2.1743543e-02
 -2.6267011e-02
  7.4698046e-02
  5.8807399e-02
  3.0809605e-01
  9.2276394e-02
 -6.0345453e-01
  7.7413535e-03
 -4.3809723e-02
  4.2361221e-03
 -2.6578730e-02
  2.5333283e-02
 -4.6683669e-02
  7.9290085e-02
 -3.7094116e-01
  5.3616462e-04
 -4.9393516e-02
 -4.4953797e-02
  1.6023211e-02
 -1.7569717e-03
  2.4838315e-02
 -2.2200099e-03
  4.8424350e-03
 -2.8067738e-02
 -1.2920957e-02
  2.4019198e-02
 -2.1122658e-01
 -1.8023081e-02
  1.0624954e-02
 -1.1152606e-01
 -9.8683489e-03
 -1.2494323e-02
  1.4735174e+00
  3.4065217e-01
  2.6999664e-01
  7.5701255e-01
 -8.0738135e-02
  1.2716389e+00
 -1.0787250e-02
  1.5667685e+00
  1.1890102e-01
  7.7041373e-02
  1.8846295e+00
 -2.6027817e-01
 -1.5281407e+00
 -4.3474692e-01
 -3.2610041e-01
  3.1202114e-01
 -1.0142834e+00
  5.3563559e-01
  5.3121221e-01
 -6.2703925e-01
  2.2839752e-01
  5.9053308e-01
  1.4271270e-01
  9.6616542e-01
 -1.5283191e+00
  2.4374459e+00
  2.8335841e+00
  2.8004417e-01
  1.6402178e-02
 -9.5596045e-01
  2.9261398e-01
  8.7261754e-01
  1.1774621e+00
  1.0966522e+00
  5.7055593e-01
 -6.7132837e-01
  4.6881196e-01
 -8.7232940e-02
  9.7202128e-01
  1.3751756e+00
 -1.3666386e-02
 -3.5616589e-01
 -7.7415720e-02
 -1.6941463e+00
  9.9634111e-01
 -3.3019653e-01
 -2.8929442e-01
 -5.2761060e-01
  2.3960245e-01
 -3.5096750e-01
 -1.1182363e+00
 -3.1802168e-01
 -4.2961669e-01
  1.5775351e-01
  3.7795451e-01
  7.8319567e-01
 -3.8816733e+00
 -8.2300112e-02
 -6.2542960e-02
 -1.6928658e+00
 -7.9882450e-02
  5.8607094e-02
 -3.6719590e-02
  3.9005581e-01
  2.1272892e-01
 -3.2685572e-01
  4.8862576e-02
  2.8138182e-01
  9.8185122e-01
  3.8380991e-03
 -5.2844077e-02
  1.7271301e-01
  4.1538019e-02
  2.2754294e-01
 -4.2830202e-01
 -3.8988140e-01
  2.7234621e-02
 -3.9102506e-02
 -5.7390177e-01
 -8.4549445e-01
 -2.8898831e-02
  2.7670750e-01
  2.0037609e-01
 -7.2249807e-02
 -3.3072674e-01
 -2.1012281e-01
 -2.5698689e-01
 -3.2566480e-02
 -2.0939821e-01
  1.8947622e-02
  5.7013041e-01
 -7.3692983e-01
  1.1684805e+00
 -1.2346522e+00
 -8.8699400e-02
  2.8876582e-01
  2.9978648e-01
 -7.8395569e-01
 -5.9999156e-01
  8.6840414e-02
  2.7537167e+00
  2.9878366e+00
 -4.3398777e-01
 -1.1460406e+00
  2.1236277e-01
  1.1932090e-01
  2.1074617e-01
 -2.6364845e-01
 -4.5171402e-02
  5.6410693e-03
  4.4361341e-01
 -4.3452480e-01
  1.0008842e-01
 -7.1953334e-02
 -8.4684956e-01
  8.2139647e-01
  2.6267370e-02
 -1.4228266e-01
  1.3097134e+00
  1.1764182e-02
 -3.9185557e-01
 -2.3330635e-01
 -1.7904042e-01
 -4.3830159e-01
  3.1486373e-02
  1.4044908e-02
 -6.2150031e-01
  4.7144067e-01
 -6.0677528e-01
 -4.9444368e-01
 -8.5477330e-02
 -4.3652594e-01
 -2.5936905e-01
 -3.5439011e-01
  5.9822005e-01
  1.3066894e-01
 -2.0639691e-01
 -6.7478573e-01
 -1.9361648e-01
  6.3340771e-01
  4.7480559e-01
 -7.1723336e-01
  8.4388059e-01
 -5.7348330e-02
  6.0077719e-02
  2.7127819e-02
  6.4174122e-01
 -3.3597034e-01
  1.2225047e-01
  6.7169797e-01
  2.0105022e-01
 -1.4712687e-01
  7.2362924e-01
 -7.2762537e-01
 -2.0335797e-02
  2.6989784e-02
 -1.2688753e-01
 -1.2270273e+00
 -1.2314595e+00
 -3.2335658e-02
 -9.1570896e-01
 -1.6644803e-01
 -7.1411833e-02
 -1.7121542e-01
 -1.6671585e-01
 -1.0238450e+00
  4.9339667e-01
  1.6255132e+00
 -4.9462110e-01
 -1.4756879e-01
 -3.7913084e-01
 -4.3523726e-01
  5.9751880e-01
  1.0007706e-01
 -1.5344943e+00
  4.0147611e-01
 -3.2228761e+00
  1.6425934e+00
 -5.4266453e-01
  1.5561649e+00
 -8.8593072e-01
 -3.9133063e-01
 -8.0904722e-01
  9.1220208e-02
  1.0521767e+00
  3.7921163e-01
 -1.9208777e-03
  3.7049364e-02
 -5.3318810e-01
  4.8072019e-01
  4.2333448e-01
  1.0185660e+00
 -2.5502872e-01
 -2.0846191e-01
 -3.1315055e-02
 -2.6109542e-03
 -1.4338546e-01
  5.9748983e-01
 -2.9159325e-01
  1.5356980e-01
  9.9360627e-01
 -4.8984376e-01
 -1.2702028e-01
 -1.2632849e+00
  1.8756630e-01
  2.1517175e-01
  2.2336226e+00
 -1.5881902e-01
  7.3551035e-01
  8.7489681e-03
  1.7889458e+00
  7.5340182e-02
 -1.1644334e+00
  1.0712302e+00
  5.3536713e-01
  7.7624792e-01
 -4.3093941e-01
 -5.3983080e-01
  3.0010683e-03
  5.4692447e-01
 -7.2511494e-01
 -2.7163610e-01
 -2.7337018e-01
  6.8489010e-03
  5.0614256e-02
  1.7023383e-01
  7.5063014e-01
  9.8454848e-02
 -2.5474587e-01
  1.5256474e+00
  1.6112459e-01
 -5.4309526e-03
  3.7092873e-01
  2.0340564e+00
  1.3428642e+00
 -5.3462678e-01
  1.2392576e+00
  2.5517157e-01
  1.6405863e-01
 -2.5966009e-02
  4.7139404e-03
  1.3269403e-02
  5.6639336e-02
  2.7633381e-01
 -2.0823474e-01
 -1.3963589e-02
 -2.5487065e-03
 -5.4240741e-02
  3.7141867e-02
 -3.6875564e-01
  1.1431342e-01
  5.0676920e-02
  2.4927022e-02
  4.7111679e-02
 -3.5880759e-02
  1.5948512e-02
  8.3753429e-02
  2.5478076e-02
  1.2691465e-01
 -5.7943005e-02
  9.3135620e-03
  4.3281954e-02
 -8.4881932e-03
  3.7679274e-02
 -2.9275469e-02
  4.8370287e-02
  3.1304609e-02
 -6.5170564e-02
  1.2784250e-01
 -4.2845220e-03
  8.4559500e-02
  4.7631887e-01
 -3.3431768e-01
 -5.6396514e-01
 -1.3724180e+00
 -1.7845275e-01
  1.0343473e-03
 -6.4525282e-01
  4.9204481e-01
  8.3715402e-02
  6.2845892e-01
 -6.3250107e-01
  8.0639437e-02
  2.0365046e-01
 -3.8307817e-03
 -1.4652852e+00
 -1.6540055e-01
  1.4555360e-01
  6.7997493e-02
  7.1205676e-02
 -5.9052248e-02
  2.9375386e-01
  1.8472025e-01
 -1.9581321e-01
 -6.5853402e-02
  1.0910033e-01
  2.1268071e-01
  6.3502449e-01
 -1.3047926e-01
 -2.8532788e-01
 -6.9158000e-01
  1.5460160e-01
 -7.4071127e-01
 -6.6107208e-01
 -1.5016806e+00
 -9.6908286e-02
 -3.5364677e-03
 -3.8383722e-01
 -1.1729672e-01
  9.3802556e-02
 -3.0171666e-01
 -1.2839334e+00
  9.2325181e-02
  1.3513604e-01
  6.5146440e-01
  1.2186480e+00
  5.5903282e-02
  4.8070971e-02
  1.4595646e-02
  3.1182962e-03
  5.4158700e-01
 -1.2397025e+00
 -6.9409877e-01
 -3.7617296e-02
 -5.4305804e-01
  3.0296427e-01
  3.9526173e-01
  3.3778110e-01
  1.6571431e-01
 -1.9357903e-01
  1.8608711e+00
  8.4637350e-01
 -8.0065513e-01
 -2.0019732e+00
  1.0857182e+00
 -1.6463158e+00
 -5.1985067e-01
  6.1820346e-01
 -2.1473398e+00
 -5.9942294e-02
 -8.9957696e-01
 -2.0101457e+00
 -4.0507582e-01
  1.3050119e-02
  7.7021021e-01
 -2.8045115e+00
  2.1566746e-01
 -8.4445566e-01
  1.0111624e+00
 -1.4940794e+00
  1.1092232e+00
  2.5897973e+00
  6.9501601e-02
  3.6109581e+00
  8.9854050e-01
 -1.6219481e+00
  2.5691504e+00
  7.2821093e-01
 -1.7496594e+00
 -1.0629504e+00
  6.6763200e-02
  1.5409894e+00
 -1.6277497e-01
 -1.9064502e-01
  1.5029491e+00
 -2.4473102e+00
 -1.1108294e+00
  3.5742750e+00
  1.1762036e+00
 -4.6487659e-01
  1.5668396e+00
 -3.4572953e-01
 -2.2213609e+00
 -2.7107337e-01
  9.3655449e-01
  4.4789049e-01
  1.9802460e-01
 -9.3665028e-01
 -8.4539026e-01
 -2.8661591e-01
 -2.1284871e+00
 -3.9765289e+00
  2.5291679e-02
 -2.2376721e+00
  9.9824369e-01
 -6.0154855e-01
  1.0250160e+00
 -2.8923244e+00
 -2.0285371e-01
 -7.8303590e-02
  4.3027824e-01
  1.1592582e+00
  9.1458511e-01
  5.7553843e-02
  9.4702923e-01
 -4.6535220e+00
  5.0983685e-01
 -9.8489982e-01
  1.2698877e+00
 -9.8007005e-01
 -1.2325397e-01
 -1.4521031e+00
  2.0875534e-02
 -7.5304443e-01
 -7.0682031e-01
 -2.6775417e+00
 -5.6184548e-01
  1.4508009e-01
  3.5541198e-01
 -9.1309869e-01
  7.7774725e-03
  1.9439994e+00
 -1.8754156e+00
 -3.1170639e-01
  1.6832813e+00
 -1.6521436e-01
 -4.0209156e-01
  8.6007997e-02
  1.9736440e+00
  4.4193983e-01
 -5.8146316e-01
 -1.3305924e+00
  8.3781588e-01
 -2.9900455e+00
 -8.3687079e-01
 -2.0886869e+00
 -4.4659674e-01
 -1.1788709e+00
  8.5604340e-01
 -3.0665192e-01
 -1.5359969e+00
  1.2205000e+00
  1.9869904e-01
 -1.7275090e+00
  2.3738673e+00
 -9.3201542e-01
 -2.3988912e+00
  6.2179422e-01
  1.3977368e+00
 -5.1255681e-02
  1.0916943e-01
 -4.4773197e+00
 -1.6228174e+00
 -1.2384545e+00
  5.7196904e-02
 -3.9716551e+00
  9.2973071e-01
 -1.7031100e-01
 -1.2523899e+00
 -4.6957457e-01
 -1.4417971e-02
  1.5677062e-01
  6.7783117e-01
  4.1186902e-01
  1.1251483e+00
  1.7425156e-01
 -6.4610612e-01
  2.4406090e+00
 -7.3227704e-01
 -2.0732102e+00
  9.7636431e-01
 -2.9833255e+00
 -3.0502361e-01
 -1.1918560e-01
 -1.6001283e+00
 -2.9417944e-01
  7.9162341e-01
  1.6801358e+00
  2.2628210e-01
  4.9030602e-01
 -2.2061021e+00
 -2.2619090e+00
  6.9396687e-01
  9.7831517e-01
 -3.2702968e-02
  3.2113412e-01
  9.3344414e-01
  1.4988848e+00
  9.4374025e-01
 -6.4762801e-01
 -1.5220636e-01
  7.2330016e-01
  2.4000148e-01
 -6.1336356e-01
  2.5322664e+00
  5.7518101e-01
 -4.4255048e-01
  1.0815656e+00
  2.0722523e+00
 -2.6013327e+00
  7.7010918e-01
  2.3282158e+00
 -1.9525815e+00
  1.7891277e-02
  1.3707682e+00
 -3.7097856e-01
 -3.9578545e-01
  9.5848554e-01
 -1.0587202e+00
 -4.1821915e-01
  6.0013801e-02
  8.9177066e-01
  2.4871187e+00
  2.9944434e+00
 -2.0336564e+00
  3.8870156e-01
  1.4937483e+00
  3.0140620e-01
 -2.7552384e-01
  1.3546369e+00
 -9.2625552e-01
 -3.8696453e-01
  6.2966555e-01
  3.5329944e-01
 -6.8030435e-01
  9.8627108e-01
 -6.6950715e-01
 -1.9048120e+00
 -1.7939411e+00
  6.6480249e-02
 -3.6630046e+00
  1.2196380e+00
  1.3658502e+00
 -1.0791712e+00
  9.0420061e-01
  1.9728016e+00
  1.7393082e+00
 -1.5652560e+00
 -5.3567851e-01
 -1.1864398e+00
  2.1201921e-01
  3.3953712e+00
 -1.0507390e+00
 -1.1075573e+00
  9.7038871e-01
  1.0101206e+00
  2.3924401e+00
 -2.5811214e+00
 -5.8243519e-01
  7.9743135e-01
 -7.1973610e-01
 -6.8404484e+00
 -1.9047723e+00
 -3.1487387e-01
  2.5021014e-01
  8.7812655e-02
 -1.7779698e+00
 -3.1650963e-01
 -3.4636894e-01
  1.7875166e+00
 -4.9558160e-01
 -1.6815341e-01
  1.9976528e+00
  2.5723279e-01
  1.7041076e+00
 -4.1256639e-01
  2.4745302e-01
  6.9846778e+00
 -1.9208663e+00
 -5.9310305e-03
  1.7521559e+00
  1.9218243e+00
 -1.5110168e+00
  2.8319240e-01
 -1.4709436e+00
 -3.6594536e+00
  1.4950546e+00
 -4.1832671e+00
  5.1859659e-01
  1.4914476e+00
  2.3402013e-01
  9.6634966e-01
  1.4709997e+00
  1.0707817e+00
 -1.8046392e+00
 -9.7288221e-01
  8.6409628e-01
  8.0940813e-01
 -2.1425257e+00
  2.5475013e-01
 -1.1383682e-01
 -1.3117452e-01
  1.7984501e-01
 -1.6839455e-01
  1.5612351e+00
 -5.8377266e-01
  5.4236174e-01
  2.1267962e+00
 -5.8292943e-01
 -4.9827239e-01
 -1.7670305e+00
 -1.4298857e+00
  1.6468436e+00
 -1.5068644e+00
  2.6254306e+00
 -1.3985711e+00
  9.6446171e-02
 -5.3123671e-01
  9.7287083e-01
  5.6652438e-02
 -7.2353762e-01
 -1.6022123e+00
 -2.6752086e+00
  1.1412648e-01
  7.4648428e-01
 -2.1574688e+00
 -1.8536800e+00
  3.7826356e-02
 -3.6456731e-01
 -6.2588280e-01
 -2.0436637e+00
 -9.9619895e-01
  8.0500340e-01
 -5.0004911e+00
 -1.8799651e+00
  2.0511656e+00
 -2.3590491e+00
  2.1999456e-01
 -1.1964461e+00
  6.2093300e-01
  8.6655194e-01
  1.0594004e-01
  7.7912456e-01
  5.0522941e-01
 -9.0499669e-01
 -8.6269301e-01
 -9.3921435e-01
 -6.8311292e-01
  1.1064594e+00
 -8.6685520e-01
 -4.5831817e-01
 -3.5124300e+00
 -1.1995671e+00
  1.6603614e+00
  6.4525992e-01
 -1.8601487e+00
 -2.2502768e+00
  2.4078770e+00
 -9.3631959e-01
  9.2948431e-01
 -1.1297931e-01
  3.6305419e-01
 -2.0130222e+00
 -3.2411316e-01
  1.4544996e+00
 -1.7096562e+00
  1.0182610e+00
 -4.3650550e-01
  8.7988603e-01
 -3.5451895e-01
  1.1103939e+00
 -1.6049633e+00
 -1.0265152e+00
  1.4948701e+00
  6.7438966e-01
  1.4036523e+00
 -8.6986685e-01
  1.0473794e-01
 -1.1930496e+00
  4.9834299e-01
 -2.1119640e+00
  2.0874236e+00
 -8.9989245e-01
 -9.1943806e-01
  7.4520952e-01
  4.2487934e-02
 -2.8304105e+00
  8.5723263e-01
  4.8705485e-01
  2.2138420e-01
 -7.0507950e-01
 -8.6030316e-01
  2.4133977e-01
 -1.2778956e+00
 -1.2108335e+00
 -1.5355339e+00
 -1.8665183e+00
  3.7499377e-01
 -3.6626225e+00
  2.9470834e-01
 -7.6946509e-01
  1.7377706e+00
 -1.5968870e-01
  1.8761861e-01
  5.2291566e-01
  3.0014219e+00
 -1.4740410e+00
 -1.4383682e+00
  2.6011622e+00
  1.1357656e+00
  1.6437986e+00
  2.3987573e-01
  2.3987573e-01
  2.3987573e-01
  2.3987573e-01
  2.3987573e-01
  2.7517227e-02
  2.7517227e-02
  2.7517227e-02
  2.7517227e-02
  2.7517227e-02
  3.7265792e-02
  3.7265792e-02
  3.7265792e-02
  3.7265792e-02
  3.7265792e-02
  1.0258595e-02
  1.0258595e-02
  1.0258595e-02
  1.0258595e-02
  1.0258595e-02
  1.7763009e-02
  1.7763009e-02
  1.7763009e-02
  1.7763009e-02
  1.7763009e-02
  2.7190140e-02
  2.7190140e-02
  2.7190140e-02
  2.7190140e-02
  2.7190140e-02
