nep4 2 C H 
cutoff 8 4 7 7
n_max 4 4
basis_size 8 8
l_max 4 2 0
ANN 30 0
  8.2065970e-02
  9.6334860e-02
 -8.4849700e-02
 -3.5386327e-01
  4.9915453e-03
  2.0620686e-01
 -2.6664788e-01
  4.5412533e-02
  3.1257933e-01
  1.5657809e-01
 -1.5341331e-01
 -2.3838945e-01
 -3.4118590e-01
 -1.3570628e-01
 -1.2841924e-02
 -8.2700923e-02
  2.7638784e-02
  1.8384273e-01
 -5.1515496e-01
 -1.4175904e-01
  2.7082169e-01
 -8.4195985e-03
 -1.6314913e-02
 -7.8456223e-02
 -1.7983854e-02
  1.7520425e+00
 -3.4074787e-02
 -1.6529606e-01
 -3.2719433e-01
  4.7795275e-01
 -1.3013567e-01
  1.6891158e-01
 -3.9904019e-01
 -4.7236010e-01
  2.3787376e-04
  1.2318429e-01
  2.4028258e-01
 -2.2054614e-01
  2.2568738e-01
  5.3545553e-02
  8.9457083e-01
  1.3346982e-01
  2.8343102e-01
 -1.1843406e-01
  4.4101756e-03
  2.4865825e-02
  9.7413972e-02
  1.3106847e-01
 -1.0914387e-02
  5.2808458e-01
 -1.7244506e-01
 -1.3918951e-01
  9.5265500e-02
 -1.8496104e-02
  2.9006202e-02
  1.6006863e-01
 -1.9864927e-01
 -1.4285281e-02
  8.4684409e-02
  6.9353208e-02
  8.1445110e-01
  1.3314447e+00
 -1.8915204e+00
 -2.8504636e+00
  2.1898925e+00
 -7.8339714e-01
  2.9034348e+00
  1.2750587e-01
  1.0559736e-01
 -4.6683440e-01
 -2.7917024e-01
 -2.6191058e+00
 -1.1149193e-01
  8.6345577e-01
 -1.2287914e+00
  1.1656972e-01
  5.2019615e+00
 -1.0414594e+00
 -1.6635072e-01
 -6.1217677e-02
  1.7016257e+00
 -1.3344040e+00
 -3.4521720e-01
  8.8909835e-01
  2.4290965e+00
  7.5046313e-01
 -2.4333289e-01
  2.2221343e-01
 -1.6025641e+00
  7.6647460e-01
  3.6165255e-01
 -6.8484288e-01
 -2.8297397e-01
 -1.5720651e+00
  6.4470865e-02
 -2.2715200e-01
 -7.3797248e-02
 -4.9667856e-01
 -2.1686103e+00
 -1.0419809e+00
 -1.9620776e+00
  8.0603212e-02
 -8.1378138e-01
 -1.6984896e-01
 -3.1018972e-01
  1.2185813e-01
 -3.0848011e-01
 -1.6493593e+00
 -2.4084772e-01
 -1.7664802e+00
  2.0772406e-01
 -4.6837392e-01
 -5.7067264e-02
 -1.4404584e-02
 -1.0859770e+00
 -1.4522968e-01
  4.5458433e-01
  1.2751837e-01
  1.7619325e+00
  1.4704689e+00
 -1.5194571e-01
 -4.8192912e-01
 -1.2182619e-02
 -5.8397233e-01
 -6.3721168e-01
  7.1805678e-02
  1.6013105e-01
  1.1242302e-01
 -4.4132164e-01
 -1.7450860e+00
  2.5380126e-01
 -1.6105495e-02
  9.6830711e-02
  2.4404255e-01
 -3.1937018e-02
 -3.3012092e-02
 -3.3335331e-01
  3.4567586e-01
 -7.1007103e-02
 -3.4199828e-01
  2.9075766e-01
  1.4481835e-01
  1.6643602e-02
  4.4357124e-01
  1.9138019e-01
 -5.0623631e-03
 -4.3497151e-01
 -7.7896588e-02
 -3.3751264e-02
  4.3194458e-02
 -3.0856445e-01
 -2.6175839e-01
  1.0148016e+00
 -9.7337580e-01
  2.1836385e-02
 -3.0285650e-01
 -3.9464387e-01
  5.2957762e-02
 -2.9723278e-01
  2.3896021e-01
 -1.5808824e-01
  1.1511651e-01
  2.1821988e-01
  1.7281158e-01
  9.1872349e-02
  9.1676638e-03
  1.5471183e-01
 -7.9521939e-02
 -2.9319537e-01
 -3.8397152e-02
  5.8392487e-03
  1.0590999e-01
 -4.2336178e-04
  9.2909420e-03
 -1.6499589e-01
 -1.6388789e-02
  3.5450694e-01
 -2.4262378e-02
  1.8269931e-01
  1.5208800e-01
  2.0421987e+00
 -3.1114537e-02
  2.1639530e-01
  1.5068838e-01
  1.0611641e-01
  2.3972993e-01
 -3.4108520e-02
 -6.8215746e-01
  6.0667939e-02
 -1.1328236e+00
 -1.6196278e-01
  2.5644373e-02
  6.4412698e-02
 -4.7004399e-01
 -4.0473551e-02
  3.6680464e-02
 -2.5948532e-02
 -1.7212875e-01
  8.0979729e-01
 -7.9975978e-02
 -2.4929722e-01
 -2.0580426e-01
  2.5793299e-01
 -2.7194631e-01
  2.1131748e-01
  5.7451170e-02
  2.7865656e-02
  2.0869903e-01
 -2.5076833e-01
  1.4946052e-01
 -3.3923648e-02
 -3.3620216e-02
  4.4462672e-01
  1.6044710e+00
  5.4436219e-01
  3.5767058e-01
 -1.4306848e-01
  4.1730911e-01
 -8.6441809e-01
  3.5028601e-01
  2.8709131e-01
 -2.8355184e-01
  1.0326301e+00
 -1.7116778e-01
  1.1188050e-01
 -1.4872456e-02
 -5.1218945e-01
  1.0396405e+00
  8.2265025e-01
 -8.0891520e-02
 -1.4955178e-01
  1.2561722e+00
  1.7241077e-01
  3.8746771e-01
 -9.6523625e-01
 -8.7647778e-01
  1.2760072e+00
 -2.7047023e-01
  2.2720423e+00
 -1.6337034e-01
  4.1746390e-01
  2.2053081e-01
 -6.7048490e-01
 -2.2616844e-01
 -4.2964932e-01
  3.9867790e+00
 -2.4837139e+00
  1.3335387e+00
  3.2625084e-03
  1.9962324e+00
 -6.3798016e-01
 -1.2825234e+00
  4.0281863e+00
  6.0692155e-01
 -1.0672565e-01
 -1.0942500e+00
  2.2724464e+00
 -1.8180462e+00
  2.0307724e+00
 -7.2998989e-01
 -2.6280618e+00
 -1.2232474e+00
  1.8003410e+00
  8.2670516e-01
  6.4299196e-02
 -2.2559166e+00
 -1.3285596e-02
  1.8892562e+00
 -1.1333400e+00
  1.8661945e+00
  1.1205223e+00
 -3.8746455e-01
 -3.7709379e-01
  7.1409452e-01
 -2.2976792e-01
  7.0010558e-02
  5.1961994e-01
 -1.1677399e-01
 -2.6403835e+00
  1.3040005e-01
  9.6038628e-01
 -6.0702119e-02
  4.3931775e-02
  2.5931093e-01
 -1.6294912e-01
  2.1877158e-01
 -3.1846294e-01
 -2.1873765e-01
 -8.4654260e-03
 -1.0282488e+00
 -1.2903070e-01
 -2.0888290e-01
 -7.5131096e-02
 -1.2716907e-01
 -7.6455705e-02
 -3.3534664e-01
 -2.8301060e-01
 -1.8046819e-02
  2.7620637e-01
  1.8815679e-02
  8.9101905e-01
 -6.7068535e-01
 -8.6812943e-01
  5.3105664e-01
 -4.9118358e-01
  3.4189601e+00
  3.1878817e+00
  5.6543058e-01
 -2.2123072e+00
 -1.0631475e+00
 -3.1482673e-01
  8.4948695e-01
  1.2164381e+00
 -4.4566315e-01
 -1.8476956e-01
  2.5846593e+00
 -3.0507333e+00
 -1.4319309e+00
  4.0177436e+00
  2.7656021e+00
 -7.0040649e-01
 -1.0292257e+00
 -2.1438298e+00
 -4.0439248e-02
  1.3794446e+00
  9.6013790e-01
  9.4647452e-02
 -2.1177676e+00
 -7.6428394e+00
 -5.7040036e-01
  5.4231739e-01
  4.7859158e-02
 -3.6622508e+00
 -3.1172690e-01
 -1.4401426e+00
 -3.9752617e-01
 -2.6806092e-02
  2.2180420e-01
 -2.5576554e-02
 -7.2416127e-01
  2.9972300e-02
  1.5089471e+00
 -1.5895958e-01
 -1.1710185e+00
 -3.2400891e-01
 -3.1538699e-02
  1.5297849e-03
  7.3415601e-01
  2.9954093e-02
  3.3051598e-01
  1.9461536e-01
  7.8254759e-02
  6.6119349e-03
 -4.7872284e-01
  6.4298704e-02
 -9.8215587e-02
  2.5604378e-02
 -4.9198258e-01
 -9.4357811e-02
 -5.5998944e-02
 -2.8653793e-02
  3.4136429e-01
 -1.3158230e+00
 -6.6284049e-01
 -1.6701876e+00
 -1.9419950e+00
  2.9458168e+00
 -1.3013990e+00
  2.0438592e+00
 -1.0264460e+00
 -1.6395385e+00
  1.6212068e+00
  4.3793696e-01
 -5.2203822e-01
  1.3316286e+00
  1.0192577e+00
 -1.3540814e+00
 -1.8269285e+00
  1.4756027e-02
  3.0252245e-01
  5.4977849e-02
  3.6824954e+00
 -2.1628711e+00
 -9.5686525e-01
  9.6255459e-02
  5.1226821e-03
  3.2359424e+00
  9.1186625e-01
 -7.7774829e-01
 -3.9379660e-04
  6.7722911e-01
  3.6767769e-01
  1.9382530e-01
  1.5843025e-01
 -1.7839900e+00
 -1.2525719e-02
 -2.7012916e-02
 -1.6502564e+00
  8.8670784e-01
 -5.0442928e-01
 -2.7673107e-01
 -3.5210934e-02
  2.9764184e-01
 -1.6492440e+00
 -2.6322250e+00
 -3.0019335e-03
 -1.0987855e-01
 -7.3550470e-02
  7.5743341e-01
  1.2853436e+00
 -1.1806072e+00
 -1.6039486e-01
 -4.5086554e-01
  1.2897831e+00
 -5.0979084e-01
  6.5899527e-01
  9.9150337e-02
 -1.2650149e-01
  1.7941844e-01
 -1.1306760e+00
 -1.3647977e+00
 -4.4876565e-03
  3.0651090e-01
 -9.7369856e-01
 -1.9054441e-01
  1.2955350e+00
  1.0081772e+00
  1.3541389e-01
  1.4203593e-01
 -5.0923175e-01
 -2.2227064e-01
  2.7161515e-01
  1.6696055e-01
  5.1532006e-01
  1.5253212e-01
 -8.5003167e-02
 -2.4785369e-03
  3.2286844e-01
 -9.0702258e-02
 -7.2542489e-01
 -8.3632674e-03
 -5.6825566e-01
  1.2611403e-01
  8.4165823e-01
  2.2112873e-01
 -1.0712058e-02
 -2.5854513e-01
 -2.3645173e-01
  1.3188513e-01
  5.1983517e-01
 -8.2992800e-03
 -2.6737897e-02
  3.5878915e-01
 -7.0961690e-01
 -2.2859052e-01
 -2.3349968e-01
 -2.4442747e-01
 -1.3781254e-01
 -2.8676847e-01
 -1.8037987e-01
 -6.4849496e-02
 -7.2138727e-01
 -1.6246630e-01
 -2.1413727e-01
 -4.3034238e-01
 -3.5914209e-01
  2.4327251e-01
  6.2044803e-02
  7.8729708e-03
 -1.1372449e+00
  1.9369493e-01
  1.5939677e-02
  2.9748477e-02
  6.8485692e-02
 -3.5916451e-01
 -1.8738323e-01
  6.1871752e-02
  7.7576764e-02
  1.3471347e+00
 -4.3107342e-02
 -6.1456584e-03
  4.1660264e-01
 -8.5457079e-02
 -5.3338438e-01
 -3.7974352e-01
 -9.1816944e-01
  4.1972871e+00
 -5.1368308e-01
 -2.8401474e-02
  3.3315294e+00
  6.1550921e-01
  1.3821650e+00
 -4.7084838e-02
 -5.8178324e-01
 -7.3491085e-01
  9.8407775e-01
 -1.6810992e+00
 -3.3287880e+00
  9.4855696e-01
  1.6056750e+00
  5.6239522e-01
 -1.7007043e+00
  2.7383497e+00
  1.8622400e+00
 -1.5404500e+00
  1.7399588e+00
  2.3861017e+00
 -3.7023234e+00
 -7.0375448e-01
 -1.3053004e+00
  4.5569572e-01
 -8.5860813e-01
 -1.8500218e-02
  2.5807977e-01
  2.0937677e-01
 -1.4808689e-01
 -1.8404055e+00
  1.2204119e+00
 -1.1434038e+00
  1.0422839e+00
 -3.7477882e+00
 -7.0859575e-01
 -3.1433868e-01
  6.9912672e-02
  2.6335366e+00
 -1.2617285e+00
 -3.9732292e-01
  7.3843622e-01
 -9.6117443e-01
 -2.8244512e+00
 -9.3709522e-01
 -3.0067667e-01
 -2.2332491e-03
  3.8841408e-01
  2.3550353e+00
 -2.5970498e-01
  1.3134655e+00
 -6.2878998e-03
  7.4533200e-01
 -5.5017948e-01
 -2.1246941e-01
  4.9388796e-01
 -6.3576221e-01
 -6.2693042e-01
 -1.2722847e-01
 -1.0477614e-01
 -2.7075467e-01
  2.1838580e-01
  1.2880786e-01
 -3.2629810e-02
 -1.1446498e-01
 -1.1932532e-01
 -1.5920867e-01
  8.3178288e-01
  2.4219776e-02
  7.1718674e-03
 -1.5625115e-01
 -3.2582352e-01
  1.1243883e-03
 -1.5795764e-01
 -8.1814621e-03
 -2.8332138e-01
 -3.0235186e-02
 -1.6760284e-02
  9.7028933e-02
 -1.2341315e-01
 -2.2457717e-02
  3.0685844e-02
  4.1290307e-03
 -8.1098869e-02
 -3.9780077e-01
  5.7479268e-01
  1.9964871e+00
 -1.1769496e+00
  6.1153036e-01
 -3.5637206e-01
 -2.6085670e+00
 -4.9627221e-01
 -2.8818717e+00
 -2.7834409e-01
  2.0569556e+00
 -1.0793118e+00
 -1.4114379e+00
 -3.4251277e+00
 -3.7800381e+00
 -2.6349893e-01
 -2.4314895e+00
  1.2448875e+00
 -7.4573481e-01
 -2.1627591e+00
 -2.9825690e-01
  1.3985069e+00
 -5.3101033e-01
  1.9650493e+00
 -1.6868846e+00
  3.0837622e-01
  7.8856945e-01
  7.9761520e-02
  1.2071016e+00
  9.4676144e-02
  9.0135589e-02
 -1.7679824e-01
  1.8498808e-02
 -2.8914109e-01
  6.3491188e-02
 -7.4165754e-02
 -9.2404269e-02
  1.9333610e-01
 -1.5424537e-02
  1.0205912e-01
 -1.1500811e-01
 -1.5565020e-01
  4.7678994e-03
  2.6584348e-01
 -1.4820768e-01
  3.5267919e-01
 -1.2577365e-01
  2.6541874e-02
 -2.9550330e-03
  5.4135777e-02
 -9.5255412e-03
  6.0361601e-02
  1.3041964e-01
  1.7861016e-01
 -2.0334026e-01
 -3.2094806e-02
 -1.2698567e-02
  5.8048397e-02
  7.3102444e-02
  1.0250030e-01
  3.9369786e-01
 -2.2910879e+00
 -2.5066608e-01
 -3.6408063e-02
 -1.6325398e-01
 -6.8277222e-01
  9.3741119e-01
 -8.5765533e-03
  1.6272236e+00
  1.9331311e+00
 -3.2290539e-01
  7.8904170e-01
 -3.9203344e-03
  3.2080072e-01
 -9.7920781e-01
  5.5099428e-02
  3.0112404e-01
  1.5467381e+00
  3.0002497e-02
  5.2500442e-02
  5.0392473e-01
  7.6609738e-02
  5.2923709e-01
 -1.4030087e+00
 -5.5996495e-01
  7.8331727e-01
  1.1236356e-01
  2.3110548e-03
 -8.3758235e-01
 -9.6313924e-01
 -1.1085945e+00
  1.1408815e-01
 -1.4509024e-01
 -6.8616140e-01
  3.6543947e-01
 -1.1224622e-01
 -1.4821482e-01
 -2.1023951e-02
 -3.7428517e-02
  1.9874236e-02
 -5.2407425e-02
 -5.6654507e-01
 -8.0505379e-02
  3.0330122e-01
  1.4578308e-02
 -1.3428583e-02
 -4.2734581e-01
  1.8636737e-02
 -1.5382364e+00
 -2.8715420e-01
  2.8309394e-02
 -2.2692801e-01
  5.6577899e-02
 -2.6116841e-02
 -5.5992890e-02
  1.0038923e-02
 -1.1935639e-02
 -8.1518084e-02
 -1.0912246e-01
  8.2024997e-03
  9.7196840e-02
 -6.0078609e-01
 -6.9700593e-01
  5.1439697e-01
  1.0169162e-01
 -5.4563377e-02
  1.4875707e-01
  1.3953146e+00
  1.3042742e+00
  2.1860023e-01
  2.3617525e-01
  4.3717390e-01
 -5.3025347e-01
  1.3233523e+00
  4.2484276e-02
  3.0316940e-01
 -8.7038726e-01
 -2.5499207e-01
 -5.4418761e-01
 -6.7495415e-03
  8.2612157e-01
  3.1814477e-01
  1.6993519e+00
  2.1777251e-01
  1.9085985e-02
 -6.7405826e-01
 -2.2197197e-01
 -1.0631410e-02
  3.7615262e-02
  6.4159129e-03
  4.8490736e-01
 -2.0569564e-01
 -1.3327752e+00
  8.2207680e-02
 -1.6296700e+00
 -4.9375120e-01
  2.7781487e+00
 -1.3454957e+00
 -1.3021685e-01
  8.7914892e-02
 -1.4408923e+00
  1.8877246e+00
  1.2073199e+00
 -5.4610688e-02
  1.9012955e-01
 -3.4558263e-02
 -6.0601413e-01
 -1.3861876e+00
  6.5328532e-01
  4.2731129e-02
 -1.2144131e-01
  2.3609833e-01
  1.4117131e-01
  7.9004985e-01
 -3.3947581e-01
  4.1381913e-01
  3.9927658e-01
 -1.4856900e-01
  5.1198322e-01
  1.1766646e-01
 -1.1876317e-02
 -8.6161190e-01
 -1.4211489e+00
 -1.0159413e+00
  7.9069883e-01
  3.9680111e-01
  4.5071533e-01
  5.0099212e-01
  7.1917385e-01
 -3.4445442e-02
  1.2944221e-01
  1.1734744e+00
 -1.1396732e-01
  7.0158190e-01
  7.4338096e-01
 -5.0665036e-02
 -4.3983659e-01
 -7.1317077e-01
 -1.2463710e-01
 -2.9527172e-01
 -1.8402842e-01
 -4.3207070e-01
 -1.3951902e-01
  7.3909914e-01
 -1.7997506e-01
 -2.4957160e-02
 -8.9230102e-01
 -7.3040100e-03
  4.3757251e-03
  1.2557057e+00
 -1.2014049e+00
 -8.2214743e-01
  1.0335245e+00
  4.4533977e-01
  7.1091127e-01
  2.0857374e-01
 -7.0637852e-02
  4.6221685e-01
  3.9680505e+00
  8.3849794e-01
 -6.7766972e-02
  1.6683941e+00
  9.7921079e-01
 -4.3671441e+00
  1.4781654e+00
  1.1646438e-01
 -3.3119342e-01
  2.9720426e+00
  2.0507457e+00
  9.8507708e-01
  3.6681926e-01
  2.5404347e-02
 -2.4259918e+00
  2.4954484e+00
 -5.6062686e-01
  1.5429428e-01
  8.4596890e-01
  1.0185521e+00
  5.0452942e-01
 -9.7806863e-02
  1.9033657e-01
 -8.1340313e-02
 -2.3801740e-01
  4.0131736e-01
 -1.9088896e-02
 -7.8591657e-01
 -3.5957149e-01
 -1.0985631e-01
  3.0728552e-01
  1.0295367e+00
  1.2816030e-01
  6.8569613e-01
 -6.6380066e-01
  2.1233699e+00
 -1.0181934e+00
  2.2994348e-01
  4.5927864e-01
  7.2630113e-01
 -2.8810103e+00
  1.1254514e+00
  1.5952449e-01
 -3.3225372e-01
  4.0971541e-01
 -1.3006361e+00
 -1.4812517e+00
  2.0225929e-02
 -1.8408068e-01
  2.6076391e-01
 -1.1568863e+00
 -1.0282753e-01
  8.2796687e-01
 -8.8276252e-02
  3.1302028e-04
  1.0677549e-01
  5.1938370e-03
  1.7837493e-02
  4.3587826e-02
 -1.8356980e-01
  6.4806722e-02
 -4.7186203e-03
 -1.9627413e-01
  1.7113324e-01
  6.7871466e-02
 -7.8598097e-02
 -1.1946592e-01
  1.2879109e-01
 -1.6424583e-02
 -2.1165685e-01
 -1.2842071e-01
  6.0608588e-02
 -1.8137139e-01
 -2.8397098e-02
 -2.8778479e-01
  3.4149289e-02
 -3.7368867e-01
 -5.3083366e-03
 -5.4070156e-02
  7.8381926e-02
  4.3867484e-02
  5.9519988e-03
  3.4637794e-01
  1.8021764e-01
  3.3667558e-01
  7.0852035e-01
  5.3881560e-02
  2.4600483e-01
  1.4733070e+00
  3.9926246e-01
 -6.3837290e-01
  2.0385916e+00
 -1.5369874e+00
 -1.2851623e+00
  2.0076919e-01
  5.1783872e-01
  1.0545987e+00
  1.7014686e-02
  2.4127023e+00
 -5.1289177e-01
  1.1821876e+00
 -9.0139812e-01
 -5.3920710e-01
  9.2604351e-01
  4.7295246e-01
  8.8212788e-02
 -2.5185859e+00
  1.0685898e-01
 -2.4537518e+00
  8.6208560e-02
 -6.3905096e-01
  3.0744934e-02
  3.7621908e-02
 -2.0567869e-01
  2.7530268e-01
  3.7157673e-01
  8.7602329e-01
 -8.2812059e-01
  3.4496795e-02
  3.8772345e-01
  9.2728400e-01
 -8.2672691e-01
 -1.0117708e+00
 -1.0668622e+00
  1.0149803e+00
  3.6832592e-01
  1.2487897e-02
  3.4135927e-02
 -2.7083620e-01
 -1.3985687e+00
  5.4871601e-01
  3.4053621e-01
  7.9909903e-01
 -1.3359442e-01
 -2.7750501e-01
  9.4165042e-02
 -3.0655944e+00
  9.8494114e-03
 -9.6173549e-01
 -6.8846709e-01
 -5.4032933e-02
  3.2907429e+00
 -3.7266701e-02
 -3.6446590e-03
 -2.8816230e+00
  2.7887735e-01
  3.5569835e-02
 -7.3799753e-01
  2.3718359e-02
  1.0966221e+00
 -7.5124758e-01
  3.8095716e-01
  3.8199568e-01
  1.5028152e+00
 -1.1564193e-01
  1.4641628e+00
  5.4693675e-01
  3.4076604e-01
  6.3879418e-01
  5.9448344e-01
  1.5573594e-01
  1.6946434e+00
 -3.3558470e-03
 -1.6145939e-01
  1.8854795e-01
 -5.0190723e-01
  1.2909111e+00
 -2.6309064e-01
 -2.9155859e-01
 -9.1473900e-02
 -1.4826203e-02
  3.5703674e-01
 -2.9809853e-01
 -1.3576959e-02
 -3.2552451e-01
  4.0882593e-01
 -2.7342695e-01
 -7.0231347e-03
  3.1526455e-01
 -3.3358148e-01
 -1.3975546e-01
  5.2693475e-02
  7.4682787e-02
  4.0303829e-01
  2.6421478e-01
 -1.8330002e-01
 -7.1411473e-01
  1.0173541e+00
  2.5813486e-02
 -5.9078723e-02
 -7.7245302e-02
 -1.6430423e-01
 -2.4083830e-01
  3.8735300e-01
 -1.2750536e-01
  2.6851264e-01
  2.9321548e-01
  4.8759338e-01
 -9.4966948e-01
  1.0516568e-01
  5.4239281e-02
 -5.9015774e-03
 -1.4644964e-01
 -1.0024291e-01
 -6.1864936e-01
  1.0247253e-01
  6.4881764e-02
  1.8853478e-01
 -5.4054335e-02
 -2.0338961e-01
 -1.5086302e-01
 -1.5221779e-01
  2.9157054e-01
 -1.4313507e-02
  3.0826069e-02
  1.5266782e-02
  3.7049338e-02
 -1.2657011e-01
  5.4939397e-02
  4.0243126e-02
  1.0952907e-01
  5.8430355e-02
  1.2014105e-01
  1.6495582e-02
 -4.9938150e-02
 -1.7340086e-01
 -2.6171187e-01
  9.4206240e-03
  8.1060991e-02
  9.1400519e-02
 -9.6318305e-02
 -2.8210431e-02
 -2.3785691e-01
  4.6712000e-02
  4.9949414e-01
 -2.2962142e-02
  4.1546017e-02
  3.9203107e-02
  2.5070073e-02
 -7.4916661e-01
 -6.1292201e-01
  6.4064212e-02
 -1.5394899e-01
  4.6343084e-02
  3.1505489e-01
  9.8017655e-02
 -4.6455525e-02
  1.7198913e-01
  2.3338592e-01
  3.1157809e-01
 -1.2744561e-01
  1.0453074e-03
  4.8577879e-03
 -1.1838363e-02
  9.3814231e-02
 -5.9785329e-02
 -8.1197828e-02
  7.0909590e-02
 -6.9120899e-02
 -8.2380705e-02
 -6.3848598e-03
  1.1389807e-02
 -4.1470349e-02
 -7.2968751e-02
 -4.9953550e-02
 -1.2935974e-01
 -1.7650033e-03
 -7.9063855e-02
 -1.6581519e-01
 -1.7460188e-01
 -6.2353708e-02
  5.6676662e-01
  3.5888001e-02
  1.5833229e-02
 -3.3042196e-02
  3.0604678e-01
 -4.8082743e-02
  9.9844627e-02
  6.2221885e-01
  2.4841044e-02
  1.7529320e-02
 -1.4307582e-01
  7.7202335e-02
  2.7943355e-01
  6.6538095e-02
  7.0584953e-02
 -1.1765261e-01
  5.4211788e-02
  1.1757531e-01
 -3.0270582e-01
  2.2181691e-01
  4.0708473e-01
 -1.9933186e-02
  2.0060728e-01
 -2.9405245e-01
  3.3900937e-01
  3.4606490e-02
 -2.2496347e-01
  6.6574335e-02
 -2.8392810e-01
  9.2034757e-02
 -1.1856274e-01
  5.1048808e-02
 -4.6543799e-02
  7.0058897e-02
  7.4334010e-02
  1.1860297e-02
 -3.4336454e-01
  7.0737198e-02
  1.1751701e-01
 -1.0215445e-01
 -2.8461620e-01
 -7.8893751e-02
  3.4309497e-01
 -1.9520643e-01
 -9.0088453e-03
  8.3629638e-02
  2.0660010e-01
 -1.0990888e+00
 -7.6482020e-02
 -4.4182695e-02
 -1.9350298e-01
 -1.1181186e+00
 -9.1572845e-01
 -3.4203014e-01
 -5.6021589e-01
  3.5899231e-01
 -6.1200149e-03
  2.0235279e-01
  1.0138669e+00
  1.7435144e-01
 -1.5080559e+00
  6.5166193e-01
 -1.8986585e-02
  5.2595890e-01
 -3.3695412e-01
 -9.0273303e-01
  6.0173559e-01
 -2.7166042e-01
  1.7477480e-01
 -5.5816438e-02
  5.2174485e-01
  3.7409618e-01
 -4.4365612e-01
  2.8301010e-01
 -7.5501788e-01
 -3.9500663e-01
 -1.4576285e-01
 -1.3866660e-01
  3.5212167e-02
  8.5317725e-01
 -6.0595006e-01
 -2.9591867e-01
  4.6355993e-02
 -1.9217750e-01
 -8.4144193e-01
 -6.8213707e-01
 -2.9905084e-01
  1.0121705e-01
 -5.6486469e-02
  4.6567939e-02
  1.6543801e-01
  8.9473002e-02
 -2.3621483e-01
 -1.4133716e-01
  2.3562519e-01
  2.7413163e-01
  8.2115084e-02
  4.6087107e-01
 -1.2364534e-01
  2.9979542e-02
  2.5346605e-02
 -3.6134610e-01
 -3.0673463e-03
  1.5212333e-01
  5.9313435e-02
  9.1307320e-02
 -7.5985864e-02
  1.1493085e-01
 -6.3738063e-02
  1.0238978e-01
 -3.2447241e-02
  8.6293733e-01
  3.0224936e+00
 -7.2600204e-01
 -1.2225673e-01
 -6.7376411e-01
  3.8357909e+00
 -1.1400366e+00
 -1.1364970e-01
 -8.0598325e-02
 -1.8422730e+00
  2.8059189e+00
  1.2087085e+00
  1.0906910e+00
 -4.5008426e+00
  2.5161955e+00
  2.4452777e+00
  2.1628501e+00
  3.8865948e-01
  3.0210941e+00
  2.0225129e+00
 -2.0110936e+00
  2.1084788e+00
  1.0869983e+00
  9.4759744e-01
  6.4750600e-01
 -3.7925432e+00
  6.8164773e-02
 -8.9119047e-01
 -1.2962279e+00
 -2.8617263e-01
  2.7983871e+00
 -1.0002017e+00
  2.6626286e-01
 -5.4411348e-02
  7.7485822e-02
  6.1716926e-01
 -4.3317460e-02
  6.5591969e-02
 -4.0695253e-01
 -1.4666685e-01
  4.4909149e-01
 -1.3191219e-01
  1.7410651e-01
  2.6608905e-01
  8.4887169e-02
  2.5155458e-01
  3.7750673e-02
 -8.4377980e-01
  1.1763293e-01
  7.3775761e-02
  2.0346202e-02
  9.2360482e-02
 -3.4251449e+00
 -8.7145619e-02
  7.8699961e-02
  3.8471201e-01
  5.5439824e-01
  6.2543921e-02
  1.3384488e+00
 -2.2215452e-02
 -1.9053459e+00
  1.7721603e+00
 -1.1899010e+00
 -1.0797873e+00
  3.9594698e-01
 -6.2630856e-01
  1.9635805e+00
 -2.3776052e+00
 -4.2480007e-01
 -5.5035615e-01
  3.3012817e+00
  1.5323417e-01
 -1.7336930e+00
 -1.7527896e+00
  8.8192225e-01
  1.2057208e-03
 -1.2153705e+00
 -2.8791547e-01
 -2.3237710e+00
 -2.8164132e-02
 -2.6974208e+00
 -1.1397607e+00
 -3.9292943e-01
 -3.4529299e-01
  2.3070750e+00
  2.2723875e+00
 -1.3326796e+00
  1.2133658e+00
 -2.8721623e+00
 -5.0659043e-01
  3.3785370e-01
 -4.7461458e-02
  3.1386344e+00
  2.2597026e-02
  4.2424619e-02
 -8.6617060e-02
 -7.4980825e-01
  9.1101062e-03
  2.4805885e-02
  1.8978640e-02
  9.3949646e-02
 -1.6610390e-01
  1.1005170e+00
  5.2818751e-01
 -1.3117060e-01
  3.2756215e-01
 -5.5436764e-02
  7.7484399e-01
 -1.3993657e-01
  9.2428192e-02
  5.0663672e-02
  1.1391291e-01
  5.3689748e-02
 -1.1099401e-01
  1.3358231e-02
 -1.6873819e-01
  1.9082699e-02
 -1.5581203e-01
  6.8082705e-02
 -1.6779144e-01
 -4.4579208e-01
 -9.3829960e-02
 -5.6108338e-01
 -1.2230504e+00
  1.3841494e-02
 -5.7688338e-01
 -1.9097561e+00
 -8.9033030e-02
 -2.8052077e-01
 -3.3047625e-01
  5.3272378e-02
  3.0782795e-01
 -4.0497858e-02
  1.2254023e-01
 -1.7849313e-01
  1.0256555e-02
 -8.2354248e-02
 -6.4094931e-02
  9.7276777e-02
 -1.1239637e-01
 -1.8570768e-02
  6.8928480e-02
  1.7341775e-01
  4.7564354e-02
  3.1213701e-01
  7.7723810e-03
 -3.9127335e-01
 -4.6611154e-01
 -1.0274775e-01
 -3.2673772e-02
  6.1080914e-02
 -9.1830194e-02
 -6.4840376e-01
  1.2263953e-01
  1.4716709e-01
  4.8396803e-02
 -1.9292152e+00
  3.8066316e-01
 -3.6649220e-04
 -5.5486786e-01
 -1.9868506e-02
 -1.0727915e-01
 -1.7940165e-01
 -4.5943543e-02
  2.7717639e-02
  1.4436189e+00
 -2.0321910e-01
 -2.4835503e-01
 -3.8005956e-02
  1.6566116e-01
 -2.8282264e-02
 -4.2499851e-02
 -5.4023468e-01
  3.1726697e-01
 -8.4422119e-03
  5.2817136e-02
  1.9434346e-01
 -1.7321561e-02
 -1.6967373e-01
 -1.3560110e-01
 -1.2503572e+00
 -7.4081510e-01
  5.3684242e-02
  1.5693136e+00
 -1.7077944e-01
 -2.2125264e-01
  8.2508457e-01
  4.2594263e-01
  6.5992326e-01
  3.6754690e-02
 -2.0448925e+00
 -2.9186435e-02
  4.2879809e-02
  1.6697727e-02
 -1.7621624e+00
 -5.2269455e-02
 -1.2076758e+00
  7.9703295e-01
 -7.6072395e-02
 -1.0366446e+00
  9.7908574e-01
  1.1377195e+00
  1.7941554e+00
 -2.0189533e+00
 -9.2635596e-01
  2.8283484e+00
  7.2661912e-01
  2.3312448e-01
  7.9715705e-01
 -7.6641953e-01
 -7.6945442e-01
  5.8519691e-01
  1.8781166e-01
  1.0623932e+00
 -7.2189027e-01
 -1.2225471e-01
  6.3624829e-01
  5.8936411e-01
  2.5798291e-01
  1.5165630e-01
 -2.2492211e-01
  1.1379883e+00
  4.1328481e-01
  1.6910419e+00
 -9.5577106e-02
  4.6776481e-02
 -9.1834366e-01
  5.9064168e-01
 -1.3633454e-02
  4.4510387e-02
 -2.4784604e-01
 -1.0134985e-01
  2.4874701e-01
 -2.2934313e+00
  8.1014001e-01
 -9.1506100e-01
  6.8685532e-02
  7.4082029e-01
  3.5768181e-02
  1.0079571e-01
 -4.8512247e-01
  2.8193066e-01
  8.1524082e-02
 -3.3103693e-01
  5.2911848e-01
 -2.2411767e-01
  1.5101919e-02
  2.0692207e-01
 -1.0077538e-01
 -4.8993777e-02
 -1.2182949e+00
  2.2492614e-01
  4.0057190e-02
  3.2625735e-02
  1.8677011e-01
 -6.7662776e-02
  1.7507254e-01
  9.3399107e-02
 -4.5909908e-02
 -1.5472937e-01
 -1.5822905e-01
  9.5927278e-03
  1.6973326e+00
 -1.7224145e-01
 -1.3488097e-01
 -1.2871815e-01
 -9.3246669e-02
 -2.9827833e-01
 -1.6048992e-01
 -2.6081139e-03
  7.4996091e-02
  6.1062559e-02
  3.8412642e-01
 -3.2834792e-01
  8.0775630e-01
 -1.9200835e-01
 -1.1751319e+00
  4.9586352e-03
 -1.2391137e-01
 -4.1495243e-01
  1.4061807e-01
 -9.5870584e-01
 -4.5040116e-02
  1.2472495e+00
  8.3158866e-02
 -1.1467741e-01
 -2.3606032e-02
 -3.4297876e-02
 -1.3440079e-02
  4.6048060e-01
  1.1621858e-01
  1.4512372e-01
 -2.8998360e-01
 -2.1124591e-01
 -6.3832335e-02
 -9.9050736e-01
  2.8458425e-01
 -7.2045110e-02
 -2.4173189e-02
  1.6526759e-01
 -1.9010343e-01
  4.8735920e-01
  3.5894176e-01
  3.5228029e-01
 -4.8868481e-02
  5.3199464e-01
  4.5933276e-01
 -9.5401025e-01
  1.5320684e-01
  8.7039143e-02
  2.9378062e-01
 -1.1683064e+00
  7.6750243e-01
  7.4833110e-02
 -4.7011167e-01
 -9.6226740e-01
  3.5506684e-01
  9.8560476e-01
  3.1570083e-01
  3.7254286e-01
  7.5168484e-01
  7.8884429e-01
 -4.0783727e-01
  1.0700356e+00
 -7.0398279e-02
 -2.7008510e-01
  1.5316476e-01
 -1.1283598e+00
  6.5205169e-01
  4.2523926e-01
  3.6724743e-02
  8.2203442e-01
  5.6480515e-01
  1.7025309e-02
  4.7353888e-01
 -8.5173529e-01
  1.7165059e-02
  2.3901939e-01
  2.7165063e-02
  4.9147055e-02
  2.3372576e-02
 -2.4625722e-01
  3.1626388e-01
  2.8864443e-01
 -5.3052731e-02
 -2.8579420e-01
  3.5321811e-01
  6.2261950e-02
  6.4160764e-01
 -5.7475012e-02
 -1.0939407e+00
 -2.0227288e-01
  4.5818841e-01
  1.4828067e-02
 -5.7793140e-01
  2.4999589e-01
  1.4498924e-01
  3.7226098e+00
 -5.9188056e-01
 -7.2670734e-01
 -3.7534773e-01
 -4.3009734e-01
  2.2268026e-01
  7.5494808e-01
  1.1428068e+00
 -4.7892430e-01
 -2.2932313e-02
  7.8103381e-01
 -5.1497126e-01
  2.3788366e-01
  4.4906315e-01
  7.0286232e-01
  8.2070965e-01
 -2.3057480e+00
 -6.8656892e-02
  1.7264985e+00
 -2.6086977e+00
 -3.9817221e-02
  1.2062876e+00
 -4.6124083e-01
 -8.1691213e-02
  9.7494787e-01
 -4.1197054e-03
  2.3648145e+00
  9.4493544e-01
 -1.3076559e+00
  3.7318170e-01
  3.1308262e+00
  1.9450700e+00
  8.8683152e-01
  1.8138715e+00
 -7.7818060e-01
  7.0600025e-02
  1.7359626e-01
  1.4885627e+00
  8.6727035e-01
  9.5445432e-02
 -1.0261502e-01
 -2.0487669e+00
  6.7313933e-01
  1.0574648e+00
  1.5375277e+00
 -1.3167350e+00
  8.3552366e-01
  4.2949361e-01
 -2.3844564e-01
 -2.8071761e-01
 -4.8702288e-01
 -9.0586059e-02
 -3.3874109e-01
 -8.8228717e-02
  1.4548230e+00
 -2.4814276e-01
  8.3333212e-01
  1.3851893e-01
  8.6791342e-01
 -7.4489242e-01
 -4.2453548e-01
  1.5803077e+00
  5.4452991e-01
 -4.2322092e-04
  2.4790883e-01
 -6.6333050e-01
  1.3060623e-02
 -2.5137424e-01
  9.5587485e-02
  6.4192839e-02
  5.5773631e-02
 -6.7781277e-02
  1.5767554e-02
  1.8311022e-01
 -1.1679004e-01
 -1.8914944e-01
 -3.9718622e-01
 -1.1253726e-01
  1.1909707e-01
 -1.0573649e-01
  2.4665977e-01
 -2.0399835e-02
  2.9049045e-01
 -9.6318170e-02
 -5.6961989e-03
  3.2251498e-01
 -2.4267692e-02
 -1.0764433e-01
  3.8463378e-01
 -6.5257750e-02
  7.1123905e-02
 -2.7587479e-02
 -4.6976347e-02
 -3.8179103e-01
 -3.3942945e-02
 -1.2682466e-01
 -1.6924490e-01
  2.8306540e-02
  8.4888345e-01
 -4.6069584e+00
 -1.8392304e-01
 -1.1938682e+00
  1.6780248e+00
  1.0499628e+00
 -1.8187048e-01
 -2.5077300e+00
  3.0657027e+00
  1.6599622e+00
 -3.2374384e+00
 -1.3609802e+00
  1.3419589e-01
  1.0190264e+00
  2.9084897e-01
  3.9212413e+00
 -8.1665352e-02
 -2.8127656e+00
 -1.8333528e+00
 -1.1250322e+00
 -5.9894019e-01
  1.4119011e+00
  2.4129336e+00
  1.9208899e+00
  2.9202800e+00
  1.9882839e+00
 -1.0218105e+00
 -8.5001993e-01
 -1.9123776e+00
 -1.4129282e+00
 -1.5836078e+00
  4.0336335e-01
  6.5072668e-01
  6.9572777e-01
  1.4145069e+00
 -2.0730646e+00
  1.2596369e+00
  1.3725549e+00
  3.1840330e-01
 -2.0083344e+00
  3.0029387e+00
 -6.3391719e+00
 -4.4412492e-03
 -6.4351988e-01
 -1.0468308e-03
  5.3117860e-02
 -7.0793396e-01
  3.5055292e-01
 -5.4161710e-01
  4.2579401e-01
 -1.5009935e-01
  1.3188410e+00
  2.2544153e+00
 -3.8112146e-01
  1.2132033e+00
  6.0666615e-01
 -1.9121307e+00
  1.2399933e+00
  5.0860226e-01
  2.3255635e-03
  5.1133519e-01
 -6.3961083e-01
 -1.8499436e+00
  5.9617347e-01
  3.3250073e-01
 -2.7755210e-02
 -1.4296007e+00
 -1.2727989e+00
  1.3453625e+00
 -4.2954545e-02
 -2.0616226e+00
 -1.1881475e+00
 -2.0242269e-01
  1.2773453e+00
 -5.1846647e-01
 -1.0311341e+00
  1.1657701e-01
 -1.3856984e+00
  1.4663671e+00
 -1.3532023e+00
  5.8239669e-01
  1.3777176e-01
  1.0231744e+00
 -1.8097981e+00
  6.6915728e-02
 -5.5377837e-02
  2.3336453e-02
  4.8700228e-01
  1.7240073e-01
  4.0825048e-01
 -5.2745777e-01
 -1.0677293e-01
 -5.8320129e-01
 -4.3389216e-01
  1.7788565e+00
 -4.3346724e-01
  1.4952525e+00
  1.8122232e-01
 -1.8729341e+00
  7.4484479e-01
 -3.8784868e-01
 -6.2581867e-01
  1.2022161e-01
 -9.5751083e-01
  2.2097495e-01
 -1.0617276e+00
 -1.0743273e+00
 -1.5344152e-01
 -3.5499269e-01
 -1.0787144e+00
 -7.0904654e-01
 -8.5727818e-02
  1.5741603e+00
 -1.5906862e+00
 -3.5232615e-02
 -2.1307521e-01
  4.4370633e-02
 -7.0554584e-01
  3.0675177e-02
  1.3519646e-01
  4.2208858e-02
  1.5056336e-01
 -2.1624321e-01
 -7.2562367e-02
 -1.7641197e-01
  1.4436955e-02
  1.4411214e-01
 -1.7150363e-01
  3.4891389e-02
  1.1776568e-01
 -7.1238846e-02
  2.5687050e-02
  4.4005722e-02
 -7.3185280e-02
 -1.9391425e-02
  9.2212133e-02
  2.9308029e-02
 -3.2171845e-02
  2.1139938e-02
 -1.3818753e-01
  2.6855555e-01
  2.6550531e-02
  1.7989427e-05
 -7.1383953e-02
 -7.7947922e-02
  7.6912886e-01
 -4.6054151e-02
 -1.7290808e-02
  3.3255997e-01
 -2.9232383e-01
  5.4338163e-01
  1.3825153e-01
  1.8587074e-01
 -4.3144912e-02
  1.5853588e-01
  6.7084289e-01
 -1.0971945e-02
 -3.4723423e-02
 -1.7811956e-01
 -5.6308262e-02
  3.7474401e-02
  2.6334956e-02
 -1.2827529e-01
 -1.1008555e-01
 -3.4088306e-02
  1.6306646e-01
  2.8612796e-02
 -2.1696295e-01
  4.8580658e-02
 -1.3958502e-01
  1.1571699e-02
  1.1800402e-01
  4.3462466e-02
 -6.3550487e-02
  3.9594151e-02
 -1.0071243e-01
 -6.4128645e-02
 -5.2568877e-01
 -3.0313918e-02
  1.2234555e+00
 -3.6167267e-01
 -5.0270688e-02
  1.4500464e-01
  7.8680113e-02
 -8.7318480e-02
  7.6694377e-02
 -5.4208983e-02
 -1.0104445e-01
  7.9734191e-02
 -1.8595006e-01
  2.7489029e-03
 -2.4438255e-01
 -9.6355610e-02
 -6.6063263e-02
  1.2653542e-01
 -4.8420969e-01
 -1.8060830e-01
 -1.9496927e-02
  9.6436135e-02
 -4.0272407e-02
  4.5282900e-02
 -1.9406990e+00
 -2.3557812e-01
  3.5594031e-02
 -8.5029110e-02
  3.5328582e-01
  9.5579579e-02
 -1.4548212e-02
 -2.2944014e-01
  5.1981319e-02
  6.4034778e-01
  1.5538234e+00
 -3.2197886e+00
 -1.2847518e+00
 -2.3557544e-01
 -1.6523262e+00
 -4.0379304e-02
  9.7457814e-01
  1.2703899e-01
  2.2829735e+00
  1.2434833e+00
 -2.0128930e+00
 -1.8280144e+00
  2.4206152e+00
 -9.3045190e-02
  3.4961417e-01
 -8.0380297e-01
 -1.9559860e+00
 -1.2074721e+00
  9.4221425e-01
  1.8843187e+00
 -1.2062087e+00
  1.0495138e+00
  6.2812215e-01
 -1.9838711e+00
 -8.7544776e-02
 -5.5749714e-03
 -4.1937076e-02
 -1.2913653e-01
 -5.4836818e-03
  2.4232469e-01
 -1.3971296e-01
 -9.4371492e-01
 -1.8517141e-01
 -5.5456990e-01
 -1.3206974e-01
 -7.0687779e-03
 -5.7142037e-01
 -1.3695927e+00
  7.1298921e-01
 -1.0620935e-03
  4.2815033e-02
  1.7936476e-01
 -2.6396978e-01
  5.0963885e-01
 -5.0023586e-01
 -1.7340027e-01
  6.7205584e-01
 -2.0100162e+00
  7.5469720e-01
 -2.1426062e-01
  7.2812492e-01
 -2.2310476e-01
 -4.1110378e-02
  5.7121122e-01
  9.1389894e-01
  1.0352386e-01
  1.0877161e-02
  1.6090815e-03
  1.3719347e-01
  2.1931726e-01
 -5.5612284e-01
 -2.1341946e+00
  1.1874735e+00
 -9.1174722e-01
 -2.1930242e-01
 -2.0614292e-01
  6.0161244e-02
 -2.9895618e+00
  1.1791577e+00
  8.1760570e-02
 -1.7141088e+00
 -1.2235624e-01
  1.5242274e-01
  8.6218435e-01
 -1.1599675e+00
 -1.6381999e-02
 -3.5812801e-01
  1.4333581e+00
 -8.6157936e-01
 -1.4052494e-01
  5.3888750e-01
 -1.3627767e-02
  1.3757765e-01
 -6.2571108e-01
  4.9406139e+01
 -9.3254238e-02
  2.3082985e-01
  1.7661376e+00
 -1.7145404e+00
 -2.7830281e+00
  1.7485434e+00
 -1.9692653e+00
 -6.9764292e-01
 -2.4738397e-01
 -1.2820981e+00
 -2.2315402e+00
  8.7518752e-01
  2.0847587e-01
 -2.3052435e-01
  1.6534551e+00
 -1.4887098e+00
 -2.6257303e+00
  3.7318575e-01
 -3.2891825e-01
  4.0963480e-01
  1.7602929e-01
  1.3292514e+00
  1.2823706e+00
 -8.1973201e-01
 -1.2911742e+00
  2.0602228e-01
 -7.9059042e-03
 -1.0662411e+00
 -4.4347015e-01
  7.9353023e-01
 -1.5913865e-02
  3.1136125e-01
  1.5496862e+00
 -6.0407240e-02
  1.3762676e+00
 -5.8927272e-02
  1.0208570e+00
 -1.3204807e+00
 -1.1499663e-01
  9.0188193e-01
  1.9739534e-01
 -5.0045508e-01
 -4.0099678e+00
 -2.3816633e+00
  1.4391509e+00
 -9.2540520e-01
 -1.0856390e+00
 -1.2863700e+00
 -1.1920780e+00
  2.3441038e+00
 -7.1033490e-01
  4.6187043e+00
 -4.1048651e+00
  1.3199122e-01
 -1.6867346e-01
 -1.3003201e+00
 -3.9551422e-01
  1.1294104e+00
 -5.6117505e-01
  1.7711014e+00
  1.6057055e+00
  1.7342614e+00
 -1.7265621e+00
 -6.1558437e-01
  1.0696323e+00
 -8.5365158e-01
  4.9853250e-01
 -6.7275870e-01
  4.4600720e+00
 -5.6338191e-02
  1.8775892e+00
 -1.2167223e-01
 -1.5238432e+00
  1.1051944e+00
 -1.9145569e+00
  2.4720221e+00
 -2.4554972e-01
  2.3444350e+00
  1.7264024e+00
 -3.5815141e-01
 -1.0312982e+00
  1.3907545e+00
  8.9978206e-01
  9.3682772e-01
  2.1155310e+00
 -7.1316916e-01
 -1.8260339e+00
  3.5081553e+00
 -8.4421813e-01
 -3.8905108e-01
 -1.0312688e-01
  1.3976294e+00
 -6.4296603e-01
  2.8978941e-01
  1.8959145e-01
  7.6800704e-01
 -1.8380632e+00
  1.1260726e+00
  1.7985641e+00
  9.5853239e-01
  5.7065552e-01
 -9.0711373e-01
 -1.7922346e-03
  5.2640235e-01
  5.6561089e-01
 -1.0427448e+00
 -3.0595522e+00
 -1.2317710e-01
 -6.7546695e-01
 -3.7827992e-01
  4.5789769e-01
 -6.4312673e-01
 -5.6361284e-02
 -5.2899343e-01
 -2.7393255e+00
  4.4317651e-03
  1.2937774e-01
 -1.6830292e+00
 -1.1189190e-01
 -3.1223840e-01
  1.9262192e+00
  9.5756686e-01
 -2.3860280e-01
 -9.3863654e-01
 -3.0411704e+00
 -3.8953495e-01
 -2.5878034e+00
 -4.7791767e-01
 -2.4777713e+00
  7.5706661e-01
 -2.3014770e+00
 -4.5066875e-01
  1.4885818e+00
 -2.7669230e-01
  7.0886940e-01
 -8.0398977e-01
 -1.4669725e-01
  7.4827754e-01
 -1.2025691e+00
  5.6097573e-01
 -6.4317930e-01
 -3.5057247e-01
 -9.3475831e-01
 -1.0722406e+00
 -3.5851758e+00
  5.9264499e-01
  4.5164561e-01
  2.2533138e-01
  1.3063803e-01
  5.1317650e-01
 -3.3180848e-01
  3.2675430e-01
  9.5199549e-01
 -6.0835862e-01
 -3.6542678e-01
 -5.9745818e-01
  1.4888801e-01
 -2.9780564e+00
  8.0413198e-01
  3.8671264e-01
  3.7026653e+00
 -5.6637144e-01
 -2.7027843e+00
  8.0912314e-02
 -5.1143456e-01
 -5.2351362e-01
  8.1098419e-01
 -3.6956513e-01
 -5.3193863e-02
  3.2966042e-01
 -1.1744711e+00
 -1.0952984e+00
  2.6462448e+00
  9.1440773e-01
  4.6958596e-02
  6.5055549e-01
  1.8484496e-01
 -6.6731435e-01
  7.9646599e-01
 -5.2079982e-01
 -1.3234903e+00
  2.6972693e-01
 -2.3403699e+00
  3.4855384e-01
 -3.3081348e+00
 -2.2385960e+00
 -1.7477705e-01
 -2.2769962e-01
  2.1387770e+00
 -1.6355954e+00
 -2.0216901e+00
 -4.2463014e-01
  1.2013853e+00
  1.8189415e+00
 -4.5749350e+00
 -3.9968679e+00
 -1.2907969e+00
 -1.1136417e+00
  1.5628232e+00
  5.4396242e-01
 -1.5933099e+00
  1.5340941e+00
  8.4476864e-01
 -1.4179503e+00
  3.2805997e-01
  1.5566063e+00
 -1.1893854e-01
  7.1048510e-01
  1.4491203e+00
  5.9910583e-01
  2.2092216e+00
  3.6637548e-01
 -6.3061190e-01
  2.1858297e-01
  1.3100805e+00
  2.1672623e+00
  9.8283345e-01
 -1.0133852e-01
 -1.6868182e+00
  1.6262184e-01
  3.2482469e-01
  1.5588249e+00
  1.2989874e+00
  3.0431318e+00
  3.7622064e-01
  1.6763747e-01
  2.2117044e-01
  2.5860003e-01
  1.8580385e+00
 -2.2419838e-02
  2.9973679e+00
 -1.3399715e+00
  8.2775027e-01
  1.5054390e+00
 -9.2358547e-01
  3.7635567e+00
 -2.3800030e+00
 -1.6784413e-02
  1.2660109e+00
 -8.2035708e-01
  4.7033080e-01
 -7.3007846e-01
 -1.2873219e-01
  6.4223319e-01
  1.6052698e+00
 -1.4208375e-01
  1.1763659e+00
 -5.2377319e-01
  8.5142976e-01
  1.2719826e+00
 -9.2027098e-02
  5.7284385e-03
 -7.1123642e-01
 -3.9331931e-01
  2.1484323e+00
 -1.3800790e+00
 -4.2592168e+00
 -1.9199610e-01
  2.4016654e+00
  6.6971761e-01
 -1.0745551e-02
 -2.8942771e+00
  4.1994005e-01
  9.9246554e-02
  6.5108091e-01
  2.5632408e-01
 -2.3765883e+00
 -9.8269522e-01
  4.8798037e-01
 -4.9070805e-01
 -9.6711755e-02
  1.7114595e+00
 -5.3081644e-01
  1.1186391e+00
  3.1343195e+00
  2.3604741e+00
  1.8493022e+00
  2.2880273e+00
  6.9070053e-01
  1.7837417e+00
  6.6505253e-01
  7.1156317e-01
 -1.9488470e-01
 -5.1688206e-01
  1.8030890e+00
  6.7156041e-01
 -4.0510435e+00
 -7.9614878e-01
 -7.0270365e-01
 -7.9735094e-01
 -1.4852855e+00
  7.4498183e-01
 -1.4890727e+00
 -1.7504955e-03
  6.4449108e-01
 -8.3500981e-01
  3.1305957e-01
  2.5907364e-01
 -1.4853072e+00
 -8.5040349e-01
  2.7096140e+00
  7.0401371e-01
  8.0425769e-01
 -3.3733955e-01
  1.3221207e+00
  3.9073649e-01
  3.0230870e+00
  1.1826500e+00
 -2.4610178e+00
  7.1159559e-01
 -2.6726692e+00
  6.9352227e-01
  1.4309280e+00
  1.2152398e-01
 -2.9206433e+00
  2.0155377e+00
  5.9025413e-01
  2.3616084e-01
  3.8874722e+00
 -5.2432500e-02
  3.7965891e-01
 -1.8319163e+00
 -9.1102123e-01
 -1.0779346e+00
 -1.6876301e+00
  1.7686516e+00
 -1.1440866e-01
 -1.3698003e+00
 -1.3654999e+00
 -2.0737846e+00
  9.7013324e-01
 -1.1367875e+00
  1.7768801e+00
 -2.4797606e+00
  2.2986789e+00
  6.3298255e-01
  2.1525769e+00
  5.1645565e-01
 -2.9113758e-01
 -6.1268676e-02
  1.6067404e+00
 -8.5734200e-01
 -2.0306208e+00
 -4.3599311e-01
  6.4298201e-01
  2.6684681e-01
 -2.7081999e-01
 -4.2940456e-01
 -1.6906778e+00
  1.5198466e+00
  1.0864114e+00
 -2.9511690e-01
 -1.7654737e+00
  8.9809179e-01
  9.2040730e-01
  6.7391688e-01
 -1.2255730e-01
  1.1067092e+00
 -2.6246948e+00
  6.5950328e-01
  2.1688472e-01
  2.1688472e-01
  2.1688472e-01
  2.1688472e-01
  2.1688472e-01
  2.6874218e-02
  2.6874218e-02
  2.6874218e-02
  2.6874218e-02
  2.6874218e-02
  3.6623668e-02
  3.6623668e-02
  3.6623668e-02
  3.6623668e-02
  3.6623668e-02
  1.0234203e-02
  1.0234203e-02
  1.0234203e-02
  1.0234203e-02
  1.0234203e-02
  1.8126732e-02
  1.8126732e-02
  1.8126732e-02
  1.8126732e-02
  1.8126732e-02
  2.6483987e-02
  2.6483987e-02
  2.6483987e-02
  2.6483987e-02
  2.6483987e-02
