nep4 2 C H 
cutoff 8 4 7 7
n_max 4 4
basis_size 8 8
l_max 4 2 0
ANN 30 0
 -5.2203935e-01
  3.1157371e-01
  1.5852103e-01
  1.4206915e-01
  7.4423820e-01
  8.2028800e-01
  1.3474540e+00
  6.0467851e-01
 -1.0819026e+00
  2.5761890e-01
 -5.1225370e-01
 -1.8227948e-01
  3.1993844e-02
 -1.0257518e+00
 -2.8265016e+00
 -3.1667423e-01
 -8.9486986e-01
  1.8748558e-01
 -3.0437756e+00
 -2.2818720e-01
 -3.1833825e-01
 -6.8726832e-01
  2.5767144e-02
 -1.2997736e+00
 -1.5516573e+00
  1.8716012e-01
  1.5965207e-01
 -1.0116240e-01
  9.4830535e-02
  5.2311089e-02
 -1.7855653e-01
  1.5946245e-01
 -6.1172932e-01
  4.4036642e-01
 -1.4980615e+00
  4.2048636e-01
 -1.1437603e-01
  4.7370389e-01
  6.8312430e-01
 -2.9051658e-03
  1.7851256e-01
  5.8513945e-01
 -2.6545808e-01
 -3.0554116e-01
  9.8985577e-01
  7.6151419e-01
 -3.8905987e-01
 -1.3926178e-01
 -1.0978332e+00
  3.5355645e-01
  7.2116226e-01
 -4.9170336e-01
  6.9708890e-01
 -1.2638180e+00
  1.1221848e+00
  7.8508753e-01
 -2.4336097e-01
 -2.7976811e-01
 -2.7867141e-01
  2.5838822e-01
 -8.8240422e-02
 -1.5843321e-01
  9.0678118e-02
 -7.0138961e-02
 -5.3582054e-01
  1.9714586e-01
 -3.5951030e-01
  4.5007777e-01
  1.1433251e-01
  6.3094613e-03
  8.3425427e-03
  1.9028923e-01
 -8.5092187e-02
 -4.3065138e-02
  4.2477608e-02
 -4.5996541e-01
  1.3240768e-01
 -5.0592441e-02
 -5.1849443e-03
  6.2987149e-02
  1.6896258e-03
  2.9647100e-01
 -1.0820383e-02
 -2.4086531e-02
  1.0642509e-01
 -2.1873160e-01
 -8.4109813e-02
 -4.5230050e-02
 -4.0533571e-03
  8.6846445e-03
  7.8552902e-01
  1.2946624e+00
 -3.5549650e+00
 -1.1708415e+00
 -7.3420781e-01
  2.2795572e+00
 -5.4793015e-02
  5.1670782e-02
 -9.6221164e-02
  8.1956804e-01
  1.1661363e+00
 -1.7458202e+00
 -1.4942950e+00
  6.7549121e-01
 -1.1472262e-02
 -1.2194353e+00
 -6.7508268e-01
  1.1597614e+00
  1.2055769e+00
 -2.5763514e+00
 -1.2625135e+00
  2.0987675e+00
  4.2094460e-01
  1.3425746e+00
 -1.2055664e+00
  1.6128983e+00
  2.0919521e+00
  9.6308134e-02
  1.6624135e-01
  7.9245545e-02
  7.2858065e-02
  4.3592971e-02
  4.2386675e-01
 -4.2243924e-02
  6.5951794e-01
  1.5227997e-01
  6.4263701e-02
 -1.3049118e-01
 -2.1008150e-01
  7.9578683e-03
  9.3358248e-02
  9.5199428e-02
  4.2053667e-01
  3.1307828e-02
  3.8644891e-02
  6.3721871e-01
  5.7439458e-01
  6.9986843e-02
 -1.1842428e-01
 -2.4140845e-01
  7.8870438e-02
 -1.0609382e-02
 -1.5259171e-01
  6.3284658e-02
  2.8229731e-01
 -3.1709924e-02
 -5.4070894e-02
 -5.3091623e-02
 -6.8043061e-03
  1.5337368e-02
  4.2921245e-02
 -3.6742443e-01
  3.9770279e-02
  8.0489117e-01
  4.0145131e-04
  1.2041438e-01
  1.3238296e-01
  6.8946734e-02
  2.0131442e-01
 -1.0173089e-01
 -2.1387890e-01
  2.0721117e-01
  2.9882928e-04
 -2.8930518e-01
  6.9872417e-02
 -5.7539903e-02
  2.6965061e-01
  1.3808973e-01
 -7.7858806e-02
  2.0620501e-01
  2.8661701e-01
 -1.3128647e-01
  5.9372686e-02
  3.4488823e-02
 -1.7227048e-02
 -5.3754997e-02
  6.7424491e-02
 -3.7915191e-01
 -2.6257986e-01
 -2.0649794e-01
  2.2790687e-01
 -4.2584783e-01
  1.1905763e+00
 -1.0083229e-03
 -6.8162012e-01
  3.9571089e-01
 -2.3396517e-01
  5.5384587e-02
  1.8974692e-01
 -8.0957122e-02
 -3.7642172e-01
 -8.8742813e-03
 -1.2389476e-01
 -3.2438034e-01
 -2.7324247e-01
  2.2138658e-01
 -3.6331549e-01
  1.1926491e-01
 -7.2133422e-01
 -8.7090129e-01
 -3.3922564e-02
  2.6343715e-01
  4.6416834e-02
 -1.0941010e-01
  3.4636027e-01
 -5.7463005e-02
 -1.3369308e-01
  3.8234316e-02
  7.5952187e-03
 -1.4122857e-01
  6.8038344e-01
  9.5934135e-01
 -4.1503409e-01
  1.4868534e-01
  6.1207261e-02
 -1.8318275e-01
 -5.8078784e-02
 -2.4161823e-01
  3.4342986e-01
 -3.6554614e-01
 -2.8387386e-02
 -1.5366356e-01
 -8.4094249e-02
 -3.5348168e-01
  5.0319329e-02
  1.5092357e+00
  2.5954959e-01
 -6.3160801e-01
 -3.7980890e-01
 -6.3491389e-02
  2.1596661e-01
 -8.5621022e-02
 -1.4341705e-01
  4.5761579e-01
  3.1695327e-01
  1.5117770e+00
  4.0225634e-01
 -7.3924623e-03
 -1.7813209e-01
  2.3223270e-01
  6.6639436e-04
  3.0073285e-02
 -2.6580724e-01
 -3.0186626e-01
 -9.9569574e-02
  9.4915503e-01
 -2.8928626e-01
  2.2771706e-01
  3.7167719e-01
 -1.8796181e-02
  6.6019577e-01
 -2.0704797e-02
  6.5612203e-01
 -3.1158191e-01
  5.5785149e-01
 -1.2150285e+00
 -1.0245946e-01
  1.2647417e-01
 -1.2525436e-02
 -1.5659939e-02
  1.4130644e+00
 -4.4885445e-01
 -2.0741862e-01
 -5.5202377e-01
 -1.9535944e-01
  2.1095765e+00
  5.7372138e-02
 -1.0655798e-01
 -1.2076866e-01
 -1.9599755e-01
  4.0777299e-01
  3.2158360e-02
 -2.0927522e-01
  1.2426570e-01
 -9.9799109e-01
  3.4569651e-01
  1.3690042e+00
  6.1710781e-01
  9.2648849e-02
 -2.4866802e-03
 -8.9498603e-01
  1.3205968e-02
  3.4992486e-01
  1.0069264e+00
  3.8738538e-02
 -2.9120024e-03
  1.2860006e-01
  5.3111073e-02
  1.6300608e-01
  1.9823562e-01
 -5.6059456e-01
  1.2658900e-01
  7.7758305e-02
 -5.3495657e-01
 -5.6196147e-01
  7.1828671e-02
  3.1434175e-01
  1.9271183e-01
  2.5551167e-01
 -2.7071346e-02
  8.1154875e-02
 -1.0361923e-01
  1.2129025e-01
  7.4509278e-02
  3.3337826e-01
  4.9986955e-02
 -1.1745632e+00
  7.0527069e-02
 -8.1390403e-02
  1.9136265e-02
  1.7438695e-02
 -5.4736819e-02
  1.4821407e-01
 -2.1662797e-01
  1.1954144e-02
 -2.8883457e-01
  1.3251695e-02
 -7.4499287e-02
  9.9217236e-02
  2.1059398e-01
  1.6816373e-01
  5.7455737e-02
  3.8282287e-01
  1.5364571e-01
  7.6934565e-03
 -1.1517441e-01
 -9.7241223e-02
 -4.0380344e-01
 -1.0598217e-02
 -1.1948464e-02
 -6.0459679e-01
 -9.3533948e-02
 -1.1360458e+00
  8.2407147e-02
 -1.7388621e-01
  2.1946447e+00
  1.7068955e-01
  2.1835179e+00
 -5.0833642e-02
  6.6699576e-01
 -1.5041143e+00
  1.5107539e+00
 -7.9044145e-01
  6.0360879e-01
  2.5505829e+00
 -4.8407379e-01
 -2.9968810e+00
  1.8345509e+00
  1.9363860e+00
  1.3668861e+00
  5.2851595e-02
  2.5179329e+00
  1.4198500e+00
  2.0402060e+00
  1.2776922e-01
  2.1765186e-01
 -3.0591808e-02
  3.7731737e-02
  2.6844227e-01
  4.3347970e-01
 -6.3649118e-01
  2.1699546e-03
  1.1187802e-01
  3.3043811e-01
  1.3223927e-02
 -1.6530812e-01
  1.3614216e-02
  1.7954589e-01
  1.6708094e-01
  7.9746425e-02
 -1.0313311e-01
  3.0200580e-01
 -9.9337354e-02
  5.2416679e-02
  1.2128487e-02
  1.1917509e-01
 -1.7177554e-02
 -1.3004732e-01
 -5.0411921e-02
 -2.8508523e-01
  1.3178359e-01
 -1.2870778e-01
 -4.2505962e-01
  1.0106169e-01
  1.9182688e-01
 -6.0880456e-02
 -1.2537365e-01
 -1.3477793e-03
  2.3626097e-02
 -4.1845493e-02
 -3.8633432e-02
 -4.4737229e-01
  3.4669542e-01
 -1.0371874e-03
  1.1564268e-02
 -1.3611251e-01
  1.8157569e-01
 -2.6338586e-01
 -1.9062422e-01
 -1.7731905e-02
 -1.8211629e-03
  1.2670798e-02
 -1.0072167e-02
  6.0871810e-02
 -3.2378164e-01
  2.6567680e-01
  1.9729590e-01
  1.3811965e-01
 -4.1200928e-03
  1.8031040e-01
  2.1003079e-01
 -1.3192326e-01
 -1.8135284e-01
 -7.2485673e-01
  2.4319557e-02
 -8.7027207e-02
 -8.3308509e-03
 -2.3275740e-01
 -3.1081486e-01
  1.1449639e-01
 -3.2718503e+00
 -4.9405770e+00
 -9.2554599e-01
 -2.6839364e+00
  1.5266891e-01
 -8.3983876e-02
 -7.8045696e-02
  8.6620323e-02
 -1.0536440e-01
 -6.5333582e-02
  1.9890927e-01
  2.5034586e-01
  8.2373726e-01
  2.1047184e-01
 -3.2147747e-02
  2.1564594e-01
 -1.7476383e-01
  3.3798134e-01
 -8.2108311e-02
  8.7522948e-01
  1.0584339e+00
  1.3780130e-02
  3.7095815e-02
 -1.9160868e-01
  8.9176215e-02
 -4.6078775e-02
 -5.3663224e-01
 -1.3106932e-01
  5.6791209e-02
  2.7833594e-02
  2.0768730e-01
 -6.0742545e-01
 -2.7992952e-01
 -9.0827972e-01
 -1.8775492e+00
  3.2423902e-02
 -6.5878950e-02
  5.0432138e-02
  6.7957491e-02
 -3.0198287e-02
  3.3733344e-01
  2.7662747e-02
  2.6505643e-01
  4.7535521e-01
  5.9852522e-02
  9.3392394e-02
 -1.1406901e-01
  1.8762946e-02
 -4.4870880e-02
 -3.0163842e-01
 -2.5633237e-01
  2.8746033e-01
 -2.6101302e-02
 -4.5386305e-01
 -3.8847792e-01
 -1.2914614e-01
 -5.3704068e-02
  1.1805262e-01
  1.3512569e-03
  6.1847091e-02
 -6.4183287e-02
 -2.0386895e-02
 -4.2973828e-02
 -6.6573359e-03
  3.0193201e-01
 -5.0412364e-02
  2.2747672e-01
 -3.9092734e-02
  1.0938133e-01
  1.0006806e-01
 -1.0373387e-01
 -1.2912121e-01
  3.7540875e-02
  4.5585863e-02
 -1.5577608e-01
 -1.3464555e+00
 -2.0416771e-01
  2.0365320e-01
  2.2402193e-01
  1.7145765e-01
 -1.0102808e-01
  9.1911107e-01
  6.4400613e-02
  6.1012991e-03
 -2.4769126e-02
 -2.2313036e-01
  3.5614315e-02
 -1.6273590e-02
  2.3013435e-01
 -1.8077518e-01
 -2.3705108e-01
  2.2605377e-01
  1.5031745e-01
  1.1911755e-01
  7.3385423e-01
 -2.8840585e+00
  6.3961548e-01
  5.4891616e-01
  7.3486698e-01
  3.5510306e+00
 -8.9852506e-01
  6.2493682e-01
 -3.6504081e-01
 -3.0988498e+00
  1.0771902e+00
  1.6131592e+00
 -5.9703666e-01
  1.7141643e-01
 -9.3544137e-01
 -3.1757075e-01
  1.0768102e+00
  5.7104981e-01
 -1.7764657e+00
 -1.9137998e+00
 -9.8771727e-01
 -4.3279177e-01
  1.8662646e-03
  1.4862937e-01
  5.4734236e-01
 -5.5316031e-01
  1.7458139e-01
  9.0656602e-01
  5.8938954e-02
 -1.8353758e-02
 -4.4932395e-02
  2.8161475e-01
  2.2962380e-02
 -2.8321618e-01
 -3.7347230e-01
 -7.8328383e-01
  9.9430275e-01
  1.9274832e+00
 -3.8979471e-01
 -2.8526303e-01
  7.7486235e-01
 -2.6657686e-01
 -1.2043220e-01
 -1.5291049e-01
  1.0347276e+00
 -5.5202309e-02
 -6.3437000e-02
  5.6751138e-03
  1.2691401e-01
  6.0868865e-01
 -7.6619911e-01
 -6.2527770e-01
 -1.4161949e-01
  1.2540011e-01
  2.0130520e-01
 -3.8127756e-01
  1.2899728e+00
  6.6401976e-01
 -3.0711228e-02
 -4.2642313e-01
 -3.7559893e-03
 -1.4119670e-01
 -5.9964933e-02
 -3.5429902e-02
 -1.8135241e-01
 -4.1049968e-02
  1.3176218e-01
 -2.8320486e-02
  1.9817065e-01
  2.3948304e-02
  1.4482409e-01
 -1.2318814e-01
 -1.0250998e-03
 -4.5215555e-02
 -4.3947615e-02
 -1.3829875e-03
 -2.1575147e-02
 -7.3844619e-02
 -6.7271933e-02
 -3.1529197e-01
 -2.2117002e-01
  1.9626301e-02
 -1.8120271e-01
 -5.0191350e-02
  1.0969203e-01
 -1.6938090e-01
 -7.5289577e-02
 -2.4693931e-02
  1.7515749e-02
 -2.0900351e-01
 -1.8579206e-01
  1.9733953e-01
  1.9278750e-03
  3.0000919e-01
  4.6183757e-02
  2.1295220e-01
  5.1156980e-01
  3.7325200e-02
 -1.1741883e-01
 -1.2562098e-02
  2.3841237e-01
  5.1711693e-02
 -1.8929607e-01
 -5.3635295e-02
 -1.1578660e-01
 -1.8191829e-01
  3.5226482e-01
  2.9695264e-01
  7.5243786e-02
 -3.2598555e-01
 -3.5075232e-01
  8.1681840e-02
  9.8937079e-02
 -4.5710981e-02
  6.8398625e-02
 -3.9343196e-01
  6.6713876e-01
 -6.7916226e-01
  1.4686596e-01
  1.5243086e-01
 -5.2355415e-01
  4.9325556e-01
  1.7962027e+00
 -1.2684041e+00
 -2.1648073e+00
  3.7834097e-02
 -9.2819053e-01
  1.1076717e+00
 -2.5612309e+00
 -9.2974681e-01
 -1.0913272e+00
  2.9459219e+00
  9.1155964e-01
 -3.2770965e-01
 -2.4961920e+00
 -2.3762360e+00
  5.0461844e-02
  5.1694107e-01
 -1.6880444e+00
 -5.3939301e-01
 -1.5641875e+00
  2.2525282e+00
  2.0780030e-01
 -6.8402641e-02
 -8.6540103e-01
  8.7956017e-01
 -3.3061810e-02
 -1.0387576e-01
  1.2371407e-01
 -5.5791128e-02
 -1.0330375e-01
 -6.5950654e-02
 -1.0107010e-02
 -1.1055455e+00
  1.9540992e-01
 -9.8354697e-01
  1.1990995e-01
 -1.6349804e-01
 -1.2941938e-03
 -1.3292506e-02
 -1.0012865e-01
 -1.3259104e-02
  3.8474973e-02
 -2.5422281e-01
 -3.3346686e-01
 -4.5744035e-02
 -1.0147989e+00
 -6.9398604e-02
 -1.7186433e-01
 -1.1275053e-01
  7.4108519e-02
  1.2376177e-02
 -1.1518713e-01
 -2.2651118e-01
 -5.0031930e-01
  7.5913787e-02
  7.5403666e-01
 -4.6450105e-01
 -3.2849863e-01
  6.0745651e-01
 -1.0805459e-01
 -7.5339749e-02
  2.6610342e-01
 -1.0805581e+00
 -1.1873180e-01
  4.7027585e-01
  5.1069802e-01
  3.1976208e-01
 -3.5679829e-01
  1.3779919e+00
  2.7459955e-02
  4.0423977e-01
 -5.2514297e-01
  2.8481670e-03
  4.5527852e-01
 -4.3730870e-02
 -1.8291220e-01
  1.8345973e+00
 -2.5586578e-01
 -2.2316718e-01
  2.2450696e-01
  1.9258858e-01
 -1.4886077e-01
 -3.6532912e-01
  3.5202995e-01
 -1.5422845e-01
  5.1201165e-01
  4.5418596e-01
 -1.0019863e+00
 -7.9810601e-01
  1.8702471e-01
 -1.4971924e+00
 -9.0865546e-01
 -1.1620061e-01
 -1.3611016e+00
 -1.5776829e+00
 -9.0865113e-02
  4.0287888e-01
  1.6434404e+00
 -9.7065908e-01
 -3.1263671e+00
  5.6522220e-01
 -3.2015041e-01
  5.4462466e-02
 -2.2894132e+00
 -2.4113760e+00
  3.7779057e-01
  3.9621621e-01
 -6.9108450e-01
 -1.2070400e+00
  1.2462948e-01
  2.5858943e+00
  3.9991528e-01
  4.2099902e-01
 -1.7538717e+00
  4.1659030e-01
  2.9205966e-01
 -2.5262275e-01
  3.0807522e-01
 -2.4553625e-01
 -7.4715787e-01
 -1.2342623e+00
 -1.4813524e-01
 -1.0340744e+00
  1.4572705e-01
 -1.0240346e-01
 -9.6635681e-01
  9.1228604e-02
  1.1265231e+00
 -6.6406590e-01
  5.4709214e-01
 -1.1276182e+00
  3.4442955e-01
  5.3863391e-02
 -3.1757455e-02
  1.6029717e-01
  1.0614684e+00
  2.3247163e+00
 -2.3411076e-01
  5.3266919e-01
 -3.8075045e-01
 -2.9104218e+00
  1.4344895e-01
 -1.7998122e-02
  1.8602780e-01
 -1.3595206e-01
 -1.3033508e-01
  4.0865394e-01
 -3.1568342e-01
 -3.7109053e-01
 -1.7240705e-01
  1.3020280e-01
  3.3357099e-01
  5.0023001e-01
  3.0017093e-01
  2.8283972e-02
 -1.6598882e-02
 -1.0717177e-01
  4.5414996e-01
  1.1197978e-01
 -2.6009819e-01
 -6.7549741e-01
  8.8686487e-03
  4.4492042e-01
 -2.6770663e-01
 -2.8574839e-01
 -5.4705743e-02
  2.2080687e-01
  1.7465839e+00
  1.2882556e-01
  1.8102054e-01
  8.8275039e-01
  3.8380519e-02
 -2.2570506e-01
  1.0965476e-01
 -7.1063302e-02
  1.5812287e-01
  1.3243881e+00
  1.6149388e-01
  6.8395019e-02
 -5.3057875e-02
  4.3347245e-04
 -2.9445525e-02
 -5.5030145e-02
  4.0432446e-02
 -1.0729251e-01
 -1.5286113e-01
  2.7462352e-02
  6.4988218e-02
 -2.5871499e-02
  4.5977363e-01
  3.5975613e-02
 -4.7004664e-01
  2.6617059e-02
  2.2034830e-01
  5.7414800e-02
 -6.3589872e-03
 -1.9402522e-01
  2.2129491e-03
  3.5372746e-01
  4.1683298e-02
 -6.4884983e-03
 -3.9541982e-03
  6.8819121e-02
 -3.6010887e-02
  1.6728497e-01
 -7.1184099e-02
 -2.6810831e-01
  3.0252334e-01
  5.8707076e-01
  4.0241292e-01
  2.0513189e+00
  4.3840678e-03
 -5.1984286e-01
 -2.2590564e-01
  4.8605278e-01
  3.2242483e-01
 -8.1948958e-02
  7.8834665e-01
  1.9377793e-01
 -3.7551612e-01
 -4.5359939e-01
 -4.7659016e-01
 -3.7599680e-01
  8.5213625e-01
  1.4246561e-01
  1.1544501e+00
  4.4372895e-01
 -1.0504202e+00
 -4.0888923e-01
  2.5407010e-01
  7.7828181e-01
 -2.2580846e-01
 -2.0783275e-01
  1.5765369e-02
 -3.0778022e-03
 -3.6141619e-01
  1.8715522e+00
 -1.3883953e-01
  2.6212430e+00
 -7.8104025e-01
 -4.5788273e-01
 -1.4693418e-01
 -5.6274172e-02
  3.3314262e-02
 -1.8542546e-01
  1.6761492e-01
  1.4146401e-01
  6.8786711e-02
 -3.2404509e-01
 -4.0667988e-02
  9.5907903e-01
  2.5034994e-01
  1.6033074e-01
  5.6693144e-02
  4.7232402e-03
 -2.6760616e+00
  2.3281671e-02
  1.8869286e-02
  6.7493238e-02
  1.8600490e+00
  2.4644391e-01
 -3.1622648e-02
  1.6883254e-02
  2.7886471e-02
  1.7250048e-01
 -5.4981184e-01
  1.2582359e+00
  4.4996608e-02
 -4.4317916e-01
  1.1378404e+00
 -4.9409915e-02
 -5.3489274e-01
  4.3275955e-01
  1.5248834e-01
 -1.1578812e-03
  3.3966476e-01
 -8.4190893e-01
 -3.7766883e-01
 -7.0974998e-02
 -7.8989975e-02
  6.8771261e-01
 -6.1031166e-02
  3.0389184e-01
  3.8133749e-01
 -2.3978432e-01
 -1.6930713e-01
  1.3076951e-01
 -5.9845626e-02
 -6.4646780e-01
  7.2027397e-01
  2.1443731e-01
  2.3306912e-01
  2.8511986e-01
 -9.0176582e-02
  2.0464802e+00
  2.5169003e-01
  1.4690097e-01
  4.3407537e-02
  3.5266914e+00
 -3.1857032e-02
  2.8304124e-02
  2.9169422e-01
 -2.1034688e-01
  1.3527359e-01
 -1.0831118e-01
  6.1809388e-03
  5.3256589e-01
 -4.0443577e-03
 -3.9590813e-02
 -1.1378660e+00
  2.8631142e-01
 -3.1892046e-02
 -4.8546138e-01
 -1.0336598e+00
  1.6704902e-01
  3.3045825e-01
 -9.3559819e-01
  1.3831971e-03
 -1.0374212e+00
 -2.1881478e-01
 -6.3051432e-01
  4.5901626e-01
 -3.0182850e-02
 -1.2782037e+00
 -6.2667894e-01
  7.3430136e-02
 -2.0437723e-01
 -2.9497647e-01
  8.9885443e-02
  3.6765844e-01
 -3.2258084e-01
 -9.7926724e-01
 -8.8480318e-01
  9.4737396e-02
 -7.7475131e-02
  3.0588892e-01
 -1.3095213e+00
  3.2902803e-02
 -9.4401225e-02
  3.2229879e-01
 -1.9285616e+00
  5.8106500e-01
 -6.4318255e-02
  1.0715121e+00
 -5.1605356e-01
  3.3297411e-01
 -2.7202427e-01
 -5.3256685e-01
  2.2657487e-01
 -1.2823375e-01
  3.1495687e-01
  3.4145609e-01
  2.1451840e-01
  1.1606907e-02
 -1.6508520e-01
  1.5164877e+00
 -3.2382640e-01
  8.6397481e-01
  3.1510952e-01
  1.0317993e+00
 -1.0885124e+00
  3.5912663e-02
  2.7001228e+00
 -1.0697857e+00
  7.3518783e-01
  1.1009538e+00
  8.3738667e-01
  1.6082257e+00
 -4.4628805e-01
  3.0172246e-02
  2.8375263e+00
 -1.9504224e+00
  1.7763487e-01
  3.8708889e-01
  8.6871803e-01
 -1.0673368e-01
  8.0663967e-01
 -2.5768581e-01
  1.6278158e-01
 -2.7878651e-01
  1.8149587e+00
  2.1041026e+00
  2.6899222e-01
  3.4520127e-02
  1.6758376e+00
 -5.6615430e-01
  2.3030026e-01
  1.2229572e-01
 -4.2930707e-02
 -1.0867479e+00
  1.3066859e+00
  1.4421634e-01
  3.0343369e-01
 -8.4362441e-01
 -4.8417337e-02
  4.1073450e-01
 -7.4982129e-02
  2.7530825e-01
  1.3903186e+00
  8.8281520e-02
  2.7120417e-01
 -3.7459841e-01
 -6.8018013e-03
  2.8588010e-03
  1.9757992e-01
 -6.8831640e-01
 -8.0560929e-01
  1.4474348e+00
  4.7810495e-01
  5.0137305e-01
 -5.5764192e-01
 -5.1647568e-01
  2.2066905e-01
 -4.1652384e-01
  9.9155128e-02
 -9.7365296e-03
 -3.4872863e-02
 -3.3409533e-01
 -3.3357054e-01
  3.0450401e-01
 -2.6254913e-01
 -2.7135719e-04
  6.4295486e-02
 -9.6991360e-03
  2.0589309e-02
 -1.5096879e-01
 -8.4709501e-01
 -8.7122116e-03
  7.3894471e-02
  1.1834883e-01
 -1.0119939e+00
  6.9077837e-01
 -9.2997022e-02
 -5.7174508e-02
  2.6247237e-02
 -4.6082106e-01
  4.5918606e-02
  1.6119500e-01
  1.7162500e-01
  6.6699103e-02
 -5.0205952e-01
 -3.1761741e-03
  4.9605701e-02
  2.7102491e-01
 -1.5631879e-02
 -1.4378517e+00
  1.7452236e+00
  2.0643573e+00
 -6.6472627e-02
  5.5178452e-02
  2.4314845e-01
  6.3738953e-03
  4.8833635e-01
 -1.4611998e-01
 -3.3535035e+00
  1.5156138e+00
  1.2687180e+00
  7.8103131e-01
 -1.9230230e+00
 -1.5839071e+00
  1.9192705e+00
  1.3486012e+00
 -1.3743616e+00
 -3.8299160e+00
 -1.4342482e-01
  8.4717768e-01
  6.3695528e-02
 -4.3921176e-01
  4.5715827e-01
 -2.9170911e+00
 -9.0161550e-01
 -1.5514351e+00
  4.9789157e+00
  2.8279683e-01
 -4.1558771e+00
  1.4798166e-01
  7.7450293e-01
 -3.0263966e-01
  1.7209939e+00
 -1.4937569e-01
  9.1775835e-01
  1.0516670e-01
  5.8792180e-01
 -6.1756986e-01
  5.1144797e-02
 -6.3665569e-01
  1.7952013e+00
 -4.2970818e-02
  1.7263163e+00
  9.4783235e-01
 -1.1604247e+00
  1.4955764e+00
 -6.8233967e-01
  1.5511078e+00
 -8.2581407e-01
  3.2718861e-01
  1.8033962e+00
 -1.7969048e+00
  1.3754100e+00
 -1.8054626e+00
  7.9806498e-04
  8.2276410e-01
 -1.9904251e-01
  8.3304131e-01
  6.4024597e-02
 -2.2004762e+00
  8.8054502e-01
  1.1853514e+00
  8.6336309e-01
  1.2610235e+00
 -2.0519334e-01
 -1.5231497e+00
 -5.9171307e-01
 -3.7944652e-02
  6.7784238e-01
  1.3935590e-01
 -1.4646996e+00
  4.3824586e-01
 -4.5035359e-01
 -2.1352997e+00
 -9.3080223e-01
 -3.1994653e+00
  4.7861606e-01
 -7.2241199e-01
  6.8631804e-01
 -3.6936074e-01
 -2.3159254e+00
 -1.7225299e+00
 -3.1900251e+00
 -3.5437131e+00
 -1.1812519e+00
  8.4030800e-02
 -4.8073438e-01
 -2.4059503e+00
  4.3115136e-01
  1.8088618e-01
  4.9515255e-02
  6.4667302e-01
  7.6209553e-02
 -9.3441762e-02
 -9.5287999e-03
  1.0908435e-01
  8.0105364e-03
 -5.6007322e-02
  7.6010877e-01
 -1.1291340e-01
 -1.9776857e-01
  2.7877542e-01
 -8.7920211e-02
  4.8938602e-02
 -5.4169219e-02
  2.8411335e-01
 -8.9935884e-02
  2.0188533e-01
 -2.0885281e-01
  1.3692291e-01
 -3.8599003e-02
  2.0919986e-01
 -3.7077181e-03
 -6.7542851e-02
  2.0676889e-01
 -2.6997855e+00
  1.6594513e-01
 -1.8376274e-01
  2.8659305e-02
  3.3963194e-01
 -2.2134072e-01
  1.0734460e-02
  8.4878042e-02
  1.0651295e+00
  8.7986059e-02
 -2.0077877e-01
 -1.9986954e+00
 -8.0359802e-02
 -3.9947297e-02
  1.4145715e+00
 -2.2494982e-01
 -1.0501232e+00
 -2.3463994e-01
 -9.1050005e-01
  1.8348844e-01
  6.3145399e-01
 -1.9072887e-01
  1.7040209e-01
 -2.4655999e-01
 -1.5550503e-01
 -1.8639846e-01
 -1.6579038e-01
 -2.5319713e-01
 -6.5906990e-01
 -9.3165624e-01
 -2.1765754e-01
  1.8897304e-01
 -5.7586998e-02
 -4.2450547e-02
  2.5391477e-01
  2.2753041e+00
  2.5994959e+00
 -2.0862497e-02
  8.9290299e-02
 -1.6295446e+00
  4.7107615e+00
  1.7441802e-01
 -4.0294325e-01
 -1.1797153e+00
  2.6162193e+00
  9.8459166e-01
 -4.7524635e-02
 -2.5598481e-01
  9.4463103e-02
 -1.6994492e+00
 -5.0383646e-02
  2.6402948e-02
  1.5993353e-02
  7.8549534e-01
 -4.5350690e+00
 -4.1011521e-01
  2.1741626e+00
  7.6337713e-01
  1.1263164e+00
 -2.9278939e+00
 -6.6902707e-03
 -2.1581311e+00
  6.8544738e-02
 -1.3172511e+00
  2.0868473e+00
  1.6734772e+00
 -1.9855903e+00
 -1.8164824e-01
 -3.6307139e+00
  4.6319265e+00
  2.5955552e-01
 -1.1030712e+00
  1.6094409e+00
  2.1202485e-01
  2.5229666e-01
  1.3794185e+00
 -1.6360357e+00
  1.5789908e+00
  2.3235579e+00
  5.7035601e-01
 -9.8999178e-01
 -1.9586440e-02
 -2.8923452e-02
 -1.1142244e+00
 -7.7200055e-01
  8.7426245e-01
 -1.4235836e-01
 -7.1778017e-01
 -1.8598300e+00
  1.1332617e+00
  3.4547255e+00
  1.2905414e-01
  2.2005308e-01
  2.2483037e+00
  8.0857486e-02
  5.3950686e-02
 -5.8762562e-02
 -6.8559609e-02
 -1.1170259e-01
 -1.3879651e-01
 -9.1669098e-02
 -6.3994746e-03
 -9.1178030e-02
  3.4210163e-01
  2.0410265e-01
  7.5965319e-03
 -1.0308151e-01
 -3.0297062e-01
  2.1362767e-02
 -4.1882817e-02
 -1.2476486e-01
 -3.6776298e-01
 -2.3931767e-01
  8.2380824e-02
 -7.3496707e-02
  4.0752283e-01
 -4.3418031e-02
 -7.0006721e-02
 -1.6000907e-01
  1.4447108e-01
  9.1960512e-02
 -1.6037121e-02
 -2.4712767e-02
 -8.5845739e-02
 -1.0902803e-01
 -3.9207396e-01
 -1.4270942e-01
  1.7510252e-01
 -7.5252497e-01
  3.4479488e-02
 -1.7838246e-01
  4.7723498e-02
  2.0810218e-01
 -2.8187362e-02
  6.6188797e-03
 -3.5530202e-02
  1.4958131e-01
  1.4236413e-01
  1.8249042e-01
 -1.4393141e-03
  1.8447226e-01
  3.2387519e-01
 -1.0953196e-01
 -2.1068010e-02
 -5.3044457e-02
 -2.3981865e-01
  1.1652645e-01
  3.5065573e-01
 -3.7145894e-02
  1.7626047e-01
  1.9691970e-02
 -5.0439805e-01
  2.5928116e-01
 -2.2400022e-01
  9.2019543e-02
 -3.6454508e-01
  4.9146438e-01
  6.3952249e-01
 -2.4778782e-01
  2.1777216e-01
  5.0759491e-02
  6.2935121e-02
  4.1371766e-02
  6.5103367e-02
 -1.2053386e-02
  2.4109520e-02
 -1.3119550e-03
 -2.7247849e-01
 -1.5514551e-01
 -3.2611540e-01
  5.6152176e-02
  1.6640976e-02
  6.9018669e-02
 -3.1139976e-01
 -7.0383683e-02
 -4.7061604e-01
 -1.8695205e-01
  7.4617222e-02
  6.9217724e-03
  1.3886523e-01
  1.1926536e-01
  2.7183208e+00
 -1.5554309e-01
 -5.8177374e-02
  1.4176850e-01
  3.0569756e-01
  2.1595038e-03
 -6.3062444e-02
 -1.4105399e+00
 -5.1499929e-02
  1.1979198e-02
 -2.1050234e-01
 -1.9386499e-01
 -3.7816040e-02
  9.3360962e-03
  8.0714680e-02
 -3.2076675e-01
 -1.0738474e-01
 -7.7676117e-02
 -3.9970651e-02
  5.6587968e-02
 -2.4914199e-02
  4.3565691e-01
 -7.5354449e-02
 -9.9842876e-02
  1.4814660e-03
 -5.1540300e-02
  3.0148724e-02
  3.9852709e-02
  4.2041866e-03
 -7.7979743e-02
  9.1408789e-02
 -1.2350662e-01
 -3.9782492e-03
  2.2178505e-01
 -4.9003083e-01
 -7.5023288e-01
 -2.6416537e-01
 -3.1240657e-01
 -1.4803605e-01
 -2.6093295e-01
 -3.3089662e-01
 -8.8699603e-01
 -1.1847179e-01
 -3.6376700e-01
  4.1365039e-01
 -3.2454085e-01
 -1.0604327e+00
 -8.1824943e-02
 -9.7742729e-02
  2.7090877e-01
  6.6681229e-02
 -2.9281488e-01
  3.0421990e-01
 -4.2634159e-01
 -2.4055965e-01
  1.3474435e-01
  3.4412264e-03
 -1.1133721e-02
 -1.8433651e-02
 -1.4055412e-01
 -1.5812527e+00
  1.5918320e-02
  5.5804980e-01
  8.3857596e-01
  2.7804003e+00
 -1.9026004e-01
 -1.3326758e-01
 -6.9578308e-01
 -1.9878491e+00
 -1.0394629e+00
 -9.6773155e-02
  8.3019288e-04
 -6.3899846e-04
 -2.1772450e-01
 -5.0239521e-01
 -4.0647262e-01
  5.2040536e-03
 -2.3905504e+00
 -3.3676082e-01
 -1.1912525e-01
  1.6049142e-01
 -1.3109863e-01
 -2.0804253e+00
 -1.1363212e+00
 -1.7819020e+00
 -1.3260113e-01
  3.9930305e-01
  1.4769968e+00
 -5.4081034e-02
 -7.9975292e-02
 -5.9181964e-01
  1.7932957e-01
 -4.9205220e-01
  4.6306857e-01
 -8.4633015e-02
 -5.8189802e-02
  1.1755780e-01
  4.7292411e-01
 -3.5080183e-01
 -8.3801381e-02
  2.8050116e-01
  5.1879311e-01
 -3.7380002e-02
 -3.8618127e-01
 -6.8793267e-01
  3.0428055e-01
 -3.9101487e-01
 -4.4323739e-01
  5.4682884e-02
 -1.8960917e-01
 -4.2662948e-01
 -8.7902457e-01
  1.8272294e-01
  5.0731823e-02
  8.2868144e-02
 -2.5236306e-01
  8.3166892e-03
 -1.9350444e-01
  4.7261146e-01
  5.2184820e-02
 -3.9883770e-02
  2.0463008e-01
  2.6219875e-01
  7.4810542e-02
  4.6040352e-02
  2.3202555e-01
 -2.9252353e-01
  3.3040801e-01
 -1.7220347e+00
 -4.6542320e-01
  1.8018757e+00
  1.8924651e+00
 -1.4330251e+00
  1.9993585e-01
 -3.5627873e+00
 -2.9453754e+00
 -2.8165011e+00
  4.6735840e+00
 -2.4376867e+00
  1.7536049e-03
 -2.7924783e+00
  2.1999669e+00
 -2.9434982e-01
 -6.1368930e-01
  1.1294318e+00
  7.5808102e-01
 -6.9141306e-02
  2.0220847e+00
 -3.1272410e-03
 -1.9960877e-01
  8.3855130e-02
 -8.5236385e-02
  5.9020698e-01
 -1.4425579e-01
 -1.3743259e-02
  2.5393090e-01
 -8.7742902e-02
 -2.9103211e-01
  5.3066716e-02
 -4.8844251e-01
 -7.5079843e-02
 -5.6391535e-04
  2.0337965e-02
 -6.5940902e-02
 -3.5073119e-01
  2.0440649e-02
 -1.5227889e-01
 -1.6777379e-02
 -2.7924821e-01
  1.3211870e-01
  3.8203725e-01
 -8.2421303e-03
  1.4074503e-01
  2.7231279e-01
 -8.3723091e-02
 -4.4011157e-02
 -2.8174138e-02
 -5.7711530e-02
 -5.3304039e-02
  5.5255983e-03
  3.1277910e-02
  5.4261107e-02
 -3.0164006e-01
  7.5531892e-02
 -4.6200465e-02
  2.8949399e-03
  7.2546947e-01
 -2.8215519e-01
 -8.7372959e-02
  7.3100045e-02
 -7.0010424e-03
 -6.4658321e-02
 -1.0740756e-01
  1.2513821e-01
  2.3731949e-02
 -1.7234027e-01
  1.3756156e-01
  7.1514606e-02
 -1.2323587e-01
  4.2518118e-01
 -2.1093417e-02
  1.7503366e-01
 -3.7593890e-02
 -1.9369230e-02
  6.8092561e-01
  1.2312840e-01
 -1.3436662e-01
 -7.9364933e-02
  1.7881767e-01
 -2.0324051e-01
 -2.0051989e-01
 -8.4812030e-02
 -1.1177406e-01
 -1.8323204e-01
 -2.3327099e-02
 -1.0424837e+00
  7.4880689e-02
  2.3346086e-01
 -1.2808410e-02
  1.7856099e-01
 -1.1353638e-01
  7.5451002e-02
 -1.8777433e-01
  2.3453820e-02
  3.8509965e-02
 -6.7791872e-02
  3.2849990e-02
  4.9834181e-02
 -1.7215931e-01
 -3.0377120e-02
  5.0851163e-02
  1.5963411e-01
  5.2826405e-01
  1.4642259e-01
  3.5816184e-01
 -7.4381202e-02
  1.3018903e-01
  1.9704543e-01
  3.7420504e-02
  3.9038252e-02
 -4.6733320e-02
  7.7040680e-02
 -1.4687353e-01
 -3.5686865e-01
  7.2734028e-02
  3.0395808e-02
 -1.9060561e-01
  3.4185201e-02
  1.0288284e-02
 -3.3519104e-01
 -5.0516701e-01
 -1.0406402e+00
  7.9250377e-01
  4.3978399e-01
 -9.3016252e-03
 -1.0695010e+00
 -2.4198027e+00
 -2.0238781e-01
  1.5351291e-01
  1.8930845e-02
 -8.4436566e-01
  1.3731417e-01
 -3.1915799e-02
 -8.2258928e-01
  1.4931893e-01
 -7.8252733e-01
  1.5562563e-01
 -3.9061833e-02
 -8.3805221e-01
  3.1450275e-02
 -5.0359279e-01
  2.4476693e+00
  3.5665107e-01
  8.9978111e-01
 -2.7753359e-01
  8.4311581e-01
 -8.5252219e-01
 -3.5669751e-02
 -2.8458722e-02
  9.3401951e-01
  4.7501823e-01
 -4.3664780e-02
  9.5841087e-02
  2.8592667e-01
 -5.1472628e-01
  1.7244694e+00
  2.1437953e+00
 -4.4496226e-01
  7.5009942e-01
  1.5822387e-01
  3.4803338e+00
  2.0722985e-01
 -1.1226368e-01
  5.9690386e-01
 -3.0925970e+00
  1.3236856e-01
  1.1527710e-01
 -1.0480349e-01
 -8.5277009e-01
 -3.5180259e-01
  3.4485438e-01
  4.1486749e-01
 -1.1215128e+00
 -2.4094835e-02
 -1.6319089e-01
 -1.6722819e+00
 -1.0814756e-01
 -2.3471775e-02
  1.0046718e-01
 -1.8678883e-01
  6.1888784e-02
 -2.6923772e-03
 -9.6493125e-02
 -6.5132722e-02
 -1.6204193e-01
 -4.1105613e-01
 -4.7025755e-03
  8.4023476e-02
 -9.4701778e-03
  2.0236313e-02
  1.5353478e-01
  2.0771755e-01
 -2.0307796e-01
  1.9504248e-01
  4.7089394e-02
 -3.6288700e-01
 -2.6203007e-01
  9.0035117e-01
  6.6629429e-03
 -4.7306985e-02
 -9.2960574e-02
 -1.5343155e-01
 -1.0203861e-01
 -9.9775799e-02
 -6.7695349e-01
 -1.9079208e-01
  1.3776255e-01
  8.7625749e-02
  5.3561568e-02
  8.1778578e-02
  2.2370547e-01
 -6.4921238e-02
 -1.2103646e-01
 -4.8386711e-01
  9.1534793e-02
 -2.6869112e-01
  1.7760323e-01
  2.0616440e-01
 -6.3441498e-03
 -2.4334647e-02
 -7.9600680e-01
  2.4851668e-01
  5.6506044e-01
  1.3676981e-02
 -1.5654256e+00
  1.2860043e-01
  1.4585346e-02
 -7.5516596e-02
  6.4213431e-01
  1.0424018e+00
  7.3183203e-01
 -2.7389374e-02
  2.6566854e-01
 -2.5204569e-02
 -8.1569940e-01
  3.3938113e-01
 -3.6057386e-01
  1.2356070e-01
  4.5170808e-01
  5.9064513e-01
 -6.0914770e-02
  1.1515473e+00
  2.0986123e-01
  2.4874523e-02
  2.9993311e-01
  6.3151598e-01
 -4.0726393e-01
  6.5463990e-01
  1.2735634e+00
  7.5859499e-01
  5.8547854e-01
 -1.3224764e+00
  1.3557003e+00
  1.4523204e-01
  1.0948485e+00
  4.9079359e-01
 -1.0943404e-01
  1.8161982e-01
  2.8219497e-01
  2.6257050e-01
 -1.5163071e-01
  9.7538429e-01
  2.3024309e-01
 -3.7492894e-02
  2.8124687e-01
 -1.7592025e-01
 -5.3987783e-01
  1.6490277e-02
 -4.1631602e-02
 -2.8417720e-02
  6.4869381e-02
  1.2218636e-01
 -9.2126667e-02
 -2.8800488e-02
  3.7337057e-02
 -1.1172683e-01
  2.8660223e-01
 -2.3033541e-02
  1.0733453e-02
 -1.1281523e-01
  3.8560079e-03
  2.1101925e-01
 -9.8386601e-02
  2.4068834e-02
  3.7167177e-02
  2.9507145e-01
  3.3555362e-01
 -4.5639075e-02
 -1.5593885e-01
 -5.1500984e-03
  1.7905305e-01
  8.9609660e-02
 -7.3208578e-02
  1.7582509e-01
  7.0023790e-02
 -5.6666117e-02
  3.3865297e-01
  7.2503012e-01
 -7.7740572e-02
 -2.7335629e-02
  5.1856047e-01
  1.1159616e-03
  4.6754353e-02
 -5.1261995e-02
  1.9418474e-01
  1.4116812e-01
 -8.6571835e-02
  2.3174364e-02
 -1.2980067e-02
 -2.4070327e-01
  2.7488792e-02
  2.2012757e-02
  4.8862472e-02
 -1.1776599e-01
 -3.4409486e-02
 -5.5398917e-01
 -9.5999993e-02
 -7.1034350e-02
 -3.5703614e-01
  1.0843743e+00
 -1.2128020e-01
  1.0627045e-01
 -7.3742919e-02
 -7.7652231e-02
 -5.3043891e-02
 -1.7536940e-01
 -4.3967519e-02
  1.3081591e-01
 -3.2650653e-01
  2.6990340e+00
 -1.8832831e+00
  1.4462917e-01
  6.1548525e-01
 -1.6639868e+00
 -1.0569155e+00
  3.2365952e+00
 -6.5591204e-01
  2.6798515e+00
 -1.1174303e-02
 -2.1972990e+00
  1.2016561e+00
  1.8655139e-01
 -1.7257788e+00
  5.7115167e-01
  1.6377621e+00
  4.9246481e-01
 -1.9708458e+00
 -5.3820896e-01
 -7.3687023e-01
  8.2506490e-01
  2.1230080e+00
  4.8622373e-01
  7.4809754e-01
  4.5037359e-02
  2.1413848e-01
 -3.6447689e-01
 -8.9942127e-02
 -2.3889613e+00
 -4.1210133e-01
 -8.3879852e-01
 -3.8907778e-01
 -1.2069689e-01
 -3.5259206e+00
 -7.7331591e-01
 -6.4646535e-02
  2.8629797e-02
 -1.7070328e+00
  2.2144894e-01
  9.5253848e-02
  1.3527976e+00
  1.3447095e-01
  6.5527387e-02
 -1.2426849e-01
  3.4630284e-02
 -1.5975578e-01
 -3.7083334e-01
 -4.3580636e-01
  4.9140239e-01
 -4.2147152e-02
 -1.3959432e-01
 -3.3590525e-01
  2.4025755e-02
  1.1992110e+00
  1.4482524e-01
  1.3528125e+00
  8.6406535e-01
 -1.7749330e-01
  4.1943642e-01
 -1.6053714e-01
  4.0409479e-01
  8.2073636e-02
 -4.8197541e-01
 -4.1511461e-02
  7.2755747e-02
 -5.4559307e-03
  4.0044550e-02
  7.4146524e-02
  6.3157523e-01
 -1.9865270e-01
  8.9357801e-02
 -4.3305077e-02
  1.3282135e-01
 -5.9979051e-02
  6.2175740e-02
 -1.4119339e-01
 -2.9709315e-01
 -9.0462512e-01
 -4.3134266e-01
 -3.1835187e-02
 -2.0090432e-01
 -5.0015718e-01
 -8.2450971e-02
 -2.8703153e-01
  4.9332039e+01
 -1.9479337e+00
 -6.4475186e-02
  1.9977685e+00
 -1.7951804e+00
  6.3675013e+00
 -2.5986781e+00
  1.3453714e+00
 -5.0196439e-01
 -4.3537679e-01
 -1.3844677e+00
 -3.0943515e+00
 -1.7285999e+00
 -6.4853919e-01
 -3.6821032e+00
  3.1525810e+00
  1.0482793e+00
  2.2258725e+00
 -1.2227587e-01
  6.4773314e-02
 -2.0152051e+00
  2.2614741e+00
  7.2223169e-01
 -1.6406964e-01
  2.1127574e+00
 -2.5543332e-01
  3.7550044e-01
 -3.1420252e-01
  4.4986457e-01
 -6.6016787e-01
  6.1450964e-01
  9.3708718e-01
 -5.6708133e-01
 -1.0108242e+00
  6.2553209e-01
  1.8067644e+00
 -9.5909911e-01
 -3.8642779e-01
 -1.7172045e-01
 -5.2856988e-01
  1.2980551e+00
 -6.1805677e-01
  2.7938142e-01
  1.1357093e+00
  1.3577788e+00
 -7.6798469e-01
  1.9279832e+00
  1.0041404e+00
 -2.2304072e+00
  1.2235451e+00
  9.3225980e-01
  9.4808078e-01
  6.2551820e-01
 -3.9835811e+00
  1.4536992e+00
  1.4769627e+00
  2.1007532e-01
  4.3434912e-01
  9.5452255e-01
 -4.3334538e-01
  1.9220148e+00
 -7.4809510e-01
  4.9682781e-01
 -2.3559661e-01
  8.8796216e-01
  7.5231500e-02
 -5.4950839e-01
 -1.4522189e+00
  3.0431008e-01
  2.0869591e+00
  9.0746123e-01
  3.9251201e-02
 -1.2544863e+00
 -1.3803233e+00
  3.5337323e-01
 -1.7757034e+00
 -1.1772566e+00
  2.4275582e+00
 -1.3259398e+00
 -4.5535607e+00
  2.2635815e+00
 -3.0148971e+00
 -1.6576774e-01
  2.8024295e-01
 -4.0891200e-01
  9.9354339e-01
 -6.2259144e-01
  1.8825366e+00
 -1.0441360e+00
  7.7447498e-01
 -2.4312012e-01
 -1.4919708e+00
 -3.1130087e+00
 -2.0039408e-01
  2.6508662e-01
 -6.5587538e-01
  9.2252217e-02
  2.3660520e-01
  5.5994093e-01
 -2.3371060e+00
  1.7522684e+00
  7.2943580e-01
  8.1074488e-01
 -3.3610246e+00
 -1.9780293e-01
 -1.5616282e+00
  1.1672256e+00
  2.7517290e+00
 -8.0575071e-02
  3.9401019e-01
  8.9820340e-02
  8.6917031e-01
 -5.7203281e-01
 -1.7514049e+00
 -1.1551232e+00
  6.0398215e-01
 -1.5180573e-01
  1.6718168e+00
 -6.6587836e-01
  1.3697287e+00
  7.0409328e-01
 -4.0251751e+00
 -1.1760879e-01
 -2.5459385e+00
 -2.2416222e+00
  1.4000062e+00
 -7.8937387e-01
  1.7372217e+00
 -2.7505815e+00
 -3.3383098e+00
  8.2356822e-01
 -5.4850954e-01
  1.4189830e+00
 -5.0352592e+00
  2.3977314e-01
 -3.6828029e-01
  5.1681370e-01
  2.0233204e+00
 -1.4657328e+00
 -4.3578801e+00
 -1.3953910e+00
 -1.5443063e+00
  9.7590268e-01
 -1.8759371e-01
  6.0192043e-01
 -2.0280228e+00
 -4.6429980e-01
 -1.6200455e-01
  3.4835465e+00
 -9.5555824e-01
 -1.1934766e+00
  7.9744965e-01
 -8.4139335e-01
 -9.9167889e-01
 -1.0635406e+00
 -1.5391127e-02
 -3.7478843e-01
 -3.3694881e-01
  1.5791315e+00
 -1.1637558e+00
  7.3783511e-01
 -1.1880126e+00
 -1.7273365e+00
 -1.1046252e+00
 -1.3163623e+00
  3.1728700e-02
  8.0915761e-01
  1.6467427e+00
 -6.9669062e-01
  7.9748487e-01
  1.5562661e+00
  3.2576313e+00
 -9.4015759e-01
  4.2093033e-01
 -2.2582439e-01
  1.9597268e+00
  2.0823604e-01
 -1.6609696e+00
 -5.1118600e-01
  4.3833408e+00
  3.3936071e-01
  2.9022466e-02
 -7.3583299e-01
 -2.6780409e-01
  1.5590215e+00
 -9.6740919e-01
 -5.5910254e-01
  6.4129758e-01
 -1.5267559e+00
  2.8137372e+00
 -1.8198688e-01
 -5.9970987e-01
  2.7349062e+00
 -2.7032254e+00
  1.0551387e+00
  1.5575359e+00
 -7.2535199e-01
 -7.1658611e-01
 -2.0947416e+00
  2.0595683e-01
 -2.5929968e+00
 -8.9117646e-01
  9.4926965e-01
  5.5098034e-02
  4.4954786e+00
 -6.5384072e-01
  1.2850282e+00
 -3.9273415e+00
 -1.3914998e+00
 -2.5163660e+00
  2.7286014e-01
  1.2670557e+00
  1.3181499e+00
  9.2903370e-01
 -1.6598009e+00
  1.1312257e+00
  1.2893411e+00
 -1.9795169e-01
  9.4522893e-01
  3.5471824e-01
  1.8231955e+00
  2.5941389e+00
  8.2127839e-01
 -3.0434320e+00
 -4.7873315e-01
 -4.7346807e+00
 -2.2771223e+00
  4.2725639e+00
  1.5602063e+00
 -2.4756122e-02
  1.2284601e-01
  1.6114727e+00
  4.1117046e-02
  2.3493056e+00
  5.2320910e-01
  8.3580174e-02
 -1.6637807e+00
  4.3892425e-01
 -7.4586950e-02
  1.4302119e+00
 -2.7283673e+00
 -3.4673223e+00
 -1.3426945e+00
  1.0446055e+00
  8.3486676e-01
  1.5898196e+00
 -8.0682874e-01
 -1.9364625e+00
 -5.3755540e-01
 -1.0462705e+00
  7.6927888e-01
  2.5755925e+00
  2.9992273e-01
 -1.0584482e+00
  6.9073808e-01
 -3.5362921e+00
 -2.4407482e-01
  1.5221243e+00
 -1.8763328e+00
 -1.4679896e+00
  3.4501559e-01
 -3.3646669e+00
 -9.2252493e-01
  2.2788435e-01
  1.0544996e+00
 -4.4438273e-01
  5.3256261e-01
 -7.9487127e-01
 -2.7414296e+00
 -1.1982723e+00
  5.3150821e-01
  2.2359097e+00
  8.3510712e-02
  3.0022159e+00
 -6.8911314e-01
  2.7976639e+00
  5.0837350e-01
  4.6474218e-01
  1.3264555e-01
  6.8043101e-01
 -1.3944660e+00
  1.7177618e+00
 -2.5866451e+00
  1.6891352e+00
  5.1416212e-01
 -6.8867660e-01
  1.1928540e+00
 -5.0693864e-01
 -9.4320095e-01
 -1.5178870e+00
  8.1647128e-01
  1.0845085e+00
 -1.9847513e+00
 -1.3534683e+00
 -1.1906389e+00
 -6.9887900e-01
 -1.7269305e+00
 -1.7774614e+00
 -5.7297295e-01
  6.1535926e+00
 -3.9295073e+00
  3.4445863e-02
  1.0013021e+00
 -3.0108747e-01
 -4.9074224e-01
 -1.8971957e+00
 -8.7497067e-01
 -6.2389171e-01
 -1.8761473e+00
 -4.2635590e-02
 -3.0821466e+00
  2.2535815e+00
  5.6966454e-01
 -3.7173614e-01
  3.2852048e-01
  1.9627230e+00
  1.7652482e+00
  1.8247838e+00
 -5.0031716e-01
  7.4418652e-01
  1.0570660e+00
 -3.1556731e-01
  1.9989281e+00
 -5.0040478e-01
 -1.5332690e+00
  8.4575707e-01
  1.8068322e+00
 -5.6030735e-02
  9.6303083e-02
  5.3229023e-02
 -9.2602175e-01
  1.4255729e-01
  1.9496663e+00
 -7.5507021e-01
  2.6362965e+00
 -4.6325979e+00
 -8.6741287e-01
 -1.8195626e-01
 -2.8109711e-01
 -1.0291822e+00
  2.3418596e+00
 -2.0283060e+00
  6.5520260e-05
  3.1457490e-01
  1.5921775e+00
  2.0179968e+00
  1.6252800e+00
 -7.9122502e-01
 -2.2220733e+00
 -1.2639248e+00
  4.9978974e-01
 -3.1282086e+00
  2.3357667e-01
 -1.0115227e+00
  2.0994088e-01
 -2.0719981e-01
 -5.0167483e-01
  1.8059914e-01
 -2.8345737e+00
  2.0277268e-01
 -1.2729158e+00
  2.1688472e-01
  2.1688472e-01
  2.1688472e-01
  2.1688472e-01
  2.1688472e-01
  2.6874218e-02
  2.6874218e-02
  2.6874218e-02
  2.6874218e-02
  2.6874218e-02
  3.6623668e-02
  3.6623668e-02
  3.6623668e-02
  3.6623668e-02
  3.6623668e-02
  1.0234203e-02
  1.0234203e-02
  1.0234203e-02
  1.0234203e-02
  1.0234203e-02
  1.8126732e-02
  1.8126732e-02
  1.8126732e-02
  1.8126732e-02
  1.8126732e-02
  2.6483987e-02
  2.6483987e-02
  2.6483987e-02
  2.6483987e-02
  2.6483987e-02
