nep4 2 C H 
cutoff 8 4 7 7
n_max 4 4
basis_size 8 8
l_max 4 2 0
ANN 30 0
  5.1613387e-02
 -6.7970715e-03
  2.7323058e-01
  9.2862374e-01
 -6.7396238e-02
  2.3277398e-02
  1.7173484e-02
 -1.1749317e-02
  5.1815026e-03
  1.1634971e-02
 -3.2324996e-02
 -8.5349223e-03
 -3.1990126e-02
  5.0928343e-02
  4.7155693e-02
 -4.5697711e-02
 -2.2481952e-02
  5.1314663e-04
 -1.8157750e-02
  1.1818297e-02
  1.0915040e-02
  2.2504938e-01
  1.3460767e-01
  1.3670424e-02
  2.8266596e-02
 -2.0135771e-02
 -2.0807566e-02
  8.3096083e-03
 -6.8172984e-02
  1.1146312e-02
  5.7477277e-02
 -2.2721792e-02
 -2.6571003e-01
  5.0792593e-01
  2.8338311e-02
 -6.1911345e-03
 -4.2258063e-03
 -6.9951452e-02
 -3.8368315e-01
  2.6567116e-02
  1.7630568e-01
 -3.8811158e-02
  1.1435299e-02
 -1.6830526e-02
  4.7527283e-02
  1.2323909e-02
  2.5949821e-02
 -3.1508390e-02
  8.9153666e-03
  1.9978831e-02
  5.2388947e-02
  1.7346870e-02
 -6.5287791e-02
  8.8464841e-03
  3.8564470e-02
 -8.3609466e-03
 -5.2604852e-03
  3.8592998e-02
  1.1994055e-02
 -1.3814762e-02
 -4.5193067e-01
  2.8569308e-01
  1.3598845e+00
 -3.1141391e-01
 -7.9028744e-01
  1.2994637e+00
  1.0428759e+00
 -1.3396597e+00
 -3.3062667e-01
 -8.9032567e-01
 -1.6796763e+00
 -1.6716729e-01
  1.4446062e+00
 -6.8581969e-02
 -4.3919894e-01
 -1.3778971e+00
 -1.4748768e+00
  2.7741635e-01
 -3.4291133e-01
  2.0511432e-02
  1.4404924e+00
 -1.3029616e+00
 -3.1780934e+00
  8.8082589e-03
  1.1062980e-01
  3.6148414e-01
  6.8272837e-02
 -1.2518832e-01
  6.2699676e-01
 -2.1657556e-02
  1.3779923e-02
  3.1111208e-03
  1.4359800e-02
 -9.1691899e-01
  9.0957107e-03
  3.2916307e-03
  1.6399715e-02
 -4.1911561e-02
 -7.2964817e-02
 -2.0876797e-02
  9.2850942e-03
  1.2867945e-02
  3.5282835e-02
 -1.5316621e-03
 -3.2925934e-02
  4.7955718e-02
  1.7489821e-02
 -3.1767588e-02
 -1.0630279e-01
 -3.0934837e-02
 -3.1646744e-03
  5.9659280e-02
  2.6195738e-02
 -5.9917750e-04
  6.4936124e-02
  4.3782715e-02
 -3.4266771e-03
  1.2589525e-03
  1.2858458e-02
  6.1998777e-02
 -1.1509162e+00
  6.3036650e-01
  3.6164901e+00
  2.0129206e+00
  5.5476779e-01
 -2.0366690e-01
 -8.0109692e-01
  3.9884183e-01
  1.5693083e+00
 -1.7527536e-01
 -1.1210963e-02
 -6.5248507e-01
 -9.1525042e-01
 -4.5750001e-01
  2.2702691e-01
 -1.5222171e-01
  1.4612890e-02
 -4.0024140e-01
 -4.5023058e-02
  1.5389198e-02
 -2.6618844e-01
  6.9927448e-01
  1.3268824e+00
 -8.2189095e-01
 -2.3183674e-01
  4.3860141e-02
  8.7211095e-04
  1.2154537e-01
 -1.5495643e-01
  1.1185530e-01
  5.2846656e-03
 -4.9039412e-02
  6.1720267e-02
 -4.3770665e-01
  1.7713457e-01
 -2.1473058e-02
 -1.8726824e-02
  5.0318742e-04
 -3.1600658e-02
  5.7606477e-01
 -4.1151859e-02
  3.8566299e-02
 -6.6782162e-03
  2.0949673e-02
  1.9724952e-02
 -2.1345235e-02
  2.0212851e-02
 -4.7527622e-02
  2.6348468e-02
  6.4707905e-02
 -2.2212973e-02
 -1.2747144e-02
 -1.3560781e-01
  1.7937308e-02
 -6.0357652e-03
 -2.2451278e-02
  2.4934314e-02
  8.6310960e-02
  3.9587058e-02
 -1.6985616e-02
 -6.2183563e-02
 -1.3021681e-02
  1.6380978e-01
 -2.5399221e-02
  7.5752228e-02
 -1.3384275e-01
 -8.2456385e-04
 -2.7713453e-02
  3.0470509e-02
  5.8461674e-03
  4.0691849e-02
 -3.5330179e+00
 -1.8388557e-01
 -3.9953431e-01
 -3.0033782e-02
 -2.6481053e-02
  2.6206199e-02
 -3.2407150e-02
 -4.9801883e-03
  1.9834047e-02
  6.9487996e-02
  8.1206061e-02
 -7.9438686e-03
 -9.0549342e-02
 -1.6641814e-02
 -1.1301455e-03
  2.3124695e-02
  1.0533934e-02
 -2.4722657e-01
  5.9182040e-02
  2.6261041e-01
 -4.5222282e-01
 -2.6933923e-01
 -2.4453014e-01
  8.9898087e-02
  1.4823921e+00
  1.1659733e+00
 -9.8349118e-01
  3.9020824e+00
 -2.2653431e-01
 -5.5174732e-01
 -4.4060655e+00
 -1.7929240e+00
  1.6247755e+00
  3.4652901e+00
  3.3446872e+00
  3.5664010e+00
  2.4401844e+00
 -1.1305089e+00
  3.3394802e+00
  1.4743496e+00
 -3.8622645e-01
 -1.3055367e-02
 -1.1285614e+00
 -1.1747643e+00
  1.1265333e+00
 -1.8688317e-02
 -1.4524267e+00
 -2.9200103e+00
  1.9122423e+00
  7.0678793e-02
 -2.9902463e+00
  7.6462798e-02
  2.4188161e-01
 -7.4254340e-01
 -7.5730968e-01
  1.2970151e+00
  7.9135343e-02
 -1.3549592e+00
 -3.5164607e-01
 -7.4878138e-01
 -6.5478897e-01
 -1.0645339e+00
 -6.6981375e-01
  2.4574488e-01
 -5.0405777e-01
 -2.7624977e-01
  3.7374991e-01
 -1.4489372e-01
  4.7162827e-02
  9.1968226e-01
 -6.2871194e-01
 -9.2298621e-01
 -2.4501713e-01
 -8.5459298e-01
  2.6183471e-01
 -1.1971478e+00
 -2.5671443e-01
  7.3459017e-01
  2.7455768e-01
  1.3110565e-01
 -4.4302139e-01
  1.6821612e-01
  6.3189012e-01
  3.7826896e-01
 -2.1171839e+00
 -5.7321530e-02
 -7.2835274e-02
  1.8849196e+00
 -2.2897241e-03
 -2.0420516e+00
  7.3019423e-02
  1.3276048e-01
 -4.1504115e-01
  6.9108319e-01
  5.5956699e-02
 -1.6393494e-02
  4.4988108e-01
 -1.8943392e-01
 -2.9108179e-01
  4.5479319e-04
  8.7448716e-02
  2.0543201e-01
  5.3303695e-01
 -1.8260606e-01
  1.1751850e+00
  9.0866737e-02
  1.1607560e-01
  3.2971889e-02
 -4.0425323e-02
 -8.5380644e-02
  5.4460861e-02
 -2.6610324e-02
  3.5999960e-01
  9.0420097e-03
  3.2728046e-02
  5.1451702e-02
 -1.2472891e-02
 -9.3535241e-03
 -2.3920543e-02
  4.7520259e-03
  1.0518990e-01
  2.4229610e-01
 -5.9851147e-02
  2.4461867e-02
  1.1556977e-01
  3.2425096e+00
  3.7065331e-02
 -2.3982536e-02
  7.7596204e-03
  3.7847736e-03
 -5.6048207e-02
  6.4780051e-03
 -3.8536349e-01
  8.9816982e-03
 -6.7038827e-02
  5.6875655e-03
 -3.9744101e-02
 -1.9881285e-03
 -1.7167686e-02
  8.1430050e-03
  5.6055922e-02
 -1.0664834e-02
  5.8684841e-02
 -4.5566235e-02
 -7.6110139e-02
 -1.5207685e-02
 -2.2137601e-02
  1.7975617e-02
  3.3669062e-02
 -1.3602532e-02
  4.8151808e-03
  2.5134996e-02
 -2.9908154e-02
  1.6423056e-02
  3.6731742e-02
  9.2825620e-03
 -1.9824974e-02
  3.8842019e-02
  3.7130842e-03
 -3.8482476e-02
  1.6026124e-02
 -3.3692960e-02
  3.7621364e-03
 -2.4751890e-02
  1.5628595e-02
  1.7657232e-02
 -1.3702597e-02
 -9.3863923e-03
  3.2006754e-03
  9.5507610e-01
  1.3472019e-01
  9.2396396e-01
 -3.9484076e-02
 -1.9821972e-01
  1.6453828e-01
  9.7753182e-03
 -9.1706699e-01
  9.9246681e-01
 -2.4716105e-01
 -8.6951697e-01
 -3.7501496e-01
 -1.9728069e-01
  4.3063489e-01
 -2.3744367e-01
 -4.7612954e-03
  7.2712111e-01
  9.5942050e-01
 -1.0354830e-01
  4.5905742e-01
  1.5091206e+00
  5.3232741e-01
  1.1423389e+00
 -6.8277514e-01
 -1.3300605e-01
 -9.0614051e-01
  1.0756585e-01
  1.6866282e+00
  2.0245223e+00
 -8.6349145e-02
 -1.5431437e-01
 -6.0257405e-01
  2.6301789e-01
  2.3970337e-01
 -6.1402357e-01
  1.3534003e+00
  1.1050932e+00
  3.1440535e+00
  1.3321607e+00
 -1.9380665e+00
  1.9581161e+00
  5.5892217e-01
 -1.7814531e+00
  1.5975552e+00
 -4.1445565e-01
  5.6846207e-01
  1.1732656e+00
  4.7867954e-02
 -2.3729615e+00
  1.4902002e+00
  9.2709893e-01
  2.8327867e-01
 -5.7739502e-01
  5.4422671e-01
 -7.0155002e-02
 -2.8774312e-01
  2.0568788e+00
  2.1819241e-01
 -4.8130926e-01
 -5.5233037e-01
 -1.9633813e-01
 -2.7286489e-02
 -1.2713941e-02
  3.4807098e-01
  6.3334610e-03
  2.9067438e-02
 -1.9538352e-02
 -8.8502252e-03
  9.8768866e-01
  1.4586870e-03
  1.6293605e-04
  2.8977891e-02
 -1.2662228e-02
 -2.8238797e-01
  8.8842131e-02
 -9.2250714e-03
  5.6133609e-02
  2.6637178e-02
  9.1939755e-03
 -2.9474670e-01
 -1.8468879e-02
  1.7749386e-02
  9.2245415e-03
 -2.7108217e-02
 -1.6093977e-02
  2.8149167e-02
  6.5280624e-02
  4.3222610e-02
  9.2032915e-03
  7.1192016e-03
 -1.7341487e-01
  2.2415741e-01
  3.3420175e-01
 -1.2209314e-01
 -2.9140532e-01
 -1.0009030e-01
  2.2438839e-02
 -6.8368867e-02
 -3.3516537e-02
  5.8532730e-02
  3.2680348e-02
 -9.6346669e-02
  1.9992036e+00
  3.3240849e-01
 -6.8726358e-03
 -2.3011118e-01
  4.7300965e-02
  4.0199067e-03
 -4.5819648e-02
  1.0298011e-03
 -3.9548650e-02
 -7.8009173e-02
  9.8859295e-02
  1.8091071e-01
 -1.3814771e-02
 -1.2032297e-03
 -4.8031303e-01
 -1.5896408e-02
  1.8562984e-02
 -1.5408698e-02
 -1.6949682e-01
 -7.3601872e-01
 -4.7553864e-01
 -3.3606899e-01
  1.5960693e-02
  1.2152579e-01
  2.5818905e-01
  4.7452936e-01
  4.0124562e-02
  1.3357962e-02
  2.1296537e-02
  4.9721240e-03
  8.0512613e-02
 -2.1973798e-02
  2.9927433e-01
  9.1132003e-01
  2.4958909e-01
 -2.2909138e-02
 -4.9157077e-01
 -2.2092679e-01
 -4.3109596e-01
 -5.0111008e-01
  2.5056941e-02
  6.3851308e-03
  1.0673225e-01
 -3.3823384e-03
  1.8015727e-01
 -3.8773093e-02
 -1.6760357e-01
  5.2978367e-01
 -1.0643028e-01
  1.4144605e-01
  8.4988117e-01
 -3.4811806e-02
  1.9592926e-02
 -6.7944162e-02
  2.2707574e-02
  9.7628288e-02
 -3.1208774e-02
 -3.2385156e-02
  2.8609259e-02
 -3.8188443e-02
 -2.4298066e-02
  1.9390166e-02
 -3.4869827e-02
 -1.6554726e-02
 -2.0641446e-01
  5.2542880e-02
 -6.1372664e-02
 -1.9494266e-03
 -4.3879770e-02
 -2.1389040e-01
 -3.4796327e-02
 -8.7294854e-02
 -3.4004014e-02
 -2.1460466e-05
  6.9928907e-02
  7.5037874e-02
  2.4814662e-02
 -1.2682796e-01
 -8.5028540e-03
  1.5422389e-01
 -8.7838936e-01
 -4.7416065e-02
 -2.6346816e-02
 -2.4317924e-02
 -3.1995714e-02
  1.7772568e-02
 -2.1206176e-02
 -4.4385018e-03
  2.9993821e-02
 -5.9193522e-02
 -1.1995377e-03
 -3.4312662e-03
 -1.0770383e-01
  5.7549097e-02
 -1.9955803e-02
 -6.5488154e-01
  1.6793381e-02
  2.2963103e-02
 -2.2394417e-02
  8.9697681e-02
  2.6280042e-03
 -1.3097543e-03
 -6.0269885e-02
 -6.6703223e-02
  2.8930241e-02
  5.6594115e-02
  2.1662874e-02
  6.5991487e-03
 -1.3867532e-02
 -4.7105104e-02
 -2.6515472e-01
 -6.8330370e-02
 -3.8705274e-02
 -3.0753855e-02
 -4.3353278e-02
  7.8804237e-01
  1.6051784e-01
 -2.0922722e-02
  1.7517604e-02
  6.8051359e-03
  3.8327966e-02
 -6.8368994e-02
  5.1810730e-02
  3.3998057e-02
  1.7664298e-02
 -3.7724022e-02
  1.3360928e-02
 -1.4367101e-03
 -2.1654956e-02
 -8.3269039e-03
  2.5869142e-02
 -3.0646278e-02
  2.9782359e-02
 -1.9476419e-02
  2.6898289e-02
  1.4211409e-02
 -9.6644953e-02
 -9.2997644e-03
  1.3140643e-01
  6.5838748e-01
 -4.2441866e-01
 -2.9974240e-01
 -2.7849478e-01
  3.6467180e-01
  5.8649544e-02
  3.9624125e-02
  6.0209319e-02
  2.7076447e-01
 -1.7168207e-01
  9.5949847e-01
 -5.7176507e-01
 -4.7043502e-01
  7.9944706e-01
 -5.8518946e-01
 -1.8279359e-02
  2.0668341e-02
 -3.0541423e-01
  2.0527419e-01
 -5.3344285e-01
 -6.0790230e-04
  8.1612951e-01
 -1.3801384e-01
  1.0737916e+00
  6.1481231e-01
  7.4548268e-01
 -6.6160852e-01
 -9.3772809e-04
  1.6450782e+00
 -1.9308459e-02
  8.1313893e-02
 -1.7705855e+00
  4.8988243e-03
 -2.0330919e-01
  2.3551464e-02
 -8.8800229e-03
  1.9331485e-02
 -8.5477754e-03
  3.2074615e-02
  1.0504486e-02
  2.2630742e-02
  2.8226344e-02
 -2.3131026e-02
 -3.1240217e-02
 -2.0438764e-02
 -3.5084806e-02
  6.3531813e-03
 -2.9948321e-03
  1.4508533e-02
  7.0142090e-02
 -3.2030798e-02
  1.5412005e-02
  4.6353232e-02
  4.5541894e-02
 -3.1936426e-02
 -1.8064947e-01
  2.6760286e-02
 -2.5403164e-03
 -3.9334130e-03
 -9.7568631e-02
 -1.4604498e-01
  1.7767539e-02
  9.0903538e-01
  3.6539942e-01
  7.2062713e-01
  2.5658723e-02
 -1.8953488e+00
 -5.1388496e-01
  7.2982568e-01
 -7.4752963e-01
 -1.3599429e+00
  1.6371878e+00
  1.4324684e-01
  4.9020904e-01
  3.5933501e-01
  4.8966697e-01
  1.4713166e+00
 -3.0197876e-02
 -6.2471833e-02
  6.5971190e-01
  6.8199432e-01
  9.5789540e-01
 -3.2312086e-01
  7.5601226e-01
 -2.6926586e-01
 -2.2058182e+00
 -4.0615554e+00
  8.4329975e-01
  5.6711588e-02
  3.1356387e-02
 -2.1595599e-02
  1.1705092e-02
  6.0251516e-01
 -2.9683963e-04
  3.0704369e-03
  2.3556432e-02
  5.4506063e-02
 -2.5981554e-01
 -2.6632020e-02
 -2.2979315e-02
 -7.8863837e-02
  4.7198320e-03
 -8.8180751e-03
 -6.0313661e-03
 -1.6700655e-02
  4.8169130e-03
 -1.9475188e-02
  3.7234508e-02
 -4.2266376e-02
 -2.9086128e-02
  3.7486618e-03
 -4.2618368e-02
 -2.4260513e-02
 -9.7408533e-02
 -2.3395654e-03
 -1.2970823e-02
  5.9620445e-03
  5.5635665e-03
  2.8468348e-02
 -1.6055653e-02
  6.8122156e-02
 -3.6166575e-02
 -2.9156944e-01
  7.2383481e-01
 -6.1393786e-02
  5.5452522e-02
 -5.2497678e-02
 -4.6557229e-02
 -8.1229042e-03
 -1.4132736e-02
 -6.5729521e-02
  1.7638847e-01
  3.9721881e-03
  4.3729167e-02
 -1.1455433e-02
  8.3870674e-04
  2.2501765e-02
  4.0066957e-02
  6.2696654e-03
  4.1224223e-02
 -2.1524238e-03
  1.6888607e-02
 -3.2125663e-02
 -3.3484787e-02
  5.2080820e-03
 -1.2318318e-01
  6.8818994e-02
 -1.1836319e-02
 -5.1753353e-02
  1.6233491e-03
  8.1068024e-02
 -9.1580767e-03
 -8.9721277e-02
 -1.0645434e-01
 -4.2159248e-02
  1.1475403e-03
 -9.0413116e-02
  2.0614024e-02
  1.9363226e-02
 -4.6044879e-02
  7.9708612e-03
 -2.7280442e-02
  5.2784678e-02
 -4.6022054e-02
 -9.2572337e-03
 -8.8239640e-02
  2.1497497e-02
  8.3876560e-03
 -8.4369518e-03
  1.4429265e-03
 -7.9754395e-03
  5.1546432e-02
  1.2320652e-02
  2.8469104e-02
  2.9398743e-02
  2.6163474e-02
 -1.6520316e-02
  1.2210348e-01
 -2.7229037e-02
 -7.9532184e-02
 -3.0945551e-02
  5.6618607e-01
  1.5770563e-01
  6.4917558e-01
 -1.7706385e-02
 -1.9875383e-02
  2.8369337e-02
 -4.9327780e-04
 -1.1147635e-01
  2.7597603e-01
  7.0670716e-02
 -2.2710551e-01
 -4.7596116e-02
 -3.9846212e-02
  2.3033589e-02
 -3.8769680e-01
 -9.3556575e-02
  1.7139953e-01
  5.9878550e-02
  9.9171549e-01
 -1.3390486e-01
 -1.8127242e-01
  3.5558332e-02
 -3.6098279e-02
  3.1571615e-02
 -1.4661912e-02
  1.6678223e-02
  8.7835453e-04
 -2.6884213e-01
  3.5523921e-02
  4.1981418e-02
  7.6148055e-02
  3.5289484e-01
  9.8462395e-02
  8.7902211e-02
  7.1610168e-02
  7.4982651e-02
  3.8301144e-02
 -6.0574757e-04
  2.0360759e-02
 -1.4727223e-02
  4.7210660e-02
 -1.8828450e-01
  6.3508905e-02
 -2.2752810e-02
  2.5002992e-01
 -8.5117081e-03
 -4.6248410e-02
  6.4482354e-02
 -2.5716089e-03
  1.4463165e+00
  1.9414872e-01
 -1.6413580e-01
  3.1473164e-02
  8.8075288e-03
  7.9938227e-01
 -8.4294856e-02
 -3.4558058e-02
 -2.3065202e-02
 -1.7148957e-01
 -2.9198772e-01
 -9.8480135e-02
  6.0560030e-01
  3.6374962e-01
 -1.0968348e-02
  1.6324736e-01
 -1.4214559e-02
 -1.4388402e-01
  7.3574173e-01
  2.0805353e-01
 -3.2210404e-01
 -4.6393350e-02
 -1.2332772e-01
  4.1923756e-03
  8.2715981e-02
 -2.6730779e-01
  5.1909611e-02
  2.4404916e-01
  7.3256537e-02
  2.4854376e-03
 -1.0812000e+00
  6.9629467e-01
  4.7427329e-01
 -2.9982109e-02
 -9.2116417e-03
 -4.8316978e-02
  9.4975997e-03
  1.4209065e-01
  1.6721530e-01
  4.5649666e-02
  1.9435519e-01
 -2.8406885e-01
 -9.2318439e-01
 -4.1363108e-01
 -9.9245943e-03
 -7.2861984e-02
  8.0407865e-02
  6.7982607e-02
  2.5670975e-02
  7.6123014e-02
  1.1285163e-01
  2.6956603e-02
 -2.7648699e-01
 -1.0608144e-02
  5.3681921e-02
 -8.6858608e-03
 -5.8296662e-02
 -9.2689775e-02
 -8.0077453e-03
  6.3534238e-04
  3.6212558e-01
 -4.7428265e-02
 -1.1110125e-01
 -1.0688334e-02
  7.4922062e-02
 -4.7973350e-02
 -1.7814692e-02
 -1.1958417e-02
 -1.4174037e-01
  8.4973536e-03
 -6.8457879e-02
  9.8367518e-01
  1.0238381e-02
 -4.1490391e-01
 -5.3154081e-02
 -2.2190066e-01
  8.2031471e-01
  5.5079180e-01
  6.1329246e-02
  3.3640239e-02
  1.1709828e-01
  6.6479832e-01
 -1.1857603e+00
  9.5029948e-03
  5.4366857e-01
  5.4102546e-01
  9.2889294e-03
  7.3266841e-02
 -2.1144131e-02
 -3.0786195e-01
 -3.2918348e-03
 -7.5351846e-01
  3.7412286e-02
 -2.8310007e-01
  9.2443815e-03
  5.7274546e-02
 -9.4333962e-03
  6.2797546e-02
  3.2145402e-01
  8.9506000e-02
  1.1383330e-02
  8.4025353e-01
 -2.6347926e-03
  1.7396007e-01
  9.3453012e-02
  2.4250150e-02
  1.7479165e-01
  2.9784220e-01
 -1.5201004e-01
 -2.7931528e-04
 -3.4197569e-03
 -9.9179333e-01
  5.6102341e-01
 -2.8447896e-02
 -3.0048331e-02
  8.3529927e-02
  5.5326186e-02
 -1.5350498e-01
  2.8064452e-02
  4.0967864e-01
  7.5767748e-06
  1.6632445e+00
 -6.3163027e-02
  1.2530561e-01
 -2.6520218e-03
 -4.7089991e-01
  7.3620088e-02
  2.1455979e-01
 -2.3989536e-01
  4.6913990e-01
  8.5306436e-02
 -1.8115908e-02
  3.2300777e-03
  3.1986598e-02
  1.1037644e-01
  1.6333748e-02
  1.1922020e-02
 -2.5840349e-02
  3.3589820e-03
 -1.5471077e-02
  9.0923272e-03
  2.2001127e-02
 -1.0116641e-01
 -1.2453490e-02
 -6.6137873e-04
 -1.2305991e-01
  1.6578244e-01
  3.1137288e-02
  2.9767592e-02
  2.2697918e-02
  2.1353047e-02
  6.2576734e-02
  7.4376934e-03
 -2.2402643e-03
  4.1448744e-05
  1.6937656e-02
 -2.3220886e-02
  2.9802222e-02
  1.3020149e-02
  1.1039014e+00
 -1.4463477e-01
  9.7296655e-01
  6.2104642e-01
  7.4518645e-01
 -9.0388302e-03
  9.9638149e-02
  4.2276570e-01
  4.3587095e-01
  1.2606977e+00
  2.9238749e-01
 -2.0135449e-01
 -2.4256206e-01
  1.1136490e+00
 -1.3167320e+00
  5.5152521e-02
 -1.8663651e-01
  1.9578579e-01
 -5.2578604e-01
  2.0749189e-01
 -2.2295229e-01
 -3.7591150e-01
  2.3678194e-01
 -1.5852645e-01
  7.6935434e-01
 -6.6903099e-02
  9.1826068e-03
  3.9225835e-01
  2.0491795e-01
 -1.2951974e+00
  8.4517705e-01
  4.0981594e-02
  3.4285739e-01
 -3.4365423e-03
 -5.0620958e-03
 -2.7437690e-03
 -6.7959931e-03
 -1.4843224e-01
  8.0102432e-04
  1.0390281e-02
  5.0010100e-02
  7.0119792e-01
 -8.4694913e-03
 -6.2952496e-02
 -1.7557399e-02
 -6.2423665e-04
  2.1443442e-02
  4.7067080e-02
  7.7172202e-01
 -1.5758719e-02
  4.4267210e-03
 -2.4937108e-02
 -6.0448054e-02
  6.9756457e-03
  9.6311467e-04
  1.6240342e-01
  8.0849100e-03
  3.1973983e-03
  1.8974632e-02
  1.1084709e-02
  3.0619848e-01
 -1.0460047e+00
  6.4985685e-02
  1.8470399e+00
  1.7926109e-01
 -2.7552919e-02
  3.8032304e-02
  6.0739767e-02
 -1.0108433e-01
  7.4453372e-01
 -1.1730613e-02
 -3.0963013e-01
  1.3492876e-01
 -1.4273615e-01
  2.2810306e-01
 -6.4659161e-03
 -1.4182968e-03
  1.6928338e-01
 -1.2805007e-03
  4.8417640e-01
  6.3656861e-01
 -1.6450432e-01
 -1.4093679e-01
  5.8798569e-01
  1.0039062e+00
  8.1600584e-03
  2.1238908e-01
 -3.2668874e-01
  1.3400179e-01
 -2.1731408e-01
 -2.1234615e-02
  5.6452407e-03
  5.2304733e-01
 -7.3725050e-03
 -2.3676804e-01
 -7.7877240e-03
 -1.5179741e-01
 -3.9148110e-01
 -4.7842404e-03
  8.5512817e-02
  1.5458135e-01
  1.9081028e-01
  4.3386947e-03
 -4.4324189e-01
  1.8392655e-01
 -8.7941810e-03
 -9.7859368e-02
 -2.5667975e-02
 -4.7223434e-01
 -2.4552636e-02
 -1.3629036e-02
  1.4919964e-02
 -8.5747540e-03
 -6.0100561e-01
  6.0601279e-02
  5.3699743e-02
  5.5682015e-02
  3.1552047e-01
  1.4612599e-01
  1.7765273e+00
  1.0036728e+00
  8.0682296e-01
  1.0859253e-01
  4.0539283e-01
  1.6187692e-01
  1.2184799e-01
  8.4990960e-01
 -1.3728309e-01
 -6.1479944e-01
  2.6932878e+00
  3.1700578e-02
 -3.1090954e-01
 -4.7472936e-01
 -2.0995624e+00
  1.6434773e+00
  1.0316557e-02
 -1.9097636e-03
  1.1896559e-01
  2.3304420e-03
 -1.2467080e-01
 -1.2767324e-01
  1.6748631e+00
  7.2787285e-01
  2.1331665e-01
 -8.9047182e-01
  2.5421809e-02
 -1.1537533e-02
  2.9875728e-01
  7.2999768e-02
  1.4631951e+00
 -3.2912150e-02
 -6.8295115e-01
 -6.0946715e-01
 -2.0304178e-01
 -1.2929843e-01
  1.8918357e-03
  4.9181905e-01
  2.4177656e-01
 -9.1215661e-03
 -9.6657157e-01
  5.1062775e-01
  2.9307353e-01
  3.3620584e-01
 -2.0658350e+00
  8.7085284e-02
  3.0573846e-03
  1.6570492e-01
 -1.0760280e+00
 -5.1634026e-01
 -1.7800465e+00
 -1.8277103e+00
 -7.3818833e-02
 -3.0353349e-01
  9.0351097e-02
  1.0932050e+00
  7.1212035e-01
 -2.0962225e-01
 -3.5611355e-01
  6.8674201e-01
 -6.5314478e-01
  8.6827457e-02
 -6.5413184e-02
  1.9289620e-01
  8.3634025e-01
 -3.7939522e-01
  7.3004164e-02
  6.9642342e-03
  1.1495978e-01
  2.4708688e-02
  6.1175436e-02
 -8.0695720e-03
  2.0042756e+00
 -2.9672894e-01
 -1.4945614e-01
  1.9173532e+00
 -6.7617819e-03
 -3.2845577e-03
  1.7829412e-01
  7.9765528e-02
  1.0607730e-01
 -2.8459439e-02
  4.5927446e-02
  4.2168537e-01
 -2.0663890e-01
  4.9999601e-01
  7.0057109e-02
  7.2079375e-02
  5.1598351e-02
  4.5035698e-02
 -3.3444333e-01
 -1.1373365e+00
  1.3497248e+00
  1.1453288e+00
 -2.4357520e-01
 -1.2246321e+00
 -8.1763333e-03
 -1.0106056e+00
  1.4521180e+00
 -1.0974765e-02
 -2.3910813e+00
  1.2046700e-01
  8.5749522e-02
 -1.0166813e-01
  3.7676077e+00
  4.5023355e+00
  6.4874142e-02
 -6.0150446e-03
  3.8071331e-01
  4.9968722e-01
  6.2529188e-01
  4.7814819e-01
 -1.6136576e-01
 -3.1204820e-01
  2.6024170e+00
  3.0381432e+00
  3.9126091e-03
  4.7445738e-01
 -2.5457871e-01
 -3.1352243e+00
 -1.7274116e+00
 -6.0366094e-02
 -5.7892287e-01
  1.2512404e-01
  9.1064729e-02
  2.9085627e-01
  3.2050720e-01
  1.0542873e+00
  1.9783517e+00
  2.3207799e-01
  4.6741962e-01
 -2.5974646e+00
 -3.3651319e+00
  2.5992858e+00
  4.0442520e-01
 -2.3002054e-01
  1.5516924e+00
 -2.4765096e+00
  2.6464410e+00
 -1.0355190e+00
 -7.5157917e-01
 -7.9153043e-01
 -1.6056298e+00
 -2.1568618e+00
 -7.3900056e-01
 -8.2833451e-01
 -7.5925746e+00
 -1.8072966e-01
  8.0958414e-01
 -7.7647173e-01
  1.9153886e+00
  3.9964241e-01
 -6.9933146e-02
  6.1827445e-01
 -2.4710813e-01
 -3.8510102e-01
 -3.9680041e-02
 -8.3283842e-02
 -1.4215033e-01
 -6.2391218e-02
  1.0834549e-01
 -8.1191623e-01
 -5.1424891e-01
 -6.8390794e-02
 -6.8490821e-01
 -1.4668831e+00
 -1.5009250e-02
  2.0475930e-02
 -8.1639493e-01
 -9.7529525e-01
 -4.0409315e-02
 -7.8702793e-02
 -6.3999921e-01
 -3.5388818e-01
 -2.1835767e-01
  2.3156221e-01
 -1.5662293e-01
 -3.7332204e-01
  3.9410955e-01
 -1.9513689e-02
 -1.0546840e+00
 -1.4610088e-04
  3.5268705e-02
  2.8872474e-03
 -6.6488013e-03
  1.2761958e-02
  4.6978872e-03
 -1.0060121e-01
  2.3554191e-02
  1.9544134e-02
 -2.9132310e-02
  1.5954161e-02
 -1.8212099e-02
  2.1485668e-02
  8.5461214e-03
 -3.2147244e-02
 -3.4595370e-02
 -1.0274867e-01
 -4.3181479e-03
  3.1316102e-01
  9.2267409e-02
  1.3068385e-02
  6.2547937e-02
  1.3958847e-02
 -2.6318587e-02
  5.8513600e-03
  1.1117356e-03
  1.2682202e-02
  2.5999295e-02
  4.6586595e-02
 -3.1490579e-02
  2.5248984e-01
 -7.9013601e-02
 -2.7057577e-02
 -1.3929650e-01
 -1.3253951e-02
 -3.4088273e-02
  1.0404395e-02
  1.1220911e-01
  8.4851682e-02
 -2.0195730e-02
 -2.7068369e-02
  2.7237672e-01
 -4.6431750e-01
 -4.6911810e-02
 -3.3888540e-01
  1.9035514e-02
 -1.7034285e-02
  6.8553142e-02
  1.6394906e-02
  1.4645705e-03
 -2.0477779e-02
 -1.3720999e-03
 -7.1201921e-02
  2.7092439e-01
  2.2217678e-03
 -2.3150371e-02
 -2.6647071e-03
 -3.9372217e-02
 -2.4683639e-02
  5.1722877e-02
 -1.4074433e+00
  6.1839598e-01
  3.2687554e+00
 -2.8693664e+00
  3.2210624e+00
 -2.6500903e-02
  1.1545724e-01
  7.3291588e-01
  1.1139353e-01
  8.7283558e-01
 -2.7660635e+00
  1.4619273e+00
  2.7756396e-01
  3.3088231e+00
  1.7455616e+00
 -4.5812672e-01
  2.1239248e-01
 -2.6524222e+00
 -4.1922033e-02
 -4.6535552e-01
 -1.6218283e+00
  5.0250057e-02
 -8.2047838e-01
 -9.5789111e-01
 -5.0876560e+00
 -9.0836205e-02
 -6.2473446e-02
  2.0855899e-01
  1.7055005e+00
  2.2546952e+00
 -2.2332488e-01
  1.1477653e+00
 -6.6085762e-01
  9.1524258e-02
 -6.9059819e-01
 -3.6064435e-02
  2.9874009e-01
  2.9985407e-02
  1.6227546e-01
  1.0996323e+00
 -2.0290060e-01
 -2.4922340e-01
 -2.4553580e-02
  2.0014158e-01
  1.0581472e+00
 -7.0410813e-03
 -2.4314196e-01
  6.0731128e-02
 -2.5603491e-01
  9.9117041e-01
  1.0002249e+00
 -5.9792620e-01
 -1.2244120e-02
 -2.2887709e+00
  7.1629471e-01
  2.0936778e-02
  5.1682223e-02
 -1.8515101e-01
 -3.5760659e-01
  8.6823177e-01
 -1.5082667e+00
 -1.0844358e-02
  4.9932458e-02
 -4.2204134e-02
  9.7278338e-03
  1.3150667e-01
  1.1572747e-02
 -2.5177537e-03
  1.6071020e-02
  1.7542335e-03
  7.2702080e-02
 -2.4179483e-02
  9.5488653e-03
  8.5285129e-03
  1.2178130e-02
 -1.0686114e-02
  5.6087509e-02
  2.9174631e-02
 -1.5505822e-02
 -6.8928371e-03
  1.3989104e-02
  1.0471256e-02
 -3.1112726e-03
 -4.1979708e-02
 -3.2813162e-02
 -4.2793088e-02
 -8.5643545e-02
 -1.3291219e-02
  3.3980669e-03
  1.6785288e-03
 -4.3950817e-01
 -5.1647437e-01
  4.5639178e-01
 -2.9254563e-02
  2.2707129e-01
  1.1399035e+00
  1.2580769e-01
 -1.5111498e+00
  2.4653296e-01
  5.0574835e-02
  7.0124507e-01
  9.6773106e-01
 -1.1262354e-01
 -9.9972767e-01
  1.1643167e+00
  6.4488330e+00
 -3.7853593e-01
 -2.6762204e+00
  1.2296233e+00
 -2.7003863e+00
 -1.0477414e+00
  3.3354409e+00
 -2.0856450e+00
 -2.2502139e+00
 -1.1210339e+00
  8.1581795e-01
 -1.3591723e+00
 -4.6589595e-01
 -1.2566919e+00
  2.8902516e+00
 -4.5408684e-01
 -1.0014624e-01
 -4.6945891e+00
  5.6648171e-01
 -2.3861596e-01
 -2.4107313e-03
  6.4030928e-03
  1.1071174e+00
 -1.2432024e-01
 -4.9934953e-01
 -4.4066567e-02
  1.7662481e-03
  9.1488385e-01
  3.6496127e+00
 -1.3857193e+00
  1.1902218e-01
 -5.7707322e-03
 -4.6117702e-01
 -1.0924987e+00
 -6.7519200e-01
 -9.0808511e-02
 -9.3229508e-01
 -7.1408457e-01
 -3.4128222e-01
 -4.3877777e-01
  4.5484733e-03
  1.4392281e+00
  1.1382437e-01
 -9.5914108e-01
 -1.2324871e-02
 -2.8374175e-02
  1.7164256e-02
 -3.3516551e-03
  5.6153637e-01
 -1.6582033e-01
 -7.9781331e-02
 -3.3169290e-01
  1.2650751e-01
  2.2869204e-01
 -2.6711279e-03
 -5.0735784e-01
  1.6552226e-01
  5.3566533e-01
  1.8972915e-02
 -1.1525891e-01
 -3.6917368e-01
 -2.5638629e-02
  2.2244762e-01
  2.3068698e-01
 -4.1664734e-01
 -1.4611539e-01
 -6.9481865e-02
  4.3548855e-01
  1.1743592e-01
 -4.4380096e-01
 -1.2694483e-01
 -2.2934775e+00
 -6.7775899e-01
 -5.9982553e-02
  1.4402504e-01
 -2.1746196e-01
 -1.9313090e-01
 -6.8516123e-01
 -1.0793575e+00
  1.6985362e-02
  4.8263341e-02
  3.3539601e-02
 -5.0010134e-02
  4.7043946e-02
 -2.5258506e-02
  8.0247194e-02
  8.3416805e-02
 -1.5658479e-02
 -5.1511204e-01
 -7.7523649e-02
 -7.1569063e-02
 -6.9630042e-02
  1.0143881e+00
 -7.4683085e-02
 -2.5571796e-01
 -4.9606186e-01
  1.3722358e-03
 -1.7273178e-02
 -1.8926193e-01
 -2.5140139e-01
 -3.9843060e-02
 -1.2886183e-01
 -8.9041365e-05
 -6.4122446e-02
  2.5289662e-02
 -2.5185838e-01
 -4.6244386e-01
  1.5942243e+00
  3.7869874e-01
  5.6962824e-01
  4.3558918e-02
 -1.9954157e+00
  6.9617254e-01
  1.4083468e+00
  1.1577796e+00
 -8.5768449e-01
  1.9186094e+00
 -8.2723320e-01
  8.8039345e-01
  5.9365052e-01
 -1.8790665e-01
 -3.7384105e-01
  5.5199468e-01
  4.1100960e-02
 -1.3534240e-01
 -8.8035500e-01
 -2.0155060e+00
  1.7076679e+00
 -9.3814194e-02
 -2.9379301e+00
  1.7938400e-02
 -8.7679829e-03
 -4.1474277e-01
  5.9698790e-01
 -4.6680970e+00
 -9.3171877e-01
 -4.5818243e-02
 -2.3942649e+00
 -2.0665513e-01
  4.6693522e-04
  3.8898412e-02
  3.5531402e-02
  7.5864114e-02
 -1.8934501e-02
 -8.6639628e-02
 -3.5722952e-02
 -5.3394929e-02
 -5.4301806e-02
  4.0040750e-02
  1.7406550e-01
 -1.7074706e-02
  2.3006115e-03
 -6.4565018e-03
  6.2377998e-03
  6.7748027e-03
 -7.2434984e-02
  6.8339184e-03
 -1.0322113e-01
 -3.4026196e-03
 -1.7330579e-02
  2.0345127e-02
 -3.7992328e-02
  2.1129963e-03
 -4.3156821e-02
 -8.6565562e-02
 -2.1531700e-01
  7.9861237e-04
  3.7331975e-03
  8.8843387e-03
 -8.8060703e-03
  1.7720731e-02
  2.5948370e-02
  3.2953635e-02
  1.2451708e-02
  3.3281639e-02
 -2.8973769e-02
 -2.4808161e-02
 -2.7657147e-02
 -5.5811321e-03
  1.6547325e-03
 -3.9452021e-03
  8.1540845e-02
 -8.4903151e-02
 -9.4007356e-03
  2.6600757e-03
 -5.1223889e-02
 -1.8750870e-01
 -4.0740449e-02
 -7.6387217e-03
  1.2418778e-02
  7.7768229e-05
  6.1589621e-02
 -7.6828874e-03
  5.7779998e-03
 -9.9529691e-02
  4.7863349e-01
  2.5364861e-01
 -3.3873871e-01
  2.0945755e-01
  3.0331570e-01
 -2.8100383e-02
 -7.0616871e-01
 -6.5737411e-02
  1.3774783e-02
 -2.0919594e-01
  1.2867558e-01
 -8.0873775e-01
  4.4670802e-02
 -7.4757546e-02
 -4.3268296e-01
 -1.0342741e-02
 -6.1876819e-02
  9.4806673e-03
 -3.7611578e-02
  1.7108469e-03
 -9.3637787e-02
  2.9515073e-01
  2.3752867e-01
  3.7282857e-01
  3.7266031e-01
  2.2613814e-02
  9.1753274e-02
  5.2778568e-02
  9.4236195e-02
  3.6794964e-02
  1.0905799e-01
 -4.8131549e-01
 -3.1883240e-02
  2.8428426e-01
  9.1843259e-01
  3.7183464e-01
 -4.5668232e-01
  8.9427400e-01
  6.8270814e-01
 -4.2244071e-01
  3.2124871e-01
  5.8000765e+00
 -4.1736374e+00
  2.7957950e+00
  1.6992019e+00
  3.2394287e-01
 -1.0244567e-02
 -3.1207287e+00
  4.0197248e+00
  1.4601750e-02
  3.1018829e+00
 -9.9607652e-01
  1.2161794e+00
  1.8443787e+00
  1.4070210e-01
  6.1233705e-03
 -1.5060904e-02
  2.6714194e+00
 -4.1749164e-01
  4.5045114e+00
  1.5510420e+00
 -5.8080864e-01
  7.9163730e-01
  1.4164369e+00
  2.4198918e+00
  2.6417431e-01
  9.8197341e-01
 -8.1383593e-02
 -1.3239005e-01
 -4.7681995e-02
  1.0301334e+00
 -4.7931868e-01
 -1.9453083e-01
  1.3309863e+00
  4.3071717e-01
  2.1122539e-01
  1.8700086e-01
  2.1666639e-01
 -2.1059649e+00
  3.8146058e-01
 -6.6123426e-01
  2.1601081e+00
 -1.2733337e-02
 -6.1901277e-01
 -8.7763853e-02
 -3.7315406e-04
  4.5223659e-01
  3.7243050e-01
 -8.8725889e-01
 -2.8183043e-01
  6.0895199e-01
 -3.9920082e+00
 -1.3008326e+00
  1.7828783e+00
  3.9994642e-01
 -9.2329808e-02
  2.4622049e+00
  1.8200878e+00
  9.4062650e-01
  2.1426446e+00
 -1.2639426e+00
 -7.9286236e-01
  3.5157290e+00
  3.4335835e+00
 -9.3574375e-01
 -2.4045393e-01
 -2.4102150e-01
 -1.5302032e-01
 -3.3697426e-02
  2.2693882e+00
  3.3072579e-01
  2.8175340e+00
 -1.3040004e+00
 -2.8273675e+00
 -1.0787910e+00
 -1.6664152e-03
 -4.7485289e-01
 -1.6669091e+00
  9.7431941e-03
  2.9026361e+00
  4.1061464e-01
  6.7878366e-02
 -2.4701053e-02
 -1.6301834e-05
 -5.4526214e-02
 -7.6447316e-02
  7.7595310e-03
 -1.9226025e-03
  5.4409234e-03
 -9.4181590e-02
 -1.9822443e-02
  1.8208997e-02
 -3.8084146e-02
 -1.2446239e-01
  9.8571815e-03
  6.2232275e-02
  6.9267407e-02
  2.2037950e-01
  1.7973319e-02
 -7.3795564e-02
 -4.3357100e-02
 -6.0845193e-02
  1.6685734e-02
 -3.6339663e-02
  1.0742856e-01
 -4.6298780e-02
 -5.8893748e-03
 -5.5753095e-03
  3.8107473e-02
 -2.9489862e-02
  3.1615058e-01
  1.0753880e-01
 -6.8748975e-03
 -9.3309397e-01
  3.6251355e-02
  1.0408162e-02
 -4.5068008e-03
  1.0214901e-02
 -1.5764907e-02
 -1.3605786e-02
 -1.3372001e-02
  1.7617553e-02
  2.5089467e-02
  4.0358532e-02
 -1.3375675e-02
  2.5264695e-01
 -7.1596168e-03
 -1.9659297e-01
 -1.2851443e-02
 -3.0635424e-02
 -1.1548917e-03
 -5.5258665e-03
  5.9810050e-02
 -1.6528625e-02
 -1.0141093e-02
 -5.9029039e-02
  3.4503862e-03
 -1.9992193e-02
  7.2547910e-03
 -3.7521038e-02
  1.5872385e-01
 -4.5847756e-01
 -4.8295543e-02
  6.3700616e-02
  4.1120824e-01
 -7.4583060e-01
  1.6724139e+00
 -9.1524857e-01
  1.7755328e+00
  7.2863942e-01
  5.4056668e-03
  4.2069498e-01
 -7.8586704e-01
 -5.3217131e-01
  8.1188835e-02
 -2.6632884e-01
  3.3419842e-01
 -1.8066670e-01
 -9.6901923e-01
  1.2835860e+00
 -2.2048767e+00
 -4.1284958e-01
  5.5620742e-01
  1.5010877e+00
 -2.0832004e-01
 -5.3664231e-01
 -2.3260660e+00
  8.5165381e-02
  1.7416577e-01
 -2.6184754e+00
  3.7239157e-02
  1.5861838e-01
 -1.0442933e-02
 -1.1894642e-01
 -9.0279025e-01
  3.0605060e-01
  3.3761518e+00
 -2.1757658e-01
 -1.4291559e-01
  3.8475546e-01
  6.2497866e-01
 -1.3292424e-02
 -5.0074294e-02
 -1.4479213e+00
 -8.8889845e-02
 -1.0870945e-01
 -1.5500628e+00
 -1.5054283e-01
 -6.8281651e-02
 -5.4810345e-01
  4.4438598e-01
  1.5324996e-01
  2.9089989e-02
  8.0858730e-02
  1.7886250e+00
  7.6764598e-02
  3.0320960e-01
 -5.6957519e-03
 -1.2662178e-03
 -2.6737514e-01
 -2.7197737e-02
 -1.7631607e+00
 -2.5277066e-01
  4.7623840e-01
  3.5353802e-02
 -1.7897984e-01
  1.4347371e+00
  4.9689710e-02
  4.8085555e-01
 -5.2882433e-01
 -1.1983104e-01
  2.1006893e-03
 -4.1423019e-02
 -1.1166296e-01
 -1.1626519e-01
  9.8422877e-03
  4.0051058e-01
 -4.0603444e-01
 -2.7326450e-01
 -1.3853999e+00
  7.4820983e-01
 -1.2256618e-01
 -3.5193195e-03
 -5.1742572e-02
  2.3550323e-01
  9.3625355e-01
 -2.1818330e+00
 -2.9145407e-02
 -3.6469290e-01
 -2.7762392e-01
  4.4152523e+01
 -1.4335059e+00
  1.5108335e-01
  3.4382238e+00
  9.4363880e-01
 -1.8647203e+00
 -1.8318275e+00
 -8.2151186e-01
 -1.3771546e-01
 -1.2494582e+00
 -1.9339197e+00
 -3.8986170e-01
  4.7940752e-01
  1.9842975e+00
 -2.4668734e+00
  2.0187221e+00
  3.4185052e-01
 -3.0034751e-01
  1.4221792e+00
  1.4999579e+00
  1.8287055e-01
 -1.4779028e-01
  3.7199980e-01
  1.3679283e+00
 -6.7604631e-01
 -1.6188540e+00
  1.2491841e+00
 -9.9063057e-01
  2.6764664e-01
 -2.5575182e-01
  2.9913670e-01
  2.8892028e+00
  3.9247282e-02
  2.2209599e+00
  6.5503478e-01
  4.5766177e+00
  2.5938162e-01
 -7.5334734e-01
  2.5429365e-01
  1.4302827e+00
 -2.0134993e+00
 -9.7190195e-01
  1.9777253e-01
 -7.9758495e-01
  1.4605554e+00
 -2.1438348e-01
  5.2142936e-01
 -1.2669671e+00
 -5.6934559e-01
  1.7819968e+00
 -1.6966088e+00
 -1.7599300e+00
  3.4069204e-01
 -1.4334437e+00
 -6.8599835e-02
  1.5745373e+00
 -4.1649935e-01
  8.1170154e-01
 -1.0699748e+00
 -2.4853694e+00
  7.7435899e-01
 -1.5927496e+00
 -8.3175021e-01
  6.2136352e-01
 -4.9985820e-01
  1.3474483e+00
  1.3668517e+00
 -2.8200942e-01
  1.1455427e+00
 -3.5079794e+00
 -6.8230677e-01
 -3.2251656e-01
 -7.7027142e-01
  1.9900811e+00
  3.3416209e-01
  7.4510640e-01
  4.4372270e-01
 -5.5541170e-01
  1.2537591e+00
  3.3383892e+00
 -1.2644720e+00
 -3.2478657e-01
  3.5283533e-01
  1.3968641e+00
 -1.0675362e+00
  2.2501288e-01
  4.5642930e-01
 -3.3103225e+00
  8.4410772e-02
 -1.8799894e+00
  2.6617211e-01
 -3.0461848e+00
  9.1506565e-01
  3.5079458e+00
  2.0848222e+00
 -5.7918811e-01
  3.3106717e-01
 -1.2605844e+00
 -5.2657944e-01
 -2.9309404e+00
  1.0757067e+00
 -2.1681228e+00
  8.1572986e-01
 -1.8146893e+00
 -4.9073210e-01
 -1.5635833e+00
 -1.6504382e+00
 -1.9975418e+00
  1.0795485e+00
 -2.4508615e+00
 -2.1750898e+00
  8.2069939e-01
 -1.5483985e+00
  5.3911632e-01
  6.0786039e-01
 -1.2792362e+00
 -6.6802192e-01
  4.4720784e-02
  1.0048810e+00
  4.7784805e+00
  2.2168040e+00
 -2.1430566e+00
 -1.2808129e+00
 -3.6056451e-02
 -9.6440393e-01
  1.8226941e+00
  1.6099364e+00
 -5.7811797e-01
 -1.6402758e+00
  2.0946226e+00
 -4.1229062e+00
  1.0292771e+00
 -1.7771338e-01
  1.1228874e-01
 -9.9272752e-01
 -2.6598501e+00
 -1.5206170e+00
  1.1374435e+00
 -5.2867037e-01
  9.6383232e-01
 -3.3207789e-01
  4.7214195e-02
  9.9500734e-01
  7.4953794e-01
  1.1126527e+00
 -2.3211386e+00
  3.2993475e-01
 -5.4563570e-01
  2.6608281e-02
  1.8132877e+00
  4.6983796e-01
  1.2895907e+00
  3.4991479e+00
 -2.9637194e-01
 -9.8109412e-01
  2.6467910e+00
 -1.0854765e+00
  5.1343080e-02
  1.3204703e+00
 -5.8397609e-01
 -9.9134189e-01
  1.2712954e-02
  2.6112589e-01
  3.1695499e+00
 -1.7611477e+00
  2.4334817e+00
  2.5155666e-01
  9.2207265e-01
 -1.1046147e+00
 -1.0682851e+00
  6.5524828e-01
 -3.0375254e-01
 -2.4137697e+00
 -2.0092120e+00
 -2.9338917e-01
  2.3897195e+00
 -5.7393557e-01
 -2.6436038e+00
 -2.8526452e-01
  2.0797884e+00
 -1.2356474e+00
  1.7373086e+00
 -6.3412923e-01
 -2.8357321e-01
 -6.8932796e-01
  2.6388719e+00
 -2.0636096e+00
 -5.8491623e-01
 -2.1197492e-02
 -1.8483298e+00
 -1.4487317e+00
  3.2921085e+00
 -6.4148092e-01
  5.8610517e-01
  3.6939154e+00
 -4.3730044e-01
 -2.4683508e-01
 -4.4111233e+00
  3.0064151e-01
 -8.8649684e-01
 -1.5017275e+00
  5.1110691e-01
 -3.1250551e+00
  2.2011528e-02
  1.0647245e-01
  1.2395490e+00
 -2.4093802e+00
  2.2718089e+00
  2.5887003e+00
  1.2661494e+00
  3.8372508e-01
 -1.7529904e+00
  1.0410715e+00
  1.9678242e+00
  1.8228252e+00
  1.0404804e+00
 -5.2922702e-01
 -1.5605607e+00
  1.3032753e+00
  1.4642266e+00
 -2.5454634e-01
  1.5906136e+00
  2.9726583e-01
  2.1959429e+00
  1.0962828e+00
  8.8377035e-01
 -9.8889548e-01
 -1.2495700e+00
 -1.7395508e+00
  4.4363430e-01
 -6.2373018e-01
 -3.8001350e-01
  1.9410106e+00
 -1.4491767e+00
  1.9527312e-01
 -6.5477058e-02
  8.7927240e-01
 -4.4025044e+00
 -1.9857737e+00
  6.7885119e-01
  1.7118543e-01
  1.2771740e+00
  2.9603219e+00
  1.2237793e+00
 -1.1162080e+00
 -1.5358028e-01
 -8.5509747e-01
  1.4208957e+00
  3.2433626e-01
 -5.2392979e+00
 -2.5713050e-01
 -2.0196085e+00
  3.7035428e-02
 -5.3223777e-01
 -1.1504049e+00
  1.0451663e+00
  1.2775993e+00
  1.3861090e-01
 -1.5834149e+00
  9.9188924e-01
 -3.5830367e+00
  3.4688786e-02
  8.7060258e-02
 -3.8616068e+00
  7.2325259e-01
  1.2816459e-01
  1.6434062e+00
  9.1325444e-01
 -1.9756293e-01
  2.3821671e+00
  1.6011919e+00
  1.6293095e+00
  2.4860170e-02
 -4.0238222e-01
  1.8309938e+00
  8.9926159e-01
 -1.1886891e+00
  1.8273439e+00
  6.7065954e-01
  3.4897614e-01
  7.6102205e-02
  2.4993765e-01
  7.3195785e-01
 -9.1960341e-01
  1.4193714e-01
  1.7356822e-01
  6.0243773e-01
  1.6385911e+00
  5.9489906e-02
 -1.0009557e+00
 -1.5504274e+00
 -7.1111566e-01
 -8.7527180e-01
 -2.0305862e+00
 -1.2107489e+00
  1.0791669e+00
  1.5130191e-01
 -2.7610228e+00
  2.4612904e+00
  2.3998535e+00
  8.5769224e-01
 -1.4033252e+00
  2.0957163e-01
  5.9472311e-01
  7.3532498e-01
 -8.0061048e-01
  2.9199067e-01
 -3.5722083e-01
  1.7355506e+00
  6.1758223e+00
 -2.5922940e+00
  2.6286045e-01
 -6.6335779e-01
 -6.0410810e-01
  1.6548268e+00
  4.7654715e+00
 -3.4094708e+00
 -1.3002796e+00
 -1.0742273e+00
 -4.5476761e-01
 -8.4421270e-02
 -1.9444648e+00
 -2.1400453e-01
  1.1769805e+00
 -1.1910518e+00
 -7.0282710e-01
 -6.6953301e-01
 -2.0741384e+00
  3.1602426e+00
 -9.4758689e-02
  2.2472806e+00
  2.8954201e+00
 -8.3316928e-01
  1.6304088e-01
 -1.3542799e+00
 -5.7886009e+00
 -7.7587914e-01
 -3.0635840e-01
 -8.8764232e-01
 -1.1665210e+00
  1.2268192e+00
  1.7318637e+00
 -1.0579251e+00
  1.6237384e+00
  6.0141838e-01
  4.0991385e-03
 -8.9679050e-01
 -1.4426324e+00
 -1.7411455e+00
 -2.2640488e+00
  4.2796153e-01
 -4.9289343e-01
 -7.7127260e-01
 -3.3274031e-01
  1.2696614e+00
 -2.7286525e+00
  1.0493231e+00
  1.9507213e-01
  1.2645812e+00
 -3.0015233e-01
  4.9888264e-02
  2.1688472e-01
  2.1688472e-01
  2.1688472e-01
  2.1688472e-01
  2.1688472e-01
  2.6874218e-02
  2.6874218e-02
  2.6874218e-02
  2.6874218e-02
  2.6874218e-02
  3.6623668e-02
  3.6623668e-02
  3.6623668e-02
  3.6623668e-02
  3.6623668e-02
  1.0234203e-02
  1.0234203e-02
  1.0234203e-02
  1.0234203e-02
  1.0234203e-02
  1.8126732e-02
  1.8126732e-02
  1.8126732e-02
  1.8126732e-02
  1.8126732e-02
  2.6483987e-02
  2.6483987e-02
  2.6483987e-02
  2.6483987e-02
  2.6483987e-02
