nep4 5 C Cl H Na O 
cutoff 8 6 225 114
n_max 8 8
basis_size 8 8
l_max 4 2 0
ANN 40 0
 -5.2707225e-01
  1.0582622e-01
  4.1167098e-01
 -1.0323383e+00
  8.2427114e-01
 -1.3934526e-01
  1.5169778e-01
  1.6354812e+00
  6.7054369e-02
  3.1539977e-01
 -1.6678737e-01
 -5.7025872e-02
 -5.5091511e-02
  3.6359838e-01
  6.0287923e-01
  5.3357804e-01
  5.3313392e-01
  7.1344531e-01
  9.9554610e-01
  1.9809996e+00
 -1.1748815e-01
 -3.3564797e-01
  2.9165572e-01
 -1.7265254e-01
 -4.6466309e-01
  2.3118854e-02
 -6.7423485e-02
  1.3326401e+00
  8.7150037e-01
 -3.1250092e-01
  1.1423138e+00
  4.2205086e-01
 -1.9359246e+00
  2.4943148e-01
  1.9037716e-01
 -5.4075503e-01
  1.4417121e-01
  1.4516327e-01
 -7.1032807e-02
 -3.4649223e-03
 -3.2755548e-01
  1.0324752e-01
 -3.9263961e-01
  3.3516315e-01
  1.5271541e-01
 -8.7946258e-02
  5.1770341e-02
  1.4822793e-01
  1.3130838e+00
 -2.3314450e+00
 -2.2223273e-01
  3.8127609e-02
  9.0660155e-01
  1.9325297e-01
  2.6303256e-01
  5.0200361e-01
 -2.3536605e-01
 -2.2789577e-01
 -6.1082780e-01
  6.3315350e-01
 -3.6682490e-02
 -9.3752861e-01
 -2.4770708e-01
 -1.4476734e+00
  6.8637109e-01
  2.0068705e-01
  2.5924921e-01
  2.7056468e-01
  3.2837468e-01
 -5.3118360e-01
  4.0661991e-01
  4.4528031e-01
 -4.1614138e-02
 -1.3316458e-01
 -1.5552247e-01
  1.2987791e-01
  1.8239740e+00
  3.3391947e-01
  3.1456059e-01
  4.4594625e-01
  2.7758831e-01
  2.3102584e-01
 -1.8043377e-01
 -4.4292319e-01
 -6.6267842e-01
  3.1331411e-01
  1.1274870e-01
  5.0848418e-01
 -1.9230959e-01
  1.1473620e+00
  7.9561943e-01
 -9.1039723e-01
  1.0341772e-01
 -9.7813469e-01
  2.9097152e-01
 -1.5392172e-01
  4.5349568e-01
  6.5787882e-01
 -2.8146046e-01
 -1.1940894e-01
 -1.1835953e-01
 -1.4156770e+00
 -1.4375034e-02
 -2.3567554e-01
 -5.7527351e-01
  1.4882195e-01
 -3.7277162e-01
  3.8277262e-01
  1.8466171e-02
  2.0884322e-03
 -1.1798759e+00
 -1.8499701e-01
  6.4435488e-01
  5.5559301e-01
  8.3977103e-02
  2.1799369e-01
  1.1669405e+00
  2.5867242e-01
 -4.9135242e-02
  2.3051713e-01
 -2.6342139e-01
  7.7137172e-01
 -5.0235224e-01
 -1.0914828e+00
  5.1882702e-01
 -2.4829929e-01
 -2.8790623e-01
 -9.1651398e-01
  9.7437441e-01
  5.6749797e-01
 -6.7559034e-01
  7.0935416e-01
 -2.9061198e-01
  2.0181251e-01
  9.9935129e-02
 -7.4750704e-01
  3.6244955e-02
  8.2453080e-02
 -1.2426329e-01
 -5.2736944e-01
 -1.1026143e+00
  3.6146131e-01
  2.2225282e-01
 -1.2813017e-01
  1.2458711e-01
  5.4674220e-01
 -9.8749205e-02
 -3.7897155e-01
 -4.2200845e-02
  1.8382860e-02
 -1.0047452e-01
  2.6715308e-02
 -3.0922675e-01
  9.3787235e-01
  9.3077004e-02
 -5.1131892e-01
 -1.2170423e-01
  2.8472444e-01
 -7.3537469e-01
  3.1482913e+00
 -2.3918895e-01
 -2.1934658e-01
 -2.0002948e-01
  6.9358796e-02
  2.1029547e-01
 -5.3678192e-02
  1.9746462e-01
  9.4118917e-01
  1.3283521e+00
  2.3268470e-01
  1.0237024e+00
 -9.7084004e-01
 -5.4325312e-01
 -1.0282837e+00
  5.2126076e-02
 -5.5262640e-02
  1.3419060e-01
 -5.2211279e-01
  2.9488258e-02
  2.4453004e-01
  4.2186909e+00
 -2.8453901e-01
 -2.3970008e-01
  4.3210325e-01
  2.3447943e-01
 -3.2568115e-01
  4.5960212e-01
 -7.3438787e-01
  3.1367892e-01
 -4.9988125e-02
 -4.8622850e-01
 -9.2459875e-01
 -1.1988581e+00
  5.4469180e-01
 -2.8432369e-01
 -4.4878870e-01
  2.6738435e-01
  3.5179460e-01
 -3.2540154e-01
  3.5949072e-01
 -5.3037173e-01
 -8.5641846e-02
  3.7871021e-01
 -1.1222330e+00
 -2.8895259e-01
  5.5106777e-01
 -5.2148587e-01
  3.7381008e-02
 -1.1742695e-01
  2.4204344e-01
 -1.2398005e-01
 -1.1017317e-01
  7.0136011e-01
  2.7431291e-01
 -1.3895154e-01
 -1.5166965e-01
 -2.5615403e-01
  8.3597946e-01
 -8.0577606e-01
 -2.5690430e-01
  5.6623805e-02
 -4.1888107e-02
 -7.1263433e-01
  1.6679254e+00
  6.9189423e-01
  6.6645950e-02
  1.2872485e+00
  1.1692830e-01
 -1.0005879e+00
  7.1416861e-01
 -1.1085163e+00
  4.3067332e-02
  2.8305464e+00
  2.7880547e+00
 -6.2639618e-01
 -5.2586418e-01
 -7.7553755e-01
  7.4781495e-01
 -3.4322748e-01
  1.8019998e+00
  1.8465170e+00
  1.2908775e+00
  6.6083723e-01
  5.1167560e-01
  1.8426752e+00
 -7.6454860e-01
  8.9465511e-01
  5.5299863e-02
  5.7339633e-01
 -3.9914064e-02
 -1.2986097e-01
  2.4373218e-02
 -4.1736764e-01
  2.5129768e-01
 -3.9091849e-01
  1.0518097e-02
 -2.2183755e-01
  6.9876868e-01
 -6.0585731e-01
 -1.7117320e-01
 -6.6612792e-01
  1.7044345e-01
  5.8399028e-01
  6.3868113e-02
 -3.7314525e-01
 -1.0420299e+00
 -1.3941634e+00
  8.9180976e-01
 -3.2753136e-02
 -1.6139033e-01
 -6.1721849e-01
 -3.8498998e-01
  4.2125973e-01
 -3.4496325e-01
  7.6517558e-01
 -8.9672431e-02
  8.8132784e-02
 -6.6308551e-02
 -7.8543268e-02
  3.7161088e-01
 -4.7326666e-01
  1.4856215e-01
 -1.0543026e+00
  4.9576721e-01
 -7.0342636e-01
  4.2461914e-01
 -3.9996755e-01
  4.9693367e-01
 -1.5394346e-01
 -1.1280864e+00
 -3.5886204e-01
  7.6225534e-02
 -7.4317247e-02
  1.0533429e+00
  6.3140845e-01
  3.1573981e-01
  3.2754932e-02
  5.2279460e-01
  2.7095288e-01
  1.6546552e+00
  1.6088235e-01
  1.3003535e+00
  4.4240785e-01
 -4.5420918e-01
 -4.3145368e-01
  2.1207136e-01
  1.9069889e-01
 -6.5715194e-02
 -5.2323516e-02
  6.9254190e-01
 -7.1714455e-01
  2.4304867e-01
 -1.5523887e-01
 -4.2117238e-01
 -4.4755358e-02
 -5.5626396e-02
  5.4555261e-01
 -2.9492417e-01
 -3.2010415e-01
  2.8083467e-01
  2.2729294e-02
  1.8283580e-01
  3.6126092e-01
 -1.8482131e-01
  1.4114950e-02
  1.6165410e+00
 -4.2306408e-01
  9.0569131e-02
  2.2261165e-01
 -2.8742243e-02
  4.4143376e-01
 -2.5519693e-01
  8.7404054e-01
  1.0233698e+00
  1.2030002e-01
  9.8451144e-01
  2.0769334e-01
  5.0939035e-01
 -4.3114805e-01
 -1.5219451e-01
  2.3781149e-01
 -2.2588122e-01
 -3.4384094e-02
 -1.5478222e-01
 -7.8755426e-01
  5.8572060e-01
  2.1660513e-01
  1.4087224e-01
  2.9043511e-01
  2.7228189e-01
 -2.4596883e-01
  3.6374047e-02
 -2.5017205e-01
 -8.4429726e-02
  2.3820347e-01
 -8.9808822e-01
 -3.4921238e-01
  2.8150830e-01
  3.2648546e-01
 -6.8985552e-01
  1.0873685e+00
  4.7891203e-01
 -3.8251355e-02
  5.6957346e-01
  2.8418522e+00
 -2.1884724e-01
  6.2578428e-01
  4.1087386e-01
  1.0375237e+00
  2.2702484e-01
  4.7886912e-02
  8.4493138e-02
  1.1632644e-01
 -1.1581185e-01
 -1.6917050e-01
  9.7353482e-01
  9.1394834e-02
 -6.1235380e-01
 -6.9323927e-02
  5.3840262e-01
 -3.6011291e-01
 -3.8949743e-01
 -8.8576919e-01
 -8.4467566e-01
 -5.9496105e-02
 -8.7754059e-01
 -5.1442826e-01
  3.8473508e-01
 -4.4945735e-01
  2.9354918e-01
 -1.4531176e-01
 -6.2646931e-01
 -4.8324707e-01
  6.8005092e-02
  2.4968851e-02
 -1.6271588e+00
  6.4567477e-01
  3.7752652e-01
  1.4334619e-01
 -6.7613506e-01
  1.3329053e-01
  5.0822562e-01
  4.3754521e-01
 -3.0982161e-01
  2.1250583e-01
 -2.3766258e-01
  4.6739280e-01
  1.5979116e-01
  8.6444259e-01
 -1.8938317e+00
  3.1520838e-01
 -6.6695613e-01
  3.7677538e-02
 -3.1073594e-01
 -1.0625387e+00
 -3.4111270e-01
  6.6959125e-01
  1.8935831e+00
 -1.1710705e+00
  4.0749389e-01
  2.0559321e-01
 -6.5568984e-01
  1.7206022e+00
  3.7522370e-01
  1.7248794e-01
  7.6766884e-01
 -1.3501225e-01
 -2.4604465e-01
 -6.2580651e-01
  1.1737765e-01
 -1.8101519e-01
  5.7575512e-01
 -1.1097569e+00
 -2.0089427e-01
  5.3282654e-01
 -2.7181348e-01
  1.3158819e-01
 -1.6893710e-01
  7.1178782e-01
  8.2480663e-01
 -1.2309349e+00
 -3.2921490e-01
 -5.3842682e-01
  1.8624574e-01
  2.6547813e-01
  1.9915904e-01
  1.5237428e-01
  5.7005573e-02
  4.3047640e-01
 -2.9857585e-01
  6.9622004e-01
  2.7850515e-01
 -8.2147980e-01
 -7.0674233e-02
 -1.4305725e+00
 -8.6013079e-02
 -1.1860730e-01
  1.0670172e+00
  2.7963886e-01
 -8.3660245e-02
  9.8094416e-01
  2.4796239e-01
  2.4693766e-01
  1.0703825e+00
 -6.0808025e-02
 -3.6182269e-01
  1.0232443e-01
  1.0809162e-01
 -3.1907976e-02
  2.5794026e-01
 -2.3015074e-01
 -2.4473956e-01
 -7.2615311e-02
  2.3844834e-01
  8.0266309e-01
  2.5694421e-01
  4.4141224e-01
 -8.0682725e-01
  1.7622426e-01
 -1.5061438e-01
  2.2063524e-01
 -1.9501844e-01
 -6.9752924e-02
  9.2797101e-02
  1.4276465e+00
  1.3475658e+00
  4.9126136e-01
  1.6820306e-01
 -8.6500116e-02
 -2.7380278e+00
  4.5924980e-02
 -2.5358820e-01
  2.6994541e-01
 -4.4926310e-01
  6.2173307e-01
 -4.4842368e-01
 -1.2882119e-01
  2.1531117e-01
  2.7108952e-01
  1.6703111e-01
 -1.6631638e-01
  9.8896080e-01
 -1.2378943e-01
 -3.4327400e-01
 -3.2837700e-02
  9.5033085e-01
 -1.8890892e-01
  5.0005716e-01
 -5.0355367e-02
 -7.8098066e-03
 -4.0711075e-01
  1.0684975e+00
 -1.8147013e-01
 -7.2207093e-01
 -4.5312050e-01
  2.3970412e-01
  1.0865495e+00
 -3.0711600e-01
  1.1213854e-02
  2.8555068e-01
  2.6506528e-01
 -1.0189886e-01
 -1.7278787e-01
  6.6843307e-01
  2.8025210e-01
  2.3025781e-01
  2.3602992e-03
  2.1634458e-01
 -2.5205576e-01
  1.5737103e-01
  9.8532535e-02
 -8.6414850e-01
  3.6871055e-01
  3.6351630e-01
 -3.2861833e-02
  1.7187724e-01
  3.1144133e-01
 -4.2009413e-02
  5.3604845e-02
 -8.0093518e-02
 -6.8835372e-01
  3.7917659e-01
  7.0433259e-01
  5.6928843e-01
 -2.6734379e-01
 -1.1410148e+00
  4.9806610e-02
 -1.1108258e-01
 -9.3290091e-01
 -3.0791032e-01
 -7.1383312e-02
  2.4607071e-01
  5.1621848e-01
  8.9678264e-01
  6.8072772e-01
  2.2169772e-01
  2.1555118e-01
 -3.6326772e-01
  7.7736503e-01
 -2.1277997e-01
 -3.3450592e-01
 -4.9328569e-01
 -7.7561569e-01
 -8.1303126e-01
  3.1009492e-01
  1.3573381e-01
 -4.2859930e-01
 -5.6645787e-01
  2.4496484e-01
 -1.6125941e-01
  6.4381704e-02
  7.3116374e-01
 -1.8760967e-01
 -4.1520336e-01
  3.1322664e-01
  6.7811865e-01
 -8.6938667e-01
  5.2097175e-02
 -5.2711493e-01
  6.6753775e-02
  4.2037886e-02
 -7.9663210e-02
 -2.3464565e-01
 -5.4847991e-01
  1.5337896e-01
 -1.0606870e-03
  2.6827401e-01
  4.0335652e-01
  2.0693679e-01
 -2.8187150e-01
  3.6410257e-01
 -4.2592764e-01
  6.2722594e-01
 -1.0750674e+00
 -6.8563074e-02
  2.3565888e-01
  9.7832763e-01
 -6.7164980e-02
 -3.2795918e-01
  8.8224125e-01
 -4.0514782e-01
 -2.4881535e-03
  9.6208528e-02
 -2.9779118e-01
 -7.5720835e-01
  1.3416903e-01
  5.4643339e-01
  3.5225815e-01
 -5.6394231e-01
 -9.7986013e-02
 -3.0985457e-01
 -2.8122091e-01
  6.2953062e-02
  2.7820233e-01
 -3.1163733e-02
  6.1746824e-01
  4.9637544e-01
 -1.1320219e+00
  3.0001065e-01
 -9.7926909e-01
 -3.7728113e-01
 -3.1824255e-01
 -1.2284404e+00
  6.9046587e-01
 -1.1598647e-01
 -2.2648661e-01
  2.4017720e-01
  2.3271695e-01
  3.9177263e-01
  1.5720262e-01
  8.7722480e-02
  4.6349880e-01
  2.8043222e-03
  5.9902978e-01
  7.9887167e-02
  1.1058240e+00
  9.1580731e-01
 -6.6539812e-01
 -1.0372363e-01
 -2.5630349e-01
 -1.3073454e+00
 -1.2877394e-01
 -4.7939438e-02
 -7.5354859e-02
 -8.6406851e-01
 -2.4070723e-01
 -8.0295905e-02
  2.4318993e-01
 -1.6135180e+00
 -4.7309589e-01
  8.7742275e-01
  2.5134245e-01
 -5.2119061e-02
  9.3179896e-02
  2.1403651e-03
 -1.6249059e+00
 -1.2524666e-02
  7.0883888e-01
 -7.5137228e-01
 -8.9950904e-02
 -3.9736420e-01
 -2.0769116e-01
 -3.7940839e-01
  1.5828183e+00
  7.3665977e-02
  1.7056543e-01
  3.7547126e-02
  8.0024481e-01
 -5.4902512e-01
 -4.3305737e-01
  1.3575056e-01
 -1.4982902e-01
 -6.1063554e-02
  4.9373209e-02
  1.6984886e-01
 -3.3531506e-02
 -1.9114566e-01
 -7.1061827e-02
 -2.7034143e-01
 -6.7317992e-02
 -1.4739437e-01
  4.2843968e-02
 -1.6385233e-01
  2.6345950e-01
 -2.1417180e-01
 -1.3832743e+00
  1.0114556e-01
 -2.5120458e-01
  3.3245969e-01
 -2.2926559e-01
 -1.8357715e-01
 -6.0450518e-01
 -3.2200951e-02
 -8.0962735e-01
  4.1169471e-01
  3.3560839e-01
  1.3720685e+00
 -7.3511499e-01
 -3.0822080e-01
  4.4112703e-01
  9.0100068e-01
  1.1368665e-01
 -1.2922026e+00
 -5.2210893e-02
  2.4795890e-02
 -3.3714682e-02
  5.9248537e-01
  5.5418050e-01
 -7.3605731e-02
  1.0089084e+00
 -7.4803174e-02
 -2.9299966e-01
  1.3988495e-01
  4.3714204e-01
  2.9500686e-02
 -5.9164613e-01
  1.5086709e-01
  3.5967594e-03
 -1.1055785e+00
 -3.5361496e-01
 -1.4488263e-01
  8.7206036e-01
  1.6506838e+00
 -3.4330627e-01
  3.9329553e-01
 -8.7209426e-02
 -6.7479712e-01
 -5.0668567e-01
 -3.3805192e-01
  8.8332725e-01
  1.3705638e-01
  5.0138092e-01
  5.0549507e-01
 -1.9660032e-01
  1.8966678e-01
  4.2122000e-01
 -1.4424741e+00
 -6.3327737e-02
 -2.1725725e-01
  2.3416673e-01
 -5.8914863e-02
 -2.6627228e-02
 -2.0023923e-01
  6.4587748e-01
 -1.0237914e-01
 -3.5624702e-02
 -2.5090730e-01
  6.0591374e-02
  9.1743007e-02
  6.4619505e-01
 -6.7071994e-03
  1.5519448e-01
 -4.1039294e-01
 -8.5895342e-01
 -3.5041493e-01
  2.0272002e-02
  6.9235194e-01
 -1.9186305e-01
  3.9407876e-01
  8.6530769e-01
 -1.1794915e-01
 -2.1014388e-01
 -5.1613313e-01
 -1.6927313e+00
 -4.4515687e-01
  7.5798804e-01
 -6.9367379e-01
  7.0162958e-01
  4.1581881e-01
  4.4932377e-01
 -3.0018848e-01
  1.7941761e+00
  1.2519524e-02
  1.3103170e+00
 -2.2167495e-01
 -1.8429279e+00
  3.7066364e-01
 -2.7813286e-01
  8.7937422e-02
 -1.0856471e+00
  1.3177046e-01
 -4.1675821e-01
 -2.6661304e-01
 -7.3301876e-01
  1.9975144e+00
 -9.4775063e-01
 -4.7591615e-01
  5.4979336e-01
  2.4082458e-01
  8.5012454e-01
 -1.7645700e+00
  3.3678061e-01
  4.5461392e-01
 -2.1527766e-01
 -4.0602291e-01
  3.1849867e-01
 -4.5853099e-01
 -2.6434425e-02
  8.6103171e-01
 -4.9879584e-01
  2.0268703e-01
 -9.3586457e-01
 -2.9953948e-01
 -3.5013083e-01
  3.1098816e-01
  9.7528303e-01
 -1.0424876e+00
 -9.1217065e-01
 -1.2764923e-01
  4.6396720e-01
 -5.2814883e-01
  2.9884961e-01
 -5.5130720e-01
  6.8986736e-02
 -1.9429970e-01
 -9.2748702e-01
 -5.0948101e-01
  8.6865437e-01
 -3.7999281e-01
  1.6138379e-01
 -1.9319426e-01
 -3.1264696e-01
  3.8245535e-01
  4.4060308e-01
  1.6742492e-01
 -1.4518200e-01
  3.0353662e-01
 -1.1091374e+00
  1.0083869e+00
 -1.0932489e-01
 -2.3415585e-01
  7.9760931e-02
  1.1234806e-01
  9.3746617e-02
 -2.8781481e-03
 -6.9302624e-01
 -2.8095849e-02
  2.6097921e-01
  2.8430629e-01
 -2.4368107e-01
 -4.5765668e-01
 -1.6409473e-01
  1.8161370e-01
 -2.9961392e-01
  1.1711171e-01
  2.3966400e-01
  2.1032654e-01
  3.1817123e-01
  2.6802129e-01
 -8.4865433e-01
  2.9749423e-01
  3.3621803e-01
  2.8566664e-01
  1.0577100e-01
  2.7918920e-01
 -5.7358199e-01
  1.6631435e-01
 -3.0578083e-01
 -1.2248137e+00
  1.9705215e-01
  3.8318700e-01
 -3.0052859e-01
 -3.0663535e-01
 -7.9334620e-03
 -2.7933106e-01
 -1.0735630e+00
  5.5524510e-01
  9.2205675e-03
 -5.8792245e-01
 -1.1353576e+00
  1.2658346e-01
 -1.0201576e-01
  1.4564058e-01
  1.8017390e-01
  3.2899888e+00
 -2.5702390e-01
  7.7435708e-01
 -1.0661874e-01
 -3.8887100e+00
  1.1413289e-02
 -2.1682203e-02
  7.7432412e-01
 -3.1671849e-01
  9.7238433e-01
  2.2157161e+00
  8.8355899e-01
 -1.5690765e-01
 -9.0097427e-01
  1.0734912e+00
  1.0707390e+00
  4.1551864e-01
  3.5614437e-01
  6.4135140e-01
 -1.1598120e+00
 -1.6684532e-01
 -3.8400691e+00
  6.0024667e-01
 -7.2881335e-01
  2.8603864e-01
  2.6202204e+00
 -1.3830532e-01
  3.1051335e+00
 -1.1699414e-02
  1.4454886e-01
 -3.0525393e+00
 -1.8938310e-01
 -5.3700477e-01
 -6.7667788e-01
  1.1354122e+00
  4.2923865e-01
  5.8370250e-01
  2.1322644e-01
 -2.1291372e-01
 -3.3193801e-02
  1.2049160e+00
 -3.1908542e-01
  2.2853771e-01
 -5.7095569e-01
  3.5539287e-01
  2.7176595e-01
 -3.1008476e-02
  8.9651495e-02
 -1.0738417e-01
  7.3890084e-01
  3.4196359e-01
  8.0378985e-01
 -4.9317086e-01
  4.9621545e-02
  5.3363544e-01
 -2.7668279e-01
 -1.1605564e-01
 -2.6963723e-01
 -1.6042702e-01
 -1.5747365e-01
 -1.4400171e-01
  1.0231198e-01
 -4.4189543e-01
 -1.2425079e+00
  3.7466025e-01
 -6.5911579e-01
 -3.9666867e-01
 -7.6320779e-01
  3.9793119e-01
 -8.6541653e-01
 -1.0393502e+00
 -2.3772755e-01
  2.0151334e-01
 -6.6007607e-02
  1.2822913e-01
 -1.6123894e-01
 -2.7285978e-01
  5.8006895e-01
  2.4329315e-01
  5.0542504e-01
 -7.0573941e-02
 -3.9755777e-01
 -2.1794546e-02
 -4.5968747e-01
 -7.1533769e-01
 -5.9591860e-01
  1.9175738e-01
 -2.6321682e-01
  1.1941999e-01
  8.6072564e-02
  7.6982069e-01
 -2.5648776e-01
 -3.1782919e-01
 -8.8092446e-02
  2.5133744e-01
 -1.6295857e+00
 -2.3992357e-01
 -1.4434402e-01
 -7.0253998e-01
 -3.2084027e-01
  9.0263265e-01
  3.2789853e-01
 -5.7824150e-02
 -6.5810509e-02
 -5.6567138e-01
 -4.1984907e-01
  7.0537388e-01
  1.1035675e-01
 -8.0528802e-01
 -5.3718549e-01
  4.0717152e-01
 -1.2520970e+00
 -1.5503286e+00
 -5.5485570e-01
  5.1078326e-01
 -1.1744536e+00
  4.2442405e-01
  4.7312447e-01
  1.6533765e-01
  2.6572612e-01
 -3.2289037e-01
  3.5217810e-01
  3.3499771e-01
  3.0177864e-01
 -1.2120115e-01
  8.3033043e-01
  1.1047514e-01
  1.5532480e-01
  1.4500342e-01
 -1.0294552e+00
 -1.2148316e-01
 -2.6784986e-03
 -1.0777105e+00
  2.0542018e-01
 -5.1201862e-01
 -9.2392951e-02
 -1.2741921e-02
  3.4078211e-01
  7.2388358e-02
 -1.9362284e-01
 -3.9295901e-02
  1.0343139e+00
 -6.1102998e-01
  2.7775645e-02
 -3.0955499e-01
  1.4245012e+00
  4.8808616e-01
  8.3484203e-01
  6.9286519e-01
  3.9416632e-01
 -1.2311050e+00
 -1.3575089e-01
 -5.5600077e-01
  5.1700306e-01
 -6.6121411e-01
 -6.4949840e-03
  7.7744347e-01
  1.2405253e-01
 -5.5376047e-01
 -6.9997959e-02
 -8.7894505e-01
 -1.9163367e-01
  5.8210915e-01
 -1.1691052e-01
 -1.4108756e-01
 -6.8447232e-01
  3.4417054e-01
 -1.2153786e-01
  1.8153854e-01
  1.0785515e-01
  2.8922197e-01
 -3.0046445e-01
  1.1144460e-01
 -2.5737506e-01
 -4.0864781e-01
 -2.2125483e-01
 -5.4763341e-01
  7.5053088e-02
  1.6471265e-01
  2.6143631e-01
 -6.2534785e-01
 -1.4596506e+00
  5.6389916e-01
 -9.6487425e-02
 -1.2789384e-01
 -1.3382065e+00
  9.6468669e-01
 -5.4519409e-01
  4.2654288e-01
 -1.4619674e-01
 -1.0806974e-01
  2.1445063e-01
 -4.3293305e-02
  4.2913228e-01
  3.3211809e-01
  4.5963973e-01
  3.9105740e-01
 -5.3164834e-01
  4.8807815e-02
 -3.4218094e-01
  1.4291704e-03
 -3.4732971e-01
 -5.9110695e-01
  5.5886298e-01
  2.2247393e+00
 -9.1123420e-01
  1.1850296e+00
 -8.6544406e-01
 -1.1507152e-01
  1.1266274e+00
 -2.5123021e-01
  1.4956334e+00
  1.1461352e+00
 -1.0285718e+00
 -1.8577160e+00
  8.2059614e-02
 -8.8996601e-01
 -5.9248284e-03
  1.7391756e-02
  5.6709051e-01
 -2.0233505e+00
 -1.9213480e-01
  1.0716987e+00
 -9.8806632e-01
  1.9413233e-02
 -1.2343694e+00
 -5.2050114e-01
  4.3777764e-02
 -5.6897920e-01
 -3.9896507e+00
 -7.7314980e-02
 -5.2179676e-01
 -6.2517256e-01
 -4.3236557e-01
 -9.3492560e-02
 -1.0795143e+00
  2.1059184e-01
 -1.4888734e-01
  6.1805986e-02
  1.7568795e-01
 -1.1202215e-01
 -2.0007575e-01
 -2.0584762e-01
  3.3558407e-01
  6.2689352e-01
 -1.0073220e+00
  5.7250656e-02
 -4.0062170e-02
  3.7482306e-02
 -1.9061784e-01
 -9.1364896e-01
 -5.3262043e-01
  1.5649860e-01
 -4.5338589e-01
 -3.6384550e-01
  2.6712322e+00
  1.5300825e+00
  1.0132112e-01
 -1.3284636e-01
 -4.5505485e-01
  1.7423528e-01
  5.2223746e-02
  3.9350301e-01
 -7.0814961e-01
  1.0582587e-01
  2.6165420e-01
  3.8288254e-03
  1.4494034e+00
  3.2006294e-01
 -6.1929844e-02
 -2.2833940e-01
  3.5702416e-01
  6.6701695e-03
 -8.0188406e-01
 -7.4954462e-01
 -1.7239146e-01
 -2.2772867e-02
 -3.3075958e-03
  3.6499304e-01
 -3.1084129e-01
 -7.7001178e-01
 -8.0206968e-02
 -6.1573684e-01
 -1.2331855e-01
  7.7274346e-01
  2.0770289e-02
  3.2103819e-01
  4.9298552e-01
 -3.9898717e-01
  8.7274808e-01
  3.3805168e+00
 -4.8150495e-01
  4.3465532e-02
  7.3130943e-02
  3.2652810e-01
  5.0668311e-01
  1.9111192e-01
  1.5580899e-01
 -3.1822652e-01
  7.8949548e-02
 -5.1922929e-02
  9.0216720e-01
  3.5676770e-02
  6.1185962e-01
 -7.1722947e-02
 -1.0083142e-01
  3.1803679e-01
  5.0134248e-01
  3.7161198e-01
 -1.3274509e-01
 -2.5951985e-01
 -3.5484242e-01
 -8.0564225e-01
  2.1391261e-01
 -4.0438959e-01
  1.6773260e+00
 -1.1946724e-01
 -8.9991826e-01
 -6.5013981e-01
  4.7829008e-01
 -6.1318839e-01
 -1.0901606e+00
  1.3098863e+00
 -1.4696980e-01
 -5.6676894e-02
 -1.8114552e-01
  1.8596680e-01
 -1.8553830e+00
  4.4592351e-01
  4.4844395e-01
 -6.0820496e-01
  9.1611527e-02
 -3.5598925e-01
 -4.5760769e-02
  3.1404801e-02
  2.1595268e-01
 -1.3057835e-01
 -8.3856267e-01
  1.8879014e-01
 -1.0975389e+00
 -1.5123177e-01
 -7.3704056e-02
  5.2151197e-01
 -3.5912594e-01
 -6.2343335e-01
 -1.0359935e-01
 -3.4997508e-01
 -1.2068474e-01
  1.2040582e-01
  2.4858737e-01
  6.1822534e-01
 -1.9784555e-02
  7.3131037e-01
  2.6579440e-01
 -1.1182050e+00
 -1.0582974e-01
 -2.3782304e-01
  2.5161526e-01
  7.6401722e-01
  1.2236638e+00
 -1.0097644e+00
  2.5201980e-02
  2.8240618e-01
 -1.0441384e-01
  9.6757501e-01
  1.1624094e-01
  4.3309143e-01
 -6.4391211e-02
  6.8584576e-02
 -1.7802840e+00
  4.3284485e-01
  2.0157354e-01
  1.4056284e+00
  9.1660820e-02
 -1.8489771e+00
  6.8258369e-01
  5.9298390e-01
  5.4684925e-01
 -2.4666792e-01
 -3.9156795e-01
 -1.0025941e-02
 -9.2969126e-01
  3.1414440e-01
 -5.0677055e-01
  6.1910456e-01
  1.8216673e-01
  4.3258157e-02
  8.4104681e-01
  4.0021163e-01
  5.7033621e-02
 -1.1381964e-01
 -2.6456285e-01
 -5.2484810e-01
  6.6249005e-02
 -5.2160817e-01
 -3.9542890e+00
  2.0301193e-02
 -1.3580027e-01
  3.2728225e-01
 -3.7961942e-01
 -1.9225872e+00
  2.0932180e-01
 -1.8517537e-01
  1.4130337e+00
  6.4185888e-01
  1.1028361e-01
  5.0101030e-01
  1.6980484e-01
 -2.9432148e-01
  6.6428798e-01
  2.2304200e-01
 -3.2524243e-02
  5.0154924e-01
 -3.8673043e-01
  1.7909437e-02
  2.6754615e-01
 -4.8715591e-01
 -3.4161079e-01
 -5.4119968e-01
  4.3856627e-01
  5.9218913e-01
  3.9862764e-01
 -1.6329588e+00
 -6.4221747e-02
  9.7992331e-01
  6.0924459e-02
  9.5491964e-01
 -4.0906882e-01
 -7.7525049e-01
  8.0224985e-01
 -8.7847933e-02
 -1.1431582e-01
  3.7716999e+00
 -3.8880327e-01
 -1.2220793e-01
 -1.5682117e+00
 -3.4779925e+00
  1.4270279e+00
  1.1480569e+00
  4.1641598e+00
  5.5991215e-01
 -1.2902800e+00
  2.4511378e-01
 -1.0707121e+00
 -8.1628001e-01
 -2.3185781e-01
  5.9652770e-01
  1.8604379e+00
  2.8739750e+00
  1.0552598e+00
  3.4980667e+00
 -1.7891682e+00
 -1.0200205e+00
 -3.9826269e+00
  6.1552185e-01
  1.8528908e-01
  8.8492721e-01
  1.6536543e+00
 -6.1837125e-01
  2.9178360e+00
 -7.6496232e-01
 -9.3901902e-01
 -9.7598720e-01
  2.7237689e-01
 -2.3281851e-01
  1.3251605e+00
 -6.7714727e-01
 -6.9629502e-01
 -1.9300975e+00
 -1.0558962e+00
 -5.2859861e-01
  1.1243554e-01
  1.0601958e+00
  1.5173173e+00
  3.2203335e-01
 -9.2629588e-01
 -2.0169626e-01
  6.0665315e-01
  8.0509418e-01
 -5.9848456e-03
 -4.5596246e-02
  7.0609391e-01
  3.0753371e-01
 -2.5114396e-01
  2.8538612e-01
 -1.5447054e+00
  6.0840905e-02
 -2.4924178e-02
 -7.1959591e-01
  8.8091081e-01
 -4.7711068e-01
 -7.0674986e-01
 -7.6299839e-02
 -5.8468622e-01
 -4.9020386e-01
 -9.0224214e-02
  2.4373432e-01
 -1.2721488e-01
  3.0894336e-01
  1.8616793e-01
  1.4640302e-02
  3.5663655e-01
  8.2858846e-02
 -3.0360219e-01
 -2.8646991e-01
  1.0977017e+00
 -8.0715030e-01
  3.9782587e-02
 -3.2923806e-01
  2.3410636e-01
 -7.4523203e-02
 -9.5706254e-02
 -2.6737109e-01
  4.2179886e-01
 -4.4397092e-01
  6.0166472e-01
 -7.1775153e-02
  3.0386508e-01
 -1.2541305e-02
  4.8193043e-01
 -7.7172393e-01
  4.0928207e-02
  4.7870699e-01
  3.5668424e-01
  1.5787075e-01
  3.8667122e-01
 -9.6639790e-02
 -4.6860033e-01
  1.4876705e-01
  6.3116431e-01
 -2.5006875e-01
  1.9418558e-01
  9.7379845e-01
 -2.4789539e-01
 -1.1679033e-02
  1.4639433e-01
  2.8992894e-01
  3.0717281e-01
 -3.5060087e-01
  2.8200334e-01
  6.9297695e-01
  8.4098637e-01
  9.1825366e-01
 -3.9864343e-01
 -1.6682167e-01
  2.1086600e-01
 -3.9250290e-01
  6.8175554e-02
 -1.7206943e-01
 -3.3321217e-02
  7.9695678e-01
  4.8264593e-01
  2.0168640e-01
 -5.8128512e-01
  1.1752068e-01
 -4.7596627e-01
 -3.1218141e-01
 -5.9899453e-02
  7.0656437e-01
 -2.1853339e-02
  5.7658471e-02
  5.2810043e-01
  3.8773400e-01
  8.9683056e-01
  7.5068665e-01
 -3.9033154e-01
  1.4869072e-01
  4.9057610e-02
 -5.1875418e-01
  1.5721480e+00
 -1.0358296e-01
  1.1202810e+00
  2.2585067e-01
 -4.1710657e-01
 -5.1924771e-01
 -1.0029494e+00
  7.6258779e-03
  4.3170959e-01
  4.3651918e-01
 -8.6702621e-01
  1.5489914e-02
 -2.0436358e-02
 -1.5694888e-01
  7.2139198e-01
  2.2012195e-01
 -2.1522470e-01
  2.6402315e-01
  1.3277103e-01
  4.9279058e-01
 -3.8072219e-01
 -8.0181402e-01
 -1.1111724e-01
 -4.2393267e-01
 -1.4043903e-01
 -8.3491504e-01
 -8.3773088e-01
  1.4657013e+00
  2.5274393e-01
 -2.9362735e-01
  3.3023381e-01
  4.9742356e-01
 -8.0630201e-01
 -8.3704853e-01
 -1.7200360e+00
 -9.1873713e-02
 -2.6187897e+00
 -1.6266423e+00
  2.1945077e-01
  4.6751997e-01
  8.9265317e-02
 -4.1230905e-01
  1.0387930e+00
 -1.1768013e-01
  3.8089108e-01
  1.3112208e-01
 -1.4760545e-01
  7.0918459e-01
 -1.0609160e-01
  2.6825881e-01
 -6.4457327e-02
  3.4024844e-01
 -1.0813314e-01
 -6.3370496e-02
  4.4875285e-01
  5.2321821e-01
 -1.0355812e+00
  3.8110501e-01
  3.6010230e-01
 -1.4577271e-02
 -2.2597793e-01
  7.4675895e-02
 -1.5145606e-01
 -7.6613551e-01
  4.8768483e-03
  5.0119996e-02
  4.0559155e-01
 -2.6412594e-01
  1.2965755e-01
 -6.8228024e-01
  1.1236714e-01
  6.8178630e-01
  1.6865620e-01
 -3.6748612e-01
  3.6885023e-01
  1.6466585e-01
  8.3157741e-02
 -3.4271920e-01
  3.8728645e-01
 -7.3938227e-01
 -2.2791773e-02
  1.5945831e-01
 -1.4751588e-01
 -8.4881181e-01
 -9.0039454e-02
 -6.7160225e-01
  2.9677844e-01
  1.7205971e-01
  5.7554996e-01
 -3.5250592e-01
  4.3949547e-01
  2.4300375e+00
  1.4888529e-01
  7.0055211e-01
 -1.8001455e-01
  1.1479679e-01
 -5.2738684e-01
 -5.1743072e-01
  2.2307025e-01
  6.2570356e-02
 -1.3297826e-01
 -3.1301457e-01
 -3.4054020e-01
 -2.6238611e-01
 -1.4420075e+00
 -5.7240963e-01
  5.0973497e-02
 -1.1575675e-01
  1.3576233e+00
 -2.0980524e-01
  4.5396328e-01
 -4.7903843e-03
 -1.7908283e-02
 -9.8666921e-02
  2.5163144e-01
 -2.5175865e+00
 -7.9031146e-01
 -8.8799767e-02
 -4.2225161e-01
  1.1959057e-01
 -1.5265335e-01
  5.4201669e-01
 -3.2615453e-01
 -9.6260005e-01
  4.5933124e-01
 -7.3035784e-02
 -7.5549059e-02
  5.8548504e-01
  6.1832923e-02
 -4.0749899e-01
 -9.0641749e-01
  6.0220695e-01
 -3.8475907e-01
 -2.7917373e+00
  2.4157876e-01
  5.1710767e-01
  1.3759325e+00
  3.2311764e-01
  1.0447669e-01
 -3.7724337e-01
  1.7958826e-01
  8.8363983e-02
 -5.3024944e-02
 -8.6568606e-01
  1.8112786e-01
 -4.9596184e-01
 -4.1531959e-01
  7.2274172e-01
  1.0260127e+00
  6.5534506e-03
  9.2381406e-01
  2.1861398e-01
 -6.8829566e-02
 -1.1524283e+00
  1.0045082e-01
 -2.2213678e+00
 -2.1116757e-01
 -1.5721805e-01
 -3.1199405e-01
 -2.8451243e-01
  3.6396113e-01
 -1.8871851e+00
  2.3622641e-01
  9.6006736e-02
  1.4997007e-01
  4.9338691e-02
 -1.4297749e+00
  1.4173041e-01
 -1.8983582e-01
  2.6765025e-01
  3.7993558e-02
 -8.5307312e-01
 -1.7865318e-01
 -7.2371773e-02
  1.0879184e+00
 -3.0929762e-01
  5.1176429e-02
  2.1840474e-01
 -3.9929456e-01
  3.6783096e-01
 -8.1080830e-01
 -1.1577022e+00
 -1.0276413e-01
 -3.5520166e-01
  6.0748629e-02
 -1.3819724e+00
 -1.0821222e+00
  4.7701254e-01
 -9.9078799e-03
 -5.9981097e-02
  1.3505490e+00
  1.2758539e+00
 -1.9660251e-02
 -4.2104378e-02
  5.5101663e-01
  4.2907843e-01
 -7.4505651e-01
  2.6777580e+00
  8.6575818e-01
 -3.1007132e-01
  1.0895967e-01
  2.6017803e-01
  1.1422576e+00
 -3.5021695e-01
  1.4220248e-01
 -5.1795352e-01
  4.9431008e-01
 -9.7876135e-03
  7.1188086e-01
  1.7392045e-01
 -9.5661044e-01
  3.4283468e-01
  1.4759067e+00
  7.6852776e-02
  4.5827456e-02
 -4.7490245e-01
 -5.2625799e-01
 -2.0282817e-01
 -4.2474350e-01
  1.0703996e+00
  8.5438736e-02
  4.9067789e-01
  7.1276769e-02
 -4.3730989e-01
 -4.3504259e-01
 -2.7751794e-01
 -6.4873666e-01
  2.2658104e-01
 -1.6154766e-02
 -5.6420135e-01
  1.6390130e-01
 -2.0359744e-01
 -1.9350024e-01
 -7.7172387e-01
 -2.1896809e-01
  8.8011539e-01
 -9.5802583e-03
 -9.2114860e-01
 -5.7050371e-01
  7.2077878e-02
 -1.8805975e-01
  4.0821224e-01
  6.1788142e-02
 -1.4275156e-02
 -1.5803590e-02
  2.8699493e-02
 -1.2422987e-01
  2.2852772e-01
 -1.7206290e-01
 -3.9020941e-01
 -7.9589593e-01
 -1.2884173e-01
  2.3317429e-01
 -7.4989453e-02
  2.5475320e-01
 -2.3524888e-01
 -5.3822327e-01
  2.2028866e-01
 -5.6514347e-01
 -2.0920011e-01
  2.2944105e+00
 -5.8418447e-01
  1.7580397e-02
  1.1078895e-01
 -4.0090017e-02
  1.4406453e-01
  2.1096800e-01
  6.7805403e-01
 -1.0240223e-01
 -1.1673254e+00
  2.0070910e-01
 -2.6026540e+00
 -5.5970360e-02
 -1.9105931e-01
  3.2695842e-01
 -6.3601184e-01
  1.2818350e-01
 -6.4883006e-01
 -2.5232586e-01
 -8.2202703e-02
 -1.6198432e-01
  8.9003302e-02
  1.2609270e-01
  4.0205976e-01
  2.3023917e-01
  3.9618215e-01
  5.8971828e-01
 -1.5156344e+00
  9.7873971e-02
  5.2147639e-01
  5.6358021e-01
  5.3503370e-01
 -1.3483164e-01
 -6.5167600e-01
 -4.9142697e-01
 -1.1627880e-01
 -5.2925396e-01
 -6.6578764e-01
 -1.1736759e-01
 -3.1177104e-01
 -4.1896218e-01
 -4.7976133e-01
 -7.3806566e-01
 -4.5571107e-02
 -2.6706940e-01
 -9.9102658e-01
  6.2533724e-01
  3.7783068e-02
  1.0463154e+00
 -1.1573857e+00
  5.2178806e-01
  6.7773980e-01
  1.0350145e+00
 -6.5759653e-01
  6.6568628e-02
 -1.1610322e-01
  1.1516562e+00
 -1.0729367e-01
 -4.1503337e-01
 -3.6189047e-01
  9.1804832e-01
 -5.3035337e-01
  8.7242156e-02
 -3.7095866e-01
 -2.0089234e-01
  1.1925479e-01
 -4.1203741e-02
  3.7537999e-02
  6.0075867e-01
  2.5622207e-01
 -6.9273241e-02
  6.5974168e-02
  7.2871423e-01
  5.2366521e-02
  6.7226851e-01
  2.6760167e-01
 -1.9172558e-01
 -1.1567934e+00
  1.0510209e+00
  4.2221934e-01
 -3.0030653e-02
  8.7101269e-01
 -1.6850972e-01
 -4.6040401e-01
  2.8250571e-03
  3.7883469e-01
  2.4214129e-01
  4.3779957e-01
  9.7096041e-03
 -5.8725339e-01
  3.3123526e-01
 -6.0204290e-02
  2.1923207e-01
 -1.3056755e-01
  4.8611677e-01
 -2.0955592e-01
 -8.8903397e-01
 -4.2050146e-03
  2.2930585e-01
 -7.7626240e-01
 -1.6832932e+00
  2.0694813e-01
 -2.6280731e-02
 -2.1092625e-01
  4.6302828e-01
  5.3582966e-01
 -8.5104652e-02
 -7.9626864e-01
 -7.4392003e-01
  4.5834440e-01
  2.6376870e-01
  2.8236866e-01
  5.6728083e-01
 -9.2491704e-01
 -1.8421942e-01
  2.3069258e-01
 -1.9051617e-01
  9.4822180e-01
 -4.4540852e-01
  1.5844369e-01
  1.3807437e-01
  8.7836727e-02
  1.1861801e-01
 -9.1765356e-01
  1.6897033e-01
  3.4194514e-01
 -2.7262941e-03
  1.9186224e-01
  9.6681702e-01
 -5.4424793e-02
 -5.4617465e-01
 -4.3259636e-01
 -2.9949918e-01
  7.8717601e-01
 -4.2721286e-01
 -2.9206133e-01
 -4.7356313e-01
 -5.9505567e-02
  4.5516826e-03
 -7.3375785e-01
 -5.2391732e-01
 -1.0981692e+00
  1.4510143e+00
 -1.0239056e+00
 -2.5001785e-01
  7.9158050e-01
 -2.9775757e-01
  7.5202900e-01
  9.7907536e-02
 -9.7993284e-01
 -2.1426062e-01
  3.0945477e-01
 -5.6285035e-02
 -2.3492062e-01
  1.4672174e+00
  3.2371473e-01
  3.1220630e-01
 -1.2448637e-01
  9.4881153e-01
  1.7909177e-01
 -5.3996754e-01
  3.1696844e-01
  1.4996442e+00
  4.1259858e-01
 -1.1111671e+00
 -1.3139560e+00
  1.0636683e-01
 -2.5794157e-01
  2.7055749e-01
  2.1362593e+00
  5.7344925e-01
  1.0995322e+00
  7.2180867e-02
  3.1755844e-01
  2.6985523e-01
 -5.9389323e-02
  8.6873583e-02
  4.3493524e-01
 -9.9206194e-03
 -4.7679815e-02
 -2.9302856e-01
 -2.0206420e-01
  1.9341177e-01
  3.0091848e+00
 -4.8364556e-01
 -6.4301944e-01
  2.5159308e-01
  5.6567079e-01
  2.7526838e-01
 -1.6790658e+00
  1.9598837e-01
  3.5915378e-01
 -7.8354821e-02
  1.3714889e-01
 -1.5248817e+00
 -3.4023672e-01
  9.4498187e-02
  3.4752831e-01
 -1.0015757e-01
  3.4338415e-02
 -3.5203779e-01
 -1.2792442e+00
 -1.6247353e-01
  2.9331365e-01
 -2.1468727e-01
  6.4473200e-01
  2.8081608e-01
  1.0837653e+00
  5.4800904e-01
  3.6105442e-01
  3.3892196e-01
 -1.0043129e-02
 -3.1367727e-02
 -7.6770282e-01
 -3.4844074e-01
 -4.6548533e-01
 -4.0135929e-01
 -1.1598577e+00
 -8.6586989e-02
  1.1782360e+00
 -2.8473148e-01
 -2.1848847e-01
  5.0267655e-01
  9.6368678e-02
 -6.8327987e-01
 -3.9327703e+00
  4.3456900e-01
 -3.8989261e-01
 -2.0141624e-02
 -8.0744937e-02
 -3.6659081e-02
 -5.1338583e-01
 -4.8121595e-01
 -6.7363814e-02
 -5.7704753e-01
  6.1454147e-02
  4.7379181e-01
 -5.1446360e-01
  7.5180238e-01
  2.1704254e-01
 -2.8978553e-01
  8.1019944e-01
  1.8366382e-01
  1.2750371e-01
  1.2129924e-01
 -1.0934002e-03
  8.6661732e-01
 -1.7424786e-01
 -2.5924027e-01
  1.2158238e+00
 -7.7385172e-02
 -3.4925622e-01
 -4.5331067e-01
  2.7358463e-01
  1.7226224e-01
  7.4602002e-01
  5.8080125e-01
  9.6910156e-02
  2.6089793e-01
  2.0952101e-01
  1.1675612e-01
 -1.7925575e-01
  9.6411896e-01
 -2.2893788e-02
 -2.4975561e-01
  5.8100533e-01
 -4.0183014e-01
 -8.2424447e-02
 -3.4743983e-01
  3.3404449e-01
  2.1033446e-01
  8.7546885e-01
 -9.2526716e-01
  6.9865799e-01
 -7.9629278e-01
 -2.1443218e-03
 -1.8163311e-01
  4.6784726e-01
  1.6668546e-01
  6.2449932e-01
 -6.6471435e-02
 -7.6939628e-02
 -1.1500316e+00
  8.8552523e-01
 -7.5514662e-01
 -1.4608003e-01
 -3.6070898e-02
  1.5401092e-01
  1.1789315e-01
 -1.2867747e-01
 -1.4028300e+00
 -5.1593170e-02
 -3.1708464e-01
  6.0596526e-01
 -9.8046288e-03
 -2.2834291e-01
 -5.2728677e-01
 -9.3241560e-01
  5.4918671e-01
  2.5478545e-01
  1.0752094e-01
  3.5081863e-01
  2.4032538e-01
  3.0935004e-01
 -3.0626717e-01
 -8.9578748e-01
  2.3942763e-01
 -4.9289432e-01
  5.5714095e-01
 -2.3277874e-01
  3.1453907e-01
 -3.4215796e-01
 -7.0147890e-01
 -6.6287613e-01
 -3.3460449e-02
  2.1090533e-01
  3.4441537e-01
 -3.5268524e-01
 -9.2106082e-02
  1.2457179e-01
 -8.7519604e-01
  9.4387814e-02
 -5.1235527e-01
  8.2372594e-01
 -6.2813252e-02
 -3.5306871e-01
 -3.6675432e-01
 -9.3342453e-01
 -4.9947843e-01
 -2.0831391e-02
  2.6126343e-01
  3.1166255e-02
  2.1094881e-02
 -2.7974463e-01
  2.4829376e-01
 -9.4991662e-03
 -6.1295176e-01
 -4.0821120e-01
  6.8259615e-01
 -2.9948294e-01
 -2.2454947e-02
  5.0958991e-02
  1.8048412e-01
 -8.0376476e-01
  2.1857290e-01
 -8.8437116e-01
 -1.0563198e-02
  4.1443521e-01
  1.8255413e-01
 -1.4996802e+00
 -1.2301012e-01
  9.3776554e-02
 -6.5971887e-01
  1.7088610e-01
 -9.2716771e-01
  4.7350794e-01
  9.2061365e-01
  1.1190804e+00
 -6.8470329e-01
  7.9055542e-01
  3.0627942e-01
  3.0588880e-01
  1.4348696e-01
  2.3319837e-01
  1.6891497e-01
 -2.0115083e-01
 -3.4237716e-01
  2.0763898e-01
  2.7438745e-01
 -5.9572011e-01
  5.5765224e-01
  3.8862357e-01
  5.2982086e-01
 -4.7441596e-01
 -9.1247255e-01
  1.1121533e-01
 -5.2988842e-02
 -1.3485096e-01
  6.9211668e-01
  5.2497828e-01
 -2.3966663e+00
 -7.6099902e-01
  6.5546930e-03
 -2.0109534e-01
  6.5925437e-01
  3.3040962e-01
 -3.1614438e-01
 -1.2501232e-01
 -3.4300634e-01
  2.6257101e-02
  2.2872183e-01
  7.0014775e-01
 -4.2143309e-01
 -1.8025967e-01
  6.9145614e-01
  1.7595069e+00
  8.5492355e-01
 -7.1899152e-01
  6.9413072e-01
  8.7248814e-01
 -8.1586123e-01
  2.6708139e-02
 -1.0747728e-01
 -1.8234548e-01
  4.7937286e-01
 -8.2024492e-02
 -1.5137416e+00
  4.2955205e-01
 -1.3459222e-01
 -4.0029562e-01
 -4.2042071e-01
  3.2320702e-03
  1.5016419e-01
  6.0458326e-01
  3.4203756e-01
  7.1078733e-02
  2.6263523e-01
  1.4442573e-01
  3.6575976e-01
  2.0064848e-02
  4.9642134e-01
  2.3029515e-01
  7.8637540e-01
 -1.2643981e-01
  5.6987554e-02
  1.4454674e+00
 -5.7829016e-01
 -1.3411516e-01
  1.0414310e+00
 -3.6809337e-01
 -2.4105750e-01
 -2.2329639e-01
  8.7308720e-02
 -3.2199960e-02
  1.2510226e+00
  1.8540049e-01
 -1.1093335e+00
 -1.6739073e-01
 -2.4090688e-01
  7.8056157e-02
 -7.6902854e-01
 -2.6025656e-01
  3.3693177e-01
 -3.6033714e-01
  1.8020986e-01
  3.6130032e-01
 -5.8597672e-01
  1.5410180e-01
 -2.1555765e-02
  1.2328701e-02
  1.3944525e-01
  6.9741642e-01
  3.1699631e-01
  1.4882393e-01
 -2.2198128e-02
 -2.1275224e-01
  3.7295118e-01
  1.0127343e-02
  4.8087245e-01
 -1.0841978e+00
  1.8239613e-01
  1.3918006e+00
 -5.5552721e-01
 -5.6859827e-01
 -3.6536872e-01
  2.1227938e-01
 -9.0530664e-02
 -1.2104166e+00
  1.1055291e+00
  4.6892112e-01
  2.6731029e-01
 -7.4050331e-01
  2.4462432e-01
 -3.0633864e+00
  4.8750180e-01
  2.2823416e-02
  1.5044448e+00
 -1.7350067e+00
  6.7693776e-01
 -2.6073423e-01
 -1.3376597e-01
 -1.2173369e+00
 -1.1662303e-02
 -1.6213888e-01
 -6.5266001e-01
  5.9915179e-01
 -5.9159672e-01
  1.6601749e-01
  5.3341377e-01
 -6.4934510e-01
  6.9854605e-01
 -1.7088570e-01
 -5.9218389e-01
  5.4486018e-01
  6.2452096e-01
  2.4634752e+00
  1.6088995e+00
  1.4012034e-01
 -1.2600408e-02
 -7.0681505e-02
 -4.5076333e-02
  1.5155468e+00
 -1.7707962e+00
  1.8771868e-02
 -4.7095392e-02
 -1.1193292e-01
  2.2706901e-01
  1.5827496e-01
 -3.8178632e-01
  5.9387863e-02
 -9.2340730e-02
 -1.0670172e+00
  2.3200104e-01
  3.8634643e-01
  9.5240302e-02
 -4.2165369e-02
 -1.1998518e+00
  2.0302804e+00
 -1.2968521e-01
  2.3309596e-02
  2.0447518e-01
  1.1109811e+00
  7.8683998e-03
 -5.2821971e-03
  2.8626785e-01
 -4.8427469e-01
 -2.9687560e-01
 -6.7349690e-01
  1.1113235e-01
 -1.6187002e-01
  1.0295655e-01
 -1.4947412e-02
  2.3972940e-01
 -1.4558408e-01
 -2.2723536e-01
  3.4136713e-01
  4.1873315e-01
  1.3128287e+00
  8.9383118e-02
  2.0398839e+00
 -2.0213459e+00
  1.0692292e+00
  4.9932522e-01
 -1.0525995e+00
  1.7213042e+00
 -1.9303577e+00
 -3.2410949e-01
 -2.2912545e+00
  5.5884910e-01
 -2.5194128e+00
  4.5586634e+00
 -6.4517587e-01
 -7.6786196e-01
 -9.8157056e-02
  5.2565426e-01
  1.1380849e+00
  1.0943794e-01
  9.5962125e-01
  4.9383357e-01
  1.0402225e+00
 -3.2529828e-01
 -1.9107775e-01
 -7.6514691e-01
 -3.7816697e-01
  1.7576567e+00
  1.6886310e-01
  5.0111890e-01
 -1.3115921e+00
  3.6753826e+00
 -6.3444680e-01
 -3.8106650e-01
 -1.5557672e-01
  1.1160866e+00
  2.4633355e-01
 -9.8748490e-02
 -7.6722854e-01
 -2.2373980e-01
  1.0867558e+00
  1.1661611e+00
 -2.1132022e-01
 -1.1290940e+00
  1.1504682e+00
  2.2662009e-01
 -5.7678407e-01
 -9.8151326e-01
  8.8775569e-01
  7.5657755e-01
  4.6376491e-01
 -4.2833132e-01
  1.7554641e-01
  1.3918856e-01
  4.1482553e-01
 -1.1512830e+00
  5.0667083e-01
 -3.7836614e-01
  4.4135386e-01
 -3.1192670e-02
 -4.7438869e-01
 -1.1295618e-01
 -4.1377291e-01
 -2.4610080e-01
 -2.6365545e-01
 -4.2629933e-01
 -5.7667769e-02
  1.6664435e-01
 -4.3189937e-01
 -5.6966349e-02
 -4.5298633e-01
  3.5754502e-01
  4.6989548e-01
  3.1244969e-02
  6.9227085e-02
  7.9949349e-02
  4.3564153e-01
 -1.0244900e+00
 -8.6332470e-02
 -3.1295711e-01
  4.3852818e-01
 -6.2941235e-01
  3.4768555e-02
  1.2294792e+00
 -5.2800621e-03
 -6.4895588e-01
  4.4744885e-01
 -3.5072339e-01
 -6.8959075e-01
 -3.8739869e-01
 -2.4334824e-01
  1.7734170e-01
  1.9481139e-01
  4.7060254e-01
  8.4023440e-01
  5.0701022e-02
 -6.4883161e-01
  2.7713776e-02
  4.7883916e-01
  1.6608319e-01
 -4.0790737e-02
 -3.9858773e-01
  3.3266860e-01
 -1.2129157e-01
 -5.7775134e-01
 -9.1468327e-02
  3.4879148e-01
 -9.4935268e-01
  7.0092624e-01
  3.9825231e-01
 -2.6846248e-01
 -6.0858577e-01
 -1.3745964e+00
 -7.0094174e-01
  8.0643676e-02
  9.8109134e-03
 -7.4435139e-01
  1.9205487e-01
  9.4906038e-01
  2.3382286e-02
  1.1653960e-01
 -8.8762391e-01
  4.2066434e-01
 -1.4283679e-01
 -6.0466218e-01
 -2.9445124e-01
 -4.4512254e-01
  2.5077405e+00
  3.9667755e-01
  8.6678696e-01
 -1.0726762e+00
  8.2984298e-02
  2.6623604e-01
 -4.9136284e-01
 -2.2988740e-02
  5.3855658e-02
  1.0727055e-01
  6.8384635e-01
  3.6440313e-02
  2.2010677e-02
 -2.3826655e-02
 -2.3880132e-01
 -2.3780169e-01
 -1.2329599e-01
 -3.2993275e-01
 -1.0996830e+00
  1.0717003e+00
  2.5495729e-01
  6.3353711e-01
 -1.1600670e+00
 -3.8712418e-01
  5.3739744e-01
  1.2498232e-01
  3.7650712e-02
 -4.8973438e-01
 -2.7488613e-01
 -3.9307421e-01
 -7.3189759e-01
 -5.0784171e-01
 -2.6165318e-01
 -3.7390672e-02
  3.4377235e-01
  6.9831175e-01
  2.1187297e-01
 -3.5361383e-02
  1.6999519e-01
 -1.8436010e-01
  1.9230731e-01
 -3.9653239e-01
  3.5179618e-01
 -2.5059998e-01
  1.9211198e-01
 -1.8555254e-01
 -7.8678012e-01
 -8.5222745e-01
 -8.5019693e-03
  7.7602929e-01
 -8.0533701e-01
 -4.8579672e-01
  4.2063764e-01
  3.9872125e-01
  3.8877490e+00
  2.2699252e-01
 -4.7665413e-02
  2.0014106e-01
  5.6087554e-01
 -5.6980276e-01
 -6.2627012e-01
 -3.5394931e-01
 -2.3155357e-01
 -1.9278632e-02
 -1.7993143e-01
 -6.5567642e-01
 -1.4266273e-01
 -6.9697064e-01
  2.4853177e-01
 -1.9307101e-01
  6.4914960e-01
 -9.1904306e-01
  6.7250246e-01
 -5.5425406e-01
 -1.0634031e-01
  3.6536351e-01
  5.1364701e-02
  4.6343455e-01
 -8.2594171e-02
 -4.3488073e-01
  1.8184714e+00
  2.8892264e-01
 -4.7178444e-02
 -1.3553648e-01
  3.2231116e-01
 -1.8884777e-01
 -4.2415398e-01
 -1.8584597e-01
 -5.5479163e-01
  1.3113025e+00
  6.9699264e-01
 -1.9581054e+00
 -1.8516125e-01
  4.3992701e-01
 -2.3503438e-01
  8.3922791e-01
  1.5337193e+00
 -7.5393027e-01
  2.3006268e-01
 -5.8361119e-01
  1.0011441e-01
 -9.9909976e-03
 -4.8879260e-01
 -3.0705607e-01
  1.4067678e-01
  6.5181053e-01
  4.8043522e-01
 -4.0667287e-01
  3.9834860e-01
  5.4396671e-01
 -6.5001011e-01
 -4.1377416e-01
 -3.3837867e-01
 -4.2387117e-03
  4.6594724e-01
  5.7280695e-01
  9.2569423e-01
 -8.7681574e-01
 -1.6414572e+00
 -2.1693785e-02
 -4.3723814e-02
 -2.9252226e-02
  2.0000419e-01
  2.3030971e-01
  6.6221344e-01
 -2.7665362e-02
 -3.4971848e-01
  1.0207502e-01
 -2.5112084e-01
 -2.6317763e-01
 -6.7953151e-01
  1.4687207e-01
  4.4514588e-01
 -2.0025831e-01
  5.4621333e-01
 -3.1656954e-02
 -4.7091633e-01
  9.2070512e-02
 -5.5340782e-02
 -2.6796976e-01
  2.5529286e-01
 -9.4610095e-02
 -3.0603841e-02
 -1.0558993e+00
  5.7753801e-01
 -6.1427987e-01
  9.2105106e-02
  3.3848959e-01
 -8.0554867e-01
  8.9396358e-01
 -6.4767855e-01
  4.9068618e-01
  4.8070791e-01
 -3.2462779e-01
  9.3176502e-01
  1.0221569e-01
 -5.1519118e-02
 -6.3737410e-01
  5.8043450e-02
  9.7141556e-02
  2.9654801e-01
 -5.3543806e-01
  2.4705919e-02
  1.1053725e+00
  6.3431829e-01
  5.4630065e-01
  6.4732111e-01
 -6.5906185e-01
  4.2224422e-01
 -4.7762096e-03
  6.4952113e-02
 -1.1888329e-02
 -4.5214176e-02
  1.5233837e-01
 -2.0947795e-01
 -2.3327821e-01
  7.8486919e-01
 -2.2527684e-01
 -3.1985733e-01
  2.9587865e-01
 -1.1276581e+00
  7.4007951e-02
  1.3274266e-01
 -5.6328315e-01
  9.3340808e-01
  8.5646600e-02
 -3.4763712e-01
 -2.4105538e-02
  2.1446608e-01
 -1.8323430e-01
  8.9229351e-01
 -1.3572590e-01
  2.2664088e-01
  7.7441767e-02
  2.4641286e-01
 -2.7206144e-01
 -2.8092414e-01
  1.0957483e-01
 -3.4510887e-03
  9.3735415e-01
  4.1628003e-01
  5.3435862e-02
  7.0952541e-01
 -1.0490888e-01
  6.9301747e-02
  1.5434859e+00
 -3.3352789e-01
  1.9501232e+00
 -6.3682005e-02
  1.3060384e+00
 -3.0551367e+00
  9.7347081e-01
 -5.8081758e-01
 -1.2867793e+00
 -1.0759395e+00
  7.8217246e-02
 -3.3279687e-02
  6.5498632e-01
 -1.6471416e+00
  3.3339057e-02
  8.4709466e-01
  6.7642236e-01
 -5.3785777e-01
 -2.1283937e-01
  9.0084475e-01
  8.3807036e-03
 -4.4939928e-02
  5.6644939e-02
 -2.4350795e-01
 -1.6481458e-01
 -1.1867493e-01
 -1.2427192e+00
 -2.5910234e-01
 -3.3537725e-01
 -3.3877566e-01
 -3.2905939e-01
 -5.9730685e-01
 -3.0522543e-01
  8.2333505e-01
  1.7259754e+00
  4.7029635e-01
 -6.4338046e-01
  5.4837978e-01
  3.8639903e-01
  1.1182528e-02
  7.3969877e-01
 -5.0268292e-01
 -2.3260367e-01
  2.9883224e-01
 -4.2556798e-01
 -6.8077549e-02
  3.3742341e-01
  2.1606350e+00
  1.0164531e-01
 -1.3729835e-01
  4.9594179e-01
  4.8168597e-01
 -1.6782624e-01
  1.8572405e-01
 -3.0572563e-03
  2.8320078e-02
  6.9288045e-02
  1.3407604e-01
 -1.0747869e-02
  8.2229418e-01
 -5.1038135e-02
  9.8171282e-01
 -2.7645093e-01
  7.0384997e-01
  5.8920884e-01
 -7.5207114e-02
 -3.3266070e-01
  4.7205802e-02
  4.1955504e-01
 -2.4427790e-02
 -4.4259679e-01
  7.5613856e-01
 -3.3127628e-02
 -3.3216232e-01
  5.3059220e-01
  2.4534948e-03
 -2.2397974e-01
  2.3395464e-01
 -6.0133892e-01
 -9.5105782e-02
 -7.1192944e-01
  1.1158614e+00
 -1.9087735e-01
  4.1818184e-01
 -3.2387882e-01
  1.8400203e-01
  3.0264074e-01
  3.0815524e-01
  3.8226464e-01
  2.2531319e-01
 -1.4717722e-01
  1.2104676e+00
 -1.7712606e-01
  6.4254773e-01
 -2.4131364e-01
 -6.3749075e-01
 -6.7771989e-01
  1.1800550e-01
  1.0474142e+00
 -8.3785939e-01
 -1.1901582e-01
  5.5254120e-01
  1.9302039e-01
 -7.3241889e-01
 -9.2777622e-01
  2.9350957e-01
  4.4375971e-01
 -1.1492783e-01
 -9.8286313e-01
  8.1754899e-01
  1.3795060e-01
  2.0496911e-01
  3.2539475e-01
 -4.0789315e-01
 -5.1119983e-01
 -3.2641095e-01
  3.7572590e-01
 -2.0254461e-01
  6.5450442e-01
 -6.7206845e-02
 -2.5621343e-01
 -2.1952844e-01
  1.3419341e+00
 -3.2635272e-02
  1.1028913e-03
 -7.1165419e-01
  6.3017583e-01
 -3.9925569e-01
  1.1325458e-01
 -3.0058041e-01
 -2.0783582e-01
  3.1248961e-02
 -2.9043910e-01
  1.6931689e-01
 -4.0130538e-01
 -5.9027159e-01
  6.2609839e-01
 -6.6482413e-01
  4.4949159e-01
 -1.0957984e+00
 -8.7517738e-02
 -6.1300451e-01
 -1.7678964e-01
  8.0672735e-01
  5.8694277e-02
 -3.4490552e+00
 -4.6040508e-01
  5.0869423e-01
  1.9645834e-01
 -8.2621686e-02
  1.0438275e+00
  2.2818515e-01
  2.7093562e-01
  7.5556266e-01
 -7.2176796e-01
  3.7853602e-01
  3.9282730e-01
 -1.1835421e-01
  3.5532787e-01
  5.1373914e-02
  1.6775709e+00
 -3.6311567e-01
 -7.1607232e-02
 -6.3819453e-02
 -1.9876283e-01
 -1.8077923e-01
  4.6676379e-01
  8.9088060e-02
 -2.0017500e-01
 -1.9954310e-01
 -3.7944805e-02
 -1.8127197e+00
  6.5734929e-01
 -1.7699301e-03
 -1.0928442e-01
 -2.9572853e-01
 -7.7236313e-01
 -2.6668753e-02
  2.0687093e-01
  6.2831950e-01
 -5.1787466e-01
 -7.1425569e-01
  4.6613282e-01
 -6.4936638e-02
 -2.7429476e-01
  9.9489719e-01
  4.4274800e-02
 -7.9676980e-01
 -5.1976174e-01
 -3.5251737e-01
  1.1839700e-01
 -7.9281819e-01
  1.5315363e-01
 -5.5234617e-01
  8.8942111e-01
 -6.2194872e-03
  1.7037885e-01
 -4.4005114e-01
 -6.9659054e-01
 -9.3851864e-02
 -5.0000304e-01
 -5.7692426e-01
 -8.8857576e-02
  3.7700322e-01
  7.1399219e-02
  3.0009910e-01
 -4.5566413e-01
 -3.4954214e-01
 -4.4040519e-01
  3.8520819e-01
 -5.8953073e-02
  5.8466479e-02
  5.5836931e-02
 -2.1381882e-01
  2.7465928e-01
  9.1101311e-02
 -4.1454069e-02
  7.8065050e-01
  7.1023107e-01
 -4.0451312e-01
 -5.9546900e-01
  3.7431967e-01
  4.6742475e-01
  1.1556666e-01
  5.7929218e-01
  5.1533955e-01
  1.8421364e-01
 -4.1140717e-01
 -8.8667250e-01
  4.9815867e-03
 -4.4588000e-05
  3.4050643e-01
 -2.2143729e-02
 -7.2675425e-01
  5.0232582e-02
 -1.0944220e-01
  3.8471746e-01
  1.0804245e-02
  3.6807790e-02
 -1.2878650e-01
  3.2665437e-01
  1.5970581e+00
  2.2982545e-03
  6.4929110e-01
  1.8912329e-01
  1.5829730e+00
  6.1459407e-02
 -3.0513185e-01
 -2.2195049e-02
  5.5423731e-01
  1.1165798e-01
 -2.1597326e-01
 -1.2483130e-01
  2.0803363e+00
 -5.0826523e-02
  6.8357581e-01
 -4.9270165e-01
  8.4913391e-01
 -1.3726467e-01
  9.1198415e-01
 -2.7594614e-01
  1.5212978e-01
 -2.5560492e-01
 -3.1817466e-02
 -4.0390931e-02
 -4.5616865e-01
  5.7976401e-01
  8.6061519e-01
  2.0046387e+00
  6.0216314e-01
 -8.1762306e-02
 -2.7978843e-01
 -6.1827910e-01
 -1.7694193e-01
  1.1533567e-01
  2.8762534e-01
  1.8142840e-01
 -1.8452536e-02
  2.8761484e-02
  2.6622516e-01
  6.9463477e-02
 -2.4957140e-01
  1.1459608e-01
 -5.2810204e-01
 -3.6197978e-01
  3.3967805e-01
 -1.4990053e-01
 -2.7663615e-01
 -1.4131576e-01
 -1.0089594e+00
  3.3474237e-01
  4.2165231e-02
  1.0141139e+00
 -1.3820838e+00
 -9.1539156e-01
  1.7878193e-01
 -9.0440291e-01
  3.2176960e-03
 -9.3344665e-01
  8.2249916e-01
  2.2297555e-01
 -1.2390481e+00
  6.9519454e-01
 -6.1370629e-01
 -1.0897841e+00
 -5.1357370e-02
 -3.2636601e-01
  3.8838333e-01
 -8.9092118e-01
 -3.8625279e-01
 -1.8826157e-01
 -5.9615093e-01
  1.3453376e-02
  5.6682646e-02
  2.7390003e-01
  1.3123241e-01
  6.2129116e-01
 -1.5612739e-01
  7.2683789e-02
 -2.3743626e-02
  1.3985376e-01
 -1.1794600e+00
  6.2028074e-01
  1.0641139e-01
 -1.2941954e+00
 -1.1086776e+00
  1.3255289e-01
 -2.0714073e-01
 -4.8604697e-01
 -6.6234553e-01
  3.2530695e-01
 -4.5577300e-01
  5.3703868e-01
  2.3782928e-01
  8.0002785e-01
 -1.0604952e-01
  5.1257771e-01
  3.1965005e-01
 -1.7133668e-01
  9.6815372e-01
 -3.2245719e-01
 -1.0998864e-01
 -2.8765410e-01
  1.2267229e-01
  1.6492522e-01
  7.3205493e-02
 -2.9647389e-01
  3.9991012e-01
 -1.3905100e+00
 -1.2482952e+00
  6.9255126e-01
  9.1619414e-01
  2.6825409e-02
  6.5361702e-01
  2.5066230e-01
  1.8720038e-01
 -4.1085079e-02
 -2.0489964e-01
  3.6500883e-01
  3.4090564e-02
 -3.7660071e-01
  1.6963798e-01
  1.9325760e-01
 -5.3080970e-01
  7.5409454e-01
 -5.6363016e-01
 -8.1696324e-03
  2.1612921e-01
 -7.6922745e-01
  4.0984833e-01
  1.7365205e-01
  2.5044301e-01
 -2.8800385e+00
  2.7560049e-01
 -9.9317509e-01
  1.0338210e+00
  1.3086898e+00
 -5.3872669e-01
  1.3318120e-01
  1.4287256e+00
 -1.5466714e-01
  1.2804188e+00
  9.0888567e-02
  5.0714564e-01
 -2.6882115e-01
 -5.1475298e-01
 -2.3271888e-03
 -8.7286073e-01
  6.4667456e-02
  4.3442684e-01
 -3.6355492e-02
 -5.0534785e-02
 -1.4367692e-01
 -5.0883484e-01
 -3.8344246e-01
 -8.1467855e-01
 -1.0942914e-01
  8.6915088e-01
 -8.8691264e-03
 -3.0568317e-01
  2.1636304e-01
 -2.8313437e-01
  7.3454201e-01
  8.6055899e-01
  7.2097749e-01
  3.2536313e-01
 -1.4747497e+00
 -6.2076040e-02
  5.7755217e-02
 -5.0251865e-01
  5.3407556e-01
 -1.1678479e+00
  1.4267340e-01
 -2.4133621e-01
 -6.7687422e-01
  2.2942843e-01
 -5.0190502e-01
  3.8569022e-02
  3.4243283e-01
  5.4544890e-01
 -6.0398781e-01
  5.5882089e-02
  3.4337205e-01
 -4.5221555e-01
  1.0564584e+00
  2.1183739e+00
  1.1105758e+00
 -1.4987576e-01
  9.5281854e-02
 -1.0070693e-01
  2.4029568e-01
  2.8078631e-02
  2.4726033e-02
 -2.5531510e-01
 -5.7130086e-01
 -6.5860742e-01
  2.2971593e-01
 -1.0847685e-01
 -7.6447234e-02
 -2.5347510e-01
 -2.6525944e-01
 -3.8099542e-01
  2.9819977e-01
  1.6725577e-02
  6.9077514e-02
 -8.7701365e-02
 -2.2909004e-02
 -4.2570519e-01
  7.0942134e-01
 -3.6611962e-01
 -1.3045518e+00
  2.1361980e+00
 -3.5861516e-01
 -6.8863589e-01
 -8.4173375e-01
  3.3719507e-01
  2.3231526e-01
  6.2781788e-02
  1.1763187e-01
 -4.2395145e-01
 -9.4631121e-02
  5.6390106e-03
  1.2483405e-01
  1.0147008e+00
 -9.2892420e-01
  4.5204109e-01
 -1.3902048e+00
  8.1529742e-01
  3.5417986e-01
 -1.9040541e-01
  1.7619221e-01
 -7.5392593e-03
 -2.7222043e-01
  5.3258234e-01
  6.7356855e-02
 -4.4269609e-01
  7.1348500e-01
 -3.0676159e-01
 -9.3092316e-01
  1.6047392e+00
 -1.3476603e-02
 -6.1171019e-01
  5.2615948e-02
 -5.4581368e-01
  2.7509215e-01
  5.3832662e-01
  6.9524430e-02
 -1.1016680e+00
 -1.8418081e-01
 -2.5198445e-01
  5.9761000e-01
 -2.9688257e-01
 -7.0548870e-02
  9.7652853e-01
  2.6088893e-01
 -4.0056947e-01
 -4.3425599e-01
  6.5576345e-01
  1.3029695e-02
  9.4350830e-02
  4.1457993e-01
 -4.8949551e-02
 -3.2698560e-01
 -4.9937889e-02
 -9.4376647e-01
  3.6149859e-02
 -4.4846001e-01
  6.7235810e-01
  4.3824735e-01
 -5.7175018e-02
 -1.0028554e+00
  6.4727277e-01
 -2.6065806e-01
 -1.8805905e-01
 -1.1321217e+00
  6.5778816e-01
  1.1649628e-01
  3.0212045e-02
  6.9897972e-02
  1.9221279e-01
  1.0510745e+00
 -6.6644770e-01
  3.1556427e-02
  3.1841534e-01
 -1.1973128e-01
  7.4347921e-02
  1.2806541e-01
 -1.2442925e+00
 -2.5135276e-01
  1.2304325e+00
 -6.3467771e-02
 -2.2925923e+00
  3.2002163e-01
  5.6260669e-01
  1.9835684e-01
 -1.3592210e-01
  3.4586620e-01
  7.8440145e-02
  7.9290462e-01
 -2.0965558e-01
  1.4453270e+00
  2.9757926e-03
 -2.4927221e-01
  6.7878991e-01
  1.2374748e-01
  3.7269145e-03
 -5.0396454e-01
 -2.0597935e-01
  8.8265009e-02
 -2.8671086e-01
  1.6468780e-02
  7.4032885e-01
  9.7877944e-01
  1.2028866e-02
 -5.9310645e-01
 -4.0692840e+00
 -2.2257493e-01
  1.3537373e-01
  1.4164269e-01
 -8.0406740e-03
 -1.2939538e-01
 -5.2369580e-02
 -1.0087081e+00
 -1.5598899e-01
  6.2750047e-01
 -2.7020801e-02
 -1.1428699e+00
  8.2310885e-01
  5.9280115e-01
 -9.0801775e-02
 -6.6181384e-02
  1.7876972e-02
  1.8820247e-01
  1.0635693e+00
  3.0243063e-01
 -7.2009414e-02
  8.1497437e-01
 -1.0157835e+00
  1.2220521e-01
 -5.5468160e-01
 -5.1996924e-02
  3.7050595e+00
  1.0526504e-02
  1.7863303e-01
 -4.9964640e-01
 -2.6818886e-01
 -3.6253393e-01
  1.1027417e+00
  3.7850231e-02
 -1.1797935e-02
 -5.2333541e-02
 -4.6253502e-03
  4.2637151e-01
 -1.3144082e+00
  2.7079466e-01
 -2.1247151e-03
 -6.0279280e-02
 -1.0402844e+00
  4.2999811e-02
 -7.4909765e-01
 -7.1888641e-02
  7.0246041e-01
 -8.3915216e-01
  1.6735724e-01
  1.0050073e-01
  5.4709524e-01
 -1.3289699e-01
  1.4607310e-01
  3.7199296e-02
  3.5119720e-02
 -7.6654390e-02
 -1.2813482e-01
  4.5601428e-01
 -1.4036682e-02
 -3.1479198e-01
 -2.4317983e-01
  2.6921876e-02
 -3.6523148e-01
  1.8078834e-01
 -1.7243336e-01
  3.8628873e-01
  5.0951725e-01
  8.3377659e-02
  1.2226474e+00
 -6.3425243e-01
 -4.9413210e-01
  5.5902976e-01
  1.4791939e-01
 -2.0465493e-01
  3.8162537e-02
  5.3636275e-02
 -3.5181696e+00
  9.2180252e-01
 -2.0364882e-01
 -4.8083618e-02
  4.6565774e-01
 -9.8195970e-01
  2.8578740e-01
  3.6079701e-02
 -2.1790963e-01
 -4.0004215e-01
 -3.1672978e-01
  9.3268156e-01
  1.3849241e-01
  5.5344589e-04
 -5.3490076e-02
 -2.9731476e-01
 -2.9198882e-01
 -2.9061949e-01
  5.0132954e-01
  4.4561106e-01
 -3.5327606e-02
 -7.1765006e-02
  8.6970443e-01
  1.0261587e+00
 -1.1781532e-01
  1.4725408e-01
 -5.9636176e-01
  3.7053823e-01
 -1.0701881e-01
 -4.7766966e-01
  7.1593642e-02
  1.1962519e-01
  7.8261264e-02
 -5.9032060e-02
 -2.1084800e-01
 -2.7933738e-01
  3.8131556e-01
  3.7394777e-02
  1.5312932e-02
 -6.4272356e-01
 -5.7672203e-01
 -2.6283544e-01
 -2.9283145e-02
 -2.9409111e-01
 -3.0767494e-01
 -2.8985009e-01
  1.5717387e-01
 -4.8917711e-02
 -3.7416390e-01
 -4.1867322e-01
  2.5583625e-02
  9.9127024e-02
  1.3028333e+00
  1.5528634e-02
  4.7443700e-01
 -4.4247255e-01
 -1.4187852e-01
  4.1171756e-01
  1.3747267e+00
  4.7594032e-01
 -3.0040234e-01
 -6.8856996e-01
  1.0086720e-01
  9.3455803e-01
 -4.9810010e-01
 -2.7910829e-02
 -1.2025596e+00
 -5.4049301e-01
 -1.0786003e+00
 -6.5184832e-02
 -3.3933002e-01
 -2.3086205e+00
 -3.1839088e-01
 -8.0382377e-01
  9.7555542e-01
 -7.0457494e-01
 -1.8965694e-01
 -2.2767939e-01
 -1.8765059e+00
  3.4295052e-01
  7.2729662e-02
 -4.3091512e-01
  1.4499772e-01
  2.1871517e+00
  9.9094719e-01
 -1.2098867e-01
 -2.6414583e-02
 -2.7372763e-01
  5.6663030e-01
  2.6369512e-01
  6.1195588e-01
 -1.6207600e-01
 -2.6050636e-01
  1.3002723e-01
  1.2490380e+00
  9.0498483e-01
  2.9589614e-01
  3.3515182e-01
  1.4938228e+00
  2.0183660e-01
  6.0010254e-01
  6.6682035e-01
  5.3777087e-01
  2.3145327e-01
 -9.8325267e-02
  7.0940572e-01
 -6.7656749e-01
 -1.1415879e-01
  1.7063452e-01
 -1.8894903e-01
 -6.9448417e-01
 -7.6087572e-02
 -3.0891106e-01
 -8.9126378e-02
 -7.9224086e-01
 -6.1631296e-02
  1.3737303e-01
  2.6232312e+00
  2.8409376e+00
  5.7088774e-01
 -2.5793796e+00
  1.2094481e+00
  2.6603739e+00
  7.6848054e-01
  9.9229580e-01
 -5.3198534e-01
 -1.3266176e-01
 -7.7870721e-01
 -3.0318871e-01
 -2.7528069e+00
 -3.9865732e-01
 -1.7066858e+00
  3.0133395e+00
  8.5075408e-01
  1.0759686e+00
  1.0430043e+00
 -4.2759437e-02
 -1.0161065e+00
 -3.2405767e+00
  2.8837654e-01
 -1.7550937e+00
  2.7372937e+00
  2.2662905e-01
  8.4421837e-01
  5.6139708e-01
  4.0265899e-02
 -8.9930004e-01
 -2.6652515e+00
 -1.0058008e+00
 -9.7235084e-01
  9.8000795e-01
 -2.9797152e-01
  1.2210542e+00
  2.3873715e+00
 -4.2072961e-01
 -2.0063858e+00
 -1.8607680e+00
 -2.9059431e-01
 -2.1811908e-01
  1.7716358e+00
  1.0049923e-01
  6.8468034e-01
  1.3711462e+00
 -2.3970012e-01
 -8.0916055e-02
  7.7850699e-01
 -1.3728772e+00
  2.3066334e-01
 -5.5344141e-01
  3.6854107e-02
 -1.3996884e-01
  3.0900970e-02
  2.9838404e-01
  9.3613885e-02
 -4.4319218e-01
  6.2710309e-01
  4.2246962e-01
 -3.1621450e-01
 -8.2808867e-02
 -1.5890196e-01
 -1.9120756e-01
  4.3326712e-01
  9.2408851e-02
  4.4426966e-02
  2.4999569e-01
  1.4694354e-01
  6.0953987e-01
  3.2589635e-01
  1.3446921e-01
 -4.5705646e-01
 -5.2371316e-02
  2.1641918e-01
  2.1411137e-01
  2.5287199e+00
 -3.9679843e-01
 -9.6562065e-02
  4.0761877e-02
 -8.8994610e-01
 -8.3128393e-02
  1.8430275e-01
  7.6242012e-01
  4.3572053e-01
 -1.5470264e-02
 -7.3639256e-01
 -9.9306576e-02
  1.8246377e-01
  1.9147763e-01
  1.5649791e-01
  3.8727304e-01
 -3.6234823e-01
 -3.4286834e-02
 -3.5599416e-01
 -5.3706616e-01
  7.5995219e-01
 -5.2015170e-02
  2.4814652e-01
  4.7272983e-01
 -4.1806240e-02
 -7.0667803e-01
  4.4444047e-02
  3.0427891e-01
 -4.3869054e-01
 -1.6672334e-02
 -3.5267162e-01
  4.1453570e-01
  1.1294353e+00
 -3.1605393e-01
 -7.1547526e-01
 -7.6493585e-01
 -3.1938943e-01
  3.7960708e-01
  1.1175991e+00
  4.9516770e-01
  1.1974275e+00
 -4.9383414e-01
 -1.0302057e+00
 -6.0017735e-01
 -8.5411054e-01
 -1.5413328e-02
 -2.8356578e-02
  2.8420377e-01
  2.5127536e-01
  6.7298904e-02
 -9.4966978e-02
  4.8597372e-01
 -5.0791520e-01
  6.4654380e-02
 -5.0096691e-02
  2.0912957e-01
  1.0767178e-01
  9.9992728e-01
  1.0810066e-03
 -1.5663058e-03
 -1.0848121e-01
 -1.5298221e-01
 -1.2345994e-02
  2.9650629e-01
 -5.2469367e-01
 -4.4585577e-01
  3.3935380e-01
  3.5071990e-01
  1.1997927e+00
 -5.2784836e-01
  8.1399351e-01
  8.1488597e-01
  8.8749737e-01
  4.5007229e-02
 -6.6882804e-02
 -4.2554623e-01
 -7.5910616e-01
 -1.0078967e-01
  4.6803653e-01
 -1.7001843e-01
  1.3323587e+00
 -2.2830525e-01
 -8.3733462e-03
  6.0006119e-02
  3.5518774e-01
  1.1270123e+00
 -1.0022374e+00
  1.9053701e-02
 -2.1916272e-01
  2.0739928e-01
  7.2883332e-01
  6.7047276e-02
 -4.5948231e-01
  5.2107203e-01
  3.3669090e-01
  1.5796387e-01
  6.7388266e-01
  6.3046271e-01
  1.9353887e-03
  3.8723695e-01
 -1.6267817e+00
 -2.0208867e-01
 -5.2159566e-01
 -1.8455452e-01
  1.4049829e+00
 -7.6944989e-01
 -2.3044925e+00
 -1.9543092e-01
  6.8103373e-01
 -3.4966029e-02
 -9.8952067e-01
  2.9935247e-01
  2.0838854e-01
 -4.6142948e-01
 -2.6957020e-01
 -1.9257239e-01
  3.2851690e-01
 -1.4518788e-01
 -8.7383115e-01
  6.6134256e-01
  1.4188097e+00
  3.2455391e-01
  3.8987920e-01
  8.1910238e-02
  1.8168262e-01
 -8.4164590e-02
 -5.7858449e-01
 -6.6937274e-01
 -6.3441861e-01
  6.6972727e-01
  9.8014706e-01
  7.1010017e-01
 -6.4028956e-02
 -9.9306911e-02
  9.6314430e-02
 -3.8744339e-01
  2.1290796e+00
 -4.8368317e-01
  2.4149254e-01
 -3.1426585e-01
 -1.7963969e+00
 -1.3981205e-01
 -3.9931738e-01
 -7.1099378e-02
 -1.3400947e-01
  8.4115118e-02
  2.8403446e-01
 -4.3340966e-01
  4.5339230e-01
  5.4213762e-01
  2.1171512e-01
  1.1618176e+00
 -2.5342357e-01
 -6.0463089e-01
 -8.7444633e-02
  9.7613096e-01
 -9.9780124e-01
  2.1463612e-01
  2.9936790e-02
 -2.1494290e-01
  2.1591733e-01
  1.7340872e-01
 -4.1028833e-01
  1.4067578e-01
 -3.1276229e-01
 -2.0019033e+00
  1.4316277e-01
  5.8895385e-01
  6.6725260e-01
 -1.3163666e-01
 -5.5994499e-01
  1.0584234e+00
  1.7660646e-01
  4.3427294e-01
 -2.6227504e-01
  2.4253651e-01
 -2.3369615e-01
  7.8955300e-02
 -3.8498420e-01
 -2.5506577e-01
  2.2788165e-02
  2.2953157e-01
  5.9708551e-02
  3.4110543e-01
 -1.0388012e-01
 -1.6039082e-01
  7.0395231e-01
  1.1790228e-01
  3.1996354e-01
  2.3997143e-02
 -3.1480817e-03
  1.0126598e-01
 -1.0578263e-01
 -5.1681679e-01
  2.0744886e-01
 -1.4260161e+00
 -7.5070184e-01
 -3.4867886e-01
  2.4962518e-03
  5.3436291e-01
 -4.8411741e+00
 -3.2788733e-01
 -3.3069171e-02
 -9.4174836e-03
  2.9790419e-01
  5.5753386e-01
 -1.6168667e-02
 -2.9230180e-01
 -3.6929387e-01
 -1.8001595e-01
  2.9510191e-01
 -5.6610733e-02
 -1.8565040e-02
 -2.7559823e-01
 -4.1507505e-02
 -2.0682035e-01
 -2.9660666e-01
 -2.9634621e-02
  6.3378438e-02
 -1.3220429e-01
  4.1872394e-01
  2.9418927e-01
 -2.4637344e-01
  2.9294947e-01
  2.7819090e-02
  2.3825070e-01
 -8.4249693e-01
 -2.8983438e-01
  1.6261201e-01
  5.9233010e-02
  7.8197199e-01
 -4.7910210e-01
 -5.3548497e-01
 -2.1004675e-02
 -5.2739906e-01
 -3.0630061e-01
 -8.2746702e-01
 -2.2088821e-01
  1.2062857e-01
  5.7742381e-01
  3.7544072e+00
  4.1753346e-01
  2.7074373e-01
 -4.3209195e-02
  2.9082292e-01
  5.3773725e-01
  1.7566327e-03
 -1.5363255e+00
  2.9368997e-01
  8.8339019e-01
  2.0394603e-02
  1.0150701e+00
 -7.8757471e-01
  6.3664621e-01
  6.8669766e-02
  3.1498212e-02
 -2.1058533e+00
  8.8237062e-02
 -1.4185461e+00
 -2.3665366e-01
  8.4424114e-01
 -8.1538147e-01
  1.0510152e-01
  4.3919840e-01
 -9.7352129e-01
 -5.0511634e-01
  4.6690321e-01
  8.7965113e-01
  8.2937920e-01
 -3.3257884e-01
  1.0833744e+00
  8.5614479e-01
 -2.2493778e-01
  2.2877105e-01
  2.7263436e-01
  4.8039812e-01
  1.4984298e+00
  8.2993144e-01
  9.4692183e-01
  8.2084262e-01
  2.7305819e-03
 -4.1738349e-01
  9.7550474e-02
 -8.3907276e-01
 -1.0041708e+00
  8.5643154e-01
  6.5642959e-01
  2.3780535e-01
  7.7666186e-02
  2.2700155e-01
  2.1196225e-01
  2.6875547e-01
 -4.3466531e-02
 -2.4977624e-01
 -6.6916302e-02
  6.9575958e-02
 -2.2151937e-01
  1.4429873e-01
 -3.4248155e-01
 -2.4650424e+00
  4.6097252e-01
  3.0748868e-01
  1.0112399e-01
  3.8752925e-01
 -2.6529813e-01
  3.3102277e-01
 -1.4894452e+00
  3.2582200e-01
  2.9577643e-01
 -9.1130358e-01
  2.7792847e-01
  1.2404282e-01
  5.1799023e-01
  5.0428766e-01
  6.8621659e-01
 -2.3579557e+00
 -3.5438073e-01
  4.5432672e-01
 -4.2741254e-01
 -5.0644945e-02
  4.2561454e-01
  1.7574415e-01
  1.4658903e-01
 -2.1081707e-01
  7.2534852e-02
 -4.6176359e-01
  1.0612418e-01
 -1.2328924e+00
 -5.3702015e-01
  4.0779170e-01
  4.6376514e-01
  9.7782873e-02
  2.0744359e-01
  3.5365975e-01
  6.3730532e-01
  6.4097053e-01
  2.9832458e-01
 -9.1331166e-01
  6.2485486e-01
 -1.7512876e-01
  1.1597825e+00
  2.8633288e-01
  2.5742043e-02
 -2.8074059e-01
  5.5862987e-01
  6.0284531e-01
  1.4548392e+00
  3.6646359e-02
 -1.6820940e-01
  2.2975837e-01
  7.4107453e-02
  8.2736954e-02
  2.2143194e-01
  7.9095650e-01
 -2.3034178e-01
  2.8773677e-01
  1.0854182e-02
  2.4960862e-01
  3.0302626e-01
 -6.2649214e-01
 -1.4850236e-01
  8.4141850e-02
 -1.1328719e-01
  2.3823895e-01
  2.0088711e+00
  6.7889810e-01
  1.2706652e-01
  2.4084946e-02
 -2.9499114e-01
 -5.4075599e-01
 -2.5988808e-01
  3.0399472e-01
 -1.0434204e-01
  4.2193824e-01
  1.0441796e-01
 -5.9617862e-02
  6.2662089e-01
  3.0783796e-01
 -6.5238225e-01
  2.3738454e-01
  6.3682967e-01
 -6.3892168e-01
 -3.9296511e-01
 -6.0194677e-01
 -9.3307823e-01
 -5.8003646e-01
 -9.4411448e-02
 -6.2170982e-01
  1.2102148e-01
 -4.1496781e-01
  2.6719579e-01
  7.2763157e-01
  4.4220364e-01
 -1.3682967e+00
  1.0174143e+00
  2.9993251e-02
  6.7837417e-02
 -8.7058538e-01
 -1.0080445e+00
  1.8028982e+00
  1.3364315e-01
  1.1005318e-01
  3.8898671e-01
  2.8553554e-01
  2.2538558e-01
  2.2888353e-01
  5.5387336e-01
  1.5440814e-01
 -1.5197746e-01
  3.5036451e-01
 -6.4221722e-01
 -6.1716795e-01
 -1.1149605e-01
 -4.3338578e-02
 -6.4578861e-01
 -2.1595722e-01
 -3.1150663e-01
 -8.5824460e-01
  6.0944590e-03
  4.7433969e-01
  1.7480093e-01
  3.0405006e-01
  8.7541944e-01
 -4.8425555e-02
  6.6610314e-02
  9.4785064e-01
  9.8648921e-02
  2.4096589e-01
  2.6170087e-01
 -2.0599213e-01
 -4.7492287e-01
 -2.3991694e-01
  2.1735162e-01
 -1.8836056e-01
  2.8326669e-01
  6.4797327e-02
  6.2649414e-02
 -1.5287675e-01
  3.1261005e+00
  4.2159259e-01
  3.0817938e-01
 -4.8720682e-01
  1.8354389e-01
 -2.0344105e-01
  8.6533409e-01
 -1.7441775e-01
  3.2385206e-01
  2.2761536e-01
 -5.2878988e-01
  7.3582530e-02
 -7.6511878e-01
  3.8032800e-01
 -3.9759025e-01
 -2.8349116e-01
  7.1398067e-01
  7.7054627e-02
 -3.5658285e-02
 -1.1354703e+00
  5.2639508e-01
 -4.3975107e-02
  6.4792711e-01
 -6.6826302e-01
 -4.0212225e-02
  3.2913484e-02
 -1.4167476e+00
  8.0428459e-02
 -4.0679997e-01
  5.7502759e-01
  1.0792743e+00
 -1.2487261e+00
 -1.4986737e+00
 -3.8635883e-01
  2.5157899e-01
  7.7938825e-01
 -3.1416729e-01
  1.1820480e+00
  1.5321928e-01
  9.8459579e-02
  1.7298349e+00
 -2.8781703e+00
  1.5424499e-01
  1.6130993e-01
  2.3792043e-02
 -4.9921089e-01
 -4.0745595e-01
  9.4869745e-01
 -7.9646014e-02
  3.8726526e-01
  3.5520598e-01
  8.7915033e-01
  9.1708504e-02
 -1.9298109e-01
 -9.7320236e-02
  2.3418795e-01
  3.1744879e-01
 -4.4553086e-02
  1.0151302e+00
 -3.4976241e-01
 -8.4438950e-02
  8.3289161e-02
 -1.2397851e-01
 -3.3860889e-01
  3.9343348e-01
  1.2347183e+00
 -1.4506849e+00
  3.0676228e-01
 -2.6916593e-01
  1.9361007e-01
 -8.5910606e-01
 -2.4820767e-02
  8.4763920e-01
  4.5602024e-02
 -3.5470343e-01
  2.6741034e-01
  3.8089478e-01
 -4.0275359e-01
 -1.1395837e-01
  2.1433067e+00
  3.7104872e-01
 -4.6612644e+00
  5.0243735e-02
 -2.0365275e-02
  6.8849623e-02
 -3.2403225e-01
 -5.0138462e-01
  4.4414140e-02
  2.9704759e-01
  1.3920320e+00
 -2.4770153e+00
 -3.4995005e-01
  2.9401013e-01
 -1.2049352e-01
 -1.3775079e-01
  7.4179947e-01
 -2.8718641e-01
  3.7700543e-01
 -7.5815469e-01
 -3.7282195e-02
 -7.4805200e-01
  2.8720684e-02
  1.1818621e+00
  6.6562518e-02
  6.4158964e-01
 -1.0344962e+00
  1.4296597e+00
 -1.8992631e-01
  2.8516313e-01
  1.3873146e-01
  6.8620223e-01
 -3.2649922e-01
 -3.4855163e-01
 -3.7233096e-01
 -1.2910739e-01
 -3.2605967e-01
  1.0721871e-01
  3.4272543e-01
  7.3268515e-01
 -1.3597513e+00
  3.5372365e-01
 -1.8045156e-01
  9.1784053e-02
  8.3003119e-03
  9.5156580e-02
 -1.5331923e+00
  6.1973864e-01
 -9.6882230e-01
 -4.6384472e-01
  1.7412975e-01
 -6.2054463e-02
  1.3467753e-01
 -3.5554457e-01
 -1.6776265e-01
  9.4965458e-02
  1.7275314e+00
 -1.0812530e-01
  3.7429231e-01
  2.2407356e-01
 -2.3297372e-01
 -1.2012272e-01
 -5.0203556e-01
  4.0616679e-01
  8.5982627e-01
 -1.8170992e-01
 -1.2296113e+00
 -4.7077078e-01
  6.1954655e-02
 -7.4080479e-01
  1.4121725e-01
 -4.0536433e-02
  5.5839375e-02
 -7.6184785e-01
  1.3337038e-01
  1.1665583e-01
  6.0613161e-01
 -3.8528696e-01
 -1.5613243e-02
  1.5839535e-01
  2.1704790e-01
  5.1209670e-01
 -1.9048835e+00
  2.9896706e-01
  1.4723468e+00
  9.6676159e-01
 -4.2366660e-01
  2.5746793e-01
 -4.6999618e-02
 -1.5083702e-01
 -4.6522352e-01
  3.2493599e-02
  1.3814861e-02
  1.0270657e-01
 -2.0940784e-01
  1.4023457e+00
 -1.2997547e-01
 -3.3789545e-01
 -7.4453562e-01
  8.6171854e-01
  2.8206521e-01
 -3.3315051e-01
 -6.2145613e-02
  9.4415212e-01
 -1.8043542e+00
 -1.0953968e+00
 -4.6281427e-01
  1.2095351e+00
 -8.6838633e-02
  4.2972344e-01
  9.4377953e-01
  5.3944105e-01
 -2.0284615e+00
 -5.4570752e-01
  1.2484556e+00
  1.3551027e-01
  2.6454011e-01
 -7.2535163e-01
  2.0582564e-01
 -4.1963646e-01
 -2.7547720e-01
 -3.5989398e-01
  3.9726552e-01
  3.8205070e+00
 -2.1406513e-02
  9.0098921e-03
 -9.8913908e-04
 -3.4634086e-01
 -6.3215965e-01
 -1.4109454e-01
 -2.9586992e-01
  3.2216957e-01
  2.1527338e-01
 -7.1116191e-01
  2.0120980e-01
 -1.4843641e-01
  7.3259830e-01
  3.8934156e-01
 -5.9939760e-01
  4.6622372e-01
 -4.7302064e-01
 -1.4621989e-01
  9.0202707e-01
  5.9560126e-01
 -8.5501969e-02
  1.3995489e-01
 -3.6964685e-01
  1.1107090e-01
  1.1182994e-01
 -2.6061508e-01
 -1.5612493e-01
  4.5364503e-02
 -4.2914981e-01
 -5.1833457e-01
 -5.9734024e-02
 -1.5739787e+00
 -1.8213693e+00
 -3.1321001e-01
  1.9290675e-01
 -8.5064851e-02
 -2.2460262e-01
 -1.9584730e-01
  9.4772005e-01
  1.1045966e+00
  1.9671600e-01
 -4.6296176e-02
  1.2977564e-01
  1.1668397e+00
 -5.1315355e-01
 -2.8814286e-01
 -6.0800523e-02
  5.5557746e-01
 -1.0210268e-01
  5.3987145e-01
  6.6099703e-02
  6.1834633e-01
 -2.8932879e-02
  9.9811721e-01
 -3.9157546e-01
 -2.0102775e-01
  5.5924451e-01
 -2.6425207e-01
  6.6235232e-01
  5.6070125e-01
  6.3361377e-02
 -8.1794477e-01
 -8.2295620e-01
 -5.0683945e-01
 -1.5367565e-01
 -7.4216688e-01
 -1.7090023e-01
 -4.5703268e-01
  2.6117685e-01
 -5.2052188e-01
  4.8009157e-03
 -5.1160060e-02
 -1.1078407e-01
  2.1600790e-01
  2.8330433e+00
  7.8195369e-01
 -8.1829347e-02
 -2.1183343e-01
  2.5468132e-01
 -3.9317235e-01
 -2.3019485e-01
 -5.1108706e-01
  5.4787822e+00
  2.4318192e-03
 -2.9880051e-02
  3.0099323e-01
 -3.8194248e-01
  9.0990454e-02
  2.7407455e-01
  3.3686152e-01
  6.8351306e-02
  3.2954562e-01
  1.2218467e-01
 -6.6831410e-01
  1.0112422e-01
  3.8422918e-01
  2.5414102e-02
 -9.5333147e-01
 -4.7724962e-01
 -7.9641128e-01
  1.0015009e-01
 -1.8933676e-02
 -9.5621300e-01
  7.6494199e-01
 -3.3909121e-01
  6.5387696e-01
  6.5495968e-02
 -3.8667384e-01
 -5.6932771e-01
 -3.3047354e-01
  5.0310957e-01
  6.4374834e-01
 -3.4407526e-01
  4.9777918e-02
  8.1131354e-02
  6.0140163e-01
 -3.3518201e-01
  4.2252025e-01
 -1.6233104e-01
  5.3234661e-01
 -3.3316085e-01
 -1.1570641e-01
  9.4908381e-01
  6.4173913e-01
 -3.4158226e-02
  2.2523171e-01
 -6.8634158e-01
  6.6123039e-01
  6.5674245e-01
 -8.3153918e-03
 -7.2225761e-01
 -7.7150834e-01
  1.2341478e+00
  2.4288909e-01
 -2.6254433e-01
  1.7002951e+00
  1.2123434e-01
  1.6687686e+00
  1.6646022e+00
  6.0467627e-02
 -2.2489499e-02
  2.5941780e-01
  9.8368096e-01
 -1.3394719e-01
 -1.8781851e-01
 -2.0369509e-01
  4.7418854e-01
 -1.2312208e+00
  1.9300824e-01
 -1.1920097e+00
 -1.8703996e-01
 -5.8836126e-01
 -1.6685200e+00
  2.8050819e-01
  9.9550760e-01
  1.1423602e-01
 -5.4496324e-01
 -1.4045472e+00
 -3.2418045e-01
  5.5915892e-01
 -1.9828725e-01
  8.5934687e-01
  1.2094221e+00
 -6.5220678e-01
  7.9197094e-02
  3.2367215e-01
  5.2515531e-01
  1.0443698e+00
 -7.9692596e-01
 -1.9345745e-01
 -1.3100271e-01
  9.3453571e-02
 -7.3568994e-01
 -1.3157140e+00
 -3.1703156e-01
 -7.1388006e-01
  2.7838531e-01
 -5.7099295e-01
 -2.3684712e-01
 -3.2504661e+00
 -1.8987473e-02
 -1.2032082e+00
 -5.4786354e-02
  5.6520265e-01
 -1.4147419e-01
 -3.2513913e-02
  1.4999346e+00
  9.9565196e-01
  3.0277690e-01
 -1.2339061e-01
 -7.0006299e-01
 -4.3118611e-02
  2.8309447e-01
  4.9091589e-01
 -1.6682860e-01
 -2.2185154e-01
 -1.5612210e-01
  2.5801027e-01
 -1.1378148e+00
 -2.0409313e-01
  5.1826960e-01
  1.5585843e+00
  2.0959796e-01
  2.2585522e-02
 -5.1388246e-01
  1.1756856e+00
  8.1799364e-01
  5.3586042e-01
 -1.3867183e-01
  3.0691633e-02
 -4.9317890e-01
  4.4638026e-03
  5.3118892e-02
  1.5724131e-01
  6.0713604e-02
 -2.1532984e-01
 -3.4783766e-01
  8.2640606e-01
  7.5855762e-02
  1.0792208e+00
 -2.3372272e-01
 -5.1171929e-01
 -1.8280144e-01
 -5.6523526e-01
 -7.8898817e-02
 -8.8924840e-02
  2.7152866e-01
  4.8217844e-02
 -1.2849306e+00
 -5.4754955e-01
 -8.5693574e-01
 -3.2575104e-01
  1.6797593e-01
 -4.6045747e-01
 -5.8209139e-01
 -3.9306903e-01
  8.7239289e-01
  2.4016044e+00
 -4.8058659e-01
 -2.6400128e-02
  4.8864773e-01
 -1.1137036e+00
  1.4869787e-01
  3.2480860e-01
  2.0677254e-01
  1.6802956e-01
 -8.8799018e-01
  3.3480442e-01
  4.5132449e-01
 -5.3861380e-02
  1.0667230e-01
 -1.1553391e+00
  3.8824391e-01
 -2.4719113e-01
  6.2255472e-01
 -1.1133226e+00
  5.9631221e-02
 -7.2338837e-01
 -7.6213293e-02
 -2.9582545e-02
 -4.7583631e-01
  2.1635655e-01
  4.2938886e+00
 -5.4141805e-03
 -5.1860040e-01
  1.0397472e+00
 -4.6885985e-01
  1.5659599e-01
  8.7707877e-01
 -6.9042361e-01
 -5.2147966e-02
  6.2391984e-01
 -5.3925765e-01
  1.1761729e-01
 -4.0720886e-01
  5.1419920e-01
 -5.9473288e-01
  3.2487094e-01
 -1.5856346e-01
  8.9671141e-01
  6.6840604e-02
 -1.8644643e-01
  3.0526987e-01
 -8.7862402e-02
 -3.1726193e-01
 -2.2751452e-01
  7.9278862e-01
  5.4914397e-01
  1.8577665e-01
  6.4033395e-01
 -5.8798623e-01
 -3.0640888e-01
 -4.7149748e-02
 -2.8590581e-01
 -1.8054444e-01
  6.7223221e-02
 -2.1661264e-01
 -1.6786866e-01
  1.0184613e-01
 -1.5899667e-01
 -1.7424598e-01
 -8.0381952e-02
  3.4265032e-01
 -2.4284257e-01
 -5.9077376e-01
 -3.1907395e-01
  1.1783613e-01
  1.0588292e-01
  1.3742572e-01
 -9.9002346e-03
 -4.4006115e-01
  1.7340063e-01
  6.2160146e-01
  9.0455711e-03
  2.1984017e-01
  1.9369534e-01
 -6.0445809e-01
  1.7316176e-01
  1.0984781e-01
 -6.2123567e-01
 -4.4358867e-01
 -4.1370419e-01
 -2.3314726e-01
 -1.7571431e-01
  6.3862628e-01
  7.0757675e-01
 -3.6394265e-01
 -1.3866755e-02
  5.3070182e-01
  2.7286270e-01
  1.9494326e-01
  7.9640612e-02
  3.4987772e-01
  4.6315041e-01
  2.9071280e-01
 -4.6437955e-01
  3.6400375e-01
  6.1937231e-01
  1.2118690e-01
  2.9664557e-02
  1.2088448e+00
  3.5297152e-02
 -1.6778193e-02
 -2.6012766e-01
 -4.8339683e-01
 -3.2072818e-01
 -3.2428005e-01
  8.6759323e-01
  4.4827864e-02
  8.4546044e-02
 -1.3052866e-01
  2.5259879e-01
  1.7021391e-01
 -3.3803923e+00
  5.3968281e-01
 -1.5140517e-01
 -2.7265012e-01
 -5.9031379e-01
  7.1643984e-01
 -5.4754272e-02
 -2.2714260e-01
  4.7684348e-01
 -3.6617139e-01
  1.9699827e+00
  1.9023397e+00
 -6.6468632e-01
 -6.7292690e-01
  1.3322648e+00
 -2.9686368e-01
  4.9253258e-01
  1.2677053e-01
 -3.7958384e-01
 -4.4682738e-01
  1.9816315e+00
 -2.5959074e-01
  2.3390228e-01
 -9.5301294e-01
 -2.7728998e-03
 -3.7853280e-01
 -5.3548876e-02
 -2.2733171e+00
 -2.5891969e-01
  1.0709187e+00
 -1.7274647e+00
  2.6981801e-01
 -8.3562052e-01
  7.0037365e-01
 -1.3662022e-01
 -3.0943856e-01
  7.6952505e-01
  4.2289323e-01
  1.0258135e-02
 -6.0192902e-02
 -1.8796663e+00
 -3.0399561e-01
 -2.4504010e-01
  6.9729757e-01
  6.9364727e-02
  8.5687643e-01
  7.5442511e-01
 -9.4488782e-01
 -1.2917301e-01
  3.4878179e-02
 -7.4116629e-01
 -1.7205156e-01
  7.3000795e-01
 -1.5922509e-01
  6.3678342e-01
  2.3798230e-01
 -1.2443452e+00
 -1.0806234e+00
  2.4633831e-01
  1.5523967e-01
  5.3361422e-01
  1.9801627e-01
  7.0176795e-02
  1.0772124e-02
  2.8519678e-01
 -3.4683913e-02
  9.3544148e-02
 -3.1595400e-01
 -6.4306006e-02
  5.3341621e-01
  1.4707602e+00
  5.7543884e-03
  2.9892948e-01
 -2.5112435e-02
 -5.4829242e-03
  2.2873601e-02
  1.2475882e+00
  3.6069989e-01
 -8.8098842e-01
  3.1299774e-02
  1.2609954e+00
 -1.7049879e-01
 -4.5172676e-01
  5.2052718e-02
  1.0669925e-01
 -1.2503258e-02
  5.5627817e-01
 -4.7517872e-01
  5.6882137e-01
  2.3630552e-01
  4.9177691e-01
 -7.4961108e-01
 -1.4251359e-02
  5.2110839e-01
  1.0610451e+00
  4.8450592e-01
 -1.7512690e+00
  1.6593605e+00
  1.5618585e+00
 -6.2315470e-01
  2.6355422e+00
  2.4659698e+00
 -1.0831451e+00
 -4.5899150e-01
  5.2062130e+00
 -1.7514540e+00
  1.4445308e+00
  1.3800659e+00
 -4.8169880e+00
  9.6461380e-01
  7.0907801e-01
 -3.0695239e-01
 -1.2851180e+00
  2.9326658e+00
  1.0073788e+00
  3.5085549e+00
  1.5902369e+00
 -3.7610400e+00
  4.2339935e+00
  2.6340032e+00
  1.6477944e-01
 -1.0019455e+00
  9.6407306e-01
  7.4058777e-01
  3.2141788e+00
 -9.3043154e-01
 -1.9772427e+00
  1.3095683e+00
  2.0186479e+00
  9.6040267e-01
 -1.4418340e+00
  1.9713428e+00
  5.9794128e-01
  1.3330832e-02
 -2.1196654e+00
  1.3126150e+00
  2.6052036e+00
  5.2059239e-01
  2.3189877e-01
  1.3000087e+00
 -2.1479988e+00
  1.3724893e+00
  1.0134777e+00
  1.0166381e-01
  1.1973820e+00
  1.4319344e+00
  7.9787433e-01
 -2.8914949e-01
 -6.3516766e-02
 -2.3712547e-01
 -5.1888410e-02
 -4.3933585e-01
 -5.4739553e-01
  8.1699565e-02
 -5.1222384e-01
  4.2867664e-01
 -9.4771329e-03
  1.6559353e-02
  6.3394570e-01
 -7.4193254e-02
  5.5737442e-01
 -7.4319720e-01
  5.1008421e-01
 -2.9752427e-01
  2.9409385e-01
 -5.1072109e-01
 -1.2701060e-01
  4.0796968e-01
 -4.5848748e-01
 -5.9499361e-02
 -5.0147867e-01
  3.3999664e-01
 -5.1543057e-01
  8.9799032e-02
 -2.9156036e+00
  7.3023742e-01
 -7.8563410e-01
  1.2922507e-02
  5.4724324e-01
 -5.8907479e-01
  4.0165034e-01
  9.6828461e-01
 -1.6238347e-01
  9.3183893e-01
  3.4510344e-02
 -1.4410070e-01
  3.7686229e-01
 -2.8527647e-01
 -3.3730485e-02
  3.8039452e-01
  1.4150180e-01
  1.0821597e-01
 -2.4715775e-01
  6.0280155e-02
 -4.4292417e-01
  7.6923096e-01
  5.9002221e-01
  4.1450489e-01
  6.8469965e-01
  2.2823159e-01
  5.8036155e-01
 -1.0543318e-01
  3.6490306e-01
  3.0010849e-01
  4.2410550e-01
 -1.0847292e+00
 -3.7073734e-01
  1.3306600e+00
 -1.9894643e+00
 -1.7685853e+00
 -4.0281937e-01
 -1.6019568e+00
 -1.4487498e-01
 -4.9662536e-01
 -2.1927123e-01
  1.7504464e+00
  2.1765776e-01
 -1.4777588e+00
  8.0309331e-01
 -3.7447088e+00
  1.4148252e+00
 -6.4473540e-01
 -1.2423621e+00
  1.0666953e+00
  7.6985627e-01
  7.5431359e-01
  8.5473936e-03
  9.2265999e-01
 -1.5880589e+00
  1.1343746e+00
  1.6592201e+00
 -1.6183186e+00
  5.3561133e-01
 -3.6057618e-02
 -1.2189146e-01
 -2.2631040e-01
  1.2172413e+00
  1.0371222e+00
  8.8521361e-01
  9.0462282e-02
  3.8079908e-01
  3.9427635e-01
  3.7051228e-01
 -9.4079846e-01
  8.9982879e-01
  9.9216595e-02
  7.9402186e-02
  1.9231984e-01
 -1.2062083e+00
 -1.4509033e+00
  9.3770586e-03
 -5.3429365e-01
 -4.0972538e-02
 -9.6310860e-01
  3.3145204e-01
 -2.8037670e-01
  6.6537368e-01
  7.4538863e-01
  2.4102531e-01
 -1.9013131e-01
 -1.5918311e+00
 -2.2874159e-01
  5.2643728e-01
  2.7368924e-01
 -7.6139430e-03
 -1.5788762e-01
  3.6839944e-01
  1.2473413e+00
 -1.2840421e+00
 -2.9995510e-01
 -1.5874873e-01
  2.9995629e-01
 -1.9579189e-01
 -2.5437611e-01
  8.0278891e-01
 -4.6821219e-01
 -1.2780745e-01
 -8.1242251e-01
 -6.1838704e-01
  1.7214313e+00
 -7.6952207e-01
  3.2253305e-03
  3.5062090e-02
  6.2058401e-01
 -5.8407438e-01
 -1.3429096e+00
 -8.6226672e-01
  9.7059254e-03
 -1.1062269e+00
  1.6925514e-01
 -5.0979638e-01
  2.3481126e-01
  1.0202885e+00
 -1.3180275e-01
 -2.1706361e-01
 -8.5690744e-02
  6.0013342e-01
  3.9291033e-01
  2.6198288e-02
  4.8040092e-01
 -8.6564785e-01
 -1.7556357e-01
  7.2625172e-01
  4.4620907e-01
  6.2940788e-01
  3.1520355e-01
  2.8470004e-01
  3.9457881e-01
 -3.2364550e-01
 -3.2962421e-01
  5.8393317e-01
 -2.3060425e-01
  2.8798647e+00
 -1.0901093e+00
  1.0743604e-01
 -2.7603719e-01
  5.3825897e-01
  1.0429434e-01
  3.7820056e-01
 -4.2384288e-01
 -6.3713878e-01
  1.8600747e-03
  4.4240642e-01
  6.0637437e-02
  1.2872519e-01
 -7.2808766e-01
 -9.3529806e-02
  4.2374292e-01
  2.5599054e-01
  1.1870135e+00
  3.5914505e-01
 -9.2259431e-01
 -2.8142795e-01
  2.4084669e-01
 -1.7039891e-01
  2.3783010e-01
  4.0199691e-01
 -4.4002235e-03
  1.9243804e-01
  1.9304049e+00
 -6.5841204e-01
  4.3926644e-01
  1.2207019e-01
 -5.4417652e-01
  2.4678485e-01
 -7.0164925e-01
  2.1705073e-01
  4.2209509e-01
 -9.7042784e-02
  2.9972407e-01
  3.2123789e-01
  1.3284737e-01
  1.8546429e-01
 -8.5997015e-02
 -4.4416991e-01
  2.9805148e+00
  4.4957513e-01
 -3.1554866e-01
  4.0107739e-01
 -1.1934958e-01
  8.7364376e-01
  2.4742966e+00
 -2.3957839e+00
 -2.8572762e-01
 -1.7046374e+00
 -4.5483088e-01
 -1.8106283e-01
 -2.4284022e+00
  4.6805933e-01
 -4.0285707e+00
  2.3760242e+00
 -4.4288543e-01
  5.9629935e-01
 -2.8539279e-02
  6.6986835e-01
  4.8032951e+00
  3.2866961e-01
 -2.1245033e-03
  5.4860663e-01
  7.2882094e+00
  1.1500880e+00
 -4.6226668e-01
 -6.1818247e+00
  2.2495294e-01
  2.1601783e-01
  2.2568309e-01
 -1.5654315e+00
 -2.1208663e+00
  7.2826471e+00
 -2.5769362e+00
  4.3358880e-01
 -3.2501192e+00
 -3.8457263e-01
  3.2087924e+00
 -1.6319643e-01
 -5.6700408e-01
 -1.6047007e+00
  2.0620844e+00
 -1.7643673e+00
 -5.0990355e-01
 -4.1779776e+00
 -4.6034057e-02
  2.4166484e+00
 -8.0496259e-03
  4.0807712e-01
 -5.4512200e+00
  9.3397146e-01
  5.1061708e-01
 -3.5734570e-01
  4.2270866e-01
  3.7905857e-01
 -2.1024352e-01
 -1.0438801e-01
  7.9348707e-01
  3.4904683e-01
 -1.1843846e+00
  1.5087700e-01
  6.5338030e-02
 -7.3173082e-01
 -2.5861833e+00
  1.0048652e-01
  1.6638565e-01
 -4.3903577e-01
  1.7108376e-01
  1.0776316e+00
 -8.0185193e-01
 -9.2289329e-01
  4.1059354e-01
  2.2520000e-01
 -1.5883599e-01
 -3.9753671e+00
  2.6223716e-01
  7.3013037e-01
  6.0371202e-01
  3.4552693e-01
  3.2271451e-01
  2.5050724e-01
 -1.4962088e-02
  3.9728841e-01
 -1.3863932e-01
  1.4102343e-01
 -9.8609462e-02
 -1.1620609e-01
  2.6543784e-01
 -5.9849218e-02
 -3.9746579e-02
  1.1093273e+00
 -6.1070193e-02
 -2.3654191e-01
  2.5488839e-01
 -4.5066968e-01
  4.3817264e-01
  6.0362637e-01
 -1.5257733e-01
 -3.9649822e-02
 -6.3781440e-01
  2.4818714e-01
 -2.6370361e-01
  2.9007897e-01
 -1.4241281e-01
  3.8884151e-01
  3.2369840e-01
  3.2665884e-01
  7.1994311e-01
 -6.4395405e-02
  6.6017902e-01
 -3.5394132e-01
  2.5320213e+00
  1.5656929e-01
  1.0914515e-01
 -2.3735350e-01
 -2.3929675e-01
  5.4514426e-01
  7.7184960e-02
 -7.6527536e-01
  6.4111727e-01
  3.8593835e-01
 -1.7362798e+00
  2.7616434e+00
  9.0106565e-01
 -3.3611658e+00
 -7.1328050e-01
 -1.0548617e+00
  3.4678991e+00
  4.0468502e+00
  2.9437578e-01
 -9.8950285e-01
  3.8705912e+00
  3.6255219e+00
 -1.2900940e+00
 -2.6988242e+00
 -9.1673541e-01
  3.6441913e+00
  2.7755642e-01
  3.7001917e-01
 -7.4663889e-01
  1.5459715e-01
  2.9354243e+00
 -1.9040091e-01
  9.7987247e-01
 -1.4519671e+00
  1.4071777e+00
 -5.7366890e-01
 -7.8195673e-01
  5.2667820e-01
  2.1485322e+00
 -7.7424303e-02
 -7.1980274e-01
  2.9052780e+00
 -1.7198056e+00
  1.2078447e+00
 -5.3519267e-01
 -5.4722869e-01
 -4.5096164e+00
  6.9108558e-01
  4.6169719e-01
 -1.3978556e+00
 -5.7573009e-01
 -3.8802788e+00
  6.2802261e-01
  3.0079103e-01
 -9.9418110e-01
 -1.0965437e-01
 -1.3235110e+00
 -1.0452784e-01
  5.5429924e-01
 -5.5419469e-01
 -3.1123966e-01
 -1.1730998e+00
 -1.1573884e+00
 -1.5640622e-02
  2.3255658e-01
  5.7445395e-01
 -5.4720186e-02
 -1.7345481e-01
 -2.5764823e-01
  2.6136068e-01
 -1.3033803e+00
  5.7612705e-01
 -8.2738501e-01
  3.3322036e-01
 -5.5184817e-01
  8.7074673e-01
  2.1561195e-01
  7.2775275e-01
 -6.7231810e-01
  2.0100935e-01
 -2.3944966e-02
 -3.8333416e-01
 -5.4056418e-01
  6.4612001e-01
 -2.5195628e-02
 -8.6614418e-01
 -2.6811561e-01
  4.0811750e-01
  5.9651121e-02
 -1.1392979e-01
  3.6104721e-01
 -6.2157488e-01
  5.2349055e-01
 -7.9266536e-01
  4.4646674e-01
  1.2757537e-01
  2.3214632e-01
  4.9496878e-02
 -5.4475087e-01
  6.6814494e-01
  1.0674331e-02
 -4.6114540e-01
 -6.2985456e-01
 -7.3759800e-01
 -2.6211652e-01
  4.3146682e-01
  5.3038204e-01
 -3.9678901e-01
  1.4602925e-01
 -1.1130512e+00
 -7.7466738e-01
 -7.5734860e-01
 -4.6687305e-02
 -2.0041473e+00
 -1.7407287e+00
  1.7638119e-02
  7.7599847e-01
 -1.4887711e+00
 -6.2930518e-01
 -7.4884969e-01
 -1.2757345e+00
  1.8444533e+00
 -6.0295099e-01
  6.8752426e-01
 -1.5482643e+00
  1.5137627e+00
 -2.9361136e+00
  2.2552044e+00
 -3.2916230e-01
  5.5295670e-01
 -2.9427502e-01
  7.1551472e-02
  2.6583883e-01
 -3.3615139e+00
  7.3147678e-01
  3.2679519e-01
  9.7517043e-01
 -2.8174585e-01
 -2.3908098e+00
  1.6542794e+00
  4.4791472e-01
  1.4938228e+00
 -2.5214067e-01
  2.1171529e+00
 -3.9797738e-01
 -3.1281707e-01
 -1.4384445e+00
 -1.1389018e+00
 -4.1700491e-01
 -5.2339846e-01
 -1.6815989e+00
  3.2468259e-01
  2.4018278e+00
 -8.1468344e-02
  2.5507789e-02
  1.5699910e+00
 -8.8458991e-01
 -3.3675289e-01
  7.1601075e-01
  5.5917203e-01
  2.0584491e-01
 -4.8302323e-01
  3.0704489e-01
 -3.5632942e-02
  1.1312199e-01
  3.9859509e-01
 -3.1706941e-01
 -4.1148484e-01
 -6.0171545e-01
 -6.7323595e-01
  8.4143108e-01
  6.1992449e-01
 -1.7971417e-01
  1.2790287e-01
 -2.2174045e-01
 -8.0396887e-03
  9.2362112e-01
  1.2217313e+00
 -2.5290626e-01
  2.0720291e-01
 -6.4335400e-01
  5.2116913e-01
 -7.0509720e-01
 -3.5499683e-01
  1.0255777e+00
 -4.9928865e-01
  8.1535822e-01
 -2.6292795e-01
  1.1215334e-01
 -2.5863837e-02
  3.8159754e-02
 -2.3164496e-01
  2.7186179e-01
  4.2990190e-01
  2.0245166e-01
 -2.8209502e-01
  2.7927098e+00
 -3.7746602e-01
  2.5323814e-01
 -3.6527333e-01
 -7.9593733e-02
  5.5836374e-01
 -7.9936814e-01
 -1.6308216e-02
 -1.0422820e+00
 -1.1926532e-01
 -2.6127720e-01
  1.0013458e+00
 -6.0370117e-02
 -2.6968282e-01
  1.1218234e-01
 -1.4345537e+00
 -1.3160849e-01
 -8.0381095e-02
  2.0876180e-02
  3.7970766e-02
  1.4444041e-01
  7.5163478e-01
  4.2300507e-01
  1.8844324e+00
  6.9275302e-01
  6.9299877e-01
  2.9861286e-02
  7.7345932e-01
 -6.5616548e-01
  9.8552126e-01
  1.9409722e+00
  1.5072149e-01
 -8.0584162e-01
 -6.2600148e-01
 -4.0442628e-01
 -2.9838568e-01
 -5.6415671e-01
 -1.7248125e+00
 -5.2494222e-01
 -2.6943192e-01
  1.2457910e-01
  8.0744550e-02
  8.5458070e-01
 -4.5241112e-01
  4.2060129e-02
  9.9185640e-01
 -8.5548854e-01
 -2.6355541e-01
  1.0865847e-01
  4.0965417e-01
 -1.4874324e+00
  9.6544784e-01
  1.0576664e-01
  2.7156532e+00
 -3.7124825e-01
 -5.5679387e-01
  4.8329496e-01
  1.9431455e-01
  8.0017275e-01
  1.2325368e+00
  1.2330670e+00
  7.5507216e-02
  2.2701362e-01
 -7.5180113e-02
  2.4872586e-01
  2.0486608e-01
 -3.6496034e-01
  1.6345820e-01
 -5.3326058e-01
  2.7104422e-01
 -3.6025110e-01
  8.7546623e-01
  6.0654509e-01
  1.9881745e-01
  1.0728953e+00
 -1.9268978e-01
  2.4996843e-02
  2.3008497e-01
 -4.9294077e-02
 -4.6269655e-01
  6.1361223e-01
 -9.3815811e-03
  7.2486180e-01
  2.3428538e-01
  9.4697034e-01
 -5.9839737e-01
  1.3909572e-01
 -5.8985364e-01
  8.0913849e-02
 -1.3898091e-01
 -5.9047794e-01
 -4.5356032e-01
 -7.8849733e-02
 -5.5367421e-02
 -1.2374938e-02
 -2.1484229e-01
  5.6470871e-01
  5.3403902e-01
  1.7653626e-01
  5.6911933e-01
  5.1539332e-01
  8.9602582e-03
 -6.2004920e-02
  3.4053221e-01
  1.4792842e+00
  5.1291120e-01
 -7.5448006e-02
 -1.0558704e-01
 -5.6944430e-01
 -1.9626580e-01
 -7.7077821e-03
  1.2262080e-01
  3.7360984e-01
 -5.6602854e-01
 -9.3797576e-01
  8.3028567e-01
  2.8037861e-01
 -8.0336422e-02
 -3.6718786e-01
  7.2504318e-01
  8.5180974e-01
  2.0226657e-02
 -8.4415376e-01
 -1.9955130e-01
  1.4167453e+00
  2.4548708e-01
 -1.3207207e+00
 -7.0777938e-02
 -3.3445415e-01
  3.0439085e-01
 -3.4481007e-01
  7.7648014e-01
 -5.8449829e-01
  3.1056657e-01
 -7.7691758e-01
 -3.6351876e-03
 -4.0405992e-01
 -9.8374479e-02
 -2.4906354e+00
  1.4385902e+00
  8.6503714e-01
  1.4107962e+00
 -3.2673609e-01
 -3.6572176e-01
  2.6156291e-02
 -1.0844922e+00
  9.8213311e-03
  2.6834425e-02
  1.7492191e+00
  8.0554999e-02
  4.5366338e-01
  4.0098604e-02
 -3.9879116e-01
 -1.6382278e+00
  6.7717731e-02
 -5.6324011e-01
 -7.9018451e-02
  1.9344438e+00
  9.3264878e-01
  5.2055609e-01
 -1.4745371e+00
 -2.5782361e+00
  8.7283480e-01
  7.5013340e-01
  1.2235023e+00
 -4.4406447e-01
  2.7330622e-01
 -6.1372641e-02
 -1.6827389e+00
  9.0885609e-02
 -1.8421406e+00
  3.7503198e-01
  2.5040634e+00
  1.0206013e+00
  1.1908844e-01
 -1.9429033e-01
 -7.9064719e-02
  8.1975257e-01
  2.5350955e-01
  1.2539284e-01
  1.2150079e-02
 -1.9129936e-01
 -5.6400108e-01
  1.6347561e-02
  1.2156862e+00
 -9.8944575e-02
  3.3777621e-01
  3.3787474e-02
  4.3529028e-01
 -3.3260399e-01
 -2.0433788e-01
 -6.5114236e-01
 -3.5609394e-01
  2.9509887e-01
 -4.2238757e-01
 -1.1762173e-01
  2.3129153e-01
  1.1970625e+00
 -2.8765291e-01
  1.0837448e+00
 -8.4836996e-01
  9.1983402e-01
 -4.6605807e-02
 -2.2268116e-01
 -3.8787447e-02
 -3.1478980e-01
  1.9475718e-01
 -1.4155048e+00
 -3.1124696e-01
 -2.2115487e-01
 -2.5378388e-01
  4.9473420e-01
  3.9241001e-01
  3.6861596e-01
 -2.2904612e-01
  2.7912450e-01
  3.2898462e-01
  1.6484237e-01
  4.8910865e-01
 -2.6364297e-01
 -6.8370384e-01
  2.0479226e-01
  5.7144022e-01
 -1.0178523e-01
 -5.7766569e-01
  3.2416830e+00
 -7.3886257e-01
  5.7556856e-02
  6.9828667e-02
 -4.4494149e-01
  8.0763394e-01
  5.8275223e-01
 -1.6392057e-01
 -8.0432922e-02
 -3.2669050e-01
  6.3167626e-01
 -2.6240951e-01
  1.2090796e+00
  8.0837198e-02
 -4.6123123e-01
  6.0953826e-02
 -1.2417436e-01
 -1.6908984e+00
 -4.0161803e-01
  2.5677201e-01
 -7.6388800e-01
  6.2456670e+00
 -4.9158686e-01
 -2.2901459e+00
 -4.0999463e-01
 -2.5287802e+00
 -1.1193308e-01
 -4.5039873e+00
 -6.8058604e-01
  1.2997092e+00
  2.3244765e+00
  1.3557489e+00
 -1.6282132e+00
 -2.3951435e-01
 -8.9194977e-01
 -2.7859561e+00
 -2.4403167e+00
 -1.6768413e+00
 -1.3651097e+00
  1.1382052e+00
 -2.1971425e-01
 -3.8104606e-01
  4.7402000e-01
  9.5978659e-01
 -2.5149226e+00
 -4.3190856e+00
  6.4820863e-02
 -2.4549228e-01
  1.5351849e+00
  1.6044720e-01
  3.0791026e-01
 -4.5669527e+00
  9.4412816e-01
  3.9781049e-01
 -8.2703286e-01
 -1.9290690e+00
 -3.4150648e+00
 -7.7109438e-01
  2.6573923e-01
 -4.7630202e-03
  2.0318717e-01
 -5.5743086e-01
  4.6748948e-01
  4.2127731e-01
 -3.7137365e-01
 -3.2465342e-01
 -8.6415046e-01
  2.4534672e-01
 -2.4284579e-01
 -3.9913917e-01
  2.6324406e-01
 -2.1768203e-01
  8.6916244e-01
  1.3879746e-01
 -8.8193893e-01
  4.4906893e-01
 -6.1384207e-01
 -4.1691482e-01
 -8.0742258e-01
 -2.9253206e-01
  4.0584260e-01
 -1.3458979e-01
  3.3434772e+00
 -7.9282559e-02
 -1.5456264e-01
 -1.7393345e-01
 -1.1355231e+00
 -1.1574403e+00
  2.3575966e-01
  2.8916565e-01
 -2.5225997e-01
  1.8017739e-01
 -5.6814030e-03
 -6.3721269e-01
  1.4889023e-01
 -7.5064820e-01
  5.6749099e-01
 -1.5598111e-01
 -3.8157180e-01
  9.0583110e-01
 -1.1848403e+00
  1.0020129e-01
  1.2457361e+00
 -1.1717877e-01
 -3.3275816e-01
 -3.2666537e-01
 -4.2167306e-01
  9.2774630e-01
  8.7738192e-01
 -2.1911135e-01
 -5.2086443e-02
 -3.1771135e-02
 -1.4262855e+00
 -8.6077881e-01
 -1.6276114e-01
  1.8438213e-01
  8.0947816e-01
 -1.3566826e-01
 -4.2422932e-01
 -3.2802832e-01
  1.5945003e+00
  1.0127325e+00
  8.1071311e-01
  2.6090755e+00
  6.9659775e-01
 -6.2812835e-02
  1.0264715e+00
  6.8656528e-01
  3.3236983e+00
  1.3780359e+00
 -4.4812385e-02
 -4.3293270e-01
 -1.0107341e+00
  1.0184945e+00
  6.1109352e-01
 -4.1517451e-02
  1.8136062e-02
  6.6215223e-01
 -3.7843621e+00
  4.4777422e+00
  9.7009397e-01
 -1.6227261e+00
  4.6812784e-02
  1.4272200e+00
  6.5595305e-01
  6.3021833e-01
  4.8785657e-01
  3.3030548e+00
  4.5334771e-01
  1.1438109e+00
 -6.9122416e-01
 -1.1593922e+00
 -9.7455335e-01
 -8.9068776e-01
  2.7656627e-01
  3.7660351e+00
  7.8012902e-01
  9.3327284e-01
 -3.5213920e-01
 -1.0282396e+00
  6.4291108e-01
 -3.9200708e-01
 -4.6440077e-01
 -3.3932516e-01
 -4.8435427e-02
  1.2460231e+00
 -4.9990319e-02
 -1.3060978e-02
 -1.1150793e+00
  1.7455214e-01
  1.3877419e-01
  2.6368759e+00
 -2.5480706e-02
  9.8296273e-01
 -2.5481908e+00
  1.9286485e-01
 -9.0802902e-01
 -2.1197341e-01
  3.5193321e-01
  2.0949632e-01
  8.4553653e-01
  2.8595582e-01
 -3.8938448e-01
  1.3843784e-01
 -5.4053342e-01
  1.2568823e-01
  4.0994510e-01
 -6.2832892e-02
 -8.0430001e-02
 -9.7052738e-02
  2.9891089e-01
  2.4697337e-01
  1.6104231e-02
 -4.6766940e-01
 -1.9730185e-01
  2.7690658e-01
 -5.0107300e-01
  2.3355801e-01
 -5.5528575e-01
  1.2842162e+00
  7.2603059e-01
 -5.1009059e-01
  6.8244338e-03
 -3.7626871e-01
 -1.0310968e+00
  7.4130052e-01
  6.3214952e-01
  1.3296317e-01
 -1.5632864e+00
  5.9176219e-01
  7.4174004e-03
 -9.4030780e-01
 -1.7475137e-01
  8.9403652e-03
  1.0194937e-01
 -5.4182351e-01
  2.3635690e-01
 -4.2184108e-01
 -2.4986142e-01
 -1.1833671e-01
  3.1794018e-01
  7.9314065e-01
  1.8369874e-01
 -5.9551701e-02
  1.7120022e-01
 -1.7607948e-02
  1.7318167e-01
 -5.0348699e-01
  3.2926235e-01
 -3.0397451e-01
 -4.0479520e-01
 -3.3961144e-01
  2.6538604e-01
 -3.9885994e-02
  7.7558368e-01
 -3.2697311e-01
  2.1151787e-01
 -1.3775021e+00
 -1.8799403e-01
  1.0679717e-01
 -8.8091455e-02
  8.0068213e-01
  2.0436464e-01
 -2.1011196e-01
  8.5312635e-01
 -7.0091826e-01
  9.2772996e-01
  1.6123462e-02
 -1.8132664e-03
 -1.1625180e-01
 -3.6437696e-01
  3.3853218e-01
  6.2342018e-01
 -1.3623181e-01
 -6.6640800e-01
  7.0412964e-01
  9.6077740e-01
 -9.5542371e-01
 -2.0082222e-01
  2.6021081e-01
  4.9175732e-02
 -2.3275796e-01
 -1.8114230e-01
  1.5752336e-01
  3.5953999e-01
  1.4321263e-01
 -1.1317432e-05
 -3.5172698e-01
 -3.7618679e-01
  3.2442045e-01
 -7.6222390e-01
 -2.1780199e-01
  1.7820141e-01
 -6.1601675e-01
 -2.2828148e-01
 -3.3266670e-01
  1.3643903e-01
 -8.6903632e-02
  2.4364239e-01
  8.0580689e-02
 -2.5179338e-01
  7.9116529e-01
  1.9109599e-02
 -1.3286723e+00
 -1.0569681e-01
  7.8655601e-02
 -5.7650602e-01
  5.1914430e-01
  6.1927986e-01
  4.4191623e-01
 -6.6575116e-01
  7.1825124e-02
 -6.4346716e-03
 -2.7296698e-01
 -7.0636934e-01
 -1.8352844e-01
  2.2428353e+00
  2.7880558e-01
 -7.8294206e-01
 -2.5315192e-01
  5.5395722e-02
  2.1438703e-01
  2.2095494e-01
 -9.5006120e-01
 -1.4092298e-01
 -1.1886737e-01
  4.3137771e-01
  1.5497851e-01
 -4.5284605e-01
  1.7848723e-02
 -5.9822220e-01
  3.1901783e-01
  5.1253653e-01
 -2.0830807e-01
 -2.7980208e-03
 -6.9257271e-01
 -4.6515572e-01
 -6.9892317e-01
 -3.2182419e-01
 -1.6864772e-01
 -2.2841164e-01
 -7.0340127e-01
  8.4768009e-01
 -3.4800512e-01
  2.8037897e-01
 -6.4088178e-01
  1.0312830e-01
  1.1854739e-01
 -1.7804768e-02
  2.3747031e-01
 -3.0332011e-01
 -1.9919224e-01
  7.3799139e-01
  1.0147384e+00
  6.0173094e-01
  3.1244928e-01
  1.1532121e+00
 -1.0412524e+00
  1.7932854e+00
 -2.5351024e+00
 -6.9123167e-01
 -8.7922400e-01
 -6.4987264e+00
 -1.2616212e+00
  3.0627899e+00
 -1.6612129e+00
  3.7349030e-01
 -2.0754795e+00
 -1.4890828e+00
  7.2601044e-01
 -2.1068315e-01
  1.4665444e+00
  2.8113065e+00
 -4.2441130e+00
  1.8565903e+00
  1.0562059e+00
 -5.7353204e-01
 -3.7508039e+00
 -2.8335335e+00
 -1.4258410e-01
 -1.3043747e+00
 -1.0265367e+00
 -2.3464052e-01
  2.5947185e+00
 -5.4036193e-02
  6.3037854e-01
 -3.0250971e+00
 -8.7734920e-01
 -6.8350762e-01
  3.0258456e-01
 -4.7920835e-01
 -1.9073794e+00
  2.8234047e-01
  6.3226712e-01
 -1.6543988e-02
  9.8430887e-02
 -6.0208946e-01
  9.1974580e-01
 -1.7223785e+00
 -4.8086286e-01
  6.5415785e-02
 -2.6240675e+00
 -7.4825549e-01
 -5.1289332e-01
 -1.0287077e+00
 -5.8348674e-01
  1.4880282e+00
  1.7647059e-01
  6.1546522e-01
  4.8248234e-01
  6.7808442e-02
 -1.6574900e+00
 -1.1354439e-01
  7.9160762e-01
 -2.2363195e-01
 -9.8112398e-01
  3.0056652e-01
 -1.9779172e+00
  1.6089156e-02
 -2.7906770e-01
 -7.6018727e-01
  2.2710966e-02
 -6.9483864e-01
 -6.5295589e-01
 -3.9950940e-01
  2.5031935e-02
  3.0451140e-01
  9.8117977e-01
 -3.9922836e-01
  1.4249821e-01
  3.0388767e-01
  6.9578111e-01
 -7.8915358e-01
  6.9127488e-01
 -6.6554344e-01
  3.7874708e-01
 -3.8655847e-01
 -2.8804943e-01
  8.5338748e-01
  6.2506557e-02
  8.4949839e-01
 -2.5787032e-01
  5.7549679e-01
 -9.7120777e-02
 -5.0325420e-02
  1.6154567e+00
  1.6831174e-02
 -5.3711034e-02
  6.5179741e-01
 -7.2658934e-02
  4.5299652e-01
 -7.1357906e-01
  2.6053843e-01
 -2.6702203e-02
 -3.1131661e-01
  4.7035533e-01
  2.7869338e-01
  8.0664292e-02
 -3.1031466e-01
  3.7724823e-01
 -5.4969892e-02
 -5.3840607e-01
  1.4108327e-01
  1.2157582e-01
  8.1212920e-01
  3.7159842e-01
 -2.5784168e-02
  4.3810609e-01
 -2.4446955e-01
 -5.6176126e-02
  4.3528396e-01
  3.8138676e-01
  3.6864215e-01
  1.4353420e-01
  8.7942028e-01
 -2.5591242e-01
 -7.9814732e-01
  2.4317454e-01
  3.6705083e-01
 -4.3201166e-01
  1.2227313e-01
  2.1422048e-01
  3.9766103e-01
 -3.5343879e-01
 -2.9617476e-01
 -1.5176206e+00
 -3.0308515e-01
 -3.4696913e-01
  2.4183349e-01
 -5.8165610e-02
  2.0614657e-01
 -4.7240672e-01
 -8.5708815e-01
  5.0131541e-01
  3.2321042e-01
 -8.6076871e-02
 -4.1085047e-01
 -1.0022554e+00
 -4.8304716e-01
 -8.9257643e-02
 -1.2474457e+00
  2.6757824e-01
 -9.4498917e-02
 -1.1782178e-01
  1.3326368e-01
 -4.7966403e-01
 -3.4790522e-01
 -7.5603479e-01
  4.8369532e+00
  7.6237130e-01
 -7.9456353e-01
  1.2193222e-01
 -7.1969873e-01
 -2.1458898e-01
  3.3610582e-01
 -1.9703062e-01
 -8.8579126e-02
  1.7281559e+00
 -2.3355242e-02
 -1.2735928e+00
  5.4536313e-01
 -1.9232243e-01
  8.3593774e-01
  5.0792819e-01
 -5.0513971e-01
  6.0976222e-02
 -3.4061322e-01
  2.6061258e+00
  3.7939015e-01
  1.9227610e+00
 -8.7193713e-02
 -1.5464707e-01
  1.0903250e-01
  3.0155489e-01
  3.4723110e-02
 -3.1380888e-02
  8.3473569e-01
  2.4038544e-01
  1.6418962e+00
  2.3881057e-02
  5.4873936e-02
  4.1605309e-01
  1.9081457e-01
  4.3973327e-02
  5.9167910e-01
 -1.0467180e+00
 -3.6425701e-01
 -9.5716164e-02
 -9.9826455e-01
 -3.3451205e-01
 -2.4830827e-01
 -4.6745501e-02
 -8.6806160e-01
  4.4892509e-02
 -2.3906293e+00
  8.8350421e-01
 -3.4013614e-02
  3.3762109e-01
  1.7175046e+00
 -7.1810877e-01
  2.2644039e-02
  9.4925284e-01
 -3.8069166e-02
  3.0428016e-01
 -6.6638231e-02
  7.3521789e-03
  2.0213124e-01
  5.6161076e-01
 -6.6744357e-02
  4.1257620e-01
 -2.5004798e-01
 -1.2924027e+00
  6.2172806e-01
  1.9845961e-01
 -7.1760666e-01
  1.6962174e-01
 -5.0273645e-01
  2.0203483e-01
 -3.6391434e-01
 -7.0475608e-01
  4.1530252e-01
 -4.2564350e-01
 -3.0325687e-01
  5.5944657e-01
  6.1245508e-02
 -5.0090200e-01
 -2.1913505e-01
  1.1868921e-01
  3.2559969e-02
  4.9293268e-01
 -4.7028923e-01
  1.8158026e-01
  1.7250863e-01
 -9.8161221e-01
 -6.7880377e-02
 -3.5926354e+00
  3.8776186e-01
  6.1783749e-01
 -1.5870517e+00
  6.4833343e-02
  5.9107382e-02
 -1.4487231e-01
  4.9197176e-01
 -4.8455302e-02
  1.2851679e-01
 -2.0227645e-01
  6.2963265e-01
  1.0140500e+00
 -4.0695232e-01
 -8.3973521e-01
 -8.2679898e-01
  6.9702739e-01
 -1.9092014e-01
  9.5555800e-01
  6.5370655e-01
  8.7827718e-01
 -2.5465295e-01
  4.7422391e-01
  1.9294122e+00
 -4.0211029e-02
 -5.9162742e-01
  5.6831414e-01
  8.0694902e-01
 -7.4524921e-01
  9.3277752e-02
 -2.8645861e-01
  1.2452959e+00
  2.3371847e+00
  7.0094758e-01
  1.4416339e+00
  1.0455879e+00
  4.1317973e-01
  4.1760468e+00
 -2.3118985e+00
  2.4297479e-01
 -5.6848258e-01
  1.5328203e+00
 -3.7284501e-02
 -2.2302828e+00
 -1.8791686e+00
 -4.8725371e+00
  1.4727559e+00
  1.8383142e+00
 -4.9984786e-01
 -1.7793335e+00
  1.6156338e+00
 -2.9332778e+00
 -4.2170334e+00
  2.0157228e+00
 -1.5219308e+00
 -1.5565861e+00
 -5.9955555e-01
 -7.0094413e-01
 -1.4147036e-01
  2.7814817e+00
 -3.1300747e+00
 -2.1958301e+00
 -7.5560790e-01
 -2.8302670e+00
  7.6138151e-01
 -1.5460325e+00
  9.7457540e-01
  8.9835254e-03
  2.4386089e+00
 -2.5015798e+00
  7.9991333e-02
  2.2914614e-01
 -5.7890856e-01
  2.4485293e-01
 -1.4731085e+00
  4.4440877e-01
  1.2810679e-01
 -1.4572151e-01
 -7.9190068e-02
 -4.4834226e-01
  4.7800848e-01
 -2.5098297e-01
 -1.0094239e+00
 -3.6147085e-01
  2.9931384e-01
  1.7383161e+00
  2.1934304e+00
  2.6675835e-01
 -3.5826439e-01
  2.1507913e-01
  5.5012739e-01
 -1.8910614e-01
  2.0138329e-01
 -3.4846848e-01
  2.3473702e-01
  1.1467184e-01
 -1.1305188e+00
  3.3743456e-03
  2.2889636e-03
 -1.1303098e-01
  4.2359147e-02
  5.1583767e-01
  5.1393485e-01
 -1.8566702e-01
  1.4483315e-01
 -3.7495369e-01
 -4.8425589e-03
  7.2488016e-01
 -2.6653481e-01
 -2.3143101e-02
  1.3158844e-01
 -1.7188525e-01
  4.0792656e-01
  3.6247808e-01
  2.4604805e-01
 -6.8975317e-01
  5.0749373e-01
 -7.1082301e-02
 -6.4698540e-02
 -5.0647032e-01
 -7.9272771e-01
 -3.6721089e-01
 -1.5092328e-01
 -5.1144767e-01
  1.4108382e-03
 -5.7682610e-01
  1.0722389e+00
  5.4006964e-01
  4.3322492e-01
  3.0163538e-01
  3.8883257e-01
  2.2941348e-01
  3.3899367e-01
  9.2201221e-01
  1.5159523e-01
 -8.4750667e-02
  8.9979760e-02
  2.9247313e+00
  2.1816421e-01
 -1.6343237e-01
  1.0719316e-01
  2.7598667e-01
  4.2114416e-01
  7.4668199e-01
 -2.0886947e-01
 -8.0154175e-01
  1.1900997e+00
 -6.6339523e-01
 -3.5632893e-01
  1.5842298e-02
  1.5185697e-01
  9.8459385e-02
 -1.7368656e-01
  9.6161473e-01
 -6.1292404e-01
  7.5193524e-01
 -6.8328184e-01
  1.2330803e-01
  3.9491549e-01
 -6.3837653e-01
 -4.7730321e-01
  1.9465865e-01
 -2.6156157e-01
  5.2012873e-01
 -7.2987318e-01
 -3.0867031e-01
  2.4619199e-01
 -8.4749788e-02
 -2.6657200e-01
 -1.7897406e-01
  3.7226099e-01
  5.2028790e-02
 -3.1933290e-01
  7.7978146e-01
 -3.0843520e-01
  1.3247881e+00
  7.0823139e-01
  7.0546669e-01
 -1.1098576e-01
 -6.5526229e-01
  5.3458601e-02
 -3.5200585e-02
 -2.5042355e-01
  2.3500237e-01
  6.4544481e-01
 -1.4662849e+00
  7.9610281e-02
 -4.3711580e-02
  8.5994381e-01
  2.2424769e-01
  1.2677141e-01
 -9.9045455e-01
 -3.7663788e-01
  1.1277604e+00
  7.3270380e-01
  2.3943140e-01
  5.1131815e-01
  3.5425079e-01
 -1.0795426e-01
 -6.9475913e-01
  1.2473454e+00
  1.0172292e-01
  2.6328480e-01
  4.5576668e-03
 -3.8881949e-01
 -6.6666186e-01
 -6.7672825e-01
 -9.4129485e-01
  3.3747420e-01
  3.5332154e-02
  3.4844595e-01
 -6.7396179e-02
 -5.1351285e-01
 -6.8801481e-01
 -1.6087304e-01
  2.4098565e-01
 -2.2936609e-01
  4.5802292e-01
 -1.7630750e-01
 -3.7271824e-01
 -5.3132892e-01
  4.0707192e-01
 -2.9424262e-01
  7.7328607e-03
 -5.0435907e-01
  8.0819851e-01
  6.7727154e-01
  1.4356459e+00
  4.4568798e-01
  5.2874912e-02
  3.5415068e-02
  1.2620612e+00
 -3.9720273e-01
  3.0448062e-02
  1.2200315e-01
 -2.0297030e-01
 -3.5579461e-01
 -5.3137052e-01
  1.5862135e+00
  5.0577277e-01
 -6.8808895e-01
 -1.1464921e-01
  1.4251256e+00
 -1.8736039e+00
 -2.7073646e-01
 -9.7905055e-02
 -3.1231746e-01
  2.3934968e-01
  6.7719066e-01
  6.1098129e-01
 -1.3920406e-02
  3.9589947e-01
  4.7417903e-01
 -2.4027108e-01
  1.6604277e-01
  8.2825422e-02
  8.2807139e-02
  1.1368750e-02
 -5.7262266e-01
  4.2431080e-01
  9.8031747e-01
 -1.3947709e+00
 -9.2835003e-01
 -2.3308121e-01
 -2.4748093e-01
  5.2639061e-01
 -8.3148912e-02
  2.6030388e-01
 -4.1129351e-01
  3.1105252e-03
  3.7355593e-01
  2.7190246e-02
  2.0547548e-01
 -2.8192282e-01
  4.4145125e-01
  5.5799127e-01
  7.7358879e-02
 -1.8327464e-01
  3.8335314e-01
  8.9586395e-01
  5.9281141e-01
  3.4944314e-01
 -2.9843476e-01
 -4.0497920e-01
  1.4209655e-01
  2.6657265e-01
 -1.5280133e+00
  4.1989887e-01
  2.0689340e-01
  3.3364017e+00
 -7.1857888e-01
  3.3068225e-02
 -5.0620866e-01
  3.2243285e-01
  8.5198380e-02
 -2.5481778e-01
  1.5091586e-01
  5.6692231e-03
 -7.0041329e-02
  1.3667510e-01
 -3.1017876e-01
  6.3493274e-02
  5.5975447e+00
 -3.8278037e-01
  4.9791649e-01
  1.7623337e-01
 -9.7810857e-02
 -8.4341627e-01
 -4.3796074e-01
 -3.1047547e-01
 -6.3367948e-02
 -2.1558523e-01
 -1.1832252e-01
 -6.6766620e-02
 -1.6093418e-01
  5.2530921e-01
  8.7864846e-01
 -6.3487560e-01
 -8.4375918e-01
  1.0639019e+00
  1.0439258e+00
 -2.4193209e-01
  5.5337735e-02
  2.9877090e-01
  4.3185431e-01
  7.6903337e-01
  5.0225323e-01
 -6.2830947e-02
 -1.4732912e-01
 -4.3153960e-01
  3.7995583e-01
  3.0300611e-01
  1.7738749e-01
  1.1551221e-01
  4.5307364e-02
 -1.8186432e-01
 -3.2888031e-01
  2.7821866e-01
  9.7567213e-01
 -2.9660147e-01
  7.0583802e-01
 -3.9577046e-01
  1.5701270e-01
  5.4566729e-01
 -1.6880132e-01
  2.2783671e-01
  5.6997335e-01
 -3.3428529e-01
  2.3495822e-01
  3.8163260e-01
 -1.0338150e-01
  4.6777159e-01
 -2.1703206e-01
  7.4821121e-01
  1.1551544e-01
 -3.1443307e-01
  1.8006082e-01
 -3.1075717e-03
 -6.9950914e-01
 -2.7488975e-02
 -8.4980041e-02
 -3.4952614e-02
  8.3548260e-01
  2.4431570e-01
 -6.5506868e-02
  4.2976293e-01
  5.0312454e-01
  1.7001882e-01
 -1.2080450e-01
 -4.7358656e-01
  4.6283457e-02
 -2.3072127e-01
 -7.4076599e-01
 -5.0320812e-02
 -4.2108181e-01
  3.0266128e-02
 -7.5847276e-02
  1.7771338e-01
  4.6112803e-01
  5.2119315e-02
 -3.1907004e-01
 -2.7174121e-01
 -1.1785534e-01
  3.0165118e-01
  9.5659250e-01
 -2.3902453e-01
  1.4300850e-01
 -1.0335202e+00
 -2.6416105e-01
  1.9054396e-01
  8.5882938e-01
