nep4 5 C Cl H Na O 
cutoff 8 6 226 104
n_max 8 8
basis_size 8 8
l_max 4 2 0
ANN 40 0
 -8.0819756e-01
 -6.9543439e-01
  8.2486749e-01
  1.1188700e+00
 -2.8803864e-01
 -1.2219577e+00
  1.4564826e-01
  1.1553409e+00
 -1.3554292e+00
 -1.7042339e-02
  5.1545638e-01
 -4.4985199e-01
 -1.3422646e-01
 -3.8021031e-01
 -5.8581704e-01
  3.8510743e-01
 -2.5296283e+00
 -5.5218005e-01
  1.8085755e-01
 -3.0345327e-01
 -1.2171652e-02
  4.9302536e-01
 -1.5007687e-01
 -1.3432032e+00
 -7.6949054e-01
 -2.7336138e-01
  3.0487505e-01
 -5.7222235e-01
  7.2561282e-01
  5.1716644e-01
 -6.8806934e-01
 -2.9063833e-01
  1.7169419e-01
  1.2296973e+00
  2.1115318e-01
 -1.1970054e+00
  2.1969661e-01
 -2.1950069e-01
  6.3071686e-01
 -8.4751946e-01
 -7.3882210e-01
  1.7039463e-01
  1.4300406e-01
 -6.3619897e-02
  1.7366375e-01
 -1.1425691e-01
  3.6038291e-01
 -6.8648529e-01
 -8.6012371e-03
 -2.6446957e-02
  2.0291068e-02
  2.3360889e-01
  7.0246875e-01
  9.8281014e-01
  3.6716303e-01
  1.1076491e+00
 -4.3004233e-01
  2.0530245e-01
  4.5464447e-01
  1.8857893e-01
 -9.2242366e-01
  6.5258160e-02
 -5.4051347e-02
 -5.1270872e-02
 -1.6600060e-01
 -1.8953675e-01
  1.7093630e-01
  3.5320583e-01
  4.9863201e-01
 -8.5201895e-01
 -8.2533610e-01
  8.9940208e-01
 -4.4624578e-02
 -5.0943512e-01
  6.1480349e-01
 -4.8511499e-01
 -8.7531948e-01
  4.7437200e-01
  1.0135243e-01
 -3.4909835e-01
  6.5816179e-02
 -4.8460320e-01
  6.1428763e-02
  6.2948298e-01
 -4.8208103e-01
 -1.1295141e+00
  1.2792838e+00
 -5.6763476e-01
  4.1724572e-01
  4.1081265e-01
 -8.8689081e-02
  2.1713626e-01
  7.1300763e-01
  1.3000867e-01
 -4.9921602e-01
  2.7749020e-01
  2.6913476e-01
  8.8769633e-01
 -1.6277154e-01
 -5.8971477e-01
 -9.1587335e-01
 -5.5278230e-01
  2.9737246e-01
  1.9743419e-01
 -4.0115152e-02
 -2.2707400e-01
  2.7951384e-02
 -1.1835971e+00
 -1.1495676e-01
  1.2428356e-01
  3.1987405e-01
  7.5208202e-02
 -3.3990420e-02
  1.5973412e-01
  2.8879771e-01
  2.6715025e-01
 -8.4237760e-01
 -3.4596972e-02
  2.9625604e-01
  4.9960163e-01
 -9.4978819e-03
  1.1215471e-01
 -5.1983818e-03
  2.9166080e-02
 -1.9447701e-01
 -1.1933222e-03
 -1.7205337e+00
 -2.0914875e-01
 -5.9535736e-01
 -1.0427685e+00
 -1.7913282e-01
 -3.6791947e-01
  7.1546756e-02
  1.0085555e+00
 -3.7253401e-01
 -1.0072783e-01
 -6.4647824e-02
  6.4186996e-01
 -6.7197740e-01
  3.2162288e-01
 -3.1847084e-01
 -2.9711336e-01
  5.8536416e-01
 -4.3790126e-01
  2.7485695e-01
 -1.6617531e+00
  3.1497076e-01
  1.0617799e+00
  4.4766068e-02
 -4.3018773e-01
 -1.7217273e-01
  1.6815233e-01
 -1.4667812e-01
  5.6174362e-01
  4.8265052e-01
 -6.7192659e-02
 -1.5809518e-01
  1.2084202e-01
 -5.1359040e-01
  1.8823314e-01
 -1.7752114e-01
 -7.4937522e-02
 -1.7745084e-01
 -5.7661515e-01
 -8.0963440e-02
  9.8387457e-02
 -9.9358134e-02
 -1.2567431e-01
  7.3626244e-01
 -7.9888850e-02
  2.0901512e-03
  5.1994783e-01
  2.6296633e-01
 -3.9620340e-02
 -1.0537760e+00
 -1.4394036e-01
 -5.0118500e-01
 -5.9327818e-02
  1.3943955e-01
  4.7544178e-01
 -5.6274307e-01
 -7.1193105e-01
 -4.6419322e-01
 -5.5019236e-01
 -8.0962554e-02
 -2.4129260e-01
 -3.3592078e-01
  8.1270501e-02
  5.4768309e-02
 -5.7006693e-01
  5.0216740e-01
 -2.7233097e-01
 -4.0769154e-01
 -3.6117080e-01
 -1.3095526e-01
 -5.5866593e-01
 -3.9472583e-01
  3.5185206e-01
 -1.0870291e+00
  6.5742850e-01
  1.3158454e+00
 -6.4793265e-01
 -7.8596938e-01
  6.2942788e-02
  2.8405067e-01
  6.3539916e-01
  3.2279280e-01
 -8.0501044e-01
  5.2418011e-01
  1.3690566e+00
  3.3271569e-01
 -5.0470400e-01
  1.0952817e-01
  3.9671430e-01
  4.8539460e-01
  4.6502343e-01
  7.5233686e-01
  2.9001445e-01
  9.8909289e-01
  1.1430743e+00
 -2.2697473e-01
  4.2077985e-01
 -3.2799497e-01
 -5.7542324e-01
 -2.8439370e-01
 -1.4388271e-02
  2.1384168e-02
 -7.2330251e-02
 -1.1434925e-01
 -3.0478644e-01
 -5.8822265e+00
 -5.7545984e-01
 -1.3111275e-01
  2.6869988e-01
 -1.0320875e-01
 -5.0995417e-02
  2.9743207e-01
 -1.2923970e+00
  6.1264277e-01
  2.7483773e-01
  3.7888759e-01
 -1.2171825e+00
 -2.1950287e-01
 -5.5121142e-01
 -3.1948340e-01
 -1.4915413e-01
  3.1012002e-01
 -1.3691079e-02
 -2.1593948e-01
  4.1820366e-02
 -5.5786538e-01
 -7.4122250e-01
 -2.1572110e-01
  6.9838494e-01
 -3.4103861e-01
  2.9941344e-01
  3.6920378e-01
  1.1372064e-01
 -4.6110681e-01
  5.3460997e-01
 -1.6762160e-01
 -1.6050986e+00
 -3.4093967e-01
 -2.9865667e-01
  2.4255036e-01
 -1.3696406e+00
 -8.8438040e-01
 -6.4558601e-01
 -2.2382702e-01
 -3.5853642e-01
  2.0422328e-02
  3.2612562e-01
  3.8732272e-03
 -9.2623615e-01
  2.6314870e-01
  1.2608129e-01
 -2.9808718e-01
 -3.1896091e-01
 -2.2288457e-01
 -2.1245563e-01
 -7.7109385e-01
  1.8230896e-02
 -9.0775214e-02
 -1.6110650e-01
  4.9728200e-02
 -8.1295568e-01
 -2.1305677e-01
 -6.7107934e-01
 -6.0158277e-01
 -3.0336970e-01
  9.3913519e-01
  3.6192924e-01
 -4.9028680e-02
 -2.1168265e-01
  2.3388782e-01
  7.8623585e-02
 -8.6315926e-03
 -1.8670382e+00
  1.8001568e-01
 -6.6587323e-01
 -1.0649683e-01
 -3.1491515e-01
 -2.4363881e-01
 -4.6243164e-01
  7.1739239e-01
 -1.3232198e-01
 -5.2285455e-02
  1.0662505e-01
  1.8042736e+00
 -1.6570165e+00
 -6.3166845e-01
 -4.4349539e-01
 -1.8826041e-01
 -2.1305785e-01
  1.1041342e-01
 -2.1227069e-01
 -1.4318688e-01
 -6.1428268e-02
 -1.3180709e-01
 -1.1173031e-01
 -4.1279855e-01
 -6.9614828e-01
 -5.6305742e-01
  7.0002216e-01
 -2.8094345e-01
 -1.9724870e-01
  3.1284431e-01
  2.6715729e-01
 -5.6742609e-01
 -1.6046429e-01
  7.7923988e-03
 -4.7305262e-01
  3.0108157e-01
 -2.6702896e-01
 -3.5946137e-01
 -7.0049994e-02
 -3.2168016e-01
  7.1822178e-01
  1.0988423e-01
  8.2125217e-02
 -8.7453151e-01
 -8.7934113e-01
 -4.2534178e-01
 -5.1350750e-02
  6.3225555e-01
  5.9083903e-01
 -8.2729116e-02
 -1.2327977e-01
 -7.0066690e-02
 -1.1112033e-01
  3.7313202e-01
 -5.9496236e-01
 -3.6541888e-01
  6.6227454e-01
  4.6612778e-01
  1.8155735e-02
 -8.5252678e-01
  2.4823575e-01
 -1.8046260e-01
 -1.4991057e-01
  5.8828640e-01
 -5.2997100e-01
  2.0481783e-01
  1.1776691e-01
  9.1126636e-03
 -1.2306848e-01
 -2.2960228e-01
 -1.7921151e-01
 -7.6979375e-01
  3.9929548e-01
 -6.8710959e-01
  9.3680179e-01
  2.1078658e-01
  9.0719968e-02
 -4.5669329e-01
  4.0893653e-01
 -3.5653692e-01
 -5.5340415e-01
 -1.5295479e+00
 -1.8888466e+00
  9.3496597e-01
  5.0454736e-01
  5.6233054e-01
  3.5359704e-01
 -4.1468737e-01
 -2.1198528e-01
 -5.5190265e-01
 -8.2581252e-01
 -9.6678877e-01
  1.0697138e+00
  2.0153201e-01
 -3.8950652e-02
  2.2101235e-01
 -8.7429494e-02
 -7.6691228e-01
 -5.9800148e-01
  8.8800505e-02
  1.4884003e-01
  1.4198877e-02
 -1.8962848e-01
 -7.4690229e-01
  3.5368854e-01
  4.2993513e-01
  3.9572605e-01
 -4.8651025e-01
 -5.5566567e-01
  1.6652709e-02
 -1.1432146e-01
 -5.1087320e-02
  3.9640874e-01
 -8.3234715e-01
 -4.0382948e-02
  8.3878320e-01
 -1.2530283e+00
 -6.8450266e-01
 -3.3509833e-01
  6.7741670e-02
 -5.1849222e-01
  5.1705134e-01
 -1.8311520e-01
 -1.8041040e-01
  2.7654931e-01
 -2.0924021e-01
  4.9782369e-02
 -1.1150705e-02
  1.3867016e+00
  3.4114453e-01
  1.2943296e-01
 -7.7861540e-02
  8.0406100e-01
 -5.2159905e-02
 -1.2507966e-01
  8.0734931e-02
  2.7795428e-01
  2.5061429e-01
 -6.6054112e-01
 -8.5847121e-01
 -4.6178013e-02
  3.7456676e-01
 -4.9544135e-01
 -6.0674652e-02
  2.4870897e-02
 -2.6473352e-01
 -3.4605473e-01
  1.1189478e-02
 -1.7421190e-01
  1.8192542e-01
 -1.0171765e-02
  8.1011832e-01
  7.3765226e-02
 -1.6185269e-01
 -3.3856326e-01
  3.6582366e-01
  8.9621529e-02
 -1.2807065e-01
  4.6696112e-01
 -3.3567631e-01
 -1.1489011e+00
 -4.4008058e-01
  4.8318458e-01
  5.7458282e-01
 -1.7691171e-01
  9.0640628e-01
 -3.5642606e-01
  2.3187310e-01
 -1.0811733e-01
 -1.0224846e-01
 -2.4871618e-01
  2.8050742e-01
  2.9593277e-01
 -8.5279369e-01
 -3.7690806e-01
  5.8747604e-02
  5.8702356e-01
  3.7238771e-01
  2.5062105e-01
  6.5796278e-02
 -6.4378583e-01
  3.7996605e-01
  5.3900443e-02
  7.1798247e-01
  1.0733441e-01
  1.8943787e-01
 -1.3637565e-02
  9.9686198e-02
  1.3084967e-01
 -5.2938044e-01
  2.4756984e-01
 -8.1212682e-01
 -3.8138208e-01
  5.9502047e-01
  1.4186054e-01
 -6.6477418e-02
  2.6391774e-01
  2.9659625e-02
  3.4755174e-02
 -5.1211125e-01
  2.5384203e-03
  5.0176078e-01
 -2.8438330e-01
  3.1814334e-01
  2.4371521e-01
  9.9531174e-01
 -3.4115174e-01
  2.6676241e-01
  1.1003830e-01
  1.5456738e-01
 -3.1274375e-01
  2.8174394e-01
 -4.5828685e-01
  6.5936106e-01
  8.2322830e-01
  1.7124531e-01
 -1.6755295e-01
 -1.0173085e+00
 -3.1346610e-01
 -2.4220909e-01
  5.2608931e-01
  3.5847417e-01
  3.0996928e-01
 -6.0055971e-01
  9.5867902e-01
  1.0887654e-01
 -6.3511956e-01
  3.0506319e-01
  2.0720293e-01
  1.0240488e+00
 -3.6188984e-01
  9.7498626e-02
  2.7607465e-01
  3.6528349e-01
 -6.4360686e-02
  4.7777128e-01
 -6.1173104e-03
 -2.4224691e+00
 -2.3047617e-01
  5.9352404e-01
 -5.4653323e-01
 -2.3955457e-02
  4.4558623e-01
 -5.3521149e-02
  2.6054955e-01
 -8.6153382e-01
 -4.1411441e-02
 -8.8440515e-02
  2.9690430e-01
 -3.7733451e-01
 -9.3343019e-02
 -2.3788047e-01
 -1.2099133e-01
 -5.2981061e-01
 -6.5689739e-03
 -2.8910182e-02
 -2.2310944e-01
  1.0658705e-01
 -3.8375747e-01
  1.5491186e-01
  6.3453220e-02
  1.5829697e-01
  5.0419532e-02
 -3.5267946e-01
  2.9483201e-02
 -8.5358560e-02
 -1.0135309e+00
 -2.4837332e+00
 -2.6099277e-01
  6.7959297e-01
 -7.0007987e-02
  7.4385470e-01
  1.1548586e+00
  1.0215184e-01
 -9.8329432e-02
 -2.5248859e-02
  4.1192034e-01
 -3.7091953e-01
 -3.8831198e-01
 -9.0217061e-02
 -1.0971638e+00
  2.6980047e+00
 -8.7178636e-01
 -5.6086052e-02
 -1.8437639e-01
 -4.0746339e-02
  3.0882869e-02
 -2.2759685e-01
 -1.1145552e-01
  2.4885857e-01
 -1.1051158e-01
 -6.6405278e-01
  2.0054094e-03
 -1.6769196e-01
 -1.2930621e+00
 -7.1564353e-01
  1.0201745e-01
 -9.9798739e-01
  3.8641804e-01
  3.4931284e-01
 -2.5701851e-01
  7.8966632e-02
 -7.6730835e-01
 -4.6865579e-01
  1.1976912e+00
 -8.9288086e-01
  6.0325897e-01
  5.0709087e-01
 -5.3936243e-04
 -6.3810110e-01
  2.4727210e-03
 -3.5289451e-01
 -4.5469290e-01
 -1.0181135e+00
  1.0834978e+00
  6.5143697e-02
  2.2135187e-02
 -1.6690885e+00
  4.9199957e-01
  1.0316248e-01
 -1.0895691e-01
 -2.3163499e-01
  7.6182473e-01
  2.6943761e-01
  5.0937217e-02
 -2.6303766e+00
  5.9793407e-01
  5.7558268e-02
 -4.2697141e-01
 -3.3090475e-01
 -4.6489695e-01
 -3.6711410e-02
  9.1305472e-02
  1.7146418e+00
 -7.5641322e-01
  7.1393919e-01
  1.3963334e-02
 -6.6471748e-02
 -6.8756402e-01
  1.3469057e-01
  4.9649358e-02
  7.8840166e-01
  5.2447581e-01
  3.8085383e-01
  3.6233887e-01
 -2.9220033e-01
 -2.4875422e-01
 -6.6461658e-01
  4.0307418e-01
 -1.0059739e+00
 -2.1354467e-02
  2.5081238e-01
 -8.2139984e-02
  3.1609672e-01
  1.2132044e+00
  3.6236334e-01
 -1.8856850e-01
 -3.4740791e-01
 -3.9953080e-01
  1.4112492e+00
 -4.2550126e-01
  2.9059118e-01
 -2.0616807e-02
 -7.8605682e-02
  2.2491045e-01
 -6.3370988e-02
  3.1142840e-02
  1.9105835e-01
  2.6730847e-01
 -2.0394361e-01
  4.0169656e-01
  7.0460290e-01
  4.6468550e-01
  4.9965179e-01
  2.3634261e-01
 -2.5855511e-01
  4.9533236e-01
  3.1595340e-01
  5.6018871e-01
  1.5514560e-01
 -4.2827919e-02
  6.7759788e-01
  4.9850604e-01
  1.3049874e-01
 -1.4092009e-01
 -7.2114587e-01
 -4.7593635e-01
 -2.4236573e-01
  2.7946573e-01
 -5.0285125e-01
 -2.6835847e-01
  3.0279955e-01
 -4.9405658e-01
 -6.4767748e-02
 -2.9813999e-01
 -5.3862220e-01
  3.2673216e-01
 -4.1341424e-01
  5.9963828e-01
  2.1543138e-01
  2.5960004e-01
 -1.7234209e-01
 -6.9965959e-02
 -1.0921372e+00
  4.3573919e-01
  4.7393441e-02
  1.5764441e-01
 -7.5352407e-01
 -1.0646845e+00
  2.3984876e-01
 -4.0770239e-01
 -2.0118298e-01
 -6.4943641e-01
  8.5438627e-01
 -9.8374182e-01
  5.5818582e-01
  2.7996787e-01
 -2.7350518e-01
 -7.2828150e-01
  6.2600893e-01
  1.7500478e-01
  1.3018668e+00
  1.9181466e-01
 -4.9131367e-01
 -5.3053927e-01
  4.7874793e-01
 -8.8183022e-01
 -2.1875429e-01
 -1.0624993e+00
  3.7773252e-01
  3.4295157e-01
  8.2357121e-01
  4.2754319e-01
  1.4001705e-01
  4.7124502e-01
  5.0250375e-01
  5.2680081e-01
 -4.5863265e-01
  5.3938454e-01
  1.4507377e-01
 -3.8385611e-02
  3.5396893e-02
 -2.5606138e-01
  1.0734801e+00
 -8.8371504e-03
 -1.9696072e-01
  3.9007100e-01
  1.5935232e-01
  1.0074253e+00
 -5.4025415e-02
  2.0000455e-01
 -1.8796425e-01
 -1.8492202e-01
  6.1293997e-02
 -6.5699124e-01
 -1.8103695e-01
 -2.7869260e-01
  4.0270722e-01
  3.1650352e-01
  5.5030173e-01
  3.0467275e-01
  6.0145622e-01
  1.7970599e-01
 -2.0209414e-01
  2.7838677e-01
 -5.6275451e-01
  3.9163983e-01
  3.6039874e-01
  2.3518132e-01
  1.1239705e-01
 -7.4834824e-01
  9.4709730e-01
  1.6206526e+00
 -3.2333527e-03
 -7.9723591e-01
 -1.8580836e-01
  1.2541503e+00
  2.5512028e-01
 -1.1298755e-01
 -1.9497792e+00
  2.7555445e-01
  4.1503975e-01
 -3.1411117e-01
  7.9075456e-02
 -3.5421082e-01
 -1.8160972e-01
 -3.9401564e-01
 -9.8886245e-01
  2.2959477e-01
  5.7832325e-01
 -7.6442230e-01
 -6.8001556e-01
 -2.2325723e-01
  3.3330002e-01
  3.6224388e-03
 -5.7687593e-01
 -2.4587910e-01
  2.9865134e+00
 -2.0026791e-01
  3.5590863e-01
  5.3620547e-02
 -1.6785175e-01
 -1.9749337e-01
  1.7849079e-01
  9.4775409e-02
 -3.1054649e-01
 -1.0390296e-01
 -1.1574285e-01
 -9.6170142e-02
 -1.5528536e-01
  1.5272870e+00
 -2.6398093e-01
 -3.4788367e-01
  2.8993422e-01
  5.7438272e-01
 -1.1574856e-01
  2.5913593e-01
  9.1185462e-01
 -9.5164418e-01
  1.5765734e-02
 -9.8994628e-02
 -4.3150538e-01
 -4.1472271e-01
 -3.3621788e-01
 -3.3151898e-01
  1.0817144e-02
  3.4704399e-01
 -9.3548554e-01
 -4.1467607e-02
  7.6917815e-01
  1.6945306e+00
 -9.0987295e-02
 -1.1079381e+00
 -6.7907006e-02
 -1.5506339e-01
 -1.2116197e-01
  1.3053142e+00
  4.8018152e-01
 -1.3147408e-01
 -1.7902492e-01
  2.4336948e-01
  5.1044035e-01
 -1.2590432e+00
  4.9922740e-01
 -1.2712964e+00
 -5.0399363e-01
  1.1412722e+00
  3.0834612e-01
 -1.2392833e-01
  3.7684590e-02
  5.3998524e-01
 -1.4948516e-01
  1.9534045e-01
  1.4787883e+00
 -3.5016394e-01
  2.7894205e-01
  6.2798005e-01
  2.9133669e-01
 -2.0521721e-01
  1.1823375e-01
  1.3334182e-01
 -1.0094350e-01
 -6.9686842e-01
  5.5668759e-01
 -5.7594526e-01
  5.4021996e-01
 -3.5906887e-01
  3.2018185e-01
 -1.6858764e-01
  1.1165288e-01
 -2.6748693e-01
 -1.1089580e+00
 -8.7939478e-02
  3.9277717e-01
  1.8418974e-01
 -8.9048326e-01
  1.3038344e+00
  1.2337089e+00
 -2.9766262e+00
 -9.9086337e-02
 -1.5949187e-01
 -4.1060686e-01
  1.1022763e+00
  3.8106759e+00
  2.9304538e+00
  4.7390282e-01
  1.6804246e+00
  1.3132957e+00
 -3.7345958e-01
  2.0380518e-01
  1.6576798e-01
  1.2733973e+00
 -2.1890557e+00
  9.6664995e-01
  3.7600282e-01
  1.6216859e+00
 -8.0991346e-01
  1.1034706e+00
  4.5198959e-01
 -3.0119624e+00
  1.4747341e+00
 -1.2624845e-01
 -7.2705552e-02
 -4.7603449e-01
  1.4674690e+00
 -8.6727418e-02
 -5.6009829e-01
 -2.8576305e+00
 -6.2233543e-01
  2.0887153e+00
  1.4795002e-01
 -1.1920116e+00
  3.9567757e-01
 -1.9228563e+00
 -6.5774953e-01
  1.9148831e-01
  6.6216505e-01
  9.3389839e-01
 -2.4289572e+00
  7.6846325e-01
 -8.7732124e-01
 -3.0635666e-02
  2.4410789e-01
  9.2162204e-01
 -5.2600000e-02
  1.0205041e+00
  5.3698793e-02
  6.2920636e-01
  8.8021457e-01
 -2.4908353e-01
  4.8470581e-01
  4.7243866e-01
  3.3216305e-02
 -2.1711938e+00
 -2.8306156e-01
 -1.6085690e-01
  2.6488534e-01
  1.8447831e-01
  7.1289587e-01
  1.6639218e-02
 -6.1347194e-02
 -6.1997074e-01
 -5.2174067e-01
  1.7718293e-02
 -1.5255424e+00
  8.0689393e-02
 -1.2150443e+00
 -9.0454437e-02
 -4.0999269e-01
 -1.3879133e+00
  2.2871453e-01
 -2.3956761e-02
 -6.7119002e-01
  8.1372313e-02
  1.4210345e-01
 -9.1644442e-01
 -3.7553939e-01
 -7.2385842e-01
 -4.2283702e-01
  1.2792996e-01
 -2.2656551e-01
  8.3546996e-02
 -5.1671928e-01
 -2.6230940e-01
 -8.7096858e-01
 -5.6450903e-01
 -3.4733555e-01
 -1.0093524e+00
  4.7813952e-03
  2.1921438e-01
 -1.9933787e-01
  4.5099044e-01
 -1.2466577e-01
  4.1098481e-01
 -8.7377530e-01
 -5.4767467e-03
 -2.8369230e-01
  3.0435283e-02
  7.4405953e-02
  4.2396688e-01
 -1.3019227e+00
  2.0888422e+00
  6.7193443e-01
  5.6759024e-01
  3.9902481e-01
  1.3833871e-01
 -2.1836084e-01
 -1.1320062e-01
  7.4093550e-01
  2.7183317e-02
 -6.3235842e-02
 -4.9560621e-01
  4.1585511e-01
  1.1095626e-01
 -4.1356489e-01
 -1.3934268e-01
 -5.4548115e-01
  2.3666179e-02
  1.5951812e-01
 -3.1067088e-01
 -5.1553690e-01
 -2.1637748e-01
  9.2768550e-01
  8.1879634e-01
  1.7864649e-01
  5.7630952e-02
 -1.5640198e-01
 -2.8064564e-01
 -2.1248063e-01
 -1.2241376e-01
 -8.5508853e-02
  5.8838165e-01
  9.7978339e-02
  3.8699862e-01
 -2.1671927e-01
 -6.1235979e-02
  8.9027053e-01
  5.8585942e-01
  4.9508846e-01
 -4.7396842e-02
 -3.3396196e-01
 -2.5716490e-01
 -5.0024706e-01
 -4.6371889e-01
 -1.7041041e-01
 -3.9089954e-01
 -7.7674586e-01
  4.9412715e-01
 -2.3341586e-01
  4.3950367e-01
 -9.5164353e-01
 -1.7815251e-03
  8.2830787e-01
  5.0258029e-01
 -7.8150541e-02
  2.8219840e-01
 -2.5390658e-01
  1.2204748e-01
  2.4381378e-01
  1.3646798e-01
 -1.0249014e-01
  2.0533231e-01
  8.2001358e-01
 -2.0469862e-01
 -6.2837160e-01
 -2.6312599e-01
 -1.8927138e-02
 -4.0982521e-01
  4.1023027e-02
 -2.4113981e-01
  1.0930917e-01
  2.6487443e-01
 -1.8093909e-01
  2.8705266e-01
 -1.1007284e-01
 -7.3436111e-02
 -1.0629406e+00
 -1.9222310e-01
  7.9612672e-01
 -6.8904930e-01
  6.1258841e-01
 -4.2765871e-01
 -3.0443287e-01
 -5.3922497e-02
  6.3898735e-02
  1.5932095e-01
  1.1110837e-01
 -2.7830464e-01
  1.3210227e+00
  2.9435301e-01
 -4.1954038e-01
  6.6867554e-01
 -1.7252596e-01
 -2.3608926e-01
  8.2111907e-01
  1.3499908e-01
 -1.6878973e-01
  6.0004830e-01
 -5.7976514e-01
 -1.4099225e-01
 -8.3693244e-02
 -3.5277012e-01
 -4.2723708e-02
  1.0536247e+00
  1.9662499e-01
 -4.4835734e-01
  6.5077317e-01
 -8.3767748e-01
 -1.2883209e-01
  4.1850008e-02
 -3.3946738e-02
 -5.1196241e-01
 -8.4639275e-01
  1.0500245e+00
  1.5091717e+00
 -9.6217912e-01
  3.1422544e-01
 -3.1730384e-01
  9.1235116e-03
 -1.5977042e+00
 -1.1354673e+00
  5.1638830e-02
 -1.2706674e+00
  5.0798154e-01
  7.6054180e-01
 -1.0460454e+00
 -3.7496218e-01
  5.1778930e-01
  6.2730938e-02
 -6.5898699e-01
  2.6630152e-02
  3.0511850e-01
 -2.0935753e-01
 -4.7035191e-02
  2.1049209e-01
  4.1766103e-02
  9.5288110e-01
  1.2439356e+00
 -1.3395292e+00
  3.2692769e-01
  5.3139991e-01
 -1.9149622e-01
 -5.6409174e-01
  5.8266371e-03
  8.8780421e-01
 -3.4248486e-01
 -3.1129284e-02
  4.0034744e-01
  9.1701645e-01
 -6.3084602e-02
  7.4532205e-01
 -4.5738846e-02
  3.8089448e-01
 -6.5962404e-02
  3.9747161e-01
  7.6006722e-01
  4.2745441e-01
 -6.0561490e-01
 -7.8952938e-02
 -2.1959589e-01
  1.0699427e-01
 -5.6223267e-01
 -6.8992704e-02
 -2.2502407e-01
  2.5654224e-01
  2.3935732e-01
  2.8176057e-01
  7.9096341e-01
 -2.2392049e-01
 -2.9621920e-01
  3.0994873e+00
  3.8603640e-01
 -9.0776247e-01
 -3.1422123e-01
  4.6403907e-02
  7.7327020e-02
 -3.8622558e-01
  1.4532125e+00
  2.5283197e-01
  6.6054070e-01
  5.4766059e-01
  8.7161762e-01
  2.0547105e-01
  2.4892297e-01
  5.9565198e-01
 -2.1551710e-01
 -1.4225760e+00
  3.3932343e-01
  1.3373860e+00
 -8.9770365e-01
 -4.8533678e-01
 -9.8764020e-01
 -4.8742086e-01
  6.4722449e-03
  1.7877734e-01
  4.3469515e-01
 -1.4202791e-01
 -1.4902687e-01
  3.9455530e-01
 -1.6586049e-01
  8.5500509e-01
  6.8698949e-01
  3.5421419e-01
 -1.1487323e-01
  6.6544250e-02
 -3.1807348e-01
  2.9877058e-01
 -6.1484134e-01
 -2.5212847e-02
  2.3620436e-01
 -3.4080309e-01
 -1.4522862e+00
  4.8949635e-03
  2.1219260e-01
 -7.9824649e-02
 -1.6791520e-01
 -1.9668834e-01
 -7.6915997e-01
 -1.5616134e-01
 -3.7967566e-01
  2.7249986e-01
 -1.9646780e-01
 -5.0115824e-02
 -4.8976958e-02
  8.4536391e-01
 -1.1552263e+00
  1.7511091e-01
  7.5264776e-01
  3.1458512e-02
 -1.4225760e-02
 -9.6475184e-03
  4.0930945e-01
  4.9788225e-01
  7.7242368e-01
  9.7631380e-02
 -1.2150137e-02
  1.7461461e-01
  2.6553008e-01
  2.1700266e-01
  2.6916057e-01
  3.4893364e-01
 -3.6051843e-01
 -5.4325306e-01
  5.9678638e-01
 -2.7158085e-01
 -3.6122317e+00
 -1.0721776e+00
  6.3318133e-02
 -9.4424230e-01
  1.4670350e-01
  3.5250726e-01
  2.0883913e+00
  3.3307338e-01
 -3.6911321e-01
  5.2918088e-01
  1.1799391e-01
 -6.5918320e-01
  1.5285265e-02
 -1.0041856e-01
  4.1540414e-01
 -4.0412721e-01
  1.6048316e+00
 -1.2805586e-01
  1.9563964e-01
  1.7071662e+00
  8.0578953e-01
  1.6881372e+00
 -6.3830286e-01
  2.7409110e+00
  1.2286294e+00
  4.7816667e-01
  2.0465417e+00
  6.0268062e-01
 -4.8695388e-01
 -5.6202538e-02
  2.5921497e-01
  3.1104425e-01
  1.8962920e-01
 -2.4605882e+00
  1.6000268e-01
 -9.6761078e-02
  3.5635033e-01
  3.4070678e-02
  7.4559323e-02
  7.1810842e-01
 -2.0176776e-01
 -9.1469598e-01
  6.8292755e-01
  2.1277848e-01
  1.5916485e-01
  3.2524657e-01
  2.6703426e-01
 -1.2546185e-01
  1.5645009e-02
 -5.3939227e-02
  1.2740962e-01
  1.1654712e+00
  2.9483857e+00
 -1.5637841e+00
  3.0489942e-01
 -4.9244946e-01
  3.4973538e-01
  1.0062692e+00
 -3.8277504e-01
 -5.4902054e-02
  3.6966866e-01
  6.8309778e-01
  2.8055435e-01
  2.2269060e-01
  5.3153787e-02
  4.6673968e-02
  5.4286987e-01
  1.2979691e-01
  2.5299266e-02
  1.2381876e+00
 -1.5310663e-01
 -9.1340438e-02
 -2.7972686e-01
 -5.4667485e-01
 -3.3626087e+00
 -7.7812177e-01
 -1.8655312e-01
 -1.5408814e-01
  4.5172256e-01
 -6.5857899e-01
 -1.8969865e-01
 -8.3307129e-01
 -1.4259203e-01
  6.0036033e-01
  6.2437910e-01
 -1.8827294e-01
  6.1027813e-01
  3.1559670e-01
  5.1338947e-01
  4.1618910e-01
 -8.6038285e-01
  1.8767808e-01
  7.5543948e-02
  7.0001644e-01
  4.1094899e-02
  2.5305802e-01
 -2.5111908e-01
  3.0121672e-01
  8.7380983e-02
 -5.4934061e-01
 -7.7030256e-02
  7.9749620e-01
  1.5141847e+00
 -3.5577357e-01
 -1.8078539e-01
  1.1960795e-02
 -3.8765663e-01
 -1.4100783e-02
  8.0643088e-01
 -6.5756373e-02
  1.6981022e+00
  5.3307123e-02
  9.5592737e-01
  1.4272627e-01
 -2.4766913e-01
 -6.1536629e-02
  4.8784330e-02
 -4.6486223e-01
  3.9077657e-01
 -4.8797470e-01
  3.4535307e-01
  1.1780236e-01
 -1.8878424e-01
 -6.3613474e-01
 -8.4821478e-02
  2.9166245e-01
  1.9993028e-01
  3.1268543e-01
 -3.5008675e-01
 -6.1716801e-01
  5.7647794e-01
  1.9767797e-01
 -2.1476176e-01
 -5.5222040e-01
 -1.3699089e+00
  8.6643487e-01
 -2.4357088e-01
 -1.2118151e+00
  5.1474690e-01
  5.9052891e-01
 -3.3260211e-02
  1.0856994e+00
  1.8340951e-01
  1.3557783e-01
 -4.0697581e-01
  7.7157271e-01
 -1.6781345e-02
 -3.8025007e-02
 -1.4087579e-01
 -2.5345385e-01
  5.2554333e-01
  7.0615399e-01
  2.8096834e-01
  4.4472510e-01
  2.3621176e-01
  1.1992639e-01
 -4.9315709e-01
  1.8010278e-01
 -4.3775078e-02
 -2.6916429e-01
 -4.5392680e-01
 -7.1202713e-01
  1.3034666e-01
  3.1099474e-01
 -1.1985037e-01
 -8.2593653e-03
 -1.0021870e+00
  8.1105888e-01
  4.0207878e-01
 -8.5393834e-01
  3.7906879e-01
 -7.6260155e-01
 -1.4569096e-01
 -2.3833984e-01
  6.6555184e-01
 -7.7237856e-01
 -4.4353470e-02
 -7.8942314e-02
 -6.1788689e-02
 -5.2866900e-01
  2.8563127e-02
 -2.1367612e-01
  2.7782905e-01
  1.8047167e-01
  6.3744202e-02
 -1.6859607e+00
  1.4510947e+00
 -5.4841781e-01
  1.6874941e-03
 -7.1870106e-01
  3.2275295e+00
 -4.6015167e-01
  3.4113514e-01
 -2.6149988e-02
 -3.0397120e-01
  4.0705535e-01
  6.2860954e-01
 -5.6342340e-01
 -1.1272603e+00
  6.0953850e-01
 -3.7384033e-04
 -5.0303704e-01
  5.4141194e-01
 -1.5306883e-01
 -5.6392354e-01
  1.7293479e-01
 -6.9441907e-02
  5.7759438e-02
  8.3147243e-02
  2.7818168e-02
 -1.0318837e+00
  6.5104061e-01
  1.1318988e-01
  8.8810466e-02
 -6.7854829e-02
  2.4848974e-01
 -7.1805730e-02
 -2.8997740e-02
  2.0490362e-01
 -3.9198820e-02
 -2.0503378e+00
  4.6769255e-01
 -5.3542781e-01
 -7.7727491e-01
  6.9461519e-01
 -6.0198742e-01
 -2.4319279e-01
 -7.2241986e-01
  1.8269901e-01
 -5.4449987e-01
  5.0808907e-02
  1.6401571e-01
  4.0431178e-01
 -1.3723616e-01
 -4.1268054e-02
  4.5710161e-01
  1.4171210e-01
 -9.1895020e-01
  1.4181664e+00
  4.3611905e-01
  1.2133104e+00
 -2.2722812e-01
 -6.5075058e-01
 -3.8482834e-02
 -3.4026378e-01
 -2.8956532e-02
 -1.1628451e-01
  7.4269688e-01
 -2.0660145e+00
  2.8046495e-01
  1.1422694e-02
  7.3793072e-01
  9.4913825e-02
  7.9634309e-01
 -3.8677281e-01
  5.3449277e-02
  5.4502326e-01
 -1.4959414e+00
 -4.8875634e-02
 -2.2681648e-01
 -2.0137192e-01
 -3.3357725e-01
 -1.4883164e-01
  5.2030736e-01
 -2.1053164e-01
 -6.8746030e-02
 -3.9373919e-01
 -2.7022204e-01
 -6.2381244e-01
  3.3359244e-01
 -6.6980588e-01
  5.1109429e-02
  4.6971169e-01
  1.5945898e-01
  3.4978783e-01
 -5.5074042e-01
 -1.1322343e-01
 -7.4724257e-01
  3.6936763e-01
  1.7139037e-01
  5.3387392e-01
  2.8048748e-01
 -2.1758348e-01
 -4.8506662e-02
 -1.4000019e+00
  1.1045569e-01
  7.7704191e-01
 -1.5190947e-01
  7.7208167e-01
 -1.0472071e-01
  5.2017719e-01
  3.6362192e-01
 -1.4111005e-01
 -1.9865991e-01
 -1.5636265e+00
  9.1305441e-01
  5.9627980e-02
  4.9419019e-01
  9.1270193e-02
  5.2629385e-02
  1.1348175e+00
  1.5919170e-01
 -6.6746956e-01
  1.0083494e-01
 -4.6308842e-01
 -5.5805975e-01
  7.4581254e-01
 -1.4678051e-01
 -4.8935959e-01
  3.6655065e-02
 -2.9851800e-01
  7.4274278e-01
 -3.2501342e+00
  5.6842202e-01
  8.4769264e-02
 -3.4771577e-01
  5.8963299e-01
  4.6768166e-02
 -1.8691339e-01
 -1.4508605e-01
  1.2255614e-01
 -1.8043342e-01
  5.4839063e-01
  6.8830746e-01
 -5.0640762e-01
 -1.8624090e-01
 -1.8231770e-01
 -4.0177327e-02
  3.8220710e-01
  9.1911501e-01
 -4.4058907e-01
  4.0041077e-01
 -6.9513857e-02
  9.4947673e-02
  8.2582973e-02
  7.5589642e-02
 -4.7966063e-01
  5.3210312e-01
 -5.6086683e-01
 -1.7728259e-01
  1.1376427e+00
 -3.2925707e-01
 -9.5387936e-02
  3.8853216e-01
  3.2678436e-02
  3.0634899e-02
 -3.1667042e-01
 -3.3966094e-01
  4.0510753e-01
  2.2378765e-01
  3.6009738e-01
  5.3720427e-01
 -1.2154618e-01
  3.8802922e-01
  7.9326868e-01
 -1.6162006e-02
 -2.9055455e-01
 -2.9992455e-01
 -5.4139447e-01
  1.4952635e+00
  4.4438884e-01
 -4.0333194e-01
  6.4350468e-01
 -6.0676014e-01
 -9.9937075e-01
 -2.0085782e-01
  1.7213258e-01
  2.7208248e-01
  1.2795274e+00
  3.3989361e-01
  4.6329498e-01
  1.4591409e-01
 -1.0174428e+00
 -9.9959500e-02
  9.3056252e-03
 -3.7639495e-02
 -1.6317306e+00
  1.2514542e-01
  3.0054453e-01
 -2.0442489e-01
 -4.4984299e-01
 -7.7888334e-01
  3.5012102e-01
  5.8918101e-01
 -3.5401428e-01
  3.8910782e-01
 -1.0242330e+00
 -5.5533044e-02
 -5.7971105e-04
 -5.7648540e-01
  8.8014549e-01
 -7.2803128e-01
  4.9016580e-02
 -5.2940333e-01
  6.7752182e-02
 -3.0741987e-01
 -3.1724074e-01
 -1.1222102e-01
  2.4304729e+00
  2.4429673e-02
  3.4234938e-01
 -6.3916123e-01
  7.0042378e-01
  8.6519986e-01
  1.6117989e-01
  8.7279570e-01
  1.3512936e+00
  3.9031019e+00
 -3.2248858e-02
  1.5889104e-01
  5.8615690e-01
 -1.2662867e-01
  1.0383947e+00
  1.5804256e+00
  1.5752900e+00
  1.7243166e+00
  6.6250935e+00
 -9.1048285e-02
 -6.1877072e-02
  2.2905519e+00
  6.8375558e-01
 -9.1187114e-01
 -2.4088485e+00
  2.7674305e+00
 -8.2515046e-02
  5.9385476e+00
  2.4654677e+00
 -1.4082654e+00
  4.1385889e+00
 -1.0025828e-01
 -1.4464794e+00
  2.3538201e-01
 -1.4374124e+00
  6.9016421e-01
  2.0600953e+00
  5.0201160e-01
  5.6168431e-01
  3.7498202e+00
 -6.2629008e-01
  2.2352603e-01
  9.8500967e-01
 -7.2872442e-01
  1.6644745e+00
 -7.1921265e-01
  1.0315827e-01
 -2.5502181e-01
  1.8195355e+00
  6.3339096e-01
  1.6471380e+00
 -5.1006937e-01
  5.9917498e-01
 -1.0119604e-01
 -2.1651730e-01
  3.2534963e-01
 -5.5992854e-01
 -9.0144730e-01
  7.3547870e-01
  9.2300922e-01
 -2.4347618e-01
 -6.9449937e-01
  1.5641954e-02
 -3.2071850e-01
 -4.6918467e-01
  5.4074752e-01
  7.6934732e-02
 -7.7580655e-01
 -1.8131576e-01
  2.8422076e-01
 -5.4114945e-02
  1.3296856e+00
 -5.1817989e-01
  4.9897313e-01
 -1.0129029e-01
  1.6219807e-01
 -1.1276603e-01
  8.7251449e-01
 -4.8104286e-01
 -2.6898566e-01
 -1.6925447e-01
  8.0377948e-01
  1.7823644e-02
  3.9893538e-01
  1.0264692e-01
 -4.3192741e-01
 -1.2446817e+00
  8.8144271e-03
  3.3804926e-01
  2.2745644e-01
 -5.8120447e-01
  6.6856071e-02
 -4.7629118e-01
 -2.3115587e-01
  1.8209419e-01
 -4.7808755e-02
 -1.2539285e-01
  3.9591107e-01
  3.6542311e-01
  6.6372859e-01
 -2.5787291e-01
 -3.8292906e-01
 -3.4271601e-01
 -1.1485057e-01
 -9.9754381e-01
 -3.2651281e-01
  6.8658024e-01
  2.2733618e-01
  8.2260132e-01
 -2.4071431e-01
 -6.5259956e-02
 -5.3535664e-01
  4.8089525e-01
  7.4547715e-02
 -2.4048617e-01
 -1.0045824e+00
  5.9731349e-02
  1.3687180e-01
 -6.3162851e-01
 -7.6399438e-02
 -1.8767199e-01
 -6.3533700e-01
  1.9338007e-01
  6.1606586e-01
 -1.6445036e-01
  3.3341482e-01
  5.6401676e-01
 -1.3848346e-01
 -5.1758826e-01
  2.0259924e-01
  6.1250502e-01
 -2.6815099e-01
 -5.5095065e-01
 -6.0676385e-02
 -9.4273484e-01
  5.6558216e-01
 -2.1961562e-01
  5.5248302e-01
  1.9339735e-02
 -5.5859125e-01
 -1.9541158e-01
  7.1501911e-01
  1.1931340e-01
  7.0778996e-01
 -3.1761485e-01
 -1.5560725e-01
 -3.0249828e-01
  2.6520219e-01
  3.0087411e-01
  2.1501154e-01
  5.5570602e-03
 -4.0883324e-01
  8.1820086e-02
  2.1862123e-02
  3.1901121e-01
  2.4926314e-01
 -6.9899596e-02
  6.4365298e-01
 -2.7652793e-02
 -2.2554840e-01
  1.6516348e+00
 -4.2387360e-01
  6.2139362e-01
 -2.0011299e+00
  2.5144404e-01
  1.1958666e+00
  2.6493579e-01
  5.0204766e-01
 -6.9920290e-01
  7.2818661e-01
  4.7241762e-01
 -1.0566087e+00
  1.3812308e-02
 -7.6450849e-01
 -4.4631833e-01
 -1.9892040e-01
  2.5234556e-01
  1.5357268e-01
 -9.6602213e-01
  4.6491855e-01
 -1.9120377e-02
  8.0257374e-01
  7.8859264e-01
  7.0359594e-01
  3.3510554e-01
  2.9314557e-01
  6.6195893e-01
  3.5839651e-02
  2.1389195e-01
 -6.1881602e-01
  1.6687620e-01
  1.0971963e+00
  3.1645626e-01
 -2.3618957e-01
 -5.8717561e-01
 -2.1107626e-01
 -1.2903082e-01
  7.1958140e-02
 -2.1945858e+00
  3.6781001e-01
  1.8400182e-01
  6.4546354e-02
 -2.3451447e-03
 -1.6680174e+00
  7.5017147e-02
 -8.6326152e-01
  8.1224799e-01
 -5.1358485e-01
 -4.4527459e-01
 -3.3329284e-01
  5.1725835e-01
  2.3416045e-01
 -9.8584807e-01
 -4.2013755e-01
  2.9151943e-01
  5.5085588e-01
  1.1006215e-01
  5.2265579e-01
  1.1462033e+00
 -2.7622154e-01
 -3.7019235e-01
  1.5134944e-01
  3.7227738e-01
 -8.8516563e-01
 -3.1869742e-01
 -2.7217287e-01
  5.4239225e-01
 -4.4607174e-01
 -2.2403377e-01
  7.3001415e-02
 -2.0251763e+00
  1.0704734e-01
 -5.1060146e-01
  2.9651052e-01
 -3.7846592e-01
 -1.6736291e-01
  2.4578074e-01
  2.1848927e-01
 -2.7603430e-01
 -1.0054153e+00
  6.7278355e-01
  2.9342622e-01
  6.6885930e-01
  3.8736483e-01
  9.2062689e-02
 -1.6993073e+00
  3.2120180e-01
  4.3817708e-01
  1.3806711e-01
 -6.4607402e-03
 -2.7996406e-01
 -4.6059769e-01
  3.2255569e-01
 -4.5133021e-01
 -6.6400605e-01
 -5.9039521e-01
  3.1058371e-01
  5.5193190e-02
 -1.2252634e-01
  4.4210571e-01
  1.3309155e-01
 -2.2264773e-01
  2.5086039e-01
  3.6810768e-01
  5.4472578e-01
  8.1042059e-02
  1.0917193e-01
 -7.2886276e-01
  3.7214214e-01
  1.5880018e-01
 -3.8240120e-02
  8.2191333e-02
  9.8158762e-02
 -3.7431768e-01
  1.2192279e+00
  4.8878017e-01
 -1.3815255e+00
  5.3983228e-03
 -1.2857476e-01
  1.0168055e+00
 -4.0068671e-02
  1.9752780e-01
  1.9275071e-01
  1.0556822e+00
 -1.8789953e-01
  3.6127493e-01
  8.4422618e-01
 -1.7120287e-01
  1.1020988e-01
 -1.2447151e+00
  1.1202697e+00
  1.3175417e-01
  1.5715605e-01
  1.8384498e-01
 -3.1869382e-02
  9.3333423e-03
  3.4260538e-01
  4.8460412e-01
 -5.5896246e-01
  8.5137472e-02
 -7.6839405e-01
  5.4510698e-02
 -4.0812519e-01
 -2.1775219e-01
  1.1797503e+00
  7.0808673e-01
  3.2117435e-01
  7.4652284e-02
 -3.0184478e-01
 -8.8652170e-01
  1.9747958e-02
 -3.0001947e-01
 -1.0573817e+00
  2.0764884e-02
  5.0297582e-01
 -2.5435826e-01
 -5.0765686e-02
  1.1591765e-01
  2.5777480e-01
  1.5129751e-01
  3.9033878e-01
  1.1111860e+00
  4.5530057e-01
 -7.7998573e-01
  1.3898724e+00
  1.1530145e+00
  1.4037763e+00
 -2.5537689e+00
 -1.4763999e+00
 -1.6413114e+00
  2.3804600e+00
 -6.0132612e-02
  5.9646362e-01
  1.7854117e+00
 -3.8676059e-01
 -9.8602307e-01
 -1.8594210e-01
  2.8204226e-01
  2.7436781e-01
  5.3151476e-01
 -1.5697471e+00
 -1.7384905e-01
  3.4087032e-01
 -5.1984750e-03
  9.2492706e-01
  1.0470937e+00
  5.6354421e-01
  4.9389366e-02
  6.5213716e-01
  1.0523019e+00
 -1.8774013e-01
 -7.0431924e-01
 -1.5436590e+00
 -4.8787686e-01
  4.8750770e-01
 -1.8635914e+00
 -4.3656775e-01
 -2.2525985e-02
 -6.2011275e-03
  2.7943841e-01
  1.1098009e+00
  5.9087759e-01
 -4.5213673e-02
  1.2003305e+00
 -1.6309351e-01
 -4.5200121e-01
 -3.5455945e-01
  1.6570965e+00
 -2.6749504e-01
 -6.3653749e-01
 -5.3266686e-01
  4.9340791e-01
  1.3459870e+00
  4.6548849e-01
  7.6219100e-01
 -6.0951406e-01
 -3.3972330e-02
  1.9309384e-01
 -1.8576810e-01
 -3.2323050e-01
  3.2083011e-01
  2.4931465e-01
 -3.5724196e-01
  1.0814246e+00
  1.3332275e-01
  1.9464764e-01
 -1.8036674e-01
 -6.2374417e-03
  8.2913184e-01
 -1.6653797e-01
 -1.6232786e-01
  1.9105148e-01
 -2.1732351e-01
 -2.9823202e-01
 -1.2764121e+00
  7.3571265e-01
 -3.1055635e-01
  2.5493070e-02
  5.5473298e-01
  4.7211543e-01
  3.7506032e-01
 -1.9839348e-01
  1.1891419e+00
  1.9192651e-02
  4.0758663e-01
  4.3986735e-01
 -4.1656685e-01
  2.7967824e-02
  1.9746900e-01
  8.5052438e-02
 -2.2709423e-01
  1.0014254e-01
 -5.5989236e-01
  2.6460215e-01
  1.1716796e+00
  3.7971016e-02
 -5.6061082e-02
  1.6336247e-01
 -6.6351080e-01
  1.7418890e+00
  2.2241277e-01
 -3.2778227e-01
  6.0146138e-02
  5.9301162e-01
 -2.5875294e-01
  6.6261552e-02
  1.1289201e+00
 -1.8389538e-01
  2.4092111e-01
 -6.7516613e-01
  2.0646480e-01
  8.8353986e-01
 -2.6040187e-01
 -1.1195401e-01
 -7.8346646e-01
  5.3520751e-01
  2.0816550e-01
 -3.5896173e-01
  5.0450259e-01
  4.7426358e-01
 -5.5904698e-01
 -1.9227070e-01
  1.3141366e+00
  2.2604443e-01
  7.9466440e-03
  1.5214002e-01
 -4.8530780e-02
  2.1303657e-01
 -4.9374598e-01
 -6.5920955e-01
  9.5414288e-02
 -8.2786426e-02
 -5.9049916e-01
 -3.8358882e-02
  5.7187602e-03
 -2.2813152e-01
 -2.4590732e-01
 -2.9036260e+00
 -4.6151102e-01
 -5.0774407e-01
  6.3094229e-02
 -5.7957000e-01
 -2.6319373e-01
  1.8579682e-02
  1.3698848e-01
  3.5587159e-01
  5.0033611e-01
  3.8323216e-02
 -1.5068644e-01
  8.5454516e-02
 -5.4673487e-01
 -2.1984284e-01
  2.1465690e-01
 -2.1460903e-01
  5.7505965e-01
  3.6917493e-01
  1.3088518e-01
  2.6849350e-01
  1.6879854e-01
  3.9885527e-01
 -1.2995608e-01
  6.4479209e-02
 -7.4393228e-02
 -5.1379585e-01
 -2.0356877e-01
 -9.6596801e-01
  2.9748464e-01
 -3.4710816e-01
 -1.2947845e-01
 -4.3830585e-01
 -9.7889429e-01
  1.8238939e-01
 -3.1999528e-01
  1.4446820e+00
  3.3391550e-01
  1.2074083e-01
 -1.0347521e+00
 -7.6313093e-02
  1.9649529e-01
  3.7263134e-01
 -3.4148738e-01
 -1.0311712e-01
  5.1123196e-01
 -1.1002706e-01
 -5.4552865e-01
 -1.3523664e-01
  5.7151610e-01
  1.5731797e-02
 -6.2686235e-01
 -4.4153050e-01
 -7.3511517e-01
 -3.7365109e-01
 -2.5791961e-01
 -1.1123346e-01
  1.7136050e+00
 -6.4377034e-01
 -1.4795887e+00
 -2.2151875e-01
 -5.8114576e-01
 -1.3572939e-01
  2.9210025e-01
 -3.0307597e-01
 -2.9417315e-01
 -2.3104919e-02
 -2.0069104e-01
 -1.8478185e-03
  2.0522855e-01
 -5.0057662e-01
  3.7750888e-01
 -1.9530675e-01
 -8.1632830e-02
  2.9970548e-01
 -5.9933666e-02
 -7.6978499e-01
 -5.0186310e-03
 -1.3076918e+00
  5.9537029e-01
 -2.2961973e-01
 -3.7924016e-01
  5.8691704e-01
 -8.4240377e-01
  1.5377364e-01
 -6.2998396e-01
 -3.3029802e-02
 -9.0798393e-02
 -1.1645434e+00
  3.7795052e-01
 -2.4529515e-02
  2.1089743e-01
  1.2476373e-01
  1.5899976e-01
 -1.2667143e-01
  3.0520487e-01
 -2.4189463e-01
  9.4388314e-02
 -9.1381675e-01
 -1.1180727e+00
 -2.4944699e-01
  4.0152827e-01
  6.3555557e-01
 -5.1799321e-01
 -2.1108648e-01
 -3.9103657e-02
 -7.5379401e-01
 -3.9413762e-01
  3.4883147e-01
 -1.1770502e+00
 -4.3434836e-03
  3.1564432e-01
 -1.1164594e-01
 -1.0457879e+00
 -1.2255194e+00
 -4.7517499e-01
  1.9820566e-01
 -4.3897539e-01
  6.7769802e-01
 -1.6293194e+00
 -3.7572667e-01
  2.3784930e-01
  6.4245498e-01
 -2.8997463e-01
 -1.6184300e-01
 -5.6708664e-01
 -4.0959391e-01
 -1.4542167e-02
  3.9638099e-01
 -1.2252609e-01
 -3.8344923e-01
  6.6671610e-02
  1.0605185e-01
  3.0216828e-01
 -3.6637050e-01
  5.0622350e-01
  1.2053359e+00
  3.4073036e-02
  5.6129318e-01
  8.6119211e-01
  1.7902872e-01
  2.1796513e-01
  1.4135802e-01
 -2.8912005e-01
  3.7767846e-02
  4.3682117e-02
 -3.3393452e-01
 -4.0883952e-01
 -4.7115040e-01
 -1.1308193e-01
 -2.9559731e-01
  2.5798079e-01
 -1.9290950e-02
  1.2206159e+00
  1.1157934e-01
 -5.4795563e-01
  5.4030910e-02
  1.1039681e-01
  2.0031567e-01
  3.3062240e-01
 -1.6453233e-02
 -1.1004765e-01
 -5.0377578e-01
  7.2960359e-01
  5.0610840e-01
 -1.5758533e-02
 -7.1596688e-01
  3.4082547e-01
 -6.2260425e-01
 -1.5919643e-02
  6.9415875e-02
  6.0922045e-01
 -6.9179833e-02
  1.4272573e+00
 -1.4149727e+00
  2.7089956e-01
  6.2409990e-02
  2.1108241e-01
  2.9641170e-02
 -2.5566652e-01
 -2.4756555e-01
 -6.1888260e-01
 -1.9040219e-01
  6.7372870e-01
 -7.5719023e-01
 -3.7218532e-01
 -4.5430720e-01
 -2.8696902e-02
 -2.4664503e-02
 -5.2811307e-01
  3.3291838e-01
 -2.8386796e-01
  4.0440455e-01
 -2.9830998e-01
  2.1663493e-01
 -8.7933427e-01
  4.2334631e-01
 -2.1002710e-01
 -5.3396225e-01
  3.9953390e-01
  1.4268257e-01
  2.2319522e-02
  7.0158076e-01
 -5.5887806e-01
  6.9576126e-01
 -2.5565723e-01
  6.0679023e-03
 -3.2018042e-01
  1.5023902e-01
 -3.3883947e-01
  1.9597754e-01
  2.7878815e-01
 -6.4059263e-01
 -1.0706929e+00
  2.2540914e-02
 -5.0699043e-01
  7.1094799e-01
  1.4193767e-01
  4.3312263e-02
  5.8967716e-01
  1.0731518e-01
  6.0949147e-01
 -7.2696644e-01
 -7.4844234e-02
 -3.9800212e-02
  1.3723044e-01
 -4.9644986e-01
 -1.4226711e-01
 -3.5250250e-02
  3.9096057e-01
  2.4402572e-01
 -5.0598139e-01
 -1.7815141e-01
  1.7964345e-01
 -8.6803609e-01
  2.2768249e-01
  2.1729912e-01
  9.7672261e-02
 -4.7815669e-02
 -5.6609815e-01
 -6.8642592e-01
  1.7473910e-02
 -5.5735454e-02
  1.2730204e+00
 -8.2120091e-01
  1.2038740e-01
 -4.6631193e-01
 -1.4358172e-01
  1.9040664e-01
  2.8606880e-02
  9.2317358e-02
 -1.5189657e-01
 -2.3037273e-01
 -5.0917202e-01
 -2.0730169e+00
 -4.2542875e-01
 -7.8582627e-01
  1.0110749e-01
 -8.9937747e-01
 -1.4480263e-02
 -8.4220283e-03
 -4.2359689e-01
  2.8093737e-01
 -8.9267716e-03
  8.5285760e-02
 -5.4491752e-01
 -3.4795651e-01
 -4.0942937e-01
 -7.0952529e-01
 -3.9656498e-03
 -3.0675316e-01
 -9.7114526e-02
  6.1133939e-01
 -6.0422707e-01
 -4.2624018e-01
  7.8921533e-01
  6.7694992e-02
 -5.2942598e-01
 -1.9305566e-01
 -6.0682550e-02
  6.7099750e-01
 -3.2112429e-01
 -1.8625656e-01
 -2.4636112e-01
 -3.3453450e-01
 -6.3378912e-01
  3.4075212e-02
 -1.9116616e-01
  1.1291403e-01
 -8.3608389e-01
  3.6428714e-01
  8.7407339e-01
 -6.5289408e-01
  7.9184049e-01
  1.7135803e-01
  6.5165931e-01
 -5.0578141e-01
 -3.7542120e-01
  4.1199589e-01
  1.0038860e-01
  5.9429967e-01
 -1.4031811e-01
 -3.6847156e-01
  1.3343686e-02
 -1.9776809e-01
  7.2038203e-01
 -2.6800972e-01
  1.8833739e-01
 -6.7454711e-02
 -3.0863827e-01
 -1.1235690e-01
 -1.8521871e-02
 -1.1750022e-01
  3.3540642e-01
  4.8640850e-01
 -7.4718893e-01
  4.1548613e-01
 -1.0745738e-01
 -7.2872877e-01
 -4.5231066e+00
  1.4838436e-01
  6.4666606e-02
  1.6572556e-01
  9.3771708e-01
 -4.4085610e-01
 -5.9737213e-02
  1.6867122e-01
  3.2240754e-01
 -1.7894094e-01
  1.7816426e-01
  6.1047006e-01
 -5.2991211e-01
  2.8590462e-01
 -3.2488763e-01
  2.0797069e-01
 -1.0767770e+00
  2.4151948e-01
 -1.6004488e-01
  8.4885943e-01
  7.8378707e-01
  5.0028867e-01
 -1.8361326e-02
  1.7709000e-01
 -6.9528073e-02
  1.3422687e-03
  3.8869289e-01
 -6.6627783e-01
  5.3067017e-01
 -2.7606043e-01
  6.8269625e-02
 -6.9756395e-01
  1.7454281e-01
  6.0817939e-01
 -4.1779846e-01
 -1.3347334e-01
 -3.4857923e-01
  2.2424144e-01
  1.4597806e-01
  7.9819873e-02
  9.4154841e-01
  4.0289834e-01
  4.5314172e-01
  7.2853431e-02
  1.1638428e+00
 -5.1079416e-01
 -3.2394230e-01
  4.6559834e-01
  3.4515709e-01
 -7.1129717e-02
  2.1536610e-01
 -4.9238956e-01
 -1.9958869e-02
  5.3698104e-04
  3.9412107e-02
  1.4963216e-01
  1.2638409e+00
  5.3290743e-01
 -5.5991375e-01
  8.0137402e-02
  1.6259532e-01
  8.5280806e-02
  1.0500067e-01
  3.3164400e-01
  9.8465934e-02
 -1.5028735e-01
  4.8910566e-02
  5.4971808e-01
  8.8369477e-01
  6.7000145e-01
 -2.4176973e-01
 -2.1241412e-01
  1.2244038e-02
  1.7931423e-01
 -5.7884461e-01
 -8.0913329e-01
  3.5854167e-01
  1.0030584e+00
 -8.1980073e-01
 -1.2352357e+00
 -4.3268517e-02
  1.0181668e-01
 -4.0314000e-02
 -1.5381049e-01
 -6.1792994e-01
 -7.3097736e-01
  6.0182697e-01
 -2.0181197e-01
 -1.7359853e-01
 -2.3173682e-01
 -2.8922242e-01
  2.4609394e-01
  8.0476332e-01
 -1.7435908e-02
  1.7559792e-01
 -5.8909488e-01
  1.6270177e-01
  5.2620023e-02
 -2.0201677e-01
 -1.7693561e-01
  2.0769192e-01
 -1.6796693e-01
 -1.6706192e-01
 -4.3161762e-01
 -9.0724385e-01
  3.1112027e-01
 -5.3079152e-01
  8.5231990e-02
  5.5179822e-01
  6.2898248e-01
 -2.5455153e-01
 -1.9678879e-01
  5.1983327e-01
  4.9190688e-01
  1.0048306e-01
 -6.5191990e-01
  4.1335142e-01
  2.2621594e-01
  2.9377425e-01
 -1.0873429e+00
 -5.1811069e-01
  4.4543025e-01
  7.1481816e-02
 -3.3025059e-01
  4.3158457e-02
  2.2076271e-01
  3.5114497e-01
 -1.4485040e-01
 -1.3498354e-01
 -5.6030571e-01
  1.0297611e+00
  5.7990921e-01
  1.2610325e-01
 -2.0159477e-01
 -1.9080125e-01
  1.5222737e-01
  8.1572330e-01
  1.0562831e-01
  3.6961636e-01
 -1.9506292e-01
  1.4519596e+00
  6.7131650e-01
  3.2125226e-01
  3.6846966e-02
 -1.2082703e-01
 -1.4803234e-02
  1.1568328e-01
  8.6974394e-01
 -5.4437155e-01
 -8.1118590e-01
 -8.7582611e-02
 -1.0287033e-01
 -6.6990882e-01
  6.7393225e-01
 -2.6252896e-01
  5.6779627e-03
 -4.6228860e-03
  4.3648174e-01
  4.8391923e-01
 -4.0525660e-01
  3.4379393e-02
  7.8031349e-01
 -3.2888934e-01
 -1.2934016e+00
  1.4359312e+00
 -2.4026878e-01
 -6.3104987e-02
  6.1029330e-02
 -8.5341138e-01
  3.5994780e-01
  1.6056481e-01
 -4.1356251e-01
  2.7869841e-01
 -1.1078761e-01
 -4.8435998e-01
 -2.6717931e-01
 -8.4410347e-02
  4.0255952e-01
  2.5634336e-01
  1.2831974e-01
  4.5973387e-01
 -4.6892208e-01
 -3.6707598e-01
  2.3239835e-01
 -3.6729161e-02
 -8.4442914e-01
 -3.7654778e-01
 -8.3886303e-02
  1.0188856e+00
  9.8663670e-01
 -4.0516344e-01
  6.4854935e-02
  2.8922555e-01
 -3.8094032e-01
  9.1653526e-01
 -2.2970681e-01
  6.0008872e-01
  7.8181271e-03
 -1.6052216e-02
  2.2286931e-01
  4.0386111e-01
 -2.0948459e-01
 -1.5533292e-01
  3.3957115e-01
  3.4744430e-01
 -1.1147907e+00
 -6.0458755e-01
 -1.5414977e-01
  5.3142089e-01
 -7.4912447e-01
  5.2004528e-01
  4.8855823e-01
  3.3715922e-01
  3.0031677e-02
  4.2265320e-01
  6.1616230e-01
 -1.5073349e-01
  6.5577567e-01
 -7.5982727e-02
  2.1651773e-01
  9.0986878e-02
  1.3999752e+00
  4.0910208e-01
  3.6440825e-01
  5.8315164e-01
  1.3262751e+00
  2.5401124e-01
 -1.2173411e-01
  5.4219806e-01
  3.6183313e-01
  4.6608746e-01
 -2.8497487e-01
  3.9776337e-01
 -4.2777218e-02
  5.9701252e-01
  3.4965754e-01
 -2.6437443e-01
  9.1954082e-02
 -1.1155423e+00
  1.4263719e-01
  2.9633328e-01
 -1.7372954e-01
  3.5263443e-01
  1.5356763e-01
  8.3218895e-02
  1.8856585e-01
  1.2240262e+00
  9.4930306e-02
  1.5762658e-01
 -2.7057886e-01
  3.3222932e-02
  3.5580415e-01
 -2.7667663e-01
  8.5442409e-02
 -6.2038338e-01
 -3.6271468e-01
  4.7193065e-01
 -3.4618959e-01
 -1.1812043e+00
 -1.7688626e-01
  2.3397131e-01
 -2.7864555e-01
 -1.4538860e-01
  9.2326917e-02
  5.5739865e-02
 -2.2906169e-01
 -4.6078105e-02
 -2.7408177e-01
 -2.8670740e-01
 -7.0469254e-01
 -1.4174387e-01
 -6.7960978e-02
 -1.1620892e-01
  9.5469262e-03
 -2.2691515e-01
  1.1797205e-01
  1.4715573e-01
 -2.1664678e-01
 -7.2966051e-01
 -1.4638017e+00
  1.6747116e-01
 -3.2324040e-01
 -9.6455026e-01
 -1.6525017e-01
 -1.1774308e-01
  5.0806946e-01
  2.8154480e-01
 -9.8729208e-03
 -1.7057160e-01
  1.0280185e-01
 -5.8707103e-02
 -3.7911870e-02
  3.5365552e-01
 -9.1033727e-03
 -1.3994965e-01
  2.1810392e-01
  4.9877152e-01
  2.4849302e-01
  3.5539824e-01
 -2.6346844e-01
 -3.4461910e-01
  4.2250109e-01
 -4.0773541e-01
  2.6991957e-01
 -7.2435045e-01
  4.8684800e-01
 -6.8129975e-01
  3.0128306e-01
 -6.0310226e-02
 -9.4301695e-01
  7.1140552e-01
 -5.9916452e-02
  1.1687145e+00
 -1.7469849e-02
 -2.3704079e-01
 -6.9241703e-01
  9.3563765e-02
  3.4045231e-01
 -2.9039976e-01
  9.9816799e-02
 -4.2023164e-01
 -5.0018036e-01
 -2.1537051e-01
 -5.3585243e-01
 -2.1096590e-01
 -2.3578387e-01
  4.1858763e-01
 -1.4159311e+00
 -8.4286407e-02
 -1.2988651e-01
 -8.1166297e-01
 -7.6321974e-02
 -5.9202415e-01
 -1.1658701e-01
 -3.1198558e-01
 -6.6368192e-01
 -4.0964574e-02
  1.7632976e-01
  1.4917761e-01
  5.9039253e-01
 -8.6260569e-01
 -5.9524798e-01
  7.6128066e-01
  1.3522878e-01
 -3.6875784e-01
 -5.0032771e-01
  1.0265493e-01
 -7.3906779e-02
 -2.8873622e-01
  6.8715096e-02
 -2.2502653e-01
 -7.9460537e-01
 -1.1633209e+00
  3.7600788e-01
 -2.7679622e-01
 -5.8558576e-02
 -6.1384823e-02
  1.7606504e-01
 -2.3685773e-01
 -4.9199572e-01
  4.0445393e-01
 -6.6133910e-01
 -4.7658917e-01
 -3.8452771e-01
  4.6970934e-01
  1.0630019e+00
  1.7264303e-02
  1.9775714e-01
  4.0164149e-01
 -8.6778715e-02
 -5.8038777e-01
  3.4323224e-01
  2.6110819e-01
 -5.8610755e-01
 -6.5141670e-02
  1.4545672e-02
  1.5316132e-01
 -7.1305525e-01
 -1.3204131e-01
  1.1707872e-02
  1.7417982e-02
 -1.7245586e-01
 -3.7994114e-01
 -2.4897949e-01
 -1.4046807e+00
 -7.9611665e-01
  1.0484687e+00
  8.5733402e-01
  4.7719091e-01
 -4.5635931e-02
  9.8700635e-02
  5.0610560e-01
  9.8798208e-02
  9.5438266e-01
 -7.4278849e-01
 -6.0021079e-01
  5.0387084e-01
  5.9125304e-02
  1.9027885e-02
 -5.2050167e-01
 -8.5112935e-01
  4.3040603e-01
  4.9847594e-01
 -6.8412103e-02
 -8.1528015e-02
  3.4428871e-01
  1.5440255e-02
  3.7952137e-01
  5.5303258e-01
  9.8776859e-01
 -7.9076785e-01
 -5.3117698e-01
  3.4271991e-01
 -6.6339493e-02
 -3.2947814e-01
  2.5908870e-01
 -9.1265701e-02
 -3.1936127e-01
  1.2843111e-01
 -2.4380286e-01
 -8.5022414e-01
  7.1790129e-02
 -4.3705320e-03
 -5.9845537e-01
  6.1079669e-01
 -2.1296217e-01
  2.0928828e-01
 -4.5232144e-01
  9.2419392e-01
 -1.3003768e+00
 -2.1159182e-01
  6.1592531e-01
 -1.1406086e-01
  8.0693938e-02
 -4.7188717e-01
 -6.6870755e-01
 -5.8935159e-01
  1.0676602e-01
 -3.8628229e-01
 -1.5585588e+00
 -1.2021292e+00
 -9.0210073e-02
 -4.7252658e-01
 -1.5209701e+00
 -4.8958042e-01
 -6.0102147e-01
 -2.2454751e+00
 -3.4499271e+00
  1.5720204e-01
  1.4153323e+00
  3.7787237e+00
  3.6504972e-01
 -3.1391913e-01
 -1.3976932e+00
  5.1292491e-01
 -2.1786276e-02
 -1.8138020e+00
 -2.9340380e-01
 -4.6850592e-01
  4.8183772e-01
 -4.1251648e-03
  6.2479638e-02
 -1.2992629e+00
 -4.2504030e-01
  1.0500174e+00
 -1.2114786e+00
 -9.3158603e-02
  6.3213843e-01
  4.0823773e-01
  1.6457551e+00
 -1.8150240e-02
 -1.0832820e+00
 -2.9789534e-01
  4.4264448e-01
 -1.1756829e+00
 -8.8598770e-01
 -3.2149222e-01
 -2.8441617e-01
  2.4480021e+00
  1.3584741e+00
 -6.4549315e-01
 -3.1980908e-01
  1.3043444e+00
  2.3962386e+00
 -8.7482214e-01
  1.8291883e+00
  2.1974204e+00
 -4.2569593e-02
  4.6753493e-01
 -1.6188072e-01
  3.6284804e-02
  2.2040638e-01
  2.5572443e-01
 -7.6039296e-01
  3.5577285e-01
 -2.4799919e-01
  1.6815910e-01
  3.0188578e-01
 -9.1289625e-02
 -1.1199972e-01
 -6.6594142e-01
  5.0434381e-01
  1.0467577e+00
 -4.1084638e-01
 -7.2536588e-01
  7.3090994e-01
 -1.8120587e-01
  5.7522357e-01
  8.0391914e-01
 -3.3465612e-01
 -5.2076072e-01
 -2.8272364e-01
  8.6650598e-01
 -8.6936826e-01
 -9.5913517e-01
 -7.9208326e-01
 -1.2447013e+00
  6.7513722e-01
 -1.4904896e+00
  4.4088951e-01
 -1.6001651e-01
 -1.3181086e-01
  2.7894983e-01
  8.9353591e-01
 -5.8363223e-01
 -1.3267670e+00
 -1.3167739e+00
  3.6555034e-01
 -1.1006448e-01
  2.5440332e-01
  2.1261626e-01
 -1.8869869e-01
 -1.3715881e-01
 -4.0831760e-01
 -9.3080586e-01
  1.0718452e+00
  1.1240517e-01
  2.4883419e-01
  2.3874602e-01
 -6.7064106e-02
 -7.4772334e-01
 -3.0080029e-01
  8.2142293e-02
  5.1719475e-01
  4.9719959e-02
  1.6319051e-01
  1.2458601e+00
 -2.9395774e-01
  3.0821428e-01
  2.5291291e-01
 -4.2293686e-01
  1.5450859e+00
 -3.4471288e-01
 -1.3423908e-01
  9.6918195e-01
  3.1874052e-01
  3.1058919e-01
  4.0034745e-02
 -6.5277219e-02
 -3.9241144e-01
 -1.4014249e-01
 -3.5069817e-01
  4.5224723e-01
  1.5470478e-01
  1.4136207e-01
  7.4173230e-01
  9.9040180e-01
 -6.5789826e-02
 -6.2521493e-01
 -3.2818366e-03
  2.5822830e-01
  3.1678576e+00
 -6.1434954e-03
 -5.1888442e-01
  6.1503295e-03
 -3.6376983e-02
 -9.2782331e-01
  8.6742789e-02
 -1.8387701e-01
  1.8497586e-01
  5.1701814e-04
  2.3518425e-01
  3.5468394e-01
  5.5532086e-01
 -3.0803880e-01
 -4.4571882e-01
  1.1143498e-01
 -8.1506371e-02
 -1.0469222e+00
 -6.1446196e-01
 -5.5432174e-02
 -1.4550835e-01
  3.3255477e-02
  1.4628599e+00
  4.0875547e-02
  1.7613003e-01
  3.4052849e-01
  1.4588191e-01
 -3.4833643e-01
  1.0089794e+00
  8.9959621e-02
  5.9382844e-01
  2.9728210e-01
  2.3598112e-01
  5.7573169e-01
  4.2208430e-01
 -7.0866799e-01
 -5.8765000e-01
  2.1975815e+00
 -4.0358007e-01
  2.3755440e-01
  8.0806679e-01
 -9.6202642e-03
 -5.9696555e-01
 -1.0650065e+00
  5.1610690e-01
 -9.6037608e-01
 -5.0172806e-01
  1.3280013e-01
 -2.4167566e-01
 -5.2048698e-02
  4.2014346e-02
  6.4310655e-02
  5.6650829e-01
  7.1705148e-02
  3.4221444e-01
 -4.7376567e-01
  8.9562036e-02
  1.2968323e-01
 -1.6220288e-01
  4.2679012e-01
 -3.8875077e-02
 -6.0935277e-01
 -1.5033139e-03
  3.0861723e-01
 -9.4455707e-01
  2.7465120e-02
  5.7738143e-01
 -2.3326361e-01
 -5.3472996e-01
  4.5084547e-02
  2.4342544e-01
  5.2241957e-01
  7.8282535e-01
 -2.9820490e-01
  2.1261492e-01
  7.0076875e-02
  1.6495502e+00
 -1.8090360e-02
  5.7411131e-02
  1.3934466e-01
 -8.2344192e-01
 -7.0826940e-02
  3.6131847e-01
 -4.2097306e-01
  5.0006455e-01
  1.2426920e+00
  3.1704542e-01
 -3.4471565e-01
 -2.0228465e-01
  8.9135900e-02
  4.9350163e-01
 -2.6883855e-01
 -2.6431942e-01
  1.2496024e-01
 -2.4087055e-01
 -1.3790980e-02
  1.1851924e-01
 -7.6671541e-01
  5.2383214e-02
 -4.9640277e-01
 -1.8892616e-02
 -9.8023348e-02
  5.6136161e-01
  3.1619847e-01
  6.8339515e-01
  1.1323371e+00
  3.0478632e-01
  1.3016446e-01
 -1.9575322e-01
 -7.5598204e-01
 -1.2960625e-01
  1.7676201e-02
  2.0611539e-01
  2.9804466e-02
  1.0607831e-01
  9.4586337e-01
  4.7069672e-01
 -6.8676060e-01
 -6.5907323e-01
  4.6610978e-01
 -2.1722023e-01
  1.9978312e-01
  5.5216777e-01
  4.6039554e-01
  3.5847217e-01
  2.9205486e-01
  1.8058411e+00
 -7.9585248e-01
  4.3266863e-01
 -1.2459856e-01
 -6.4523393e-01
  5.1697659e-01
 -2.3541418e-01
 -2.1184118e-01
 -1.0317471e-01
  2.3825027e-01
  5.4700333e-01
  1.2050443e+00
  4.8328191e-01
 -6.4951581e-01
  3.9696988e-01
  1.2534345e+00
 -4.9876088e-01
 -6.4717478e-01
 -1.3790301e-02
 -1.5331358e+00
 -4.7990541e+00
  1.9935921e+00
  9.8616469e-01
  1.5120034e+00
  5.3687614e-01
 -1.7338026e+00
  2.3960201e-01
 -1.5294404e-01
  6.6993362e-01
 -1.9392698e+00
 -3.5049659e-01
  9.0881252e-01
 -8.3082610e-01
 -2.5638074e-01
  1.8621518e-01
 -1.1873550e-01
 -2.3500155e-01
  4.9023440e-01
 -2.8532207e+00
  3.7141673e-02
  1.0231204e+00
  8.7290335e-01
  5.7516414e-01
 -9.3841776e-02
  1.2970306e-03
 -1.4052796e+00
  1.1174369e+00
 -6.6131198e-01
  1.2961350e-01
  5.5622095e-01
  1.0635171e+00
  5.0381534e-02
 -1.3387875e-01
 -5.2763887e-02
 -2.3659220e-01
  1.2004173e+00
  1.8246605e+00
  4.5027617e-01
 -1.0748197e-01
 -4.6466239e-02
 -3.6750802e-01
  1.2352798e+00
 -6.8373734e-01
 -5.8131427e-01
  8.5847908e-01
  1.2878165e-01
 -7.6174074e-01
  3.4314939e-01
  2.7394736e-01
  2.9978833e-01
 -1.9259863e-01
 -2.4276133e-01
 -1.3368262e-01
 -1.4645427e-01
  7.3701656e-01
  3.8707894e-01
 -1.3159707e-01
 -8.8342404e-01
 -7.0877934e-01
 -2.7679661e-01
  6.7154503e-01
  2.8054032e-01
  1.6064486e-01
 -9.8454106e-01
 -1.5552700e-01
 -3.6969912e-01
  1.6550171e-01
  4.9618837e-01
 -2.6771128e-01
 -5.5823785e-01
  3.7125882e-02
  9.9565804e-01
  7.7143276e-01
  5.4151423e-02
  2.2863922e-01
  1.4509195e+00
 -7.2856985e-02
 -6.1249323e-02
 -2.2837742e-01
  5.3723387e-02
  2.0420398e-01
  9.2875969e-01
  7.6174361e-01
  2.5084996e-01
  1.0661231e+00
  2.2637378e-02
  1.3441893e-01
 -1.0635465e-02
  1.6241065e-01
  1.0948464e-02
 -7.3211722e-02
  2.5675008e-01
  3.0286801e-01
  2.2700885e-01
 -1.5424094e-01
  2.2118502e+00
  3.7785247e-03
  1.7680119e-01
 -1.3722032e-01
 -9.7392726e-01
  5.0351071e-01
 -4.2539987e-01
 -2.4037166e+00
 -2.4016318e+00
 -7.2656268e-01
 -1.2349682e+00
 -2.4902318e-01
 -6.6000217e-01
 -1.0627860e-01
  7.9103202e-02
 -6.6002679e-01
 -8.1937152e-01
  6.3426417e-01
  8.9848864e-01
  2.7581930e-01
 -2.6215047e-02
 -9.6984990e-03
 -2.4094508e+00
  1.9688374e-01
  2.8168149e-02
 -4.2242408e-01
 -4.6290812e-01
  3.6268944e-01
  1.5194197e-01
  6.7591000e-01
 -4.8760992e-01
 -4.1504127e-01
 -1.5527406e-01
 -6.7984587e-01
 -3.3946413e-01
 -1.7530155e-01
  2.3056662e-01
 -6.0671610e-01
 -2.2536066e-01
 -3.0174410e-01
  7.8636952e-02
 -1.5418932e-02
 -2.8530559e-01
  7.8172162e-03
 -6.5344423e-01
  5.5635500e-01
 -1.1023673e-01
 -3.6490777e-01
 -8.6543933e-03
 -5.3488028e-01
  3.1409669e-01
 -1.7784277e-01
 -5.1613694e-01
 -1.2097154e-02
 -1.5235375e-01
  1.7869335e-02
 -1.4413385e-01
  4.8591983e-02
  2.2731420e-02
 -1.1026410e-01
  2.9159108e-01
  7.5179207e-01
  6.2121440e-02
  1.7239089e-01
 -3.6184333e-02
 -6.3643676e-01
  3.5914442e-01
 -3.1850386e-01
  1.6875166e+00
  4.5209169e-02
 -1.9730236e-01
 -4.7002080e-01
 -2.0234857e-01
  3.5311899e-01
  8.8969082e-02
  3.2261014e-03
 -1.4334882e+00
  6.4694852e-01
  1.6892108e-01
  3.8301376e-01
 -2.0471448e-01
 -3.3290172e-01
 -2.4294920e-01
 -4.7797611e-01
  2.7895236e-01
 -4.1876945e-01
 -4.3954766e-01
  2.4587001e-01
  6.8585414e-01
 -5.4476094e-01
  9.6307792e-02
  6.6495582e-02
 -6.8780407e-02
 -1.3990340e+00
  4.5324542e-02
 -7.6437861e-02
  3.4609804e-01
  1.0468324e-01
  5.5426574e-01
 -1.1219117e-01
 -5.8300160e-03
 -3.8447108e-02
  1.0636154e+00
  1.1300880e-01
 -5.5799007e-01
  2.9046032e-01
  4.9538362e-01
  4.4125244e-02
  4.0033999e-01
 -1.1068109e+00
 -1.0931791e-01
  1.2864342e-01
 -3.8790220e-01
 -5.5262141e-02
 -1.4822023e-01
 -7.4230427e-01
  8.9710712e-01
 -1.1213119e+00
  8.2054928e-02
  9.0749210e-01
  8.0348593e-01
 -9.9005079e-01
 -3.8110343e-01
 -6.5277624e-01
  3.3856302e-01
 -1.7141198e-01
  4.4955242e-01
 -5.0028872e-01
  2.1970570e-01
 -2.2484137e-01
  1.2966663e-01
 -4.5297700e-01
 -1.8467532e-01
  7.4772157e-02
  4.7028810e-03
 -4.5712199e-02
  1.5396816e-01
  9.9471217e-01
 -1.8182877e-01
 -5.3114963e-01
 -7.7128482e-01
  8.5329658e-01
 -1.2348524e-02
  2.1329962e-01
 -2.5917876e-01
 -4.2399734e-02
 -2.3934284e-01
 -3.3094463e-01
 -3.3320463e-01
 -1.1059850e-01
  2.1952060e-01
  7.0265156e-01
 -6.1771280e-01
  5.7750058e-01
 -4.5084205e-01
 -4.8265240e-01
  1.5498571e+00
  1.3314877e-01
 -4.1132915e-01
 -5.6266226e-02
  8.0833673e-02
  2.4407195e-01
  4.5583236e-01
  5.8988655e-01
 -1.1586507e-01
  1.5547182e-01
 -3.9983436e-01
  5.3362198e-02
  3.3983552e-01
 -9.9695653e-01
  4.2241061e-01
 -4.4048125e-01
  1.4706463e-01
 -2.5260076e-01
  3.7790897e-01
  4.2481616e-01
 -4.4610658e-01
 -3.2258824e-01
 -5.2218580e-01
 -2.1733683e-01
 -4.2404514e-02
  3.2799098e-01
  1.0183153e+00
 -1.5570077e-01
 -3.8923526e-01
  4.3736166e-01
  1.2055631e+00
 -2.7520888e-02
 -7.2688170e-02
  6.6054034e-01
 -1.0897027e-01
 -1.3253945e-01
  1.6552596e-01
  1.0050565e+00
  5.9814334e-01
  2.3881249e-02
  8.7226823e-02
 -4.3568870e-01
  5.2271739e-02
  1.1598495e-01
  9.2501533e-01
  9.0684436e-02
 -3.1782469e-01
 -4.8584408e-01
 -4.2173824e-01
 -6.2917238e-01
  3.0711293e-05
  6.5411711e-01
 -1.2362412e-01
 -7.8620464e-03
 -8.1041344e-02
  3.3522415e-01
 -6.5969300e-01
  6.6349387e-01
  2.5397059e-01
 -7.6395738e-01
 -2.6600251e-01
  5.1736289e-01
  3.2385570e-01
 -2.8842279e-01
 -7.8983039e-01
  1.5705663e-01
  2.3133691e-02
  5.8688797e-02
  4.7791368e-01
 -5.3861916e-01
 -8.8391471e-01
  5.9090376e-01
  4.6407837e-01
  2.6031226e-01
  4.8947591e-01
 -5.2681934e-02
  9.2338398e-02
  6.6263959e-02
  1.6912133e-01
  3.7961769e-01
 -6.9361269e-01
  2.2374228e-02
 -1.8200418e-01
 -1.5894126e+00
  4.4003144e-01
 -1.0332274e-01
 -8.5532808e-01
 -2.7948499e-01
  4.8212364e-01
  1.3072407e-01
 -3.1578127e-01
 -8.4636593e-01
 -5.3124130e-04
  8.1365186e-01
  2.9382581e-01
  1.7302424e-02
 -6.7910153e-01
  1.2110754e+00
 -1.2977605e-01
  4.6411818e-01
 -1.4469244e-01
  9.8222673e-02
  5.7254547e-01
  3.6934254e-01
  2.3981518e-01
  7.9644066e-01
 -1.3396344e-01
  2.0586292e-01
  5.8269924e-01
 -2.7524343e-01
  3.8508168e-01
 -4.3329838e-01
 -7.2933719e-02
  2.8890347e-01
 -3.8158602e-01
 -5.1009482e-01
  2.3173761e-01
 -1.6037089e-01
 -4.1024815e-02
  4.9467283e-01
  1.7782559e-01
  5.3780258e-01
  2.6427519e-01
 -4.7841525e-01
 -1.3992537e+00
 -1.1089711e-01
 -5.5863434e-01
  1.8077959e-01
 -1.0132204e+00
  2.1255304e-01
 -5.0823614e-03
  2.4594910e-01
  7.2912187e-03
  2.9087245e-01
 -2.8641862e-01
  1.0560110e+00
 -5.2572027e-02
 -5.5326718e-01
  1.9145754e-01
 -3.8820356e-01
 -1.9896916e-01
 -8.7107487e-02
  1.4562607e-01
 -2.0015268e-01
 -2.1674785e-01
  4.6524769e-01
  2.0314890e-01
 -4.5171279e-01
 -6.0852361e-01
  3.8437200e-01
  3.0740120e-02
 -6.3872963e-01
 -2.9484898e-01
 -1.1689506e+00
  3.7619257e-01
 -1.5081775e-01
  4.1948649e-01
  2.1639110e-01
  7.8705412e-01
 -1.0683665e+00
  3.3924428e-01
  1.1156137e-01
  4.2036110e-01
  3.0158749e-01
 -1.3719474e-01
  9.1524661e-02
  4.6710333e-01
  2.1106486e-01
 -2.8215680e-01
  8.6357772e-01
  6.6572654e-01
  2.9523098e-01
 -3.7971428e-01
 -2.2370784e-01
 -5.3633153e-01
 -1.5958887e+00
  6.5126234e-01
 -3.0791295e-01
 -4.3844134e-01
 -2.7229533e-01
 -2.3094627e-01
 -8.1465852e-01
 -6.5795743e-01
  4.3792866e-02
  9.1362998e-02
 -6.9975574e-03
 -3.8186404e-01
  1.7182976e+00
  8.9481987e-02
 -4.7285891e-01
  1.1279223e+00
 -3.5349876e-01
  8.6643213e-01
 -2.2513068e-01
 -6.1181641e-01
 -3.0610883e-01
 -3.0611733e-01
 -1.9318634e-01
  2.8548574e-01
  1.9329525e+00
  1.6976655e-01
  4.4252649e-02
  2.2178499e-01
  6.7544632e-02
  1.8495824e-02
  4.8581272e-01
  7.4358898e-01
 -1.0861909e+00
 -5.4652162e-02
 -2.0044419e-01
  3.6684352e-01
 -1.9843322e-01
 -7.9155192e-02
 -7.3438734e-02
 -5.0065833e-01
 -6.3574117e-01
  8.5117328e-01
  1.1345629e-01
 -3.6162034e-01
 -7.8574218e-02
 -3.6452961e-01
  1.8946736e-01
  9.8249115e-02
 -1.0453258e-01
 -6.6470701e-01
 -4.8789558e-01
 -1.0258224e+00
 -1.3942832e+00
 -3.1500074e-01
 -3.3052143e-01
  2.0265566e-01
 -1.2973334e+00
 -1.0943125e+00
  5.7269728e-01
 -1.3398304e+00
  4.6436790e-02
  2.2330286e-01
  3.2330519e-01
 -7.7437900e-02
  2.7666083e-03
 -1.4580257e-01
  2.2501063e+00
  1.2010777e-01
  2.9474661e-01
 -5.3045249e-01
  9.3776055e-02
  2.9266077e-01
  3.2842621e-01
  5.7887512e-01
 -1.1728567e-01
  1.4271281e+00
 -1.1435337e-01
  5.0652188e-01
 -3.7413797e-01
  9.7116876e-01
  6.1691243e-02
 -4.3313363e-01
  2.9740408e-02
 -9.9874586e-02
  1.2197134e+00
 -1.1177213e-01
 -3.2616347e-02
 -2.1714146e-01
 -1.1966676e-01
  2.3424590e-01
  2.5241324e-01
  3.0000977e-02
  8.7165099e-01
  4.2873949e-01
 -2.7260649e-01
  4.6770296e-01
  1.6070911e-01
 -5.9937483e-01
  4.5708366e-02
 -4.5352989e-01
 -1.0370003e-01
 -2.2008832e+00
  4.1258404e-01
 -2.6534602e-01
  5.4429173e-02
  2.0029251e-01
 -9.7226270e-02
  2.8079468e-01
  2.8693151e+00
 -1.4697573e+00
 -1.3022290e-01
  5.0324684e-01
 -4.7544807e-02
 -7.3219448e-01
  6.1388958e-01
  3.8909766e-01
  2.6926219e-01
  1.7507693e-01
  2.0818794e-01
  6.5357044e-02
  4.4584638e-01
 -6.6854393e-01
 -2.6366442e-01
 -2.5576182e-02
  3.1913593e-01
 -1.3940479e+00
  2.6558232e+00
  2.0303659e-02
 -3.0799782e-01
 -2.1030453e-01
 -4.6411264e-01
 -1.2122701e-01
  2.2425888e-01
 -9.4420815e-01
 -4.1352549e-01
 -2.2967988e-01
 -3.8292076e-02
  3.7063941e-01
  5.4620719e-01
 -5.1558924e-01
 -2.6998150e-01
 -1.4093588e-01
 -2.7378812e-01
  3.4330711e-01
 -8.3325678e-01
  1.7142878e-01
 -3.9455570e-02
  1.3444179e+00
  5.3344939e-02
 -8.6740351e-01
  2.0142245e-01
 -3.9914651e-03
 -6.0241763e-02
  2.2963129e-02
 -3.8655058e-01
  9.2743635e-01
 -5.9985423e-01
  2.7864796e-01
  5.2542418e-02
  8.0219072e-01
  2.2631006e-01
 -1.5203362e-02
  1.0746591e+00
 -5.6517196e-01
 -5.8362740e-01
  1.0799130e+00
 -5.2917516e-01
  1.5870997e-01
 -2.2720864e+00
  5.4525143e-01
  5.9612047e-02
 -5.5628234e-01
  1.1583576e+00
 -1.0714741e+00
 -1.6595346e-01
  2.8028521e-01
  4.7841676e-02
 -8.1270504e-01
 -1.2386868e-01
  3.3694547e-01
  4.4764753e-02
 -5.3710932e-01
 -6.9683152e-01
  6.7461473e-01
 -8.3479300e-02
 -1.1003513e+00
 -9.6923865e-02
  9.6277483e-02
  5.0420600e-01
  6.8913668e-02
 -7.6650493e-02
  1.5385187e-01
  9.6155727e-01
  4.5950767e-01
  9.9737841e-01
  3.1523427e-01
 -1.8072164e-01
  5.6657022e-01
 -1.9363168e-01
 -1.4887822e-01
  8.2739279e-02
  1.4264464e-01
 -7.7775872e-01
  1.4847844e+00
  7.7585019e-02
  6.7251362e-03
 -1.2259401e-01
 -1.2166340e-01
 -3.9630198e-01
 -4.3003583e-01
 -1.1322800e-02
  1.8549205e+00
 -5.6378752e-01
  4.3723384e-01
  3.4608144e-02
 -1.2097921e+00
 -6.7280561e-02
  1.0495931e-01
  2.3618244e-01
  2.7816394e-01
  2.8496453e-01
  8.1234807e-03
 -1.1452852e+00
 -8.0725193e-01
  3.2075208e-01
  6.8777877e-01
  4.6799026e-02
  2.2303650e-01
  1.0111771e+00
  4.4003600e-01
 -1.3506663e-01
 -6.0225165e-01
 -1.6407114e+00
  5.0518118e-02
 -5.8647591e-01
 -9.2348017e-02
 -4.3755388e-01
  5.6228638e-01
  2.8123263e-02
  8.2497644e-01
 -1.3696878e+00
  1.2054087e-01
  1.0841070e-01
  6.2754101e-01
  1.9394240e-01
 -5.8089131e-01
  8.1674224e-01
  1.1180247e-02
 -2.8547756e-03
 -6.7686743e-01
  9.0396082e-01
 -1.0471582e+00
 -6.5596873e-01
 -8.3838207e-01
 -3.7346804e-01
 -1.9212253e-03
 -4.2244154e-01
  5.8839000e-03
  7.5218570e-01
 -7.7258682e-01
  2.9266492e-01
 -3.3916274e-01
 -6.3438639e-03
  1.2331266e+00
  9.4445658e-01
  4.5057437e-01
  6.7251015e-01
  3.6291525e-01
 -2.9484034e-02
 -1.8322253e-01
 -9.3879724e-01
  3.1294483e-01
 -5.5947399e-01
 -2.5090165e-02
  3.2884818e-01
 -4.5384574e-01
  3.4020443e-02
 -1.9676006e-01
 -1.9876161e-01
  2.5401062e-01
  1.1122455e-01
  4.6235994e-01
 -2.4095215e-01
 -8.3433431e-01
 -3.0590358e-01
  2.8640300e-02
 -2.0473847e-01
 -8.1437665e-01
  1.4751546e-01
 -1.0664012e-01
 -1.5724279e-02
 -4.8705214e-01
  2.2089082e-01
 -7.7340847e-01
 -4.5889023e-01
  5.0487626e-01
  6.4144909e-01
  4.6156786e-02
 -9.5788762e-02
 -9.1884631e-01
  1.0853400e-01
 -7.4175298e-01
  4.0594786e-01
  8.7733462e-02
  2.1623380e-01
  4.9356556e-01
 -1.0464324e+00
  3.7922531e-02
 -1.8929440e-01
  4.0503207e-01
  6.9187230e-01
 -2.9305622e-01
 -1.4538635e-01
  3.9593238e-02
  2.1599120e-01
 -1.4493930e-02
 -1.2380943e-01
 -5.6329894e-01
 -6.7008182e-02
 -5.5274093e-01
 -1.4153560e-01
  5.0101471e-01
 -8.6852455e-01
 -1.2412215e-02
  8.0591239e-02
  3.8204193e-01
 -5.7742339e-01
 -5.0224143e-01
  8.0975801e-02
  2.4538271e-01
 -1.8772172e-02
  8.0736689e-02
 -1.3483521e-01
 -2.0878869e-01
 -1.5692165e-01
 -3.4401980e-01
  2.7067164e-01
 -3.3830467e-01
 -5.8568335e-01
  2.7899202e-03
 -2.9320896e-01
 -7.1310997e-01
  4.6695235e-01
  1.5712769e-01
 -2.1662205e-01
  4.3436831e-01
 -1.0540905e+00
 -1.3130061e-02
  2.8971463e-01
 -1.6850984e-01
 -8.8755608e-02
  1.1965003e+00
 -1.4774247e-01
  3.7096503e-01
 -7.4996197e-01
  7.1686691e-01
  5.1363415e-01
  9.8260596e-02
 -2.0245178e-01
 -1.0676740e+00
 -1.7426595e-01
  1.1101974e-01
  5.1167607e-01
  7.1355027e-01
 -1.0672244e+00
 -3.2895273e-01
  4.8326928e-02
  6.4853108e-01
 -2.7659482e-01
  2.5022614e-01
 -2.3749378e-01
 -2.9437852e-01
  9.6238770e-02
  2.3158100e-01
 -6.6878742e-01
  2.0564018e-02
 -7.2003886e-02
  8.2683253e-01
  4.6712083e-01
 -3.4824425e-01
 -9.0772614e-02
  6.6030520e-01
 -5.2152842e-01
 -1.0936447e+00
 -6.7267632e-01
 -5.2063994e+00
 -9.1133729e-02
 -2.2952478e+00
  2.6466036e-01
  1.9976547e-01
  4.7203075e-02
  1.6174963e-01
  8.7019816e-02
  9.6760020e-02
 -1.6004854e+00
 -1.8540278e-01
 -6.6403314e-02
  5.3867394e-01
  7.1260679e-01
  1.0302724e+00
  6.3369825e-02
  2.7975401e-01
 -1.4811517e+00
 -7.6560563e-01
  2.9566833e-01
 -7.5113451e-01
 -1.0630387e+00
  2.6704076e-01
  4.8997781e-01
 -1.1585253e-01
  3.2643294e-01
  2.9211015e-01
 -8.7317431e-01
 -3.4946686e-01
  4.1748822e-01
  3.1074852e-01
 -3.2527936e-01
 -7.4026257e-01
 -2.3466566e-01
  9.2905931e-02
 -1.3789062e+00
  6.1738688e-01
  1.8190172e-01
 -1.1166093e+00
  7.6934475e-01
 -2.8110901e-01
  2.4796210e-01
 -2.4826306e-01
  7.0107356e-04
  3.9552443e+00
  1.5986357e+00
  5.8799797e-01
  3.0146551e+00
  4.2853382e-01
  1.6126620e+00
 -8.4946156e-01
  1.2383673e-01
  3.1597507e+00
 -1.2284209e+00
 -1.1060297e+00
  2.3946900e+00
 -2.1058571e+00
  1.4167254e+00
  1.5074100e+00
  5.3271395e-01
  2.0791128e+00
 -1.2021433e+00
 -1.2114161e+00
 -3.9389746e+00
  2.1314392e+00
 -2.3761728e-01
 -7.7752525e-01
  2.4653046e+00
  1.2807380e+00
  1.4975034e+00
 -7.2766513e-02
 -2.7305916e-01
 -3.9153762e+00
  2.5109560e+00
 -1.3024533e+00
 -2.3990491e-01
  1.2761992e+00
  1.2850928e+00
  2.2744820e+00
 -9.9976254e-01
 -7.6689118e-01
 -1.8951353e+00
  1.3964676e+00
 -4.5628783e-01
 -1.1915616e-01
  6.4106882e-01
  1.1711522e+00
  2.3234222e+00
 -7.4683136e-01
  1.3377411e+00
  1.5276061e-01
 -1.2702880e+00
 -4.6043941e-01
 -3.9028287e-01
  3.4102798e-01
  1.2293823e-01
 -1.6353862e+00
  4.0606731e-01
  8.2935077e-01
  2.2469814e-01
  7.3796946e-01
  4.7707716e-01
  1.6699660e-01
 -2.0282468e-01
 -8.2164124e-02
 -9.9644804e-01
 -4.5232177e-03
 -3.3256131e-01
 -3.0434167e-01
  6.6269535e-01
 -4.8373359e-01
 -1.3824847e-01
  3.4084579e-01
  4.6070956e-02
 -1.3143504e-01
  5.1568076e-02
 -4.9026805e-01
  1.1809567e-01
  2.4903788e-01
  1.8335257e-01
  5.7283825e-01
 -5.1373523e-01
 -5.0659090e-01
 -1.3323154e-01
  6.4080703e-01
  3.0032799e-02
  5.9685719e-01
  5.8471501e-01
 -1.2567613e-01
  4.4642523e-02
  1.5414958e-01
  1.4818106e+00
  2.4559548e-01
  4.1983268e-01
  1.9283466e-01
  1.1948149e-01
 -4.6975192e-01
  1.8693408e-01
 -1.9344108e-02
 -3.4990221e-01
  2.0203085e-01
 -9.9315703e-02
  2.8888264e-01
  2.4524662e-01
 -7.2504914e-01
 -9.5045799e-01
 -3.4761223e-01
 -2.4500333e-01
 -7.4438736e-02
  5.9819698e-01
 -3.1743845e-01
  2.8464511e-01
 -1.0667874e-01
  7.3916054e-01
 -1.0207094e+00
 -7.9091781e-01
 -3.2221866e-01
 -1.2872639e-01
 -1.3282946e-01
 -2.2224975e-01
  1.2125300e+00
  6.8402338e-01
  6.2893516e-01
 -1.9761389e-01
  1.2742677e-01
 -3.7804788e-01
 -4.3537334e-02
  1.0723934e-01
  2.6501811e-01
 -6.6092089e-02
  5.3162229e-01
 -4.2790335e-01
 -1.9737707e-02
  5.5951560e-01
 -3.4548777e-01
  1.0211190e+00
 -1.0744436e+00
  4.8645341e-01
 -8.3900794e-02
 -2.5194541e-01
  7.2867113e-01
  3.0510506e-01
  1.3552386e-01
 -7.7589428e-01
  3.9331710e-01
  8.1123245e-01
 -2.7121441e-02
 -2.3342715e-01
  4.6455272e-02
 -4.3513030e-01
 -2.8863585e-01
 -3.7177271e-01
  4.4195477e-02
 -1.5694757e-01
  4.4506624e-01
  2.3945507e-01
  4.3386269e-01
  1.3249371e+00
  1.9210431e-01
 -1.6361721e-01
  2.8562334e-01
  4.0058997e-01
  2.9743537e-01
  6.5275729e-02
  3.4176528e-01
  1.1520977e+00
  4.9149473e-03
  2.5257278e-02
 -4.7412060e-02
  1.0402853e+00
  7.7782989e-01
 -7.8936321e-01
 -1.6587143e-01
  7.8847539e-01
  1.7971908e-01
  1.8089783e-01
  5.8677918e-01
 -4.3705035e-02
 -4.5327425e-01
 -2.3822513e-01
 -5.7069701e-01
 -7.4191993e-01
  1.3960436e-01
 -2.2806115e-01
  1.7691478e-03
  2.1819344e-01
  9.5242852e-01
 -3.0523449e-01
 -2.3342137e-01
  3.2551897e-01
 -3.6660284e-02
 -4.6044034e-01
  9.4354190e-02
  5.8450673e-02
 -4.3918923e-01
 -8.2362580e-01
 -8.1825495e-02
 -3.2790986e-01
  7.6192677e-01
  2.3555440e-01
 -9.8679796e-02
  2.5200015e-01
 -1.2015966e-01
  1.9317582e-02
 -3.1154242e-01
  5.3969443e-01
  5.4087454e-01
  4.7442686e-02
 -4.1537309e-01
 -1.2599652e-01
 -7.3475510e-02
  2.9535380e-01
 -1.3327387e-01
  5.6947315e-01
  1.1340909e-01
  4.4833305e-01
 -6.9887155e-01
 -5.4096127e-01
 -5.1933163e-01
  1.5309739e-01
  6.8330020e-02
  7.8395194e-01
 -8.3889842e-01
  2.8154682e-03
 -1.7021343e-02
  2.1311659e-01
 -6.9484049e-01
 -4.5176901e-02
 -1.9573453e-01
  1.4192525e-01
  9.9331987e-01
 -3.4332082e-02
 -6.2367922e-01
 -6.4668737e-02
  8.2191712e-01
  2.1939018e-01
  1.0706356e+00
  4.8174721e-01
 -3.5277817e-01
 -6.1417538e-01
 -6.4884359e-01
  7.0701921e-01
  5.9512484e-01
 -1.7616370e-01
 -5.4558015e-01
  2.0284815e-01
  3.4539005e-01
  1.8417162e-01
 -2.0017572e-02
 -9.5510763e-01
  8.7755486e-02
 -2.5004536e-01
  7.5725806e-01
 -8.3304286e-02
  7.3905058e-02
  1.1592083e-01
  4.5627773e-01
  6.3368350e-02
 -1.5118352e-01
  5.8910519e-01
 -2.8642496e-01
  2.3674449e-01
 -1.4178203e-03
 -4.8572087e-01
  2.9881275e-01
 -3.9206147e-01
  6.1340773e-01
  2.5859374e-01
 -1.1289209e-01
  4.2934760e-01
 -1.2889646e-01
  3.8945526e-01
 -1.7374497e-02
  1.3898215e-01
  9.6214926e-01
  7.8882337e-01
  6.3913512e-01
 -7.4426663e-01
 -1.5133734e-01
  2.6190105e-01
 -6.9498307e-01
  4.7693673e-01
 -7.8095585e-01
  1.1638832e+00
 -7.5739749e-02
  2.9463932e-01
  7.2873080e-01
  1.6242176e-01
 -3.5981485e-01
  1.8822080e-01
 -3.6514109e-01
 -7.7069178e-02
 -1.1502685e-01
  3.1779724e-01
  2.9224545e-01
  8.4869549e-02
  1.0468673e+00
 -1.4913260e+00
  3.8968137e-01
 -6.7535543e-01
 -4.1294140e-01
  6.1256719e-01
 -2.7802903e-02
  6.7160052e-01
  1.5060564e+00
 -1.7626452e-01
  3.8133405e-02
  1.0436006e+00
 -3.2136539e-01
 -1.2444680e-01
 -1.8079971e-01
 -7.0383057e-02
 -5.6886119e-01
 -2.5641685e-02
  2.5859350e-01
 -1.7255938e-01
  6.2984973e-01
 -3.9063698e-01
 -1.8636465e-01
 -1.7850149e-02
 -8.7634927e-01
  1.5668236e-03
 -5.4455757e-02
  2.1704188e-01
  6.6031319e-01
  5.2481562e-01
  1.7312789e-01
  2.0627216e-01
 -4.8834550e-01
  1.6875074e+00
  3.8885284e-02
 -1.1211014e+00
  8.5269505e-01
  8.0283493e-02
  4.2204049e-01
  8.7739933e-01
  5.0868142e-01
 -9.7669750e-02
  1.0164009e+00
  1.8451524e+00
  2.3660400e+00
 -6.6239065e-01
 -1.2735763e+00
  2.3506570e-01
 -1.2101723e+00
  9.1128373e-01
  4.7727516e-01
  2.2555815e-01
  1.9787172e+00
  9.7961634e-01
  6.4060110e-01
 -3.4546202e-01
 -6.3226685e-02
  2.0343012e-01
  9.4813854e-01
  1.3288076e+00
 -2.2044221e-01
  1.7624967e+00
  1.8180615e+00
 -4.3022195e-01
 -9.7967029e-01
  4.3753105e-01
 -4.5823231e-01
  1.3185260e-01
  1.1931254e+00
  2.3645591e-02
  1.7205921e+00
  3.2932438e-02
  1.1274173e-01
  8.2750946e-01
  8.4256101e-01
 -1.0934877e+00
  6.6223681e-02
  3.9626488e-01
  2.8608003e-01
  8.5952866e-01
 -7.4112004e-01
  8.4846467e-03
 -3.9048332e-01
  1.0162694e+00
  2.3055156e-01
 -1.4763477e-01
 -2.8721303e-01
 -4.0141273e-02
  5.3957313e-01
  3.0911222e-01
 -9.2675142e-02
 -6.6774666e-01
 -1.6754752e-01
 -1.8130454e-01
 -5.2894497e-01
  4.0989399e-01
  5.6452000e-01
 -1.8925689e-01
 -8.4479734e-02
 -5.2919143e-01
 -2.0319097e-01
  2.3992130e-01
 -3.8460746e-01
  1.0250890e+00
 -4.5928571e-01
  4.6588397e-01
  5.6284565e-01
 -8.3831942e-01
 -6.3022465e-01
 -1.3697672e-01
 -5.3788429e-01
 -1.8170036e-01
  8.8619664e-03
 -6.7942604e-02
  5.2461643e-02
 -1.0864188e-01
  4.4610653e-02
 -1.5665244e-01
  1.9570404e-01
  3.2852361e-01
  1.4556029e-01
  5.7037127e-01
 -7.2227252e-01
 -7.1439075e-01
 -4.2485677e-02
  1.3720940e-01
  4.9612495e-01
  3.3008358e-01
 -6.9047934e-01
  1.9706614e-01
  3.1583583e-01
 -4.2430991e-01
  6.5731488e-02
 -8.2066268e-01
 -7.2269514e-03
 -2.8285161e-01
  4.0029548e-03
  2.8221884e-01
 -1.8105727e-02
 -8.6493176e-01
 -5.0135654e-01
  6.2234497e-01
  7.0398474e-01
  4.7139298e-02
  1.4345971e-01
  3.2865274e-01
  4.5011929e-01
  7.8540808e-01
 -6.6524082e-01
  2.1569477e-01
 -1.7260005e+00
 -1.9785376e-01
 -1.0978906e+00
  6.0122222e-01
  7.9531455e-01
 -1.6666339e-01
 -4.4303908e+00
 -3.0246618e-01
 -3.2461330e-01
 -1.0774438e-01
 -3.8530019e-01
 -1.1936086e-01
 -1.3395262e-01
 -9.0764987e-01
  1.0131110e+00
  2.0410645e-01
  7.4460171e-03
 -1.3565446e-01
  2.8488788e-01
  3.9249349e-01
 -5.2265942e-01
  2.0447215e-01
 -3.1881261e+00
  3.5374931e-01
 -7.0887499e-02
  4.3580207e-01
  6.3302678e-01
  4.4372490e-01
  1.3950651e+00
 -4.0611953e-01
 -1.2783390e+00
 -2.1290742e-01
 -8.0077922e-01
 -2.1154274e-01
 -1.3575468e-02
  6.2213499e-02
 -6.1495289e-02
 -4.1822761e-01
  1.4675859e-01
 -2.8248000e-01
 -2.5882611e-01
 -6.9962686e-01
  6.0167092e-01
 -6.1604488e-01
  5.9651874e-02
 -2.7661040e-02
  6.2399346e-01
  5.2336827e-02
 -7.0944166e-01
 -1.3749847e-01
 -2.4516622e-02
 -8.1572704e-02
 -8.0653095e-01
  1.1382091e-01
  3.4254342e-02
  1.3142067e+00
  3.5066316e-01
  3.2732031e-01
  2.8213659e-01
 -2.5722608e-01
  4.4580572e-03
  4.3869966e-01
  8.3080637e-01
  1.0947469e-01
 -7.2353706e-02
 -1.8234055e-01
  6.5248273e-02
  1.0033035e+00
  4.9085042e-01
 -3.2861450e-01
  1.1109225e+00
  1.3303007e+00
 -4.2856461e-01
 -3.4247503e-02
  3.3431393e-01
  7.3676862e-02
  2.7582791e-01
 -4.4769734e-02
  1.7312836e-02
 -4.6146205e-01
  8.6590791e-01
 -2.1868426e-01
  1.3155209e-01
  4.6528417e-01
  8.6613946e-02
 -2.7236436e-02
  7.5621516e-02
  2.1598205e-01
  1.2529883e+00
 -2.0822065e-01
  1.2153776e-01
 -4.7001388e-02
 -1.3701984e-01
  1.3669902e-01
  1.5988296e+00
  6.8122551e-02
 -1.2228471e-01
  2.8791201e-01
  5.9393439e-02
 -3.2325152e-01
  5.8827102e-01
  3.2409601e-02
  3.9104876e-01
 -3.3296221e-01
 -2.6124451e-01
 -3.6689883e-01
 -3.4787980e-01
  9.5223367e-02
  5.2032035e-02
 -4.7736463e-01
  4.6960533e-01
  8.4814781e-01
 -2.0797233e-01
  6.2171757e-01
  1.9249943e-01
  2.7435961e-01
  8.9605379e-01
 -3.8322645e-01
  9.9215277e-02
 -5.1933432e-01
  3.5147882e-01
  1.5982629e-01
 -9.4475681e-01
  1.1163667e-01
 -8.1594750e-02
  5.8046722e-01
  1.5856643e+00
  1.5624260e+00
 -6.2361616e-01
  5.9487367e-01
 -1.6951004e+00
  2.2031114e+00
 -3.5610244e-02
  5.3190619e-01
 -3.9766949e-01
  1.7567068e-01
 -1.0101299e+00
  1.4856911e+00
 -2.3880436e-01
  8.4623441e-02
 -1.8776071e-01
 -1.5692347e-01
 -8.7316060e-01
 -2.3108867e-01
  6.1223638e-01
  1.2668772e+00
 -1.2296560e+00
 -4.8486716e-01
 -1.0379072e-01
  3.4719527e-01
  5.8242148e-01
  3.4403047e-01
 -4.0200639e-01
 -2.5055414e-01
 -7.0062280e-01
  6.3273764e-01
 -1.8238099e-01
 -1.0315863e+00
 -3.1318113e-01
  1.4632189e-01
 -2.6395199e-01
  4.5162112e-02
  5.1612133e-01
  1.1009936e+00
 -1.2328453e-01
  6.0178638e-01
  3.5653070e-01
  9.9965471e-01
  1.8244231e+00
  7.3815233e-01
 -1.9043839e+00
 -4.9184941e-02
 -5.4763323e-01
  9.8624796e-01
  3.5555497e-02
  4.5265460e-01
  6.7719871e-01
 -6.0026489e-02
  1.7578626e-01
  7.3501691e-02
  1.5342051e+00
  3.5321447e-01
 -5.8473873e-01
 -1.1970271e+00
 -1.0809790e-01
  4.2802453e-01
  1.1249905e+00
 -2.6530766e+00
 -1.2768922e+00
 -1.0440127e-01
  2.3967528e+00
  8.8172376e-01
 -5.4997599e-01
 -2.8593936e+00
 -2.5895631e+00
 -4.0600328e+00
 -2.6855661e-02
 -6.8682104e-01
 -1.2227445e+00
  2.3004150e+00
  1.6583873e+00
 -1.1793679e+00
 -5.5223951e+00
 -2.5310397e+00
 -6.3244801e+00
  6.7752892e-01
  3.5008469e-01
 -3.3004957e-01
  8.8543099e-01
  5.8819407e-01
 -1.2866205e+00
 -2.1736903e+00
 -3.1946385e+00
 -4.6942616e+00
  4.0994562e-02
  1.0909817e+00
 -2.3305541e-01
 -8.2848448e-01
  4.9805936e-01
 -4.9462029e-01
 -1.7035158e+00
 -1.2422781e+00
 -1.2553521e+00
  3.5572493e+00
 -1.9544754e+00
 -6.5386562e+00
  7.2315842e-01
  6.3940328e-01
  6.5778506e-01
 -5.4462838e+00
  2.7488154e-01
  2.2871830e+00
  1.3969342e+00
 -1.9379289e+00
  6.8807149e-01
 -1.0713959e-01
 -1.0183748e+00
 -2.1762352e+00
  5.0541602e-02
 -1.0996556e+00
  5.3188902e-01
 -9.8068035e-01
 -7.0701557e-01
 -7.8799352e-02
 -1.4723231e+00
 -1.4783570e+00
  3.1681827e-01
  4.1330436e-01
 -6.8850917e-01
  7.0770156e-01
  7.1086936e-02
  3.5737410e-01
  4.7057527e-01
  4.4328899e+00
  3.9802923e+00
 -1.8922559e+00
  2.4620926e+00
  1.5443010e+00
 -1.4881265e-01
  6.9235855e-01
 -1.2331105e+00
  6.8199977e-02
  1.7930713e-01
  2.4221277e+00
  1.8634799e-01
 -1.1160472e-01
 -5.5545483e-02
  5.6280786e-01
 -7.0779204e-01
  1.0182377e+00
  3.5884979e-01
 -1.3655612e-01
 -1.1286484e+00
 -2.9115262e+00
 -6.9802219e-01
 -5.9208888e-01
  1.5448942e+00
  6.2162524e-01
  1.9894648e+00
  1.6801710e+00
  4.1710532e-01
 -6.4176613e-01
 -2.8652424e-01
  1.9860339e-01
  2.0148830e-01
  3.3333838e-01
 -1.3242756e-01
 -7.1521199e-01
  9.8476745e-03
  2.4281214e-01
  1.2266532e-02
  5.3588212e-01
  5.8146209e-01
 -5.9644669e-01
  1.1820562e-02
  1.9201681e-02
  9.2688002e-02
  5.3919023e-01
 -4.7245678e-01
 -3.2341015e-01
 -8.6529508e-02
  3.2683164e-02
 -2.2291662e-01
  3.5895735e-01
  2.0919006e-01
  1.2850145e-01
 -1.0020567e-01
  4.0205410e-01
  6.6756912e-02
 -1.2725300e-01
 -1.2842160e+00
 -5.3951937e-01
  1.2200828e-01
 -1.5122353e-01
 -5.0222468e-01
 -1.8774088e-01
  4.4540793e-02
  4.4036019e-01
 -6.0325675e-03
  7.1698362e-01
  1.2700906e+00
 -5.9124762e-01
  9.7675312e-01
  6.8633425e-01
 -5.9525691e-02
 -5.0117153e-01
  1.4567171e-01
 -4.3386444e-03
 -4.6904358e-01
  3.4640062e-01
 -2.6096511e-01
  8.1980073e-01
  2.7991056e-01
 -5.2829450e-01
  1.9140634e-01
 -2.9417446e-01
 -3.5423857e-01
 -2.9857001e-01
 -2.7663067e-01
 -4.8720253e-01
 -7.7869362e-01
 -6.3017234e-02
  3.8397267e-02
 -6.1815888e-01
  3.7681508e-01
  3.7874302e-01
 -1.3371007e-01
 -4.8014432e-01
  3.0791354e-01
  8.8896476e-02
  1.8395144e-01
 -1.9917707e-03
 -3.8450398e-04
 -1.8448407e-02
 -2.1131727e-01
  4.1443622e-01
  1.3086113e+00
  8.6538720e-01
  5.9266452e-02
  2.5790021e-01
 -1.9847219e-01
 -7.6909745e-01
  2.6903823e-01
  3.7106472e-01
 -5.6107557e-01
 -4.8425713e-01
  2.0902552e-01
 -1.3688685e+00
 -4.8941708e-01
 -4.6466517e-01
 -1.9191730e-01
 -5.3890735e-01
  3.8510054e-01
  2.7778077e-01
  1.7282099e-01
  1.9030783e-02
  5.2022919e-02
  4.7333080e-01
  2.0835549e-05
 -7.6177016e-02
  9.6628070e-04
 -2.8418007e-01
  5.1082533e-02
 -1.5048906e+00
  1.0925561e+00
  2.5850356e-01
 -1.0676984e+00
  6.3636851e-01
 -7.2148961e-01
  4.0226132e-01
 -1.8030083e-01
 -1.4809127e-01
  1.2875964e-01
 -3.9619941e-01
 -6.4638412e-01
 -3.3711573e-01
 -4.0902603e-01
 -1.0168619e-01
 -3.8196230e-01
 -3.2683559e-02
 -3.2239723e-01
 -2.3895657e-01
 -7.6547521e-01
 -8.4175967e-02
  1.8269429e-01
 -2.4483462e-01
 -9.4932526e-02
 -4.3983251e-01
 -2.7047622e-01
 -3.6272395e-01
  4.6413951e-02
 -4.3224806e-01
  4.0596330e-01
 -5.5931520e-02
  4.6203300e-01
  2.2144149e-01
  1.5096837e-01
  6.3783121e-01
 -1.7579877e+00
 -1.6522917e-01
 -5.7272589e-01
 -3.3257753e-01
  1.2244177e-01
 -1.5251516e-01
 -5.2598145e-02
 -3.5837877e-01
  1.4101687e-01
 -1.9101058e-01
  3.7634563e-01
 -6.0332739e-01
 -4.3719158e-02
  7.5300378e-01
  1.0133042e+00
 -1.6935027e-01
 -3.4888354e-01
  1.7520307e-01
  1.5992640e-01
  1.4290584e+00
  3.0947784e-01
 -1.1039084e-01
 -7.0917383e-02
  5.7685383e-02
  3.0616614e-01
  3.6454052e-02
  1.8849109e-01
 -4.9198115e-01
 -5.3862476e-01
 -1.0072923e+00
 -5.8772855e-02
 -1.1014013e+00
 -1.4239930e-01
 -1.8514767e-02
 -2.0567420e+00
  4.3809494e-01
  1.1891469e-01
  8.8091505e-01
  3.9975369e-01
  7.9240143e-01
 -1.9727085e-02
 -3.3124220e-01
  3.0497858e-01
  2.2085375e-01
  7.8917652e-02
  6.4057074e-03
 -5.7667923e-01
 -1.8426140e-01
 -3.7853384e-01
 -3.8499549e-01
  4.4781241e-01
 -5.4039663e-01
  3.5487169e-01
 -1.7475653e-01
  1.9869229e-01
 -1.4832747e-01
  2.4395916e-01
 -1.8688132e-01
  1.0887250e-01
 -2.2269008e-01
 -8.3819777e-03
 -4.6421501e-01
  2.3272344e-01
 -4.6411788e-01
 -7.8134948e-01
  1.5685025e-01
  6.4414805e-01
  5.2337289e-01
  4.1867518e-01
  9.6047908e-02
 -6.0945785e-01
  2.9885846e-01
  1.3317775e+00
 -2.7218455e-01
 -7.5420886e-01
 -1.2350060e+00
 -1.4669177e-01
  3.1464851e-01
  3.7082309e-01
 -6.4901102e-01
  1.9826764e-01
 -8.2516944e-01
 -1.7991179e-01
  7.6206136e-01
  8.9914930e-01
  3.2398948e-01
  4.6587020e-01
 -1.0879812e-01
 -2.4587975e+00
 -3.4104520e-01
 -1.8257293e-01
  1.2007143e-01
  1.0214504e-01
 -1.0694109e-02
 -1.2729839e+00
 -1.6939357e-01
  3.3647960e-01
 -3.8234621e-01
 -9.8497760e-01
  6.7648989e-01
 -2.2862557e-01
 -1.1657157e-01
  1.2304132e-01
  1.4369467e-01
  3.6909401e-01
  2.7029812e-01
 -5.9403622e-01
  9.1376358e-01
 -2.5882669e-02
 -6.5474153e-01
 -1.9589577e-02
  4.6245292e-01
  4.6572438e-01
 -1.2784019e-01
 -1.3493971e+00
 -9.9950090e-02
 -3.7756529e-01
 -2.0565146e-01
  3.9848620e-01
  4.6043217e-01
 -4.1233882e-01
  4.9814668e-01
  8.5437417e-02
  1.8991570e-01
  9.5002785e-02
 -2.1673235e-01
 -2.9723403e-01
  5.2015620e-01
 -1.1237729e+00
  3.4073257e-01
  2.0140484e-01
 -2.1684048e+00
 -3.3128297e-01
  5.5161351e-01
 -9.7291750e-01
 -2.2649195e+00
  2.4831489e-01
 -2.1764264e-01
 -2.9071921e-02
  5.8088309e-01
 -2.6590563e-03
 -1.2114869e-01
 -5.6874877e-01
  1.1940613e+00
  4.0853918e-03
  6.9429284e-01
  1.4488660e-01
 -5.5999480e-02
 -1.4643386e-01
 -5.1349002e-01
 -1.2351702e+00
 -4.3715036e-01
  6.4246133e-03
 -5.3016222e-01
 -1.8696561e-02
 -2.0638406e-01
 -1.9662756e-01
  4.9613386e-02
  6.6888370e-02
 -2.0496932e-01
 -6.8490010e-01
  4.2289829e-01
 -4.6076325e-01
  4.2145848e-01
  8.6213398e-01
 -5.4195680e-02
 -3.9619111e-02
 -5.7297415e-01
 -1.5273690e-01
 -1.9780640e-02
 -2.9291293e-01
  3.4740669e-01
  1.0623522e+00
 -9.7893715e-01
  1.1789075e-01
  4.0016308e-01
  8.5259445e-02
  1.7942204e-01
  1.3156421e-03
  2.2649957e-01
  2.8207913e-01
  5.1704234e-01
  8.2242531e-01
  1.4246111e-01
 -2.8220886e-01
  1.8041447e-01
 -5.0055283e-01
 -1.6196972e-01
 -3.1455946e-01
  2.4530648e-01
 -1.4424741e-02
  4.7165427e-01
 -1.3376466e+00
  6.5979904e-01
  2.5093663e-01
 -1.6027684e+00
  3.3724394e-01
 -1.6573228e+00
  4.8465449e-01
  2.2335726e-01
  9.2091626e-01
 -3.4873284e-02
 -3.5793039e-01
  1.0876184e+00
 -1.1743470e+00
  6.5757446e-02
 -1.6476591e+00
 -1.2252070e+00
 -1.2323128e-01
 -1.8750252e-01
 -1.2085843e-03
 -6.6361845e-02
  4.1567150e-01
  2.2788326e-01
 -1.2918172e+00
 -8.0062389e-01
  5.3471482e-01
  1.4183127e+00
  3.1715852e-01
 -1.1108832e+00
 -4.8755318e-01
  1.3588781e+00
 -3.2593763e-01
 -3.7966931e-01
 -1.0415423e-01
 -6.7278761e-01
  8.4650773e-01
  6.2587821e-01
  4.0668672e-01
  8.6533451e-01
  5.7549107e-01
  1.6783184e-01
 -9.9510366e-01
  5.9462202e-01
 -1.9609737e-01
 -1.1182665e+00
  3.2127181e-01
  1.7713870e+00
 -4.2521447e-01
 -6.4270176e-02
 -4.9821518e-02
  1.2898660e+00
 -1.8094270e-01
  1.1864951e+00
  8.3153158e-02
  9.5645793e-02
 -1.3155977e-01
  2.3648334e-01
 -1.3686779e-01
 -1.5060034e-01
 -1.0249060e+00
 -2.0093507e-01
  4.3944187e-02
  5.9494686e-01
 -7.6584494e-01
  1.6788739e-01
 -1.0608616e-01
  1.5326378e-01
 -9.4259128e-02
 -1.6111740e-01
  1.4053753e-02
 -1.2642643e-01
  2.6808679e-02
 -5.3118593e-01
 -5.2225370e-02
 -3.3388826e-01
  7.8578629e-02
 -3.5429150e-03
 -5.9687561e-01
  8.6086906e-02
 -5.5831087e-01
 -1.5040499e-01
 -1.3313174e-01
 -3.6298001e-01
 -2.3145289e+00
  2.3540565e-01
 -8.5774899e-02
 -5.2973986e-01
  3.9872635e-02
  1.4475256e-01
  3.4668756e-01
 -2.4836168e+00
 -1.7290914e-01
  3.8117039e-01
  7.3618636e-02
  2.8849277e-01
  2.4847867e-01
  2.1966001e-01
  1.0398104e+00
 -4.8249751e-02
 -6.3647591e-02
 -2.9883727e-01
 -3.0144041e-02
 -1.8863151e-02
  8.1312436e-01
 -5.7025552e-01
  6.6945478e-02
 -1.6320723e-01
  1.8948621e-01
 -1.1512638e+00
  2.0078421e+00
  4.5323271e-02
 -5.6190901e-02
 -1.2264919e+00
  7.2784472e-01
  4.9239695e-02
 -3.6332592e-01
  6.1026740e-01
 -8.8825196e-02
 -3.1961328e-01
 -4.3665525e-01
 -8.5526782e-01
 -3.3409986e-01
 -7.6334810e-01
  2.3305432e-01
  9.4917375e-01
  2.4782432e-02
  2.6091388e-01
 -6.0043037e-01
 -4.3943998e-01
  2.3876771e-02
  3.2566839e-01
  5.6771350e-01
 -4.1158426e-01
 -3.9882633e-01
  2.9439873e-01
  8.8760477e-01
 -3.8698310e-01
  6.1021066e-01
  4.2712796e-01
 -3.4603548e-01
 -8.7886226e-01
 -7.9162115e-01
  4.7433373e-01
  3.2823819e-01
 -7.4462587e-01
 -1.1526583e-01
  2.3572209e-01
  5.8628231e-01
 -2.9321563e-01
  6.0156721e-01
 -2.3342481e-01
  5.1737177e-01
  6.8287537e-02
  1.4459033e-01
  1.7029978e-02
  1.6005464e-01
 -1.5395585e-01
  1.2346444e-01
 -4.7856027e-01
  1.8458408e-01
 -2.8614777e-01
  2.3547786e-01
 -6.4552152e-01
 -1.0974318e+00
  1.7919704e-02
 -2.0254081e-01
  6.4674836e-01
 -9.2605478e-01
  2.1694726e-01
 -4.9057341e-01
  2.8447482e-01
 -6.2180620e-01
  3.8401101e-02
  7.8048892e-02
 -4.5606345e-02
  4.2947516e-01
  7.4239902e-02
  3.1627618e-02
  3.9914218e-01
  6.9941893e-02
 -1.6051120e-01
 -8.1753933e-01
 -3.4472641e-01
  1.4331111e+00
 -3.5267830e-01
  9.0900928e-02
  3.6102331e-01
  1.8046769e-01
  5.1146001e-04
 -5.7031780e-01
  4.3213189e-01
  1.5961254e-01
 -4.7121933e-01
  2.5308329e-01
  2.4026741e-01
 -3.2309484e-01
 -1.7669414e-01
 -2.2035463e-01
  4.6564487e-01
  7.0984699e-02
 -1.0900862e+00
  4.1903195e-01
  5.7168990e-01
 -1.6337901e-01
  9.0229966e-02
  6.2257618e-02
 -9.1412216e-03
  1.9031480e-01
 -3.3171156e-01
  5.8303779e-01
 -9.4918275e-01
  1.7014074e+00
  2.9679975e-01
 -7.1625865e-01
 -2.6715486e+00
  3.4747252e-01
 -2.1845433e-01
  3.6519590e-01
 -5.3621060e-01
  6.8293554e-01
  7.6101363e-01
 -1.5574443e-02
  2.9261646e-01
 -7.2528534e-02
  1.2636116e-01
 -1.2977768e-01
  4.2367887e-01
 -2.0825553e-01
 -3.4466024e-02
 -1.0348940e+00
  5.1014745e-01
 -2.9491028e-01
  3.4828374e-01
 -1.3845764e-01
 -1.9050723e-02
  1.3933471e-01
  3.5383798e-02
  1.7662300e+00
 -8.2134610e-01
 -6.3126162e-02
  9.6790653e-01
  3.6972508e-01
  6.8552457e-02
 -1.0717463e+00
 -2.9985136e-01
  2.5167897e-01
 -1.2850602e-01
  1.0238374e-01
  1.2886355e+00
  1.2253238e-01
 -3.0828619e-01
 -1.8522388e-01
 -7.5993621e-01
  3.8683212e-01
  5.0047953e-02
  2.5959623e-01
 -1.2215067e+00
 -8.8307166e-01
  7.8800887e-01
  1.2319779e-01
  4.2975426e-01
  2.1361917e-01
  2.7155659e-01
  1.5679145e-01
 -2.1748757e-01
 -1.0734788e-01
 -1.5632813e-01
  1.3871124e-01
 -6.0720760e-01
 -1.4372438e-01
  5.3382218e-01
  3.0577868e-01
  4.5774901e-01
 -7.8888988e-01
 -7.9844868e-01
 -1.1166230e+00
  5.0212306e-01
  5.8952887e-02
  3.7915429e-01
  3.8613188e-01
  8.0282313e-01
  3.1459445e-01
 -2.8746757e-01
  2.4577428e-02
 -2.5992879e-01
 -2.4286702e-01
  2.5460937e+00
 -3.4303922e-02
 -5.6162283e-02
 -5.9193468e-01
 -5.2766675e-01
 -5.6980163e-01
 -2.3943204e-03
  2.2687826e-02
 -3.9582811e-02
 -4.4270313e-01
  5.0127620e-01
  7.6771700e-01
 -4.0440969e-02
  3.8332820e-01
 -6.0572106e-01
 -6.8646438e-02
  4.5869917e-01
 -1.1677980e-01
  3.7915629e-01
 -9.0739056e-02
 -7.4224710e-02
 -4.4782495e-01
  9.0193713e-01
  2.0792613e-02
  2.0417739e-01
 -4.4914268e-02
  1.6816229e-01
  1.4043143e-01
 -3.6426571e-01
  1.9448447e-01
  4.5727853e-02
  1.0294149e+00
  2.1075748e-01
  1.1283799e+00
 -4.9915537e-02
  5.9792781e-01
  5.6043822e-02
 -5.4332007e-02
 -3.3542243e-01
 -2.1494796e+00
  3.9058451e-02
  5.8534598e-01
 -2.1936555e-01
  8.3179796e-01
  1.1434391e-01
  1.1577450e+00
 -3.8912261e-01
 -7.2008121e-01
 -2.3305064e-01
 -7.1624953e-01
  1.3113134e-01
  1.6036054e-01
 -6.4179695e-01
  1.7955764e-01
 -3.0309722e-01
  1.1808835e-01
  1.8769549e-01
 -5.7248718e-01
 -2.2894591e-02
  2.3453124e-03
  4.4494787e-01
  4.5129132e-01
 -2.1039324e-01
 -8.4327601e-02
 -5.5316180e-01
 -5.5340177e-01
  9.0480566e-02
  7.8666288e-01
 -5.2468967e-01
 -1.1909986e+00
 -2.4562766e-01
 -3.9843899e-01
  9.9436599e-01
 -2.1285766e-01
 -5.7004058e-01
 -6.8012065e-01
 -1.4577392e+00
 -2.8982559e-01
 -6.9971251e-01
 -2.7543285e-01
  2.3233797e-01
  9.1477686e-01
  1.9101563e-01
 -5.0080544e-01
 -1.5285859e-01
 -3.7283713e-01
  6.6457540e-02
 -6.6872436e-01
  8.0631876e-01
  9.6788242e-02
  6.3059896e-01
 -2.4501175e-01
  7.3722437e-02
  3.4378953e+00
 -3.1590767e-02
 -1.1443465e+00
 -6.6668168e-02
 -2.0947728e-01
  1.7771456e+00
  1.4385077e-02
 -8.8768125e-02
  1.6533509e-01
 -3.3923903e-01
 -1.9898371e-01
  1.2469077e+00
  2.4729870e-01
  2.7675502e-02
  1.0905272e-01
 -7.5870015e-02
  6.7957789e-01
  7.6214239e-02
  2.1438622e-01
 -5.3268814e-01
 -1.8387173e-01
  3.2743961e-02
 -4.9431124e-01
  1.6657455e-01
  9.2060667e-01
  6.5496105e-01
  1.5139937e+00
  3.5132140e-01
  4.2201139e-02
 -4.7551221e-01
  1.2498145e-01
 -9.0087777e-01
  2.8740622e-02
  7.6191616e-01
 -1.3379715e-01
  9.7816288e-01
 -2.7938023e-01
 -8.2677370e-01
  1.1843912e-01
 -3.5625890e-01
 -3.9289549e-02
 -1.0820402e-01
  2.5343555e-01
  2.4027435e-01
 -1.5539427e-01
 -3.9743535e-02
  4.0044680e-02
 -1.5388015e-01
  4.2594412e-01
  3.0288038e+00
 -6.3526803e-01
 -8.6498195e-01
 -5.3197630e-02
  8.1264347e-01
  5.2465844e-01
  5.8681679e-01
 -1.3088252e-01
 -2.3562762e-01
  2.5599387e-01
 -7.2402954e-03
 -5.4486018e-01
  1.0572545e-01
  5.4077476e-01
 -9.8265722e-02
  9.8805606e-01
  6.0343158e-01
  7.6075822e-02
 -1.1253406e-01
  4.4000643e-01
  1.5847059e-01
  5.2634734e-01
  3.0234596e-01
 -6.5552819e-01
  4.9578071e-01
  4.3176033e-02
 -2.4391249e-01
 -2.5611579e-01
  2.3756817e-01
  1.6840905e-01
 -1.3889366e-01
 -1.1118824e+00
 -1.5276247e-01
  7.8937739e-02
 -5.6122851e-01
 -3.9982033e-01
 -6.8468046e-01
 -2.2581372e-01
  2.8619525e-01
 -1.3530323e-01
 -7.6827502e-01
  3.6222947e-01
 -3.0986428e-01
 -6.0918301e-01
  3.6958441e-01
 -1.0017535e-01
 -3.8815099e-01
  8.6606658e-01
  8.0973178e-02
 -1.1058892e-01
 -7.1454145e-02
 -1.1691315e-01
  5.6589669e-01
  8.2431322e-01
  4.6340935e-03
 -3.9729774e-02
 -1.1256930e-01
  1.0711166e+00
  4.5668876e-01
  2.0885393e-01
  5.2055740e-01
 -5.2506542e-01
  1.7395969e-02
  1.2664882e+00
 -9.3815118e-02
 -1.6747862e-01
 -1.1617799e+00
  6.9507748e-02
  3.2473391e-01
 -2.2162434e-01
  5.0210506e-01
  9.7933225e-03
 -5.8774316e-01
 -1.7310623e+00
 -2.7747563e-01
  6.4133501e-01
  1.7623153e-01
 -3.0939274e-02
 -2.7181238e-01
  3.4515384e-01
 -4.1768348e-01
 -2.9412311e-01
  6.4568687e-04
  3.0274457e-01
 -1.0641589e+00
 -8.8844168e-01
 -1.0162576e+00
 -7.4121535e-02
  2.5252336e-01
 -4.0958673e-01
  2.7712408e-01
  4.8187095e-01
 -2.6198664e-01
 -2.5676111e-02
  3.9734811e-01
 -5.5699801e+00
 -3.2843450e-01
  7.4232616e-02
  2.4429297e-01
 -3.0089739e-01
  1.4093217e-01
  4.5045739e-01
  9.9040735e-01
 -5.7553869e-01
 -2.5769407e-01
  6.0027085e-02
  9.0955675e-02
 -4.1041982e-01
  6.9969487e-01
 -2.6561421e-01
 -7.4482101e-01
 -8.6443454e-02
  9.4705164e-01
 -8.8877255e-01
 -1.0222594e+00
  4.5249084e-01
 -2.7080515e-01
 -4.2105815e-01
  1.4772750e+00
  1.0264407e-01
 -7.9207055e-02
 -1.1348508e-01
 -6.5890744e-02
 -1.4298476e-01
 -2.2827882e-02
 -3.1912607e-01
  5.3954937e-02
 -2.0444527e-01
  2.3984888e-01
  7.6250511e-01
  3.7673482e-01
  3.2532501e-01
 -8.7748200e-02
 -8.0718559e-01
  5.2854005e-02
 -3.9491478e-01
 -8.4529293e-01
  3.9665741e-01
  4.1745213e-01
  4.1771837e-02
  7.1587026e-01
  3.4668976e-01
 -7.2980213e-01
 -1.4391221e-01
  5.2412891e-01
 -3.5305068e-02
 -8.6354887e-01
 -1.3538767e-01
  1.3950279e-01
 -1.9618879e-01
  1.2239070e+00
  2.1974143e-01
  1.1738781e-01
 -5.6436354e-01
 -2.6254261e-01
  4.1630191e-01
 -4.8005082e-02
  4.2668459e-01
 -1.6246245e+00
 -8.1891412e-01
  1.2043738e+00
  7.1681517e-01
 -2.1269104e-01
  1.1243304e+00
 -1.3476804e-01
  7.0467043e-01
  9.8054457e-01
 -7.7944356e-01
  1.5546283e-01
  4.9996522e-01
  7.4330248e-02
  4.4578594e-01
 -9.0820253e-01
 -1.7343649e-01
  7.4204028e-02
 -3.2506901e-01
 -7.0852526e-03
  3.8979914e-02
  1.2327352e+00
 -4.3215507e-01
  2.3822695e-01
  1.2244374e-01
  1.4683749e-01
 -4.1367146e-01
 -9.8545924e-02
 -4.5116636e-01
 -3.4339774e-02
 -1.2427662e-01
  6.5251893e-01
 -1.3585702e+00
  2.2635934e-01
 -4.3641186e-01
 -4.9909091e-01
 -5.2697104e-01
  5.4308452e-02
 -1.4157271e-01
 -6.4475156e-02
 -3.7491587e-01
  1.4864525e-01
  7.9826333e-02
  7.7005222e-02
  5.2664489e-01
  2.7160841e-01
 -2.2916032e-01
 -2.5101903e-01
  3.1126887e-01
 -1.4366922e-01
  5.0060070e-01
 -4.0181604e-01
  1.5641046e-01
  3.2943928e-01
  6.9676656e-01
 -4.3221763e-01
 -1.1056155e-01
  4.1077692e-02
  1.0440107e-01
  1.0734727e-01
 -8.9486293e-02
 -1.0108333e-01
 -2.2976850e-01
  4.1267219e-01
  6.0714281e-01
  3.9879158e-01
 -3.7216279e-01
 -4.6366653e-01
  8.5257810e-01
  1.8129783e+00
 -6.9717300e-01
 -1.5107012e+00
 -4.3753016e-01
  1.6822001e+00
 -7.0367903e-01
  1.3575457e+00
 -4.3682939e-01
 -1.5332488e+00
  6.8613636e-01
 -1.6179931e-01
  5.1499397e-01
  7.9301184e-01
 -3.1617060e+00
  5.4105707e-02
  2.0066698e+00
  1.5443492e-01
 -3.2453179e-01
  1.1600369e+00
 -5.9183270e-01
  2.2547872e+00
  1.3220583e-01
 -2.2926495e+00
 -2.7735060e-01
  4.8120055e+00
  9.2784131e-01
 -2.0876229e+00
  2.9242358e-01
  1.0861305e+00
  5.4580283e-01
  9.0507436e-01
  1.1585827e+00
 -6.9799572e-03
  2.5165358e+00
 -8.6005986e-01
 -1.5704349e-01
  2.2262847e-01
  8.0939013e-01
  3.9065599e-02
 -1.3661489e-03
 -2.9797456e+00
 -8.0408394e-02
  3.1095812e-01
  1.0171749e-01
  9.0494502e-01
 -1.2475084e-01
 -3.4693044e-01
  2.8905562e-01
 -6.1873877e-01
 -9.0059720e-02
  6.6404775e-02
  5.8727533e-02
  1.0893719e-01
 -3.5795787e-01
  1.0038726e-01
  3.4024012e-01
 -4.2690732e-02
 -5.3927070e-01
  2.0030896e-01
  4.0112749e-01
  3.2951984e-01
 -1.7964739e-02
  1.5830649e-01
  3.5270160e-01
 -2.2117634e-01
  7.4344605e-01
 -6.9030750e-01
 -3.0166954e-03
  4.4311840e-02
 -5.8692646e-01
  1.6622245e-01
  3.9270216e-01
 -9.8536980e-01
 -4.7957548e-01
 -8.4436071e-01
  2.1607515e-01
 -1.4863925e+00
  5.4757416e-01
  6.1043262e-02
 -1.1877439e-01
  2.6671827e-01
  2.3396778e-01
  2.0960546e-01
  1.5058380e-01
  4.1109446e-01
 -6.7209619e-01
  2.2441185e-01
 -1.7511404e-01
 -1.9636120e-01
 -1.0506616e-01
  1.2172546e-01
 -9.1846633e-01
 -5.3284007e-01
 -5.7272714e-01
  7.3042524e-01
  2.6557171e-01
  4.4971776e-01
  3.5234090e-02
 -7.5355387e-01
 -2.9237983e-01
  1.8113515e-01
 -1.6601346e-01
 -1.4215983e-01
  6.9082952e-01
 -1.3066535e+00
 -9.4757527e-01
  1.3633138e+00
  7.5282687e-01
  4.2952338e-01
 -3.5653073e-01
 -5.4013526e-01
 -1.1124699e+00
  5.7221286e-02
 -5.6855655e-01
 -4.5230877e-01
  3.8838121e-01
 -8.9865065e-01
  9.7087771e-03
 -7.7437866e-01
  3.4090164e+00
  3.3383501e-01
 -3.7773713e-01
 -1.0521852e+00
  4.7798112e-01
  1.1483797e-01
 -4.3577415e-01
 -5.9709828e-03
  1.6765951e-01
 -8.3044492e-02
 -8.1898808e-01
  1.4968483e-01
  1.2108023e-01
  2.8792036e-01
 -1.7560449e-01
  8.6026514e-01
 -7.3388660e-01
 -4.1156477e-01
 -1.2834540e-01
  3.1647706e-01
 -5.8158182e-02
  4.9750179e-02
  1.9606163e-01
  3.9725053e-01
  3.8366538e-01
  5.7772368e-01
  1.0214946e-01
  3.8706839e-01
  4.0083820e-01
 -1.3637471e+00
  9.7247005e-02
 -1.6023700e-01
 -6.4700741e-01
  8.7129071e-02
  2.7120745e-02
 -1.0124737e+00
 -1.1467795e-01
 -1.6597757e-01
 -1.2798511e+00
  1.6986029e-01
 -2.0581686e-01
  8.3593655e-01
  2.3916986e-02
  3.0153292e-01
 -1.5879159e-01
 -2.2093058e-03
  1.3635579e-01
  1.4836989e-01
 -3.7296247e-01
 -2.5951740e-01
 -5.2980357e-01
 -6.6774863e-01
 -2.7027285e-01
 -3.1464672e-01
 -1.6843192e-01
 -1.0469200e-01
 -9.7745258e-01
  4.5698237e-01
  4.1185650e-01
  4.0853751e-01
 -2.1601593e-01
  1.5233938e-01
  2.9332158e-01
  9.9605605e-02
  1.3796335e+00
  2.4131888e-01
 -2.0653749e-01
  1.3252826e-01
 -1.0978653e-01
  2.5931057e-01
 -2.6875862e-01
  8.2410961e-01
 -2.9706433e-03
  7.8976087e-02
 -1.8076988e-01
 -1.8013343e-01
  6.8458147e-02
  5.9148824e-01
 -2.0069429e-01
 -1.0226489e+00
  2.0416006e-01
 -6.2213624e-01
 -1.6721156e-01
  4.7832578e-01
 -3.9959455e-01
  4.7310171e-01
  2.4827278e-01
  7.7238089e-01
  1.1207535e+00
 -2.7460495e-01
 -7.4074470e-02
  7.9969823e-02
 -2.0500480e-01
 -1.1867363e-01
  8.8942581e-01
  5.6823850e-01
  4.0239999e-01
 -4.3820685e-01
 -6.5265065e-01
  1.3042614e-01
  1.2616691e-01
  1.4034024e+00
 -9.0133391e-02
 -1.3362615e-01
 -9.5564783e-01
  1.1479948e-01
 -8.3613759e-01
  4.0625464e-02
  1.0055976e+00
 -2.6400441e-01
  5.5814302e-01
 -8.4337461e-01
 -2.0628151e-01
 -1.8325144e-01
  4.7080666e-01
  3.0323356e-01
  5.4118490e-01
 -4.6261373e-01
  9.8415524e-01
 -3.7044013e-01
 -6.0607232e-02
 -6.3430017e-01
 -1.0353852e-01
  1.8771841e-01
  2.8992701e-01
 -6.1498660e-01
 -2.5516760e-01
 -2.6390848e-01
 -1.9575782e-02
  7.2899723e-01
 -3.5600787e-01
  3.6333328e-01
  1.8112899e+00
  4.1437724e-01
 -4.1115785e-01
 -1.4492038e-01
  2.8236029e-01
  2.9183531e-01
 -1.3993266e-01
 -3.8234375e-02
  4.5725638e-01
  1.0601919e+00
 -9.2794634e-03
  4.3631521e-01
  6.8534815e-01
  1.1164844e+00
 -2.9685244e-01
  1.8555436e-01
 -9.4551730e-01
  3.0560231e-01
  3.2569179e-01
 -1.2968765e-01
 -1.3861538e-01
  2.1598527e-01
 -4.8202950e-01
 -5.9036463e-02
  6.9731283e-01
 -1.8079808e-01
 -4.1605705e-01
 -1.0512358e+00
  6.7556447e-01
  1.5082056e-02
 -2.6415050e-01
  3.8305081e-02
 -1.0799935e-01
 -1.6040713e-01
 -5.7294656e-02
  4.3629932e-01
  1.7027743e-01
  1.3358907e-01
 -4.1939050e-01
  2.1223050e-02
  1.8149024e-01
  3.9025047e-01
 -9.1004807e-01
  6.5789998e-01
 -9.9726063e-01
 -3.9541474e-01
  3.3615819e-01
 -4.9692389e-01
  4.2136642e-01
 -5.6622922e-02
 -9.2023546e-01
  9.1549844e-01
 -5.4765046e-03
  2.0820871e-01
 -1.0890955e-01
  2.2031228e-01
  8.4525734e-02
  5.6313407e-01
  8.8937801e-01
 -4.7124413e-01
 -5.0592059e-01
  2.0033851e+00
  1.4252050e-01
 -9.9129081e-01
 -4.0338773e-01
  5.5777494e-02
 -8.1921470e-01
  1.8542561e-01
  6.4880294e-01
  9.3826807e-01
  1.2661150e-01
 -1.2723001e+00
  1.8821123e+00
  1.2710142e+00
 -1.0101016e+00
  6.0784441e-01
  4.9842122e-01
  8.9852929e-02
 -7.9314709e-02
 -2.2226743e-01
 -8.5199201e-01
 -4.7344691e-01
 -1.0517836e+00
  1.3878183e-01
 -1.7112653e-01
 -3.6954775e-01
 -9.2812139e-01
 -1.2338252e-01
 -1.2017874e-01
 -1.3946986e-01
 -1.5293314e-01
 -1.7064957e-01
  6.1032087e-02
  6.9418028e-02
  9.2563677e-01
 -2.8464070e-01
  4.9172834e-01
 -2.4872382e-01
  2.4927326e-01
 -3.5753989e-01
  1.4054523e-01
 -2.2626553e-02
 -2.8505349e-01
  2.1645768e-01
 -1.2460818e+00
  8.3868906e-02
 -6.1115432e-01
  4.2588475e-01
 -4.2461321e-01
  5.0981972e-02
  4.9084555e-02
  1.2169306e+00
 -1.2563150e+00
 -1.1428629e-01
  1.0918345e-01
  3.2110926e-02
  1.1799586e-01
  3.0076104e-01
 -9.2170045e-02
 -7.6123750e-01
 -1.9216755e-01
  2.1520140e+00
  1.2361248e-01
  2.6196709e-01
 -2.4471952e-01
  3.6368427e-01
 -9.2896062e-01
  2.5027213e-01
  1.5004331e+00
 -1.1723828e-01
 -1.1152009e-01
 -2.7186289e-01
  2.0169117e-01
 -2.7351674e-01
  1.0919140e-01
  3.5700837e-01
  1.4428389e+00
  1.4109868e-01
  2.9040799e-01
 -1.6063805e-01
 -3.6607448e-02
 -6.3492483e-01
  3.7902483e-01
 -4.6620494e-01
  2.5235298e-01
  6.6495204e-01
  3.6240116e-01
 -8.5931534e-01
 -1.5232635e-01
  2.8458968e-01
 -2.1377049e-01
 -3.7118576e-02
 -2.9355291e-01
 -3.1292835e-01
 -2.2212149e-01
 -3.2208643e+00
 -3.4381038e-01
  1.0354813e+00
  1.0311578e-01
 -9.8774767e-01
 -3.4949830e-01
  1.7107479e-02
 -1.0953661e+00
 -2.7757177e-01
  2.3210734e-01
 -6.5964866e-01
 -2.1184671e-01
 -4.2489409e-01
 -3.1425089e-02
  5.2225985e-02
 -6.1224759e-01
  8.9176476e-02
 -1.6785420e-01
  5.9185517e-01
 -2.0044219e-01
 -1.3719350e-01
 -9.2686266e-01
  1.0665388e+00
 -7.0579338e-01
  9.3321390e-02
 -1.7747641e-01
 -2.5162789e-01
  1.1550992e+00
  4.3996174e-02
 -1.7465252e-01
 -1.9120178e+00
  3.2751821e-02
  3.2228994e-01
  1.8008278e-01
 -2.9816261e-01
  3.6083129e-01
 -3.4159654e-01
 -3.3665717e-01
  7.5527918e-01
 -6.4287764e-01
  5.0338382e-01
 -9.1620609e-02
 -2.0688700e-02
 -1.1256514e+00
 -1.5399799e+00
 -1.1098434e+00
 -9.5419782e-01
  1.2520936e-01
 -2.9207021e-01
  2.8059545e-01
  5.0054508e-01
 -2.0313910e-01
  2.0883228e-01
 -1.0734831e+00
  3.0151495e-01
 -7.8091329e-01
  5.3679299e-02
 -2.2428502e-01
 -1.4107588e-01
  1.9627000e-01
 -1.3302696e-01
 -3.2532242e-01
  1.4631947e+00
 -3.8159057e-01
  5.7407536e-02
  1.8014956e-01
 -3.8644500e-02
  4.8339421e-01
  2.3566164e-01
 -1.2844527e+00
 -6.6634119e-02
 -1.6480302e+00
 -1.4687286e-01
 -1.2806406e+00
 -3.3067513e-01
 -5.0911063e-01
 -2.5606352e-01
 -2.8770342e-01
 -2.5461403e-01
 -6.7430431e-01
 -1.0657594e-02
 -1.5619547e+00
 -9.9288918e-02
 -1.0124862e+00
  3.2730321e-03
  2.6145571e-01
  2.5075784e-01
  1.4825800e-01
  5.5845332e-01
 -1.8924226e-01
  2.4851264e-01
 -7.3119593e-01
 -3.5943118e-01
  9.0359218e-02
 -1.2327588e+00
  4.4479821e-02
 -1.9714738e-01
  3.6158785e-01
  6.3836116e-01
 -7.9634339e-02
 -2.9835474e-01
 -7.5685269e-01
  2.0683920e-01
 -1.6917764e-01
  8.5200626e-01
  4.4549935e-02
 -3.9586636e-01
  2.8056443e-01
 -3.0396354e-01
  1.0975876e+00
 -2.2836259e-01
 -1.2275772e+00
 -1.9289963e-02
 -4.0638983e-01
 -5.7384044e-01
  4.2500216e-01
  1.6817205e-02
  8.6875916e-01
 -8.5856616e-02
 -2.0968278e-01
 -1.8711236e-01
  3.4305045e-01
 -3.2831901e-01
 -6.9837278e-01
  1.9350760e-01
 -2.9538798e-01
 -3.8170207e-01
  7.4323274e-02
  5.0492775e-01
 -4.1598669e-01
 -5.3261989e-01
 -2.8038931e-01
 -8.8343400e-01
  7.1430016e-01
 -5.1494829e-02
 -1.0854160e+00
 -1.1086441e+00
 -9.1267899e-02
 -1.1280568e-01
  2.7240840e-01
 -5.1367253e-01
 -4.3231198e-01
 -1.0991248e-01
 -1.9499221e+00
 -6.6369832e-01
 -6.0549933e-01
  3.8335761e-01
 -5.8303970e-01
  1.1608081e-01
  5.3060062e-02
  1.0876900e+00
 -1.8381553e+00
  1.0085474e+00
  2.8543195e-01
  7.5191277e-01
  9.3615085e-02
 -1.7779257e+00
 -1.7176254e-01
 -1.0505819e+00
 -9.1920304e-01
  1.2893215e+00
  5.4927629e-01
 -1.8135166e+00
  1.3038069e-01
 -1.0875889e+00
