nep4 5 C Cl H Na O 
cutoff 8 6 226 104
n_max 8 8
basis_size 8 8
l_max 4 2 0
ANN 40 0
 -1.8161038e-01
 -8.7242506e-02
 -1.5671840e-02
  4.6159863e-01
 -2.0583229e+00
  3.5545200e-01
  3.2328010e-01
 -6.6763625e-02
 -7.7760589e-01
 -2.3954199e-01
  3.0937586e-02
  2.2339651e-01
  2.7692491e-01
  1.0468811e-01
 -5.6022608e-01
 -1.5245917e-01
  8.3810502e-01
  1.5622104e+00
 -2.1620683e-01
  1.0852066e+00
 -7.1137059e-01
 -1.7469760e+00
 -1.1113714e+00
 -2.9142673e+00
 -7.2578698e-01
 -3.9688104e-01
  5.8376797e-02
 -2.3580654e-01
  2.9635658e-02
 -1.0151447e+00
  8.4475923e-01
  3.4541348e-01
  1.2120913e-01
 -2.0038170e-01
  6.5161842e-01
  3.8652921e-01
 -2.0988277e-01
  4.0043017e-01
  1.7837873e-01
  1.1125821e-01
  4.2641515e-01
 -4.0513784e-02
 -1.5313508e-01
  1.6065609e-02
  5.7938361e-01
  4.4695291e-01
 -8.6670190e-01
  1.1203465e-01
 -4.4902569e-01
  1.3364471e-01
  6.1843503e-01
 -3.1496853e-01
 -4.8401054e-02
 -4.2138189e-01
  2.6111603e-01
 -2.8365776e-01
  1.3714119e+00
 -7.8904159e-02
  5.5195022e-01
 -1.4909637e-01
 -7.9200470e-01
 -2.0195775e-01
 -3.9597082e-01
 -9.6164864e-01
  2.9217452e-01
  2.7735141e-01
  1.0884497e+00
 -7.9061282e-01
  3.6001676e-01
  5.7485557e-01
 -2.1923301e-01
 -4.5515560e-02
 -3.2525908e-02
 -2.0680535e-01
 -7.0808166e-01
  9.8376924e-01
  2.6201525e-01
  1.8459427e-01
  1.2599564e-01
 -8.6653715e-01
  1.2749265e-01
  2.3130667e+00
  2.0086822e-01
 -2.0299838e+00
 -2.2184470e-01
  6.3792437e-02
  3.3708576e-02
  1.1537012e-02
 -3.1053421e-01
  2.4310267e-01
  9.2867845e-01
  2.9925370e-01
  2.0432334e-01
  5.6482708e-01
 -3.4840667e-01
 -3.8753614e-01
 -1.6428934e-01
  1.1850135e-01
  3.8438690e-01
  5.0278211e-01
 -4.0710115e-01
 -2.9516456e-01
 -1.3898330e+00
 -1.9039103e-01
 -9.0993828e-01
 -1.9713265e-01
 -2.1229025e-02
 -1.5548460e-01
  1.8087509e-01
  6.3964880e-01
  1.4095023e-01
 -6.2146422e-02
  3.1021845e-01
 -9.0017430e-02
 -9.4134934e-02
  1.6967703e-02
  3.1777602e-01
  9.2535019e-01
 -3.9982527e-02
  8.5259193e-01
  2.6929644e-01
  1.0251521e+00
  3.6486468e-01
 -1.6226122e-01
  6.2400740e-01
 -2.0180655e-01
 -2.5786218e-01
  2.9373696e-01
 -1.9253618e-01
  1.2993273e+00
 -9.5400566e-01
  2.8400004e-01
  1.6624061e+00
 -2.4184477e-01
  7.2715014e-01
  7.8119189e-02
  2.2668467e-01
  5.0784141e-02
 -5.8282816e-01
  1.6865663e-01
  3.3999920e-01
 -1.1829013e+00
  8.7869816e-02
  8.1111901e-03
  4.0701172e-01
  5.8395669e-02
 -1.0074947e+00
  1.6785675e-01
  5.7721156e-01
 -3.2535496e-01
  3.3774224e-01
 -1.8185091e-01
  2.1998608e-01
 -1.1679024e-01
  5.7340419e-01
 -1.7238335e-01
 -2.9389888e-01
  4.0179148e-02
 -7.2604948e-01
 -3.3499014e-01
 -2.0624253e-01
 -3.0770800e-01
  5.4937683e-02
 -4.7955769e-01
 -7.4221426e-01
 -2.9179049e-01
  1.5876654e-01
 -2.9072352e-04
  3.3685762e-01
 -6.2636179e-01
 -1.2651739e+00
  1.3926837e-01
 -6.2732023e-01
 -8.7836725e-01
 -7.6882684e-01
 -6.6985565e-01
 -6.0995460e-01
 -5.0182450e-01
 -4.5448296e-02
 -4.5339320e-02
  2.4362941e-01
 -2.5359741e-01
  1.6769168e-01
  1.1233596e-01
  2.6632804e-01
 -3.4506477e-02
  5.1724356e-01
 -8.1331283e-01
  5.6113029e-01
 -1.0134929e+00
  6.2357765e-01
 -5.4408014e-02
  4.0451661e-01
 -2.4475844e-01
  5.2317899e-01
 -1.0023483e+00
  3.1784523e-01
 -5.7212490e-01
  5.5861604e-01
  1.2369266e-01
  1.7539304e-02
  6.6362536e-01
 -9.0799801e-02
 -1.6137561e-01
 -5.5385256e-01
  6.6816539e-02
  8.2122886e-01
 -1.4648788e-01
 -3.9753950e-01
 -5.9357572e-01
  4.4052190e-01
 -1.8474963e-01
  2.3598579e-01
  3.9206341e-01
  6.6308543e-02
 -1.1358394e-01
 -6.9288397e-01
 -5.3102827e-01
 -6.0217041e-01
 -6.2768131e-01
 -3.5806066e-01
 -7.2966315e-02
 -3.2584938e-01
 -3.7599909e-01
  5.0119478e-01
 -1.8421546e-02
  1.0199006e+00
  9.2061049e-01
 -1.1647280e-01
  7.4495220e-01
 -5.3082997e-01
 -3.8879028e-01
 -1.3574472e-01
 -5.3422457e-01
 -4.0201974e-01
  7.0142639e-01
 -5.9306037e-01
 -1.5912179e-02
  1.7229675e-01
  3.3477068e-01
 -1.0156830e-01
 -1.2028554e-01
  1.3333087e+00
  3.0434206e-02
 -8.4001994e-01
 -2.1834366e-02
 -6.5467492e-02
  2.3056251e-01
  2.3295426e-01
 -1.2877814e-01
  8.7613064e-01
 -9.5040089e-01
 -2.9391068e-01
  2.3249510e-01
  1.7332431e-02
  1.2621442e+00
  2.7489525e-01
  1.9993940e-01
 -5.9168708e-01
  2.0747821e-01
  1.6159934e+00
  7.1574217e-01
  6.3747186e-03
  8.1860942e-01
 -5.2009094e-01
 -1.1897504e+00
  7.0379823e-01
  6.5554535e-01
 -5.9590316e-01
  4.4386896e-01
 -1.0751704e+00
 -1.3362540e-01
  3.7034327e-01
 -3.9297067e-02
 -2.9325074e-01
 -2.3644519e-01
 -5.4817623e-01
  2.2574812e-01
  1.7914669e-01
  6.7029309e-01
  4.5372003e-01
  4.1011286e-01
  2.6163420e-01
  6.8860233e-02
 -1.0930380e+00
  1.0790654e-01
  2.0377955e-01
  1.5868250e-01
  6.1722539e-02
 -7.6552552e-01
 -2.4506878e-02
  2.8453285e-01
  5.2990294e-01
  8.8852040e-02
  6.4147127e-01
  1.3651651e-01
 -4.3028423e-01
 -7.7582753e-01
  8.8426620e-01
  5.0203180e-01
 -1.4058726e+00
 -1.9191723e-01
 -5.4032928e-01
  1.1878677e-01
 -1.8806977e-03
  1.1545936e+00
 -1.4392184e-01
  5.6273943e-01
  7.6688610e-02
 -8.8948733e-01
  1.3796177e+00
 -1.0680661e-01
 -1.5063947e+00
  6.9608532e-02
  5.4080850e-01
  6.2166221e-02
  1.7384905e-01
  3.3276409e-01
 -3.8785976e-01
  8.0866992e-01
  1.3680892e+00
 -1.5260613e+00
 -2.2986472e-01
 -1.5538082e-01
 -1.7005794e-02
  2.1313648e-01
 -5.1840490e-01
 -3.9341465e-01
 -4.7394800e-01
  8.6056548e-01
  2.1117608e-01
 -9.6333086e-02
  2.0823523e-01
  1.3650748e-01
  2.1648526e-01
  2.4843371e-01
  2.9288760e-01
 -3.1325653e-01
 -2.3044653e-02
 -1.9751963e-01
 -1.8209550e-01
  2.3780629e-01
 -8.6986172e-01
 -3.3965015e-01
 -1.5632162e+00
  3.4181845e-01
 -5.3335774e-01
 -5.8918560e-01
  2.1050787e-01
 -4.6305671e-01
  9.0661424e-01
 -1.0907041e+00
 -4.9432009e-01
  7.0281839e-01
 -1.6963716e-01
  2.1837488e-01
 -8.0717064e-02
 -4.1856179e-01
 -1.1126388e+00
 -9.3306124e-02
  5.0826567e-01
  1.6108227e-01
  9.5786080e-02
 -4.5289853e-01
 -2.5233945e-01
  5.1423043e-01
  1.6139928e+00
  4.0138173e-01
 -4.5884776e-01
  7.1310468e-02
 -2.2017828e-01
 -2.0209230e-02
 -6.0594666e-01
 -4.2545947e-01
 -2.3189041e-01
 -2.2734880e-02
  3.4713872e-02
  1.2715822e-01
  4.4310603e-01
  6.7847735e-01
  5.5116631e-02
 -6.9155298e-02
  3.0689073e-01
  3.8904041e-01
  8.5008335e-01
  3.0664128e-01
 -4.5932984e-01
  5.4757607e-01
  3.2400393e-01
 -5.5906349e-01
 -5.7405069e-02
 -5.1385313e-02
  7.4544543e-01
 -7.2908306e-01
  1.6218305e+00
 -2.1401444e-01
 -2.7192178e-01
  4.5552981e-01
  9.5189798e-01
 -1.0075896e+00
 -1.3056014e+00
  9.2089772e-01
 -8.8615865e-02
 -1.1532208e+00
 -6.5008354e-01
  5.3581423e-01
  4.3052804e-01
  6.7825091e-01
 -7.1673822e-01
  6.5964681e-01
  1.9086696e-01
 -5.4935539e-01
  9.5633936e-01
 -3.7013340e-01
 -6.0247250e-02
  3.6012203e-01
 -7.4701047e-01
 -7.9727001e-02
  1.9430727e-01
 -6.6695386e-01
 -6.7005372e-01
  1.5118928e+00
  1.2625784e-01
 -1.6286223e-01
  1.0936235e+00
  7.0112604e-01
  2.4555172e-01
 -5.5879360e-01
  2.7264822e-01
 -1.5814157e-01
 -2.2254911e-01
 -1.1391728e+00
 -3.6209542e-02
 -3.5991639e-01
 -5.0512177e-01
 -2.5404212e-01
  5.8069605e-01
 -2.6830825e-01
 -2.0348110e+00
  2.0290445e-01
 -9.2151296e-01
 -2.5130123e-01
 -3.4306914e-01
 -2.2934957e-01
  4.9491829e-01
  1.1016218e-01
 -6.0196918e-01
  4.3665805e-01
  1.6976826e-01
  1.1290635e-01
 -1.5758085e-01
  1.3385135e-01
  1.0935068e-03
  1.1134130e-01
 -8.1846714e-02
 -3.3684158e-01
  2.9895356e+00
  1.3619028e-01
  2.5916103e-02
  2.6499507e-01
  2.5614190e-01
  1.9115782e-01
  1.3954139e-01
  1.6070738e-01
  7.6802039e-01
 -1.6619416e-01
  1.7067697e-02
 -1.7675163e-01
  2.8968346e-01
  1.1848979e-01
  2.3421557e-01
  2.2952092e-01
 -8.2026905e-01
  4.9080735e-01
  8.2861716e-01
 -1.5253201e-04
 -1.1365052e+00
  1.2471511e-01
 -1.3451818e-01
  6.3134456e-01
  4.0826082e-02
 -9.2549014e-01
  1.4767013e-01
 -1.4429773e-01
 -3.5058334e-01
 -8.0605471e-01
  9.5870835e-01
  2.1791357e-01
  7.2705173e-01
  2.2752389e-01
 -1.2374420e-01
  6.4006138e-01
 -4.4231278e-01
  1.0537809e+00
  1.2250719e+00
 -1.0709895e+00
  4.0235817e-01
  2.3921490e+00
  6.4601791e-01
  5.1314050e-01
  9.1206646e-01
  2.3617731e-01
 -9.1798306e-02
 -8.9281633e-02
  9.9053934e-02
  5.0711381e-01
 -2.7159840e-01
  2.0077100e-01
  6.9424945e-01
 -1.3819276e+00
 -5.1156338e-02
  5.3865111e-01
  2.2228537e-01
 -6.0071021e-01
 -1.0173764e-01
  4.7876579e-01
  1.7055777e-01
 -2.4378304e-01
  9.9290036e-02
  1.3259354e-01
 -3.1606935e-02
  3.2927021e-02
 -4.6973220e-01
 -2.9257601e-01
  1.7207646e-01
  1.2446575e+00
  2.5505918e-01
 -1.1679231e+00
  6.9603491e-01
  3.9855380e-02
 -2.6901653e-01
 -5.7243848e-01
 -3.7422612e-01
  3.5816625e-01
 -7.3245990e-01
 -2.8163874e-01
 -7.3839918e-02
 -6.1806656e-02
  1.0643966e+00
 -1.9721991e-01
  9.6419680e-01
 -2.1978761e-01
 -2.1707363e-01
 -8.7909889e-01
 -6.1717409e-01
 -1.0465914e-01
  1.3633213e+00
 -9.1979551e-01
 -4.7204542e-01
 -4.9386486e-02
 -4.3198031e-01
  8.0501819e-01
 -4.5742374e-02
  3.7944865e-01
  7.4319318e-03
  3.5817111e-03
 -3.2664922e-01
  2.5189993e-01
  5.0209349e-01
  3.0185962e-01
  2.8426516e-01
  8.4740222e-02
 -3.9928141e-01
 -5.5142927e-01
 -3.1417167e-01
 -2.0430797e-01
 -4.7153282e-01
  7.4270554e-03
 -1.0591969e+00
 -1.5489899e-02
  2.8350228e-01
  1.6928534e-01
  1.1148594e-02
 -5.5170053e-01
  1.5653864e+00
 -6.5755934e-01
  2.3367774e-02
  3.7951443e-01
  7.0830595e-01
 -1.8388160e-01
 -7.9084378e-01
  2.1005371e-01
 -3.5800494e-02
  2.8666345e-02
 -2.7655283e-01
  9.1443032e-02
 -4.1467363e-01
  9.1233414e-01
  1.9825599e-01
 -3.1184465e-01
 -1.1138791e-02
  3.1322530e-01
 -1.7304970e-01
  1.2313679e-01
 -2.2074428e-01
  1.7537802e-01
 -1.0444326e-02
 -8.5933799e-01
  5.3342544e-02
 -1.3027903e+00
 -1.5781911e-01
  9.1743082e-02
 -1.7528132e-02
 -1.9152339e-01
  1.8008571e+00
 -6.8832272e-01
 -1.6753185e-01
 -5.8074021e-01
  2.0586064e-01
  5.0315726e-01
  1.8137753e-01
 -1.0245813e+00
 -2.3818865e-01
 -5.0590225e-03
 -9.0025795e-01
 -2.7243963e-01
 -2.4240042e-01
  5.8182096e-01
 -6.7152530e-02
 -3.5527459e-01
  7.8489542e-02
 -3.6979597e-03
  9.3782358e-03
  3.4233294e-02
 -1.6127474e+00
 -5.7035279e-01
 -4.6507230e-01
  6.5142810e-02
 -8.2134843e-02
  1.2355996e+00
 -5.3106004e-01
 -5.8254385e-01
 -7.7569574e-02
  3.1227389e-01
 -1.8631431e-01
  4.6973354e-01
  1.7035519e-01
  3.9829172e-02
 -6.4480835e-01
  3.6400878e-01
  1.0215731e+00
  8.7614208e-01
 -2.0052341e-01
  3.1406033e-01
 -1.5040953e-02
  8.5180759e-02
  1.1237469e-01
  2.7929151e-01
  3.5131189e-01
  8.2671881e-01
 -1.0369488e+00
  3.3780399e-01
  4.5872957e-01
 -7.8757274e-01
  7.8681123e-01
  6.9545621e-01
 -5.2011963e-03
  2.9238138e-01
  2.9564980e-02
 -5.6718677e-01
  1.2772851e-01
 -3.4057635e-01
  3.8811454e-01
  6.4061326e-01
 -3.0903992e-01
  3.4317929e-01
 -3.2798216e-02
 -6.4077532e-01
  2.8057018e-01
 -1.8622071e-01
  3.2649958e-01
  4.1757399e-01
 -1.8687019e-01
 -3.0660158e-01
 -6.2196106e-01
  2.6830536e-01
 -1.2867773e-02
  2.9119450e-01
  2.2843438e-01
 -1.3450745e-01
 -7.2035563e-01
 -3.8706726e-01
 -1.1395104e+00
  2.1548754e-01
  1.1174861e+00
 -1.0127083e-01
  1.4127955e-02
  3.2260343e-01
 -1.6174158e-01
 -5.8129601e-02
 -2.7836466e-01
 -2.5300694e-01
  3.6531839e-01
  3.3775890e-01
 -8.2892257e-01
  1.1800177e-01
  7.6133722e-01
  1.0424233e-01
 -5.9094524e-01
  1.4806685e-01
 -1.0653793e+00
  6.3926056e-03
 -7.5256407e-01
 -1.1079253e-01
  4.8371768e-01
  2.1780811e-01
 -5.2560169e-02
 -8.3130732e-02
 -1.1105566e+00
 -1.0571856e+00
 -1.0369514e-01
  2.7649969e-01
 -4.7664110e-02
  7.3499456e-02
 -1.3123705e+00
  1.6683252e-01
  2.0984560e-03
 -1.7409304e-01
 -1.8850479e-01
 -9.0374202e-02
 -1.2318773e+00
 -1.3745612e+00
  4.4649970e-02
 -9.8876774e-01
 -3.0702037e-01
  3.3574259e-01
  1.1762093e-01
 -1.4149004e-01
 -6.8841559e-01
 -1.7631045e-01
 -6.5999888e-03
  2.7105749e-01
  3.5055071e-01
 -3.2583004e-01
  1.0450149e+00
 -1.2966011e-01
  1.7960334e-01
 -4.9498591e-01
 -3.1529322e-02
  2.5201151e-01
  8.5561395e-01
 -7.2413094e-02
 -2.3244528e-01
 -5.8139729e-01
 -6.3683592e-02
 -3.3020020e-02
 -8.7675631e-01
 -1.1971991e+00
  8.4644842e-01
  3.3218700e-01
 -3.7726169e+00
 -5.0762482e-02
 -1.0862079e-01
  4.6083498e-01
 -8.1747711e-02
 -5.0107837e-01
  4.5763406e-01
  8.6832756e-01
  1.6381770e-01
  2.4827909e-01
  5.5031769e-02
 -8.1328553e-01
 -3.2969832e-01
 -1.8021838e-01
 -5.4153197e-02
  4.7432500e-01
 -2.5959843e-01
  1.7598766e-01
  5.7113719e-01
 -9.6830618e-01
 -1.1870446e+00
 -5.9819090e-01
  3.4451279e-01
 -3.8709405e-01
 -1.0715780e-01
 -9.4923949e-01
  1.0590404e+00
 -1.4244070e+00
 -5.2251458e-02
  2.8884611e-01
 -1.8160319e-01
 -3.4636134e-01
  7.3057574e-01
  9.6991807e-02
 -1.1042484e-02
  4.5212205e-02
 -2.7114230e-01
 -2.6271096e-01
  4.2268163e-01
  6.3064378e-01
  4.7669038e-02
  5.5001295e-01
 -1.0098702e+00
 -8.3002591e-01
 -5.5085629e-02
 -2.5677204e-01
 -5.6002945e-01
 -1.8382272e-01
 -3.6516738e-01
 -5.0496185e-01
 -1.5045831e-01
 -2.4051049e-01
 -1.8462816e-01
  3.9965063e-01
 -6.4301312e-01
  9.4912207e-01
 -4.6908620e-01
  1.0443299e+00
  1.7056611e-01
 -1.3434886e+00
  1.5480965e+00
 -3.8290268e-01
 -1.6156170e+00
  2.6747465e-01
  1.8683073e-01
  4.6611539e-01
  1.0558503e-01
  4.1038749e-01
  1.6546662e-01
 -1.5786328e+00
  7.6017821e-01
  2.5884366e-01
 -3.1971946e-01
 -1.0315279e+00
  1.8135390e-01
  1.0268996e+00
  1.2411968e+00
 -1.3720238e-01
  9.7048897e-01
 -4.2996225e-01
  1.1632510e-01
  1.2608416e-01
 -2.1707444e-01
 -9.2702347e-01
 -1.2341356e-01
  2.2012460e-01
 -3.7050433e-02
 -2.4506958e-01
  2.5145489e-01
 -1.4748076e-01
  4.2072701e-01
  1.2714837e+00
 -1.4605010e+00
 -6.9651014e-01
 -7.7428561e-01
 -2.1990049e-01
  5.3706366e-01
 -1.8703073e-01
  1.0748807e+00
 -3.4110218e-01
 -8.2428980e-01
  4.4242820e-01
 -6.5264422e-01
  1.2673767e-01
 -3.0673450e-01
 -8.1675038e-02
  1.5478228e-01
  5.7310510e-01
  7.0632881e-01
  1.2824619e-01
 -4.7908294e-01
 -2.6961663e-01
  1.5575309e+00
 -9.1374332e-01
  8.5670419e-02
  7.3319852e-01
 -5.2955729e-01
  4.0030804e-02
  7.0968717e-01
  9.2182112e-01
 -1.5732490e+00
 -7.3678285e-01
 -3.3854932e-01
 -2.3410468e-01
 -1.5618900e+00
  1.0668485e+00
 -3.8587311e-01
  2.0376307e-01
 -3.0775094e-01
 -1.4438185e-01
  1.1252409e-01
  4.9237860e-03
  9.3116976e-02
 -8.4108464e-02
  2.1577017e-01
 -6.7548466e-01
 -7.7464867e-01
 -2.8435671e-01
  2.9168585e-01
  1.8781097e-01
 -3.5010871e-01
  1.0841656e+00
  4.2414841e-01
  1.9705597e-01
  6.3885152e-02
 -5.0566697e-01
  7.2125439e-03
  6.8316793e-01
 -4.1075748e-01
  2.7645883e-01
 -5.6326479e-01
 -8.9201909e-01
 -6.1840361e-01
  5.9349453e-01
 -2.9421136e-02
  4.9296290e-01
 -3.4054428e-02
  7.2163045e-01
 -1.3994463e-03
 -7.9962619e-02
  1.5274611e+00
 -4.6609792e-01
  4.7476158e-01
  1.6258493e-01
 -8.5779890e-02
 -3.8131574e-01
 -1.2248111e+00
 -9.5953569e-02
 -3.2880652e-01
  1.3308580e-01
  5.4683809e+00
  4.7903877e-01
  5.5470012e-02
  1.0276496e-01
  4.5460671e-01
 -4.9688730e-01
 -1.1107403e+00
  4.1765848e-01
  1.9570586e-01
  7.0835626e-01
 -4.7310956e-02
 -2.1789156e-01
 -1.0600609e+00
 -1.8065879e-01
  1.7411903e-01
 -6.6454247e-02
  3.5157362e-01
 -1.6867327e-02
 -1.9652481e-01
 -1.3749294e+00
  5.0473088e-01
  6.9970918e-01
  2.6178345e-01
  6.1068147e-02
  3.8000113e-01
  1.0847808e-01
  2.5197413e-02
  1.0902310e-01
  1.9191021e-01
  1.1760006e+00
 -2.6603213e-01
  3.7818006e-01
 -1.2276625e-01
  8.7451065e-01
 -9.7110257e-02
 -4.0728010e-02
 -8.2295507e-02
  1.2411568e-01
 -3.8946223e-01
 -2.0695288e-01
  3.7184814e-01
 -2.3372419e-01
 -1.8163343e-01
 -7.7197510e-01
  2.8931621e-01
  7.2860253e-01
 -1.8726330e-01
 -6.4056164e-01
  1.5903898e+00
  7.2081965e-01
 -3.7329767e-02
 -5.5030733e-01
 -8.6237860e-01
  7.9868782e-01
  2.9883716e-01
 -4.7710440e-01
  7.0059150e-02
 -5.7777953e-01
 -8.1018835e-02
 -4.0689638e-01
 -1.5819404e-02
 -1.4423040e+00
 -1.9341501e+00
  3.6546037e+00
  2.1384919e+00
 -5.3337336e-01
  1.7970155e+00
  4.0542002e+00
 -1.0727839e+00
 -1.4311446e+00
  6.0361284e-01
  1.3009994e+00
  4.4399872e+00
 -1.5241232e+00
 -3.6879119e-01
  2.1242187e+00
  2.4773779e+00
 -5.3747672e-01
 -2.6243329e-01
  3.2986956e+00
  2.4140408e+00
  5.5651178e+00
 -3.3804789e-01
 -2.4410141e+00
  2.0140903e+00
  4.2813022e-02
 -3.4438128e+00
 -6.9177501e-02
 -2.2647981e-02
  1.1436335e+00
  2.6540282e+00
  3.2618827e-01
  7.0940778e-02
  7.8697014e-01
 -1.0159053e+00
 -1.7188765e+00
 -5.8999830e-01
  1.5211445e-01
 -1.5426246e+00
 -7.4088347e-01
 -7.0792781e-03
  1.1031337e+00
  9.4510955e-01
  2.1342002e-01
  1.4219048e+00
 -1.3337213e+00
  2.4087377e-01
 -9.9210566e-01
 -4.9065530e-01
  9.0712771e-02
 -4.7725645e-01
 -8.1340611e-02
 -1.3156091e-01
 -1.7021289e-01
  2.5635931e-01
  4.7761941e-01
 -6.3842100e-01
 -6.6226006e-01
 -1.2356428e+00
  8.2497519e-01
 -2.5299606e-01
 -5.4120034e-01
  1.6391060e-01
  8.3218271e-01
  7.9302526e-01
  3.8744876e-01
  2.7895287e-02
 -4.3576303e-01
  7.2275400e-02
 -3.9639607e-01
 -9.1860332e-02
 -1.4937228e-01
  7.0052028e-02
 -1.1415973e-01
 -1.1491829e-01
  8.1473041e-01
 -4.8606336e-02
  2.7291611e-01
  2.6017460e-01
  1.2702720e-01
  5.3510064e-01
  4.0626463e-01
  1.1748517e-01
  1.4432521e-01
  2.1017623e-01
  7.0671421e-01
 -3.7168691e-01
  2.1898815e-01
 -6.7091453e-01
 -2.5587070e-01
 -1.2345529e-01
 -2.0068955e-01
 -2.5731573e-01
  1.7249808e-01
  1.6593585e+00
 -4.7848180e-02
 -1.8764211e-01
  4.1687524e-01
 -5.0852197e-01
  6.2659562e-02
 -2.1615891e-01
  1.7196563e-01
 -7.2997332e-01
  1.5477476e-01
 -3.3011638e-02
  5.7523686e-01
  1.1649121e+00
  2.8742617e-01
  5.8604342e-01
  4.1561702e-01
  8.3842151e-02
  6.3827388e-02
 -5.5707914e-01
  6.1908376e-01
  3.4965667e-01
  5.1439965e-01
 -1.3845394e+00
 -8.0818141e-01
 -7.1972758e-01
 -2.3554328e-01
 -1.8628946e-01
 -1.3011422e+00
 -1.9790232e-01
  2.7937490e-01
 -2.0322344e-01
 -3.1599441e-01
  2.4740864e-01
  4.5004839e-01
 -5.0249249e-01
 -2.6842329e-01
  7.1278882e-01
  7.1160153e-02
 -7.2923653e-02
  7.6213831e-01
 -1.6644008e-01
 -5.5067223e-01
  2.4518374e-01
  1.4080241e+00
  6.3735306e-01
 -1.0830014e+00
 -3.1304482e-01
  2.3162127e-01
  2.7388287e+00
  8.9943334e-02
  6.9918025e-01
 -1.8530050e-02
 -6.5202159e-01
  3.1080667e-02
  4.5664829e-01
  2.9809332e-01
  4.6945313e-01
  2.0664309e-01
 -2.1019088e-02
  6.0515964e-01
  3.0048931e-01
 -3.9005008e-01
 -2.2734319e-01
  1.6676572e-01
 -7.0841640e-02
  8.1693184e-01
 -1.2143500e+00
 -2.3089632e-02
 -2.0845565e-01
 -1.0536495e-01
  1.2377682e-01
  3.3420023e-01
 -5.9831858e-01
 -1.6388209e-01
 -3.6661604e-01
  4.2773420e-01
  2.0587161e-01
 -1.2572441e-01
  5.1252848e-01
  3.0160151e-02
 -1.1044784e+00
 -7.3154345e-02
  7.5529933e-02
 -1.4843543e-01
 -3.4101599e-01
  8.1069332e-01
  1.3358091e-01
  2.2509137e-01
 -2.3599369e-03
 -1.1606860e+00
  2.6770699e-01
  8.9820020e-02
  1.9344652e-01
 -2.9580745e-01
  2.5446704e-01
 -2.2412343e+00
  4.0616286e-01
  5.8582705e-01
 -3.0418107e-01
  3.6089018e-01
 -9.9047691e-02
  2.5553852e-01
 -2.3586245e-01
 -2.8130263e-01
 -2.1900533e-02
 -9.1133080e-03
  4.5984745e-01
 -1.0761483e+00
  5.9924757e-01
 -4.2632779e-01
  1.3159875e+00
 -4.4529468e-01
 -4.2259029e-01
  2.0266844e-01
  2.9593992e-01
  2.7288914e-01
  7.0726341e-01
 -2.5406557e-01
 -3.8669330e-01
 -8.7401986e-02
 -5.0504452e-01
  7.7902484e-01
  6.6682380e-01
 -3.5919663e-01
  7.8911579e-01
  9.8300062e-02
 -5.5674917e-01
 -3.1607395e-01
 -1.2594292e-01
  4.7122769e-02
  8.0769934e-02
  3.8262776e-01
  6.4864308e-02
  5.8478630e-01
 -4.8647851e-02
  1.3070115e-01
  4.8137558e-01
  6.6871297e-01
  8.9045346e-01
  1.1762646e-01
  1.9577119e-02
 -3.5685164e-01
  2.2062023e-01
 -5.0411606e-01
  2.1917537e-01
  8.4700540e-02
  9.5350668e-04
  2.6637706e-01
  8.7047678e-01
  4.8837766e-02
  5.2570328e-02
 -1.9633657e-01
 -2.7537726e-02
 -5.2706456e-01
  3.5508475e-01
 -1.2627301e-01
 -2.8928211e-01
  1.4911367e+00
 -1.6438897e-01
 -8.6376452e-01
  3.2015952e-01
 -5.3593361e-01
  6.6667223e-01
  4.7554320e-01
  1.5493137e+00
  2.4437048e-02
 -1.0829263e-01
  7.4269360e-01
  1.8258731e-01
 -3.5381466e-01
 -6.9540747e-02
 -6.0690200e-01
 -3.1459427e-01
 -1.0630126e-01
  1.8064489e+00
  2.2757918e-01
  5.7621878e-01
 -2.5743657e-01
 -4.3113482e-01
  7.6908693e-02
 -5.2968085e-01
 -1.0664338e+00
  3.9818007e-01
 -4.6756503e-01
  3.0531455e-02
  5.3334549e-02
  3.0725655e-01
  4.3483105e-01
  8.4442687e-01
  3.7443548e-02
 -5.6326348e-01
 -3.8462764e-01
 -6.8923855e-01
 -4.9383037e-02
  3.2993171e-02
 -7.4969716e-02
 -9.4854450e-01
  9.3839407e-01
  2.1312872e-01
  2.3790044e-01
  9.0830368e-01
  1.4831929e-01
 -1.1496053e+00
 -1.0112725e+00
 -2.5193453e-01
 -5.8203485e-02
 -7.0214581e-01
 -5.8942521e-01
  4.4427311e-01
  1.7193969e-01
 -5.5402583e-01
  7.0195094e-02
  4.1969132e-01
 -3.4983891e-01
 -5.5242395e-01
  2.1220727e-01
  6.2012839e-01
  6.1106300e-01
 -4.4865352e-01
  5.6308681e-01
  8.9242339e-02
 -2.0288317e-02
 -2.2382034e-01
 -4.9657142e-01
  3.5947761e-01
 -3.3023779e+00
  5.9827548e-01
 -1.3886616e-01
  6.1893773e-01
 -3.5423640e-02
 -3.6304045e-01
  2.1319006e-01
  1.7024037e-01
 -1.2352989e+00
 -4.9647683e-01
 -3.8000751e-01
 -3.2064092e-01
 -1.5441175e-01
 -3.5615265e-01
  3.4570760e-01
  4.0843940e-01
 -4.6991125e-01
 -1.0912387e+00
  9.4409007e-01
 -3.4981456e-01
  3.6512488e-01
 -3.4546319e-01
  9.3717784e-02
  2.2530290e-01
 -1.8000875e+00
 -3.5988462e-01
 -4.9044016e-01
 -3.6546466e-01
 -1.2127751e-01
  2.8222710e-02
 -2.3856921e-01
  9.9686809e-02
 -2.9768730e-02
 -2.4764010e-01
  7.4153954e-01
  4.5774095e-02
  2.8918272e-01
 -4.6509739e-02
  3.3996886e-01
  1.1316182e-01
 -2.4270374e-01
 -2.4872375e-01
 -5.4608099e-02
 -1.9192292e-01
 -6.4966902e-03
 -3.3738288e-01
 -7.6121569e-01
  2.6722500e+00
 -6.7129123e-01
  1.1065630e+00
 -7.4418038e-02
  3.5524312e-01
 -4.2979729e-01
 -6.3109376e-02
  1.6979231e-01
 -4.8621979e-01
 -5.6891397e-02
 -9.3194239e-02
 -1.3158226e-01
 -1.2004628e-01
 -9.1804540e-01
  3.7193170e-01
 -9.4211125e-01
 -1.3704434e-01
  3.4331486e-01
 -1.4532034e-01
 -1.2024227e+00
 -5.6651026e-01
  8.5771978e-01
 -5.8011804e-03
  2.1426670e-01
  1.1630106e-01
 -3.2756659e-01
  3.2978788e-02
 -1.8026334e-01
 -1.8799190e-01
  5.9437197e-01
  1.6235730e-01
 -4.9413854e-01
  1.6954049e-02
  1.2020484e-01
 -1.5355072e+00
 -1.0514287e+00
  1.4004017e-01
  3.2070026e-01
 -6.0160685e-01
  9.9297529e-01
 -1.0277840e-01
 -5.9267378e-01
  4.0920842e-01
 -3.4322247e-01
 -4.1781253e-01
 -5.1790369e-01
  4.2658591e-01
  1.7839475e-01
 -1.6430256e-01
  7.2136462e-01
 -9.3232632e-01
  6.1366457e-01
  5.9389651e-02
 -2.8012276e-01
  1.0504814e+00
  2.1541776e-01
  6.4088291e-01
 -1.3582391e-01
 -6.3644928e-01
  4.6243877e+00
 -2.1211126e+00
 -3.3268175e-01
 -2.0616848e+00
  1.9141471e-02
 -2.8855884e-01
  1.1263132e-02
 -3.2863551e-01
 -7.6856661e-01
  7.4936575e-01
  9.0456742e-01
  9.2368382e-01
  2.4682558e-01
  6.5672821e-01
  1.5167190e-01
 -1.6061462e-01
 -5.5929458e-01
  1.1126944e+00
  3.5318571e-01
 -5.6308348e-02
  1.0256277e-01
  1.6449152e-01
 -5.7971048e-01
  1.1961432e-01
  5.9120286e-01
 -5.2695984e-01
 -8.9107907e-01
  5.9024191e-01
 -1.1348121e+00
  3.5458151e-01
  3.1930509e-01
  2.6197913e-01
 -8.7416038e-02
  1.0731195e+00
 -9.7093508e-03
 -5.0161767e-01
 -5.4910260e-01
 -2.5928721e-01
  1.1920103e-01
 -3.9608008e-01
  4.4617644e-01
  1.6747811e-01
  8.7275356e-03
 -7.3775902e-02
  2.5238541e-01
 -2.1696578e-01
  2.6804942e-01
  2.0007297e-01
  5.0492130e-02
  8.2090296e-02
 -2.8516728e-01
 -3.9242423e-01
  3.8016567e-01
  4.6548754e-02
 -2.2858027e-01
  3.9434311e-01
  3.7317537e-02
  5.7219946e-01
 -6.4086342e-01
 -1.4565492e-02
 -2.9854569e-01
 -3.2833344e-01
  1.9778718e-01
 -5.3721994e-02
  4.5706734e-01
 -4.6418828e-01
 -6.9700420e-02
 -2.5868976e-01
 -1.4199914e+00
  8.0251521e-01
 -3.1753170e-01
  2.6972592e-01
 -8.7741411e-01
 -4.4848567e-01
 -9.0871632e-01
 -6.7893989e-02
  1.1472019e+00
 -1.4149172e+00
  2.6195675e-01
 -2.4983707e-01
  3.6467826e-01
  2.6557326e+00
 -5.9693080e-01
  1.2736249e-01
 -3.9407921e-01
 -3.7134904e-01
  7.2363639e-01
 -1.6864100e-01
 -1.2192696e-02
 -6.8717349e-01
  4.9523503e-02
  7.4815106e-01
 -2.7678552e-01
 -1.2852963e+00
 -5.0647420e-01
 -1.7467351e-01
 -2.3476391e-01
  5.5769616e-01
  4.2346220e+00
  8.0551185e-02
 -1.9990948e-01
  3.8776409e-02
 -1.2218108e+00
  9.3987495e-02
  1.6117421e+00
  1.6958244e-01
 -9.0888992e-02
  6.8924654e-01
 -4.1918326e-02
  5.6886774e-01
  7.4783288e-02
  1.9603163e-01
 -5.1819652e-01
 -1.7496376e+00
  3.9186798e-02
  9.2483240e-01
  2.6451850e-01
 -2.3536298e-01
  2.9164323e-01
 -6.7134988e-01
 -2.9862836e-01
  5.3002703e-01
 -9.9484466e-02
  1.0554213e-01
  5.7693362e-01
  3.8996539e-01
  6.0223080e-02
  2.1063060e-01
  1.2102137e+00
  6.2539056e-04
 -6.5772265e-01
  1.2153345e-01
 -3.8387030e-03
 -8.3196759e-01
 -8.7695837e-01
 -4.2446604e-01
 -7.4917659e-02
  2.4168305e-01
  7.9403132e-01
 -3.4306931e-01
  2.4858032e-01
 -2.5132847e-01
  9.0907335e-01
 -7.1859545e-01
 -5.0753945e-01
  7.1406639e-01
  4.9049968e-01
 -4.5455417e-01
 -1.6326138e-01
 -2.4326652e-01
 -6.0540378e-01
 -8.0269116e-01
 -1.9219840e-01
 -7.8932035e-01
  3.5082984e-01
 -1.8132471e-01
 -4.5753339e-01
 -9.2909205e-01
  9.6230991e-02
 -4.5787087e-01
  3.2009029e-01
 -2.6501128e-01
  3.4731913e-01
 -3.2355711e-01
 -7.3152500e-01
  1.0727718e-03
 -6.4462084e-01
  3.0533066e+00
 -3.0673239e-01
  5.3455698e-01
  4.8566628e-01
  2.1384297e-01
  1.7098881e-01
  9.7723317e-01
  1.3633072e-03
  5.7339728e-01
  7.8824413e-01
 -7.3546715e-02
  8.2761192e-01
  7.9266682e-02
 -2.7839175e-01
 -4.3123764e-01
 -4.6076509e-01
  1.5735963e-01
 -5.2344185e-01
 -2.2843754e-01
  5.4640687e-01
  3.1657685e-03
 -8.0359495e-01
 -6.0184944e-01
 -1.4370668e-01
 -3.3928286e-02
  5.7904291e-01
 -2.7365378e-01
  1.4013688e-01
  1.3304688e-01
 -1.4740741e-01
 -4.9093872e-01
  1.6897523e+00
 -1.0094266e+00
 -6.0977954e-02
 -2.4824834e-01
 -4.0709919e-01
 -6.4949423e-02
  8.7303132e-02
 -5.2948618e-01
 -1.2649041e+00
  2.6883039e-01
  6.5901205e-03
  6.9200391e-01
 -1.2554182e-01
  6.5797853e-01
 -4.9716875e-02
 -8.0495805e-01
 -3.0338016e-01
  2.6778442e-01
  1.9515134e-01
  2.7702531e-01
  1.9994963e+00
 -9.5138258e-01
 -6.1912355e-03
 -2.7651358e-01
 -7.5832093e-01
 -8.7612301e-02
 -1.5749191e-01
 -1.3555953e-01
  7.1608078e-01
 -7.8903830e-01
  7.6991272e-01
  6.5043896e-01
 -5.8054793e-01
 -5.8063942e-01
  3.2041144e-01
 -4.5393568e-01
  6.1296195e-01
  1.9347873e-01
 -2.5249133e-01
 -7.0208716e-01
 -6.6572243e-01
  2.0252806e-01
 -1.1593274e+00
 -3.0863604e-01
 -5.3110248e-01
  2.7175424e-01
 -1.4614654e-01
 -1.6624700e-02
  1.9039293e-01
  2.0154295e+00
  9.3406029e-03
  1.4407460e-01
  5.0688607e-01
 -2.0223759e-01
  2.2192386e-01
 -8.2632601e-01
  1.2544309e-01
 -4.8910525e-01
 -6.7634690e-01
  9.7511627e-02
  6.8509497e-02
 -1.0884735e-01
  2.5856388e-01
  1.7987196e-01
  6.8272895e-01
 -4.3318950e-02
  2.0829874e-01
 -2.5031883e-01
 -1.6114981e-01
  6.5012246e-01
 -4.2024676e-02
  2.4746071e-01
 -4.8769462e-01
 -4.7874834e-02
 -9.1712892e-01
 -8.9552832e-01
 -1.3300034e-01
  6.0645682e-01
 -4.0324935e-01
 -2.7868593e-01
  8.3996183e-01
  2.8070047e-01
 -6.8568152e-01
 -4.8610389e-02
  6.8119824e-01
 -6.8357028e-02
 -3.0402318e-01
  3.8038228e+00
 -8.6547995e-01
  4.0045938e-01
 -8.6598977e-02
  2.3846771e-01
  8.2570541e-01
 -5.2263635e-01
 -7.4231976e-01
 -8.0698323e-01
 -1.5261593e-01
 -7.4121070e-01
  1.0577064e-01
  3.2662061e-01
 -5.5185065e-02
 -1.2362285e+00
 -7.4758768e-02
  4.1468412e-01
  2.6450586e-01
  6.1166272e-02
 -1.1430489e+00
  5.0353348e-02
 -3.8022187e-02
  2.8728890e-01
  2.2603858e-01
 -2.5778055e-01
 -5.4726297e-01
 -3.5106084e-01
 -4.7888270e-01
  2.1987259e-01
 -1.3796562e-01
  2.0899056e-01
  5.3744543e-01
 -1.1567954e-01
 -1.7676978e-01
 -3.4538999e-01
  1.0022597e-01
  8.9385733e-02
 -2.9120058e-01
  1.0487845e+00
  3.0409012e-02
  5.1824927e-02
  4.1358784e-01
 -1.8075450e-01
  4.1032451e-01
 -1.2413968e+00
  5.0619471e-01
 -4.9264193e-01
  2.4888511e-03
 -2.6736312e+00
  2.8058560e+00
 -1.0667162e-01
  8.0565721e-02
 -4.3239556e-02
 -9.0610862e-01
  4.3313852e-01
  2.4457403e-01
  1.1495894e-01
 -5.4532677e-01
 -3.0653220e-01
 -2.9049435e-01
  3.3646461e-01
  5.5249378e-02
 -5.5852401e-01
  7.7105963e-01
  7.9345596e-01
 -1.9929361e-01
 -3.3730292e-01
  3.6228701e-01
  6.6754133e-03
  9.7169593e-02
  5.3047085e-01
  4.9206680e-01
 -5.4240739e-01
  5.1980414e-03
  5.7560623e-01
 -1.9823486e-01
  5.1260400e-01
 -2.0510493e-01
  5.0105304e-02
  2.1086745e-03
 -4.1277176e-01
  1.4874182e+00
 -1.0463096e+00
 -1.1382066e-02
  5.6769952e-02
  9.4760373e-02
  4.4723654e-01
  2.8959492e-01
 -2.3685710e-01
  4.4749832e-01
  5.3871053e-01
  5.4304671e-01
  5.5832518e-03
  6.2007755e-01
  8.6355262e-02
 -7.8246230e-01
 -1.6774498e-01
 -3.5005069e-01
 -2.2647433e+00
  3.9344931e-01
 -3.4409356e-01
  2.3531847e+00
  1.5553397e-01
  4.1574441e-02
 -5.4719079e-01
 -1.2690680e-01
  1.9005397e-02
 -3.8899511e-01
 -4.1923508e-02
 -7.3105794e-01
 -1.7788554e-02
  1.1582742e+00
 -7.0984393e-01
 -7.6375973e-01
  1.2267318e+00
 -2.8370520e-01
 -5.4641879e-01
  1.6840503e-01
  8.2659298e-01
 -5.4828405e-01
 -3.1346542e-01
 -5.9968400e-01
  3.1667349e-01
  3.4894189e-01
  2.6731047e-01
 -5.8140345e-02
 -8.1631050e-02
 -3.5791382e-01
 -8.7395251e-02
  1.5739518e-01
  1.3648182e-01
 -9.6797317e-02
  2.3986875e-01
  4.2641470e-01
  8.0953896e-01
 -1.9001849e-01
 -2.3970862e-01
 -6.9920009e-01
 -1.9889863e-01
 -3.0177239e-02
 -4.8957765e-03
  8.8377729e-02
 -8.4260017e-01
  3.5302746e-01
 -6.4839393e-02
 -4.0102178e-01
  8.6761701e-01
 -4.3133664e-01
 -3.8185781e-01
  1.0065175e+00
  2.2774260e+00
 -3.1784631e-02
  3.9828342e-01
 -1.2643622e-01
  3.1237733e-01
 -6.3101962e-02
  7.5343329e-01
 -2.7727300e-01
  7.5269327e-02
  7.5448036e-01
  2.2666490e-01
  2.4936326e-02
 -8.8855259e-02
  1.1668527e+00
  1.1890919e+00
  1.2275668e+00
 -1.7709688e+00
 -3.6749026e-01
  4.5066824e+00
 -1.2312491e-01
  4.2710215e-01
  2.1642660e-01
 -8.9601767e-01
  6.3924116e-01
 -2.7045166e-01
  4.2239718e-02
  7.7947271e-01
  1.6983753e-01
 -8.6163366e-01
  2.3330465e-01
  8.7428197e-02
  4.4551826e-01
 -1.0118314e+00
 -5.7127529e-01
  2.0192361e-01
 -1.9324353e-01
  9.8748136e-01
  1.3958633e-02
  3.8649929e-01
 -4.7256097e-02
  4.8217887e-01
  8.6496092e-02
  1.3811731e-01
 -1.0672333e+00
 -3.2560278e-02
 -9.9632770e-02
 -2.2335701e+00
  4.0173003e-01
  3.8519517e-01
 -6.0677069e-01
 -1.0118481e-01
 -1.1172817e+00
  5.4301953e-01
 -1.1960787e-01
 -1.5161434e-01
  9.9453695e-02
  2.0954540e-01
  8.2299419e-02
 -6.6760644e-02
  1.2701580e-01
 -3.8697708e-01
  1.4010228e-01
  1.5059552e-01
  2.4555522e-01
  3.4508705e-01
  2.1756369e-01
 -3.9756775e-01
 -3.7384982e+00
 -4.1504419e-01
 -4.5701003e-01
 -5.4874915e-01
 -2.3674671e-01
 -7.3807693e-01
 -4.4545940e-01
 -7.0264399e-02
  2.0751919e-01
 -4.8753805e-04
 -6.1836492e-02
  2.7978593e-01
  4.1704711e-01
  5.3208643e-01
 -9.4868414e-02
 -3.7294874e-01
  3.6193979e-01
 -1.5884008e-01
  1.0182592e+00
 -2.5417134e-01
 -2.5129846e-01
 -6.0043049e-01
 -1.2253814e-01
 -9.3342766e-02
  1.0603758e+00
  2.3592086e-01
  1.0423305e-01
  2.6458973e-01
  1.5371500e-01
 -3.6664775e-01
  2.4020164e+00
 -1.6220957e-02
  5.5140018e-01
 -2.0346145e-01
  9.5983714e-02
 -6.0715899e-02
  4.2299086e-01
 -3.2161483e-01
  1.0077556e+00
 -1.6012526e-01
 -5.4190177e-01
 -1.6886008e-01
  3.2733342e-01
 -1.3305981e-01
  5.0686955e-01
 -4.5565818e-02
 -1.9812232e-01
  1.6228320e-01
  6.1048441e-02
 -6.3153994e-01
 -7.8983665e-02
 -2.2414619e-01
  2.2088438e-01
  4.9808830e-02
 -4.2246586e-01
  2.2890678e-01
  5.9077120e-01
 -5.7989848e-01
  5.5409509e-01
  1.3873640e+00
  1.0307314e-01
  4.8290644e-02
 -6.7310685e-01
  9.6747309e-01
 -3.7919435e-01
 -2.6665747e-02
  9.1836333e-01
 -3.8421288e-01
 -8.8364172e-01
 -2.7415439e-01
 -1.4122345e-01
  2.8726578e-01
 -1.6480950e-01
 -8.6233711e-01
 -4.6215057e-01
 -5.8007824e-01
 -1.0234136e-01
  1.0077333e-01
  1.8422605e+00
  4.5739925e-01
  2.8852803e-01
  7.9726920e-02
 -3.7484476e-01
 -2.0118563e+00
  4.5901632e-01
 -7.4786353e-01
  5.6773793e-02
  3.1718150e-01
 -4.9219653e-02
 -2.6227552e-01
  2.3181002e-01
  6.3257504e-01
  2.0327540e-01
  4.6086118e-02
 -1.8504703e-01
 -5.9998488e-01
 -1.2742504e-01
 -1.3084859e-01
 -7.1570978e-02
 -6.9807246e-02
  1.1447939e+00
  1.6020934e-01
 -4.5579946e-01
  1.4607356e-01
 -2.0304452e-01
 -1.5038418e+00
 -8.0631775e-01
  8.7963611e-01
  4.8172200e-01
 -5.3024057e-02
 -1.2541553e+00
 -6.4168379e-02
 -1.1692035e-01
  2.9412058e-01
  1.6093862e-01
  1.4363400e+00
 -4.2312551e-01
 -1.4219382e-01
  4.4666953e-02
 -8.3378833e-03
 -4.1403043e-01
 -6.2496811e-03
  7.3750383e-01
  1.1103854e+00
  7.4719620e-01
 -5.5968112e-01
  8.3939272e-01
 -4.3301883e-01
 -5.5107707e-01
 -3.5972464e-01
 -9.9195354e-03
  1.0705186e+00
 -5.5572754e-01
 -9.7584653e-01
 -2.9931694e-01
 -1.2800315e-01
 -7.6090321e-02
 -3.6858130e-01
 -4.8451409e-02
 -3.2234006e-02
  5.6735426e-01
  1.5303932e-01
 -1.4600410e-01
  3.8358605e-01
 -3.2568306e-01
  2.5340114e-02
  1.2453322e-01
  3.0668685e-01
 -3.6664769e-01
 -4.3592904e-02
 -1.3544832e+00
  4.6480842e-02
 -4.0768176e-02
  1.0549920e-01
 -4.0012485e-01
 -1.3925502e-01
  1.9104446e-01
 -9.4211131e-01
  9.8788410e-02
  5.6754567e-02
  5.4692465e-01
 -2.0430823e-01
 -4.1254777e-01
 -4.9418986e-02
 -3.5432443e-01
 -1.9277264e-01
 -1.0366076e+00
 -4.7812003e-01
  1.4573817e+00
 -3.7642652e-01
  8.9992738e-01
  7.2999460e-01
  6.2177098e-01
  1.1806328e+00
  5.9793115e-01
 -3.5375336e-01
  3.3234826e-01
  3.3759314e-01
 -6.7711234e-01
  1.3889918e-01
 -1.4367715e-01
  2.5942597e-01
  2.4946564e-01
 -5.4831398e-01
 -9.3458569e-01
  2.7895266e-01
  6.6273922e-01
 -2.1224947e+00
 -2.3507921e-01
 -1.2228019e+00
  4.6202624e-01
 -4.9584204e-01
  2.7962919e-02
  8.7559685e-02
 -6.2724876e-01
  1.1570446e+00
  5.1767516e-01
  5.5538470e-01
 -3.7800372e-03
  1.0206130e+00
  1.7779073e-01
 -1.2895055e-01
 -3.0433303e-01
 -3.5163188e-01
 -3.3155614e-01
 -3.6151083e+00
  2.3127037e-01
  3.4288681e-01
  4.7589141e-01
  7.6161116e-01
  1.2663249e+00
  5.9508574e-01
 -7.7935025e-02
  9.5262811e-02
  1.7441355e-02
  5.5868536e-01
  6.5277779e-01
  2.7464238e-01
 -7.5577998e-01
 -9.0321571e-01
  1.0729010e-01
 -8.7690160e-02
  2.5055718e-01
  4.1435689e-01
 -1.5222387e-01
  6.7755580e-02
  2.9466176e-01
 -2.7809775e-01
  2.8155208e-01
  4.1286230e-01
 -2.8045639e-01
  3.5190094e-02
 -4.8006544e-01
 -3.3095019e+00
  4.8087674e-01
 -2.4639425e-01
  7.3695916e-01
 -1.7348245e-01
 -3.7019566e-01
 -6.2054262e-02
  2.4687739e-02
 -8.2292014e-01
  2.5902706e-01
 -3.7200356e-01
 -1.0839833e-01
  2.4002115e-01
  4.4739938e-01
 -4.5106876e-01
 -1.8511713e-02
  5.4496610e-01
 -2.9177234e-01
  5.8697897e-01
  1.7176489e+00
  4.2689970e-01
 -5.7726496e-01
  7.6739959e-02
  2.5891501e-01
  6.1570182e-02
  6.1271977e-01
 -4.5682934e-01
 -4.1040152e-02
 -9.9941826e-01
 -1.9530301e+00
  5.5580354e-01
  7.6240920e-02
  1.4675488e-03
  1.4119215e-01
 -7.7571738e-01
  4.2545193e-01
 -9.9472529e-01
 -6.2946007e-02
 -1.1699578e+00
 -6.1314665e-02
  2.3288701e-01
 -9.7121763e-01
 -2.3375362e-01
 -2.6364017e-01
  2.3346609e-01
  3.8196671e-01
  1.1359702e+00
  1.8870607e-01
  2.5615144e-01
  1.8550359e-01
  7.0535839e-02
  2.6994127e-01
 -2.0656876e-01
 -2.6001194e-01
  1.4934987e-01
  6.1967298e-02
  3.8525797e-02
  1.8582867e-01
 -1.9043230e-01
 -8.6843890e-01
 -1.4262877e-01
  5.3411376e-02
 -1.4161389e-01
  5.7052702e-01
 -1.0006567e-01
  2.0249237e-01
  5.7619389e-02
  3.8930932e-01
 -1.2656775e+00
  1.3931456e-01
 -5.3638762e-01
  1.0867935e-01
  3.0784540e-02
 -1.1331952e-01
  2.4709350e-01
  1.8002138e+00
  3.3632210e-01
 -4.9275497e-01
  1.3352491e+00
  1.4856392e-01
  7.3662663e-01
  1.3343970e+00
  2.4567825e-01
  7.2546750e-02
  3.6106110e-01
  2.2739200e-01
 -1.0775305e-01
  1.9331710e-01
 -5.7711220e-01
  1.5185811e-01
  2.3168433e-01
 -4.4056872e-01
  2.1834821e-02
  8.9181334e-01
 -2.6921166e-02
  6.0064757e-01
  1.6764909e-01
 -1.8257453e-01
  2.4477435e-02
 -8.5608077e-01
 -1.2044842e+00
 -1.4786384e+00
  4.1946572e-01
  1.1126864e+00
  3.1513661e-02
  5.8824641e-01
  5.5142528e-01
  3.3393016e-01
  2.4882792e-01
  3.4035838e-01
 -1.7777823e-02
 -2.2961378e-01
 -6.4238822e-01
 -4.5230305e-03
  6.3213038e-01
  2.5550741e-01
 -2.4452281e-01
  6.1453480e-01
  2.1253712e-01
  1.6574295e-01
  9.1459319e-02
 -2.7753448e-01
  7.0096594e-01
  4.6471283e-01
 -6.8471581e-02
 -1.3326347e-02
 -1.8124090e-01
 -2.2949269e-01
 -5.3606379e-01
 -1.2757865e-01
 -3.4911075e+00
 -2.3455438e-01
 -8.6747691e-02
  6.8701372e-02
 -1.8340856e-01
 -4.6863127e-01
 -4.0472347e-01
  9.0409076e-01
 -1.2085269e-01
 -1.3051030e-01
  7.1839988e-01
  7.2402602e-01
 -2.9446200e-01
 -9.6977139e-01
  1.3877591e-01
  1.0939682e-01
 -3.5265991e-01
  1.1099932e+00
 -2.6958236e-01
 -3.8944528e-02
 -1.5275742e+00
  3.7506413e-01
 -9.6299827e-01
  2.9863396e-01
  2.9114137e+00
 -4.4195637e-01
  1.8983780e+00
  1.2230709e+00
  3.0839782e+00
  1.5772498e+00
 -1.4835759e+00
  3.8507320e-02
  6.8224323e-01
  2.5169816e+00
  1.2660086e+00
  7.7815855e-01
  1.6228667e+00
 -3.6754623e-01
 -1.6653702e+00
  3.4891698e-01
 -3.0120459e+00
 -2.4105353e+00
  1.1854181e+00
  8.5934579e-01
  3.1159326e-01
  9.0252149e-01
 -4.2655568e+00
 -1.0270466e+00
 -1.7101023e-01
 -1.9768711e+00
 -1.2045985e-01
  2.2555356e-01
  8.5088617e-01
  7.7015585e-01
 -6.3246942e-01
 -3.3911581e+00
 -7.0544106e-01
 -2.0075557e+00
 -2.3767698e+00
  1.1051620e+00
 -1.2546241e-01
  9.1391212e-01
 -1.6466759e+00
 -6.5004051e-01
 -1.6476651e+00
 -9.2871219e-01
  5.1733392e-01
 -1.8118434e+00
 -7.1121383e-01
 -5.2590799e-01
 -3.8530654e-01
  7.1064961e-01
 -8.3054394e-01
  3.2650894e-01
  1.9265348e-01
 -3.2361907e-01
 -4.2792741e-02
  4.9570894e-01
 -2.7477238e-01
  3.6160794e-01
  8.9962661e-01
 -7.1062374e-01
  3.5441929e-01
 -2.2623222e-01
 -2.0420858e-01
 -1.2760732e-01
 -9.2937052e-04
  5.7869357e-01
  2.8878534e-01
 -1.9166358e-01
  4.5191216e-01
 -1.6278346e-01
  3.1099007e-01
 -1.7525637e+00
  2.1495073e-01
 -3.7647909e-01
  3.9632887e-01
 -2.0744445e+00
 -7.8186736e-02
 -6.1307937e-01
  4.2268103e-01
  3.1135851e-01
  1.2670453e-01
 -2.9627135e-01
 -5.1049765e-02
  3.2796347e-01
 -8.1308573e-01
 -5.2459430e-02
  2.0339411e-01
  1.6955604e-01
  1.1252920e-01
  5.5232936e-01
 -3.9640084e-01
  3.5422668e-01
  6.5121913e-01
 -5.8339067e-02
 -2.6014715e-01
 -9.9601820e-02
 -4.4852877e-01
 -7.7977054e-02
 -1.8926772e-01
 -1.8131645e-02
  1.2523581e+00
  1.9410598e-01
 -1.4037032e-01
 -6.9156665e-01
  3.4565590e-02
 -6.9137216e-01
  3.6586842e-01
  4.0044418e-01
  1.8681079e-01
 -1.3479170e-01
  3.1263894e-01
 -4.0543208e+00
  2.3833914e+00
  3.6540675e-01
  2.8219113e+00
  1.2780346e+00
  1.0181776e+00
 -1.0828495e+00
 -2.6580980e-01
  8.1445193e-01
 -5.0410495e+00
 -9.9737704e-01
 -3.2085388e+00
 -2.7026719e-01
  1.9766374e+00
 -1.3154840e-01
 -1.9720747e+00
  2.2687037e+00
  9.5253521e-01
 -1.7919439e+00
  4.3993446e-01
 -3.0414822e+00
 -7.4333936e-01
  2.0577872e+00
  1.0856709e+00
  1.3774159e+00
  1.9682387e+00
  8.1624794e-01
 -3.1518233e+00
 -7.8582776e-01
 -4.3415647e+00
 -1.4209588e-01
  2.6574447e+00
  2.4574437e+00
  1.8321415e+00
 -5.6752706e-01
  2.6648409e+00
  5.5824286e-01
  6.6147201e-02
 -2.4560478e+00
 -1.8973505e+00
  2.1244097e+00
  3.7756938e-01
  9.7016525e-01
  2.5397282e+00
 -5.8770943e-01
 -2.0703621e-01
  1.9857222e-01
 -9.9373527e-02
  3.1791452e-01
  2.0203204e+00
  3.1028857e-02
 -2.2960836e-01
  1.6408764e+00
  6.4251053e-01
  2.1040830e-01
  3.8594550e-01
 -1.7672203e+00
  2.8052199e-01
  3.9452234e-01
  1.3970435e-01
 -5.1642224e-02
  1.2136080e+00
 -1.0096903e+00
 -3.3424802e-02
  6.0448319e-01
  4.0929699e-01
 -6.3825019e-02
 -4.7035846e-01
  1.6030356e-01
 -3.3977625e-01
 -3.1638670e-01
 -3.2763335e-01
  2.0010556e-01
  2.5298795e-01
 -3.9351410e-01
 -1.5936212e-01
 -2.3022389e-01
 -1.9370368e-01
  4.2653206e-01
 -3.9113468e-01
  7.3532772e-01
 -3.7330449e-01
 -9.4336540e-01
 -5.4147985e-02
  1.0495797e-02
 -3.6768207e-01
 -7.6540280e-04
 -1.8092513e-01
 -5.1299155e-01
 -2.0796201e-01
 -5.6071955e-01
 -5.7375652e-01
  1.7081077e-01
  3.0224460e-01
  1.6049428e-01
  1.2964606e-01
  4.1745871e-01
 -2.7959439e-01
  1.9618701e+00
 -6.4323433e-03
  1.5921826e+00
 -1.0925716e-01
 -5.4873843e-03
 -1.0886189e-01
  6.9935340e-01
  3.7815601e-02
  4.1513795e-01
  7.0153832e-01
 -1.8198153e+00
  8.3102196e-01
 -1.8535293e+00
  1.6305679e+00
  4.9296209e-01
  1.4101905e+00
 -2.8988583e+00
 -7.7789955e-02
  7.8083724e-01
  5.8465463e-01
  4.3215716e-01
 -1.1984675e+00
  3.0692214e-01
  1.3443006e+00
  4.6571547e-01
  1.6511797e+00
  5.8258504e-01
  7.3199406e-02
 -1.3201521e-02
  3.4369010e-01
 -6.7748404e-01
  1.1355425e+00
  1.7980157e+00
  1.5386391e-01
 -1.7987419e+00
  4.7835121e-01
  2.3017318e+00
 -1.8024431e-01
 -1.0319101e+00
 -3.6605185e-01
 -2.0342624e-01
  1.4470618e+00
  3.9273041e-01
 -5.4479204e-02
 -5.1836836e-01
  2.4670880e-01
 -1.5152158e-01
  6.2956589e-01
  4.4787467e-02
  2.2040887e+00
  1.6022950e+00
  1.2119236e-01
  9.9146843e-01
 -3.6376942e-02
 -3.1398472e-01
 -6.9749141e-01
 -5.5005725e-02
  1.3052596e+00
  4.3970585e-02
 -6.3145563e-02
  2.5487009e-02
 -1.6383113e-01
  2.1494575e-01
  1.6641000e-01
 -9.1537729e-02
 -3.5970429e-01
  1.6880995e-01
  2.2962624e-02
 -1.4185664e-01
 -3.3972067e-01
  3.2233310e-01
 -1.5482274e-01
 -5.8781639e-02
 -1.4038821e-01
 -2.5164049e-02
  5.5813663e-02
 -3.6934549e-01
  5.3165805e-02
  9.5113754e-02
  4.6687266e-01
 -9.0007371e-01
  1.3921557e-02
 -1.1748718e-01
 -9.9253394e-02
 -2.3727221e+00
 -1.6219820e-01
 -6.9569027e-01
 -6.4429253e-02
 -6.8881765e-02
 -1.8022463e-02
 -1.0495015e+00
 -3.7775221e-01
 -1.6845083e+00
  7.1049429e-02
 -2.0003997e-01
  2.8750923e-02
  1.9989257e-01
 -2.0295453e-01
  9.4384331e-01
 -1.8495198e-01
 -5.9296036e-01
  7.4768746e-01
 -2.0017901e-01
 -1.3227776e-01
 -1.1229466e+00
 -6.3988614e-01
 -2.3319983e-01
 -1.3677154e-01
  6.1808598e-01
 -3.4985442e-02
 -8.2256496e-01
 -1.3556360e-01
 -1.4583615e+00
 -1.0025281e+00
 -9.3546379e-01
  1.2014157e-01
 -1.6129276e+00
  1.1757520e+00
  2.9298607e-02
 -2.1145223e-01
 -6.4775437e-01
  9.9991852e-01
 -4.6325341e-01
  4.8089671e-01
 -1.8674400e+00
 -1.4480203e+00
  1.4564195e-01
  2.8953364e-01
 -6.5713447e-01
 -1.4026582e-01
 -4.9963123e-01
 -9.8711744e-02
  2.2059995e-01
 -3.2102123e-01
  5.7565051e-01
 -3.2571465e-01
 -1.5628649e+00
 -3.3397898e-01
  3.5321977e-02
  3.7440407e-01
  8.6812556e-01
 -5.1290148e-01
  7.0881498e-01
 -2.9998410e-02
 -1.5295720e+00
 -5.2268699e-02
 -5.8702064e-01
  8.2244471e-02
 -4.3196234e-01
 -6.8461716e-01
 -1.5894592e-01
  1.1899935e+00
  1.2001455e-02
 -5.5117112e-01
  6.0960203e-02
  1.0938031e-01
 -1.4423738e+00
  2.8292611e-01
 -1.0730089e-01
  3.3955669e-01
  6.4666677e-01
 -8.4897593e-02
  1.3749436e-02
 -8.7462813e-01
 -4.6624880e+00
  7.1744120e-01
 -3.7408689e-01
  9.1030365e-01
 -2.7157468e-01
 -7.2561368e-02
 -4.1189718e-01
 -3.6506437e-02
  1.5572478e-01
 -9.7185344e-02
 -4.5974904e-01
  9.9749409e-02
  3.0686194e-01
  1.3922118e-01
  1.3135648e-01
 -1.7500524e-01
  7.7200770e-01
  1.3558582e+00
 -4.5153797e-01
 -8.0344580e-02
 -3.6567050e-01
  4.1436541e-01
 -4.0881446e-01
  7.6803870e-02
  5.8674898e-02
 -3.1489989e-01
 -2.6767064e-02
 -1.4131989e-01
  2.3401015e-02
  7.7360913e-02
  2.1223490e-01
  1.0384031e-01
 -1.4728993e-01
  7.7705961e-01
  7.4641518e-02
  1.0766774e+00
 -7.3552027e-02
 -1.1275898e+00
 -7.8041565e-01
 -2.0765727e+00
 -2.6087908e-02
 -2.7160460e-01
  2.6989889e-01
  2.1033865e-01
  9.6188881e-02
 -3.8817641e-01
 -6.8244666e-01
 -6.4751440e-01
  1.6727639e+00
  1.0479919e-01
  1.0003917e-01
 -1.9515683e-01
 -5.7255179e-01
  2.4302335e+00
 -1.4610282e-01
 -4.3791777e-01
 -1.0373271e-01
  3.3574343e-01
 -6.3523299e-01
 -8.0002628e-02
  1.1965872e-01
 -5.1798171e-01
  1.0671562e-01
  9.5402077e-03
 -1.4096311e-01
  8.3392096e-01
 -2.9599938e-01
  3.4378985e-01
 -6.1829057e-02
  7.4466383e-01
  2.0124207e-01
 -8.8890481e-01
  5.4350406e-01
 -1.0559163e+00
  5.2052873e-01
 -6.2299174e-01
  5.9074644e-02
  5.7416316e-02
 -1.0999202e+00
  3.0963162e-01
 -2.2232687e-01
 -5.5151743e-01
 -1.1031181e+00
  6.1533487e-01
 -1.7347954e-02
 -4.0204290e-01
  1.2276160e+00
 -1.2437450e+00
  1.6565803e-02
  5.6333709e-01
  6.9864929e-02
  1.2869234e+00
 -1.1860189e+00
  7.2218907e-01
 -5.2566749e-01
  3.2949796e-01
 -1.0393155e-01
  2.3110901e-01
 -5.0373554e-01
 -1.8880129e-01
  1.5129611e-01
  7.7224933e-03
  2.4652572e-01
  4.0045437e-01
  4.2337924e-02
  1.9112742e-01
 -6.5434057e-01
 -2.5793141e-01
 -2.4272157e-01
  3.5181960e-01
 -1.6607715e-01
  1.4254391e+00
  1.8130706e-01
 -6.7945635e-01
  1.0424753e-01
 -2.6769266e-01
 -1.6093740e+00
  8.4592867e-01
  7.3566340e-02
  1.0407397e+00
  2.3624465e-02
 -8.7863845e-01
  9.8037273e-02
 -1.5040609e-01
 -2.9784477e-01
  2.4842736e-01
 -5.6340140e-01
 -4.7436976e-01
  2.8249824e-01
  1.4253049e-01
  7.6656467e-03
 -2.5325894e-01
 -3.8578445e-01
 -7.2215140e-01
 -2.5635913e-01
  1.9205098e-01
 -2.3644136e-01
 -6.3952827e-01
  1.0313514e-01
  2.8235498e-01
  1.7246450e-01
 -7.7759892e-02
 -1.7557847e-01
 -1.4937323e-01
  9.1474819e-01
  3.7438825e-02
  6.7624921e-01
  8.6758620e-01
  6.0186539e-02
  4.9599329e-01
 -3.5541213e-01
 -7.7460772e-01
 -4.3576133e-01
  1.9029620e-01
 -7.1059451e-02
 -4.9109209e-01
  2.9748999e-02
  8.8659698e-01
  4.7707540e-01
 -2.7015156e-01
  2.3238654e-01
  6.3232884e-02
  7.0477262e-02
  4.4260155e-03
  7.3390752e-01
 -1.3118275e+00
  7.0694703e-01
  1.1960835e-01
 -2.3904540e-01
  3.6719687e+00
 -1.3295736e+00
  6.6792315e-01
  5.0171828e-01
  1.8529071e+00
  1.9755934e+00
 -2.3732231e+00
  1.9864538e+00
 -4.8741230e-01
  7.9500860e-01
 -5.0921994e-01
  1.3920441e-01
 -1.0241396e+00
  5.0457776e-01
 -9.7000325e-01
 -4.8185363e-02
  1.0371327e+00
  2.8372738e-01
 -9.4425999e-02
 -1.4255252e+00
 -6.5510136e-01
 -5.5684245e-01
 -3.9029650e-02
  1.0081335e-01
  2.2589652e-01
 -6.4399108e-02
 -4.0262538e-01
  6.8117535e-01
 -8.7678218e-01
 -3.2003837e+00
  2.8688005e-01
  6.9904193e-02
  6.5879691e-03
 -2.1297197e+00
 -3.5261741e-01
 -3.8818948e-02
  3.8856483e-01
 -7.5479341e-01
  1.0594269e-01
  2.9060501e-01
 -5.1500118e-01
 -5.5334263e-02
  2.8343573e-03
 -1.3051982e+00
  4.9131465e-01
  7.0896441e-01
 -1.5611488e+00
  5.5299848e-02
 -1.1615380e+00
  7.3508829e-02
 -1.5974264e+00
  2.5051427e-01
 -1.2018983e-01
  1.1887003e-01
 -2.2089638e-01
  1.0219036e+00
 -6.4117992e-01
 -9.3858307e-03
  5.0671422e-01
  1.0859201e-01
 -1.4537515e-02
 -6.8927985e-01
 -1.0609623e+00
 -8.5791689e-01
 -1.6080465e+00
  5.3644121e-01
  2.7330214e-01
 -5.5185163e-01
  7.7022739e-02
 -4.1130906e-01
  7.1799010e-03
 -1.0578727e+00
 -7.0387119e-01
  8.9287028e-02
 -1.7021686e-01
  3.2605880e-01
 -4.6559551e-01
 -4.0208870e-01
 -1.6688637e-02
 -8.4322697e-01
  2.5515720e-01
 -7.7357578e-01
 -2.5424436e-02
  4.4192871e-01
 -3.9223301e-01
 -1.5729457e-02
  9.7004481e-02
 -8.8240278e-01
 -2.5441954e-01
 -1.3714907e-01
 -5.6828898e-01
  3.1184238e-01
 -9.5613115e-02
 -1.2503454e-01
  6.3873404e-01
  2.2106525e-01
 -1.1073568e-01
  4.4338509e-02
  3.0347961e-01
  4.4534862e-01
  2.2267003e-01
  6.3090402e-01
  2.6750855e-02
  8.5662812e-01
 -4.7926253e-01
 -6.4121559e-04
  3.8686848e-01
 -7.3688942e-01
  1.3150662e-01
  3.0288854e-01
 -3.1127980e-01
 -4.4294816e-01
 -1.8305874e-01
 -3.1146961e-01
 -7.4538156e-02
  3.9536881e-01
 -9.8839486e-01
 -5.6936240e-01
  1.4469361e-01
 -5.9819263e-01
 -1.7984007e-01
  2.1550128e-01
  1.2445856e+00
 -4.6179461e-01
  7.9093885e-01
 -1.2295375e+00
  4.2183727e-01
  5.2802753e-01
 -5.7721782e-01
  3.3473533e-01
  9.4128484e-01
  4.7893623e-01
 -8.6250782e-01
 -2.0179892e+00
  5.2278680e-01
 -4.2134777e-01
  1.3047607e-01
  6.6925161e-02
 -5.1438510e-01
 -7.6710671e-01
 -1.3159540e+00
 -5.8439296e-01
 -9.2604858e-01
  2.3602355e-01
 -6.1122507e-01
 -1.4083275e-01
 -1.8759967e-01
  4.5595273e-02
 -6.0670829e-01
 -1.2822083e+00
 -3.9040586e-01
  1.4726353e-01
  2.6518507e-02
  1.2143234e-01
 -1.1339468e-01
 -3.7623934e-02
 -8.8878137e-01
 -1.5198934e-01
  1.8637562e-02
  1.7917402e-01
  9.2799753e-01
  1.3655272e-01
  3.2593140e-01
  1.4297235e-01
 -6.4739943e-01
 -1.5900663e+00
 -6.5379322e-01
  3.0531594e-01
  7.2254169e-01
  8.1484385e-02
 -5.9518921e-01
  3.6824317e+00
 -1.7743984e+00
 -2.5837317e+00
  2.8322059e-01
 -3.5152990e-01
  1.3536339e-01
  1.5097053e+00
  1.3675501e+00
 -1.7889194e+00
  2.9880932e-01
 -1.7388393e+00
 -2.3326278e+00
 -4.2685485e-01
 -6.1610317e-01
 -3.7446859e-01
  1.0984396e+00
  2.0157337e-01
 -2.0555365e+00
  1.9873048e-01
 -3.1253505e+00
 -1.1345482e+00
  8.9541122e-02
 -1.7979505e+00
  5.2254748e-01
  1.9813973e-01
  5.1101160e-01
 -3.7310582e-01
 -8.6112463e-01
  5.1307070e-01
 -3.4247994e-01
  1.2207605e+00
 -7.0180565e-01
  1.7496791e-01
 -6.1401629e-01
 -5.5785650e-01
 -8.0676764e-01
 -5.6498671e-01
  1.6007280e-01
 -4.8655143e-01
 -1.1323900e+00
 -7.0646018e-01
  7.8871363e-01
 -2.0169954e-01
  1.8973005e+00
 -7.7344137e-01
 -1.6003524e-01
  8.6075372e-01
  1.6835049e-01
 -4.9860224e-01
 -3.8855323e-01
 -5.5190080e-01
 -2.9056662e-01
  5.9783643e-01
 -4.0323204e-01
  1.5940967e+00
 -4.1068932e-01
 -2.0891923e-01
  9.4683242e-01
  6.6032130e-01
 -1.0144882e-02
 -5.2330899e-01
 -3.1855375e-01
  8.2504165e-01
 -8.3342916e-01
  5.9380734e-01
 -5.6281012e-01
  3.2125297e-01
  2.5040564e-01
  7.3630281e-02
  1.2570758e-02
 -3.1457740e-01
 -3.5402209e-02
 -4.5868367e-02
  5.9955213e-03
 -5.7884008e-02
 -2.8803784e-01
 -1.1571383e+00
  2.8083023e-01
 -3.0441257e-01
  9.4608825e-01
  1.0368176e-01
 -2.4657460e-01
  3.3350465e-01
 -3.9850719e-02
 -4.8106182e-02
  7.2843516e-01
 -4.6080828e-01
 -5.7984245e-01
  9.7677574e-02
 -8.3937442e-01
  7.5969413e-02
  5.8497173e-01
  5.0394529e-01
 -6.3909256e-01
  1.5314434e-02
  3.5239547e-01
  6.2511599e-01
  6.4140968e-03
 -1.4769849e-01
 -6.2427163e-02
  3.6858928e-01
 -2.8814834e-01
  1.0454212e-01
  6.4834851e-01
  2.5648347e-01
  4.9588487e-01
 -6.4966545e-02
 -2.9593053e-01
  5.9566028e-02
  1.1171683e+00
  3.4212616e-01
 -7.0778608e-02
 -2.3439686e-01
  2.3140687e-01
  8.3565995e-02
  1.2371297e-01
 -1.0272375e+00
 -4.7506025e-01
  3.6511564e-01
  2.6963645e-01
 -3.3647001e-01
  2.8729865e-01
  1.0512154e-02
 -8.3821809e-01
  1.2562317e-01
 -2.4363220e-01
 -2.1244700e-01
 -3.4364480e-01
 -2.0936596e-01
 -1.3799769e+00
  1.8186049e-01
 -1.5192921e-01
 -3.9414814e-01
  4.6562232e-02
 -1.9539720e-01
 -4.8239481e-01
 -8.3429366e-01
  7.7382363e-02
  1.8869826e-01
  1.1845449e+00
  5.6308603e-01
 -4.2412415e-01
  1.5809089e-01
 -1.5544944e+00
 -2.4533822e-01
 -2.1165952e-01
  6.9990963e-02
 -4.7224963e-01
 -2.4116409e-01
  3.2540771e-01
 -3.7293932e-01
  7.2403175e-01
 -4.7266775e-01
  3.2130745e-01
  2.3302891e+00
 -8.1502702e-03
  1.0518072e+00
 -2.2381884e-01
  6.5410936e-01
  6.6681844e-01
 -6.8847299e-02
 -9.8168659e-01
 -6.2811971e-01
  1.3861388e-01
 -2.4848416e-01
 -1.6347998e-01
 -4.5484900e-03
 -3.6581081e-01
  5.9820920e-01
 -6.5132254e-01
 -1.4905510e+00
  3.7802243e-01
  2.7834040e-01
 -1.2885604e+00
 -8.2055217e-01
  5.9406679e-02
 -3.7346005e-01
  2.3798263e-01
  1.2168293e+00
 -2.0306465e-01
 -6.1121445e-02
 -1.0400523e-01
 -1.4171672e-01
 -1.4013793e-01
  2.8038070e-01
  2.4656437e-01
 -1.4235350e-01
  1.3058248e-01
 -3.4044495e-01
 -5.3143603e-01
  7.5419188e-01
 -2.4666809e-01
  1.2919493e+00
 -2.7056676e-01
 -8.2483494e-01
  5.0252014e-01
 -1.5671782e-01
 -3.2936877e-01
 -2.3226383e-01
 -2.3923895e-01
 -3.5866889e-01
  6.5789288e-01
  5.2225274e-01
  5.0346881e-01
 -9.5694631e-01
 -2.4603125e-02
 -1.1328510e+00
  6.2554240e-02
 -6.7656994e-01
 -3.7154951e+00
  2.1187836e-01
 -2.5390789e-01
  1.5761362e-01
  6.9921976e-01
  3.4683695e-01
  3.8269520e-01
  5.9135109e-03
 -8.5683519e-01
 -6.2372142e-01
 -3.7723429e+00
 -9.3113445e-02
 -2.9580349e-01
  1.6311151e-01
 -5.0384349e-01
  8.3812267e-01
 -4.5024377e-01
 -2.0879250e-02
  9.0039176e-01
 -3.5742360e-01
 -7.6391512e-01
  6.0047662e-01
 -3.3705232e-01
  8.8707805e-01
 -1.3992749e-01
  2.0629539e-01
  2.0577197e+00
  3.8980848e-01
 -4.1902121e-02
 -3.2547107e-01
 -1.0208807e-01
 -1.6069362e+00
  3.8752195e-01
  3.3199883e-01
  2.5369003e-01
  1.0339944e+00
  3.6977138e-02
 -1.6554576e-01
 -3.6954170e-01
  1.3490103e-01
 -4.5044991e-01
 -2.7735865e-01
 -1.8262702e-01
  2.0558765e-02
 -8.7412693e-02
  2.9449034e-01
 -6.1578745e-01
  7.7839896e-02
 -1.3201075e-02
  3.1016952e-01
 -1.6542431e-02
 -2.8572553e-01
  5.1096678e-02
  1.0421062e+00
  3.7602824e-01
  7.3859566e-01
  3.9112315e-02
  3.4848106e-01
 -5.9876457e-02
 -5.2952355e-01
  1.9434047e-01
 -3.8955376e-01
 -1.6976169e-01
 -8.2925653e-01
 -5.9438097e-01
 -2.5935292e-01
 -4.5380765e-01
 -9.0496361e-01
  1.0026872e+00
 -2.8927338e-01
 -3.1766641e-01
  7.1748304e-01
 -2.6480341e-01
 -4.9011275e-01
 -4.1256063e-02
 -5.8870590e-01
 -4.5078683e-01
  5.0026876e-01
  1.2513065e-01
  5.9595987e-02
  8.0398804e-01
  1.8719451e-01
  3.0783659e-01
  4.5091775e-01
  5.6871039e-01
 -1.5067068e-01
 -1.1035660e-01
 -3.7971753e-01
 -5.0189877e-01
 -4.1272390e-01
 -7.4008667e-01
  2.8880534e-01
  2.5705743e-01
  6.3507348e-01
 -1.5164989e-01
  5.6852472e-01
  2.7672148e-01
 -3.6822000e+00
  1.1931618e-01
  5.0662369e-01
 -2.0507134e-02
  2.8789443e-01
 -9.2798668e-01
 -1.0466729e-01
 -5.5657670e-02
  4.8264295e-01
  4.1683495e-01
 -9.9533850e-01
  2.9437485e-01
 -8.8754928e-01
  4.4440630e-01
 -1.5052542e-01
 -6.9220251e-01
 -3.4700170e-01
 -4.7022719e-02
  6.0140067e-01
 -7.9518110e-03
  8.1460118e-02
 -2.7281758e-01
 -3.1730348e-01
  1.0258299e+00
  1.0264899e+00
  1.7019074e+00
 -3.9917678e-01
  1.6873841e+00
  5.4017086e+00
  1.4509802e-01
  4.3403038e-01
  6.3094246e-01
 -1.0506859e+00
 -2.1839219e-01
 -1.8992871e-01
  7.7859975e-02
 -2.6270259e-02
  9.5385902e-02
 -7.6526821e-02
  6.0064507e-01
 -7.8269261e-01
 -5.9915498e-02
  2.1428260e-01
  9.2179608e-01
  5.3799223e-02
 -1.6727663e+00
 -7.4605483e-01
 -1.1150043e-01
  3.5576969e-01
 -4.0250027e-01
 -3.8328943e-01
 -6.9299525e-01
  2.4882939e-01
 -9.9565178e-01
 -1.7744845e-01
 -7.3988193e-01
  5.1200598e-01
 -8.7873185e-01
 -1.3055735e+00
  7.5213230e-01
  6.9814272e-02
  2.9163769e-01
  8.9380956e-01
  6.4266920e-01
 -3.7630796e-03
 -1.2916152e-01
  1.0798416e-01
  2.2806246e+00
 -2.1878985e-01
 -1.0724355e+00
  3.9368606e-01
  1.1153975e-01
 -1.2281983e-01
  7.5050867e-01
 -3.0611228e-02
 -8.1276256e-01
  1.9290151e-01
  5.8510548e-01
  1.4033371e-01
  1.6916026e-01
 -5.8483672e-01
 -1.7924175e-01
  1.2774070e-01
  3.9021772e-01
 -1.8598574e-01
  6.6520222e-02
 -6.7645413e-01
 -1.1040477e-01
 -4.1638863e-01
 -1.7079732e-01
  1.5851812e-01
  2.6121041e-01
  1.6946562e-01
  5.5251729e-01
 -5.2454942e-01
 -9.2239571e-01
  1.1411448e+00
 -7.7144927e-01
 -4.3131664e-02
 -1.3627854e-01
 -2.1415390e-01
 -4.7513399e-01
 -1.8063182e-01
  6.1593968e-01
  2.7974182e-01
 -5.6679386e-01
  7.3120642e-01
 -1.8291563e+00
 -3.8413915e-01
  4.3961650e-01
 -3.8882479e-01
  4.8554137e-01
  4.3854982e-02
 -5.2116352e-01
 -2.8679350e-01
 -4.6990395e-02
  2.2564551e-01
 -7.9991257e-01
 -4.6061012e-01
  3.0720809e-01
  6.0783374e-01
  3.0869763e+00
  1.3989458e+00
 -1.3535123e+00
  2.0944345e+00
  1.1225059e+00
  6.5657938e-01
  5.3955591e-01
  3.8446957e-01
 -5.5640692e-01
  1.7727540e+00
 -2.2667892e-01
  5.2417958e-01
 -2.0865154e+00
  1.2675798e+00
  2.5141265e+00
  1.9815620e+00
 -6.2523121e-01
 -1.1439375e+00
 -2.2008989e-02
 -2.1036487e+00
  9.7848721e-02
 -2.8736038e+00
 -7.1451887e-02
  1.1567421e+00
  2.7506483e+00
  9.2541033e-01
 -2.4126562e-01
 -5.5580258e-01
  1.7456349e+00
  7.7446949e-01
 -2.3206930e+00
 -5.3632832e-01
  3.0085525e-01
  2.4368532e+00
 -1.7683773e-01
 -4.5771986e-01
 -3.2100233e-01
 -4.1720453e-01
 -3.5169727e-01
 -1.6694405e+00
  2.2500303e-01
 -3.7897873e-01
 -5.4369655e-02
 -2.5036313e-02
 -9.9351752e-01
  1.1109316e+00
  1.0281974e+00
  2.5822720e-01
  3.6430955e-01
 -3.0980106e-02
 -5.3444213e-01
  5.3203309e-01
  5.1758599e-01
 -8.0592155e-01
 -7.1931833e-01
  3.5094073e-01
 -3.2124734e-01
 -1.9392829e-02
  8.3485566e-02
  2.8677323e-01
  1.0202535e+00
  7.6439671e-02
 -1.9277481e+00
  6.6824430e-01
 -4.7287709e-01
  1.9751757e-01
  4.3222327e-02
 -5.7070565e-01
  1.1695404e-01
  8.2769811e-01
  6.9862652e-01
  5.5669315e-02
  1.5034786e-01
  2.3630248e-01
 -1.4858492e-01
  3.9063069e-01
 -3.1919464e-01
 -1.0160167e+00
  1.2322244e-01
 -1.9486123e-01
 -4.6912736e-01
 -5.1206434e-01
  2.2619107e-01
  9.5576394e-01
  5.4355502e-01
  1.1986634e+00
  1.2958726e-01
 -1.1100436e+00
  1.0051912e-01
 -6.6333227e-02
  1.0594443e-01
  2.8161719e-01
  2.5891012e-01
 -1.2057492e+00
  2.1325024e-02
 -5.9965420e-01
  7.9646550e-02
 -3.4444347e-01
 -7.4702680e-02
 -4.3143015e-03
 -1.9063973e-01
 -4.9395913e-01
 -4.9703705e-01
 -1.4461213e-01
 -1.1017662e-01
 -7.8408206e-01
  1.2233954e-01
  1.3913338e-01
  4.4209471e-01
  4.1567075e-01
 -1.3902514e+00
  2.8142214e-01
 -1.6344961e-02
  3.2163945e-01
 -9.8078325e-03
 -7.2727823e-01
  2.7861771e-01
  2.5015798e-01
  3.2909602e-01
 -3.1837493e-01
  5.9200954e-01
  2.3513702e-01
 -4.8147142e-03
  5.9205365e-01
 -7.2835243e-01
 -4.5920715e-01
 -4.6810305e-01
  1.2884122e-01
 -3.9004847e-01
 -1.5661326e-01
  2.8392774e-01
  7.3806679e-01
 -7.8936738e-01
  5.3783900e-01
 -1.9843912e-01
 -2.2110097e-01
 -3.5940719e-01
 -1.6505970e-01
  7.8525448e-01
  2.4688038e-01
 -4.3020234e-01
  5.9062171e-01
 -1.2807770e-01
 -1.4219174e-01
 -5.2052194e-01
 -1.7339315e-02
 -1.0084781e-01
  1.7174158e-01
  1.3490531e-01
  4.8798797e-01
 -1.6761355e-01
  9.2972539e-02
  1.8769573e-01
 -3.7251729e-01
 -1.0643650e+00
 -1.2721586e-01
  6.6316503e-01
  4.6175200e-01
 -6.3688093e-01
 -1.8932880e-01
 -2.3752514e-01
  4.8143715e-01
  4.1058478e-01
  5.1381159e-01
  9.9376249e-01
  5.1460847e-02
 -3.7654299e-02
  1.4816158e+00
  7.1278507e-01
 -4.1078952e-01
  4.1914769e-02
  6.4227849e-01
  7.9987150e-01
 -7.9068267e-01
  5.0631899e-01
 -6.2420321e-01
  3.0280012e-01
 -1.7425531e-01
  9.2633212e-01
  2.3009266e-01
  7.5124139e-01
  1.8811682e-02
 -2.1093978e-01
 -4.0087929e-01
  5.6285635e-03
  4.4550240e-01
  2.2131903e-01
 -1.0234784e+00
 -8.2677311e-01
 -1.0503144e-01
  7.2512138e-01
  2.8733170e-01
  8.4118418e-02
  6.7290604e-01
  1.6749814e-01
  2.5657120e-01
 -6.2060726e-01
 -5.8300167e-01
  2.1766984e-01
 -3.7339520e-01
  2.8933913e-01
  3.0958187e-02
 -1.5855849e-01
 -4.9225831e-01
 -4.2863250e-02
  8.4412479e-01
 -3.3778790e-02
 -1.1597981e-01
 -4.7129729e-01
  5.0967515e-01
 -4.9873787e-01
  6.1139718e-02
 -7.8816074e-01
  1.1376065e+00
  4.0234214e-01
  7.1824551e-01
 -2.9091683e-01
  5.3506064e-01
 -6.5781593e-01
  2.4182723e+00
 -8.0221742e-01
 -4.6019435e-01
  1.7569339e-01
 -3.0321297e-01
 -6.6268688e-01
 -1.6882649e-01
 -1.2423544e-01
  1.6128860e+00
 -5.7289380e-01
 -2.3021221e-01
 -1.1525962e-01
 -9.2400819e-01
  3.5974517e-01
 -1.0661203e+00
 -2.6246551e-01
  2.9054442e-01
 -3.7016064e-01
 -2.5407985e-01
 -3.7192321e-01
  4.0723675e-01
  1.2713797e+00
 -1.2888318e-01
 -2.3644352e-01
  4.0121302e-01
 -5.9572913e-02
 -1.9496508e+00
 -5.0811642e-01
 -5.0128835e-01
  1.5664448e-01
  8.5053545e-01
  1.2161915e-01
  4.7191438e-01
  8.2258254e-01
 -1.6658662e-02
  2.1969584e-01
 -7.3818956e-05
 -3.6441770e-01
  1.4171846e-01
  1.3868366e-01
 -2.5835672e-01
  1.2744886e-01
 -5.2573562e-01
 -9.3406737e-02
  1.9583434e+00
 -4.1477317e-01
  5.3222150e-02
 -9.9983811e-01
  4.4419062e-01
  9.6291852e-01
 -5.1716600e-02
 -3.2133973e-01
  1.8340552e-01
  1.1728772e+00
  7.5981796e-02
  1.9493504e-01
  1.1236832e+00
  4.2159057e-01
 -3.4801799e-01
 -7.1092111e-01
  4.7593799e-01
 -1.2441190e-01
 -6.8172462e-02
  5.9101605e-01
  3.5006028e-01
 -8.4235789e-03
  6.7269087e-02
 -1.5653293e+00
  2.4848524e-01
 -5.1783770e-01
  2.0281738e-01
 -6.2337924e-02
 -4.2882067e-01
 -1.6365619e+00
  1.5828432e+00
  1.5630802e+00
 -5.7825595e-01
 -1.6707900e-01
  9.0596735e-01
  3.2953009e-02
 -1.6567464e-01
 -1.3397884e+00
 -8.1293680e-02
 -3.9520925e-01
 -6.8585825e-01
 -3.2834832e-02
  1.5268749e-01
 -2.1798460e-02
  1.1951826e-01
 -4.9181482e-01
 -1.7365953e-01
 -5.9978044e-01
 -2.6569799e-01
  1.4701413e+00
  4.0432628e-02
  2.8754957e-02
 -7.0887965e-01
  3.0498356e-02
  6.7435378e-01
  7.6875001e-02
 -4.4789496e-01
 -7.4501681e-01
  9.1346467e-01
  3.3020958e-01
  1.0816180e+00
 -3.2463019e+00
 -1.3063176e+00
  1.6229482e+00
 -4.1785040e-01
 -1.7852936e+00
 -5.8845103e-01
  1.1091248e+00
  6.1067110e-01
 -9.7065318e-01
  4.3262985e-01
  8.4828204e-01
 -3.0051517e-01
  6.7127186e-01
  1.9704344e+00
 -2.3316644e-01
  3.0326220e-01
  9.9792838e-01
 -6.2268376e-02
  1.5376185e-01
  3.6646321e-01
  3.1732523e-01
  1.5563366e+00
  1.2066170e+00
 -1.3220236e-03
  4.3278486e-01
  5.6171787e-01
 -9.6518606e-01
  4.7760338e-01
 -1.6005620e+00
 -3.0107498e-01
  1.3216126e+00
 -1.9934438e-01
 -1.2379460e-01
  8.5464102e-01
  1.0121917e+00
 -7.2236288e-01
  9.6298504e-01
  1.3009034e+00
 -1.1029975e+00
  1.3023770e-01
 -1.3507460e-01
  7.4811116e-02
 -2.3220086e-01
 -1.3341610e-01
  4.9741395e-02
  3.0498840e-02
  7.6213938e-01
  4.2905661e-01
  6.0054857e-01
 -2.5339734e-02
  1.3514560e+00
 -1.6699849e+00
 -4.8941931e-01
 -7.1007872e-01
  4.5152926e-01
  1.2614281e-01
  3.6398187e-01
 -1.0352583e+00
 -2.5174062e+00
  2.0742375e-01
 -3.0214784e+00
 -1.7939234e-01
  1.3191012e-01
  1.0406573e+00
  2.0816107e-01
 -5.7168275e-01
 -4.8628405e-01
  1.4638472e-01
  7.7747095e-01
 -1.4679102e+00
 -1.2645239e+00
 -3.6734784e-01
  7.4473336e-02
 -2.2941487e+00
  4.6014619e+00
 -1.1503845e+00
 -3.2532704e-01
 -1.5973596e-01
 -5.1914625e+00
  8.1366265e-01
  9.2762882e-01
  6.0344595e-01
  1.2881641e+00
  7.8404409e-01
 -1.6108204e+00
  1.4905105e+00
  2.8446001e-01
 -2.8204360e+00
 -1.1652147e-01
  3.1204885e-01
 -6.5891671e-01
 -1.5711000e+00
 -4.6132284e-01
  1.0561661e+00
  6.1619496e-01
 -1.0941344e-01
 -5.3537469e+00
 -2.5148937e-01
  6.8895847e-01
 -2.4713182e-01
 -5.0363821e-01
  3.1933764e-01
 -1.0031046e+00
  4.0624568e-01
  9.0574759e-01
  5.4750216e-01
  6.6840991e-02
 -7.0994161e-02
 -1.2704694e+00
 -1.3379660e-01
  2.9873708e-01
 -1.2432320e+00
 -1.1066822e+00
 -1.2491519e+00
  6.3911271e-01
 -1.5972309e-01
  1.2324432e+00
 -7.0240194e-01
 -5.1631016e-01
 -3.6555094e-01
  2.5220698e-01
 -3.1726235e-01
  1.2727987e-02
  2.2788219e-01
  3.6670440e-01
  5.1639110e-01
 -4.3138593e-01
 -8.6851811e-01
  2.3937147e-02
 -3.7319747e-01
 -5.9125561e-01
 -4.9816123e-01
  7.7689129e-01
 -1.2453197e-01
  6.3093466e-01
  1.6247851e-01
 -8.5986644e-02
 -1.2938768e-01
  9.0608847e-01
 -1.6363927e+00
 -5.9648341e-01
  9.8507866e-02
 -1.9120635e-01
  2.9505014e-02
  8.9411688e-01
 -1.2413381e+00
  2.1142650e-01
 -6.0207576e-01
 -1.8032072e-01
  8.7521195e-02
 -4.0258557e-01
 -5.0162351e-01
  6.8833447e-01
 -6.6433966e-01
  3.7680209e-01
 -3.2934347e-01
  3.7007770e-01
 -2.7764090e-03
 -2.2502887e-01
  5.5098023e-02
  1.1382134e+00
 -1.1240928e+00
 -2.3665330e-01
  3.6963949e-01
  4.4523239e-01
  2.7110755e-01
 -1.0009660e-01
 -9.6203387e-01
 -1.1355370e+00
 -1.1205786e-01
 -3.2218593e-01
 -1.3482928e-01
  5.0351220e-01
 -5.5247378e-01
  4.3730599e-01
 -6.0656482e-01
  5.4792655e-01
 -4.7643084e-02
  1.4281854e-01
 -1.2048340e-01
 -1.7062050e-01
 -5.1537186e-01
  2.2628871e-01
 -6.2911236e-01
  2.4932241e-01
  2.4715894e-01
 -1.8322152e+00
 -6.4592612e-01
  2.8042924e-01
 -1.3216522e-01
 -5.3056479e-01
 -5.1898485e-01
  1.0846436e+00
 -1.5954672e-01
 -2.1430425e-02
 -7.4311167e-02
  6.8233281e-01
  5.7079762e-01
  1.5049924e-01
  6.0712433e-01
  5.6164873e-01
  4.4199809e-01
 -7.1425521e-01
  2.0529263e-01
 -3.6988828e-01
  9.3411905e-01
 -7.5074232e-01
 -1.7377696e+00
  4.2803878e-01
 -2.9630947e-01
 -3.8331056e-01
  2.8161800e-01
 -1.2213283e+00
 -7.0638150e-01
  1.1900258e+00
 -2.1553230e+00
  3.4641251e-02
  1.0929861e+00
  2.3876207e+00
 -6.8924278e-01
 -4.3731600e-01
 -5.2051556e-01
  3.3781757e+00
  5.1033065e-02
  6.5913576e-01
  2.3785067e+00
 -3.7579293e+00
  1.6915828e-01
  1.4046776e-01
  2.2774587e+00
 -4.1788942e-01
  1.6435276e+00
  1.3993052e+00
  1.3750234e+00
 -8.2639419e-03
 -6.0169570e-02
 -3.7970492e-01
 -2.9790375e-01
 -1.9211398e-01
 -8.1593931e-01
  7.0622549e+00
 -5.0569636e-01
  1.7874850e+00
 -5.2669656e-01
 -4.5471129e+00
  5.2126169e-01
  1.3849711e-01
  2.9568616e-01
 -1.2722180e+00
 -9.3024504e-01
  1.1333680e+00
  2.5348189e+00
  1.7840991e+00
 -5.4991961e-01
 -5.1083427e-02
  1.4446453e+00
  1.3367612e+00
 -1.6233146e-01
  2.5862894e+00
 -1.6488686e-01
  3.2620487e-01
  6.8660572e-02
  6.6343687e-02
 -1.3636580e+00
  4.1481292e-01
  5.8944635e-03
 -2.1224448e-01
 -8.3817869e-02
 -1.3726166e-01
  2.9168516e-01
  6.0964668e-01
  2.4165991e-01
  7.0410067e-01
 -1.4686339e-01
  2.2092792e-01
 -2.7895054e-01
  3.1859303e-01
 -5.9489518e-01
  3.7131724e-01
  3.9786139e-01
  3.0913669e-01
 -1.9640027e-01
 -5.6752121e-01
 -5.5353665e-01
  2.5725555e-01
 -3.0920219e-01
  3.1663133e-03
 -1.3281274e-01
  5.6456685e-01
 -2.0182282e-01
  2.3082127e-01
 -1.2656155e-01
  9.5130891e-02
  5.2901018e-01
  2.0657469e-01
 -7.5909957e-02
 -2.6211151e-01
 -3.7225461e-01
  1.7827490e-02
  4.2722350e-01
 -1.1315795e-01
 -1.5654249e-01
 -4.9505639e-01
 -6.8829793e-01
  1.1728118e-01
 -4.9111953e+00
  1.9673842e-01
 -4.6800259e-01
 -4.1748267e-01
  8.6582825e-02
  3.7610567e-01
 -4.6995825e-01
 -5.8611080e-02
  4.6929079e-01
 -7.8268528e-01
 -3.1608913e-02
 -4.8736766e-01
 -4.8723829e-01
 -3.0641893e-01
 -7.9859167e-01
  2.9153600e-03
  2.0670152e-01
 -7.4745089e-01
 -6.4743114e-01
 -4.7669363e+00
  3.3491912e-01
  4.0676102e-01
 -6.3155454e-01
 -4.4167680e-01
 -2.3899060e-01
 -2.1327648e-01
 -1.1243210e-01
  1.6649136e-01
 -3.2035130e-01
  9.6917576e-01
 -1.0033432e-01
 -1.7687604e-03
 -8.9148897e-01
 -8.1186241e-01
 -2.4385543e-01
 -2.1638894e+00
  6.4223826e-01
 -1.1227180e+00
  5.4433191e-01
  3.6862156e-01
  1.3414931e-02
  5.9106815e-01
 -8.1400996e-01
  2.6926583e-01
 -1.8492432e-01
  4.0684724e-01
  2.3271432e-02
  7.9887122e-02
  5.6083316e-01
 -2.9755801e-01
 -1.1323874e-01
  1.3558115e+00
  1.0704429e-01
 -3.5774055e-01
 -2.8612414e-01
  2.8034082e-02
  6.5430909e-01
  2.5389871e-01
  1.4304139e-02
 -3.5851517e-01
  2.6128890e-02
 -3.3123457e-01
 -1.0136663e+00
 -1.3755836e-01
 -3.9881280e-01
 -6.2912516e-02
  1.0167210e+00
 -5.7852745e-01
 -6.7624204e-02
 -6.5738976e-01
  2.0404501e-01
 -1.9159036e-02
 -7.9588145e-01
 -3.4569734e-01
  3.0011493e-01
  9.8904125e-02
 -1.1857446e-01
 -6.4711517e-01
 -7.2650042e+00
  6.8225060e-03
  2.1764654e-01
  3.6186442e-01
 -3.6818427e-01
  1.8576058e+00
 -6.9959646e-01
  1.2425030e-01
  8.9553982e-01
  4.6104780e-01
  2.4744965e-02
 -5.8196121e-01
 -6.2560833e-01
  1.6247714e+00
 -4.0182772e-01
  2.7091733e-01
  7.6627725e-01
 -2.2156969e-01
 -2.8823090e-01
  1.7316833e-01
  5.3142235e-03
  5.0274998e-01
 -5.7532328e-01
  4.7235820e-01
 -2.5076538e-01
 -9.5956802e-02
  9.6093857e-01
  1.0087381e-01
 -5.8327758e-01
  5.1023674e-01
  7.2553730e-01
 -9.0117651e-01
 -3.3775276e-01
  2.0547976e-01
 -1.7652127e-01
 -3.0938441e-01
 -1.3441120e-01
 -1.6488999e-01
 -1.4184827e-01
 -1.0523973e-02
 -4.0439002e-02
 -9.7605720e-02
 -5.2628279e-01
  5.7925862e-01
 -5.2404052e-01
 -1.2096918e-01
  9.1992611e-01
 -2.0177279e-01
 -1.0926976e+00
  2.6403666e+00
 -4.1576612e-01
  7.2639245e-01
 -2.3146710e+00
  6.3406396e-01
 -3.2617104e-01
  1.2305056e-01
 -9.4867289e-01
  6.0119003e-01
 -1.3405329e-01
 -7.0681870e-01
  1.3686590e+00
 -6.6052917e-03
  3.5154790e-01
  5.6980144e-02
  4.6375665e-01
 -1.6397055e+00
 -1.1790049e+00
 -3.5257363e-01
 -4.2610265e-02
 -1.9297370e-01
  2.1791203e-01
 -6.8296480e-01
 -2.3849714e-01
  8.8711224e-02
 -1.2979876e-02
 -2.2562614e-01
 -2.5304121e-01
  3.5427749e-01
 -2.0979124e-01
 -3.3186495e-02
 -3.0975574e-01
  2.8302535e-02
  4.3168422e-02
 -3.0112103e-01
 -1.6026062e-01
 -2.4684423e-01
 -2.9395944e-01
  6.9465435e-01
 -4.9406722e-01
 -6.7407377e-02
  4.8626950e-01
  3.6341053e-01
  9.7120151e-02
 -4.1325739e-01
  3.7239209e-02
 -6.7418955e-02
  9.4998711e-01
  9.6298352e-02
 -7.4164253e-01
  3.8706940e-01
 -3.3459905e-01
 -2.6889589e-01
  1.4197193e+00
  1.0347304e-01
  2.5101563e-01
 -3.1468064e-01
  2.7097958e-01
 -2.6040879e-01
  9.7109586e-01
  7.0587212e-01
 -7.1012937e-02
 -5.7185721e-01
  3.8039511e-01
 -5.9607041e-01
 -5.3754412e-02
  2.9890186e-01
 -3.9273238e-01
 -1.5790635e-01
 -9.5507669e-01
  1.0346625e-02
  4.8638687e-01
  2.4671175e-01
  3.7729737e-01
 -2.4723923e-01
  4.1538537e-02
 -7.3213798e-01
  1.1683360e+00
  2.8893545e-01
 -5.6862140e-01
 -7.4334294e-01
 -8.4866154e-01
  3.2434559e-01
 -3.0570662e-01
  4.5617172e-01
  2.2709395e-03
  1.1749194e-01
 -1.8674845e-01
 -5.4020149e-01
 -1.6527588e+00
 -2.0058800e-01
 -1.0106627e+00
  1.5463047e-01
 -1.1013125e-01
  3.9588064e-02
  6.7462200e-01
  1.4322209e-01
 -1.3756464e-01
  4.6058351e-01
 -4.3944013e-01
 -1.5558571e+00
  6.0638660e-01
 -5.1273692e-01
  9.9723332e-02
  2.8271087e-02
  6.0788357e-01
  6.3916445e-01
  4.1245723e-01
  4.9193498e-02
  4.2337304e-01
 -3.8634455e-01
  2.8695598e-01
 -1.2238817e+00
  2.5009996e-01
  3.0016157e-01
 -1.2510482e+00
  3.1905952e-01
 -2.1906878e-01
  4.2954922e-01
  1.2588835e-01
 -1.5549985e-01
  8.0165491e-02
 -2.1744688e+00
 -2.0188503e-01
 -5.2286077e-01
 -4.3267128e-01
  1.8346085e-01
  4.0329069e-02
 -4.4496883e-02
  2.1258658e-01
  2.9942009e-01
 -1.0452299e+00
 -1.3747705e+00
 -1.8968679e-01
  5.5505395e-01
 -2.7270859e-01
  1.1446277e-01
 -2.7411118e-02
 -5.9773880e-01
  1.5627868e-01
 -1.8500847e-01
 -5.9284389e-01
  1.9884662e-01
 -7.6151121e-01
  1.8666027e-01
 -1.9399436e-01
 -2.4586546e-01
  9.6112627e-01
 -2.3106086e-01
  5.9170449e-01
 -2.3466589e-01
 -6.0014427e-03
 -1.5858221e-01
  3.8182911e-02
  5.5290562e-01
  4.8348567e-01
 -1.3650611e-01
  3.3679965e-01
  1.1964204e+00
 -1.0831883e+00
  8.1025124e-01
  1.3919988e+00
  6.3503367e-01
 -1.0877007e+00
 -2.7409720e-01
 -5.6975383e-01
  6.4835960e-01
  5.1375270e-02
  9.4317645e-01
 -8.9625686e-02
  6.6482037e-01
 -9.0219826e-02
 -1.0717733e-01
  1.0971272e+00
 -3.7808351e-02
 -1.1116860e-01
  2.5104785e+00
  1.8789569e-01
  9.6640092e-01
 -1.0863512e+00
  6.8840080e-01
  4.2111719e-01
 -1.1546187e-01
  5.8817267e-01
  5.9483483e-02
  1.3575342e-01
  2.1984918e-01
 -2.0103665e-01
 -1.4517060e-01
 -3.8590240e-01
  4.6254266e-02
 -3.5638186e-01
 -2.6999786e-01
 -2.7529337e-02
 -2.5830862e-01
  2.1571489e-01
  1.2719874e-01
 -1.4930388e-01
  6.6478342e-02
 -2.3636153e-01
 -1.3642752e-01
  1.5892494e+00
 -1.2977664e+00
  5.2499253e-01
  6.2057525e-02
 -4.1513228e-01
  3.3261892e-01
  6.0711503e-01
  4.9776933e-01
  9.3953997e-02
  4.3446872e-01
 -2.2103518e-01
  3.2407254e-02
 -6.2330711e-01
 -4.9633101e-01
 -2.1903530e-01
  1.3785151e+00
 -1.1948510e-01
  8.8400260e-02
 -1.2962696e-01
  3.8356626e-01
 -1.6674113e-01
 -1.3650963e+00
  3.0559235e+00
  1.6600446e-01
 -3.1087974e-01
  4.1922379e-01
 -4.2638540e-01
  5.1975930e-01
 -2.3717865e-01
  4.0150225e-01
  7.5123256e-01
  2.6975095e-01
 -1.0518659e+00
 -1.2688761e+00
 -5.5143964e-01
 -1.2879580e-01
 -6.5414321e-01
  3.2703385e-01
  8.1893277e-01
 -1.0944698e-02
 -3.0477495e+00
 -1.4948025e+00
 -7.9945141e-01
  3.7952671e+00
 -1.1468673e-01
 -7.5671923e-01
  8.2963520e-01
 -3.1881785e-01
 -2.8464851e-01
  3.4944615e-01
  3.8951874e-01
 -3.5255112e-02
 -5.8922315e-01
 -1.0001300e-01
 -9.0506220e-01
  2.8529865e-01
 -1.2823969e+00
 -5.8938954e-02
 -3.0169767e-01
 -1.5956780e-02
 -1.6468746e-03
 -5.5921507e-01
 -2.6520267e-01
  3.2738456e-01
  8.7240234e-02
 -2.0811746e+00
  5.4264393e-02
  1.3170134e-01
  3.3576718e-01
 -4.2338121e-01
 -6.4138937e-01
 -6.0909897e-01
 -4.2961381e-02
  8.2327443e-01
  1.1456298e-01
 -4.6874565e-01
  1.1262801e-02
  4.5242381e-01
 -3.7282944e+00
  5.5412906e-01
 -1.4362222e+00
 -9.1610152e-01
 -6.8252957e-01
  9.3612438e-01
  2.2903370e-02
  2.3578499e-02
 -2.2142957e-01
  1.4521484e-01
 -1.0264107e+00
 -9.4103806e-02
  1.5441514e-02
  2.8045040e-01
  2.2274332e-01
  7.0919502e-01
 -7.3856604e-01
  4.5497620e-01
  1.3287021e+00
  1.1771958e+00
 -1.0913345e+00
 -4.2349231e-01
  8.2245255e-01
  7.4974716e-02
  2.0785298e+00
  3.9617795e-02
 -1.8431245e-01
 -1.7486751e-02
 -4.0051496e-01
 -4.3711480e-01
  4.2457736e-01
 -1.3584442e-01
  1.0324945e+00
 -1.0643413e+00
 -5.7919174e-01
  2.4213013e-01
  9.2614126e-01
 -9.4216651e-01
 -8.9265639e-01
  5.3291988e-01
  1.5985306e-02
 -7.1065593e-01
  3.0924711e-01
 -7.9112333e-01
 -2.8322718e-01
 -3.5266131e-01
 -1.0745012e+00
  1.8037784e-01
  1.2864795e+00
 -1.0188783e+00
 -4.5512967e-02
  3.2293051e-03
 -2.0490782e+00
  3.7632298e-01
 -8.4724881e-02
  6.3883871e-01
  2.0593902e-01
 -5.3099689e+00
  3.3224726e-01
 -1.8938285e-01
  5.8619750e-01
 -1.6247088e+00
  1.2299893e+00
 -2.5018343e-01
 -1.9222932e-02
 -3.5206974e-04
  1.0831282e-03
  4.9961966e-01
  3.0965835e-01
  9.0756044e-02
  7.9343528e-01
 -3.3982414e-01
  1.0552262e-01
 -3.6456820e-01
 -5.0929695e-01
  3.8750318e-01
 -2.2784181e-02
 -4.5255503e-01
 -7.0568889e-02
 -3.2168934e-01
 -1.2430157e-01
  1.0632614e+00
  2.1331908e-01
 -2.4223287e-02
 -5.1186705e-01
 -2.9400086e-01
 -9.1435477e-02
  1.5899909e+00
 -4.0785694e-01
  4.8885159e-03
  3.4146449e-01
 -7.0862246e-01
  1.5504462e-01
 -3.5440844e-01
  4.0718824e-02
  3.4522182e-01
  7.2060592e-02
 -1.3363498e-01
  2.3316553e+00
  3.3330745e-01
 -1.0876602e+00
 -2.1673677e-02
  7.4959010e-01
  4.2417571e-01
  2.2802417e-01
  3.7740034e-01
 -1.9369632e-01
  1.9387183e-01
 -1.8181802e-01
  7.1818787e-01
 -9.2575930e-02
 -1.2559983e-01
  1.8424630e+00
 -3.6732331e-01
  4.9211866e-01
 -1.6424024e-01
  4.0547135e-01
  3.6289275e-01
 -1.3062164e-01
  1.4796767e-01
 -2.7124560e-01
 -2.8520342e-02
  2.5964311e-01
  1.6643590e-01
  8.1281829e-01
  4.8120832e-01
  6.8112200e-01
 -2.6715395e-01
  1.5173024e-01
 -1.5967312e-01
  4.3382487e-01
 -3.3824213e-02
 -2.3244253e-01
 -3.4654427e-01
 -2.7717626e-01
  7.3184174e-01
 -2.9100382e-01
 -2.6726460e-01
  5.5812460e-01
 -5.6363809e-01
 -1.0524930e-01
  3.3555207e-01
 -3.3448523e-01
  1.3776227e+00
  3.4240377e-01
 -2.7556062e-01
  4.9250594e-01
 -1.2344409e-02
  7.4783541e-02
  3.2243140e-02
 -2.7872366e-01
 -3.0746661e-02
 -8.0681600e-02
  7.6142871e-01
  4.7597331e-01
 -1.2235884e-02
  2.5861809e-01
  4.5793262e-01
  2.9865229e-01
  5.1050775e-02
 -1.7816146e-01
 -4.1199082e-01
 -1.7613268e-01
  7.6604593e-01
 -3.4219027e-01
 -8.2101625e-01
  1.7892300e-01
  4.0517103e-02
 -5.8016006e-02
  7.4682944e-02
 -1.7747837e-01
  9.0937249e-02
 -4.9456114e-01
  6.5126038e-01
  1.3132578e-02
  6.7970526e-01
  2.9080066e-01
 -5.3478873e-01
 -8.8856560e-01
  9.9826768e-02
  6.6925257e-01
  1.0966723e+00
 -1.4650227e-01
 -5.4247957e-01
 -5.4674369e-01
 -1.1825504e-01
  2.9372206e-01
  4.3679243e-01
 -1.6524172e-01
  6.8355173e-02
  8.9598089e-01
 -1.3417117e-01
 -7.0975947e-01
 -1.3773461e-01
 -1.7694275e-01
 -2.9319385e-01
  8.6525097e-02
  9.3245679e-01
  9.9204069e-01
  4.3313855e-01
  1.6215655e-01
 -5.8918691e-01
 -4.7843415e-01
  1.8854700e-01
 -1.5159974e+00
  4.7828490e-01
 -4.8807040e-02
  7.1720786e-02
 -3.0712822e-01
  2.6842058e-01
  3.7923715e-01
  4.9887589e-01
  9.2942739e-01
  1.2313139e+00
 -2.6680353e-01
  5.5709410e-01
  2.1768355e+00
 -1.7696068e-01
  4.3533185e-01
  2.1409206e+00
 -4.6551099e-01
  4.4715661e-01
  5.6424981e-01
  6.8336720e+00
  3.3164248e-01
  1.2373948e-01
 -3.1660083e-01
 -3.6468145e-01
  3.9520031e-01
 -5.9198376e-02
  3.6328144e-02
  4.7992069e-02
  9.1073371e-02
  3.7378648e-01
 -4.2479320e+00
 -1.4951259e-01
  3.0752387e+00
 -2.3220835e+00
  1.4735446e+00
  1.1482845e-01
 -1.7529124e+00
 -3.8970402e-01
 -1.5653732e-01
 -6.7554548e-02
  7.7218950e-01
  6.7934312e-02
  4.5674163e-01
  3.2919977e-02
  1.9429864e-01
 -1.8304485e-01
 -1.9518638e-01
  2.0056768e-01
 -9.1232330e-01
 -1.5296090e-01
  3.2117027e-01
  3.9220870e-01
 -2.0472096e-01
  2.0314920e-01
  3.6154680e-02
 -1.1838720e-01
 -8.9814836e-01
 -2.0691228e-01
  3.7034672e-01
 -5.7522256e-02
 -1.7700465e-01
  5.0973082e-01
 -1.4668279e+00
  5.0676167e-01
 -5.1648855e-01
 -1.3604678e+00
 -3.7484229e-02
  2.6589522e-01
 -7.1225101e-01
 -7.3121899e-01
  3.4498596e-01
 -1.6997302e-01
  5.4046489e-02
  1.9164634e-01
 -1.5744458e-01
  5.3237534e-01
 -8.1202543e-01
 -1.1105379e-01
 -2.9137421e-01
  7.6087773e-01
 -8.9654440e-01
  4.3715405e-01
  1.2697813e-01
 -4.5767102e-01
  3.2427603e-01
 -3.8324624e-01
  6.4984190e-01
 -3.8536173e-01
  1.7566571e-01
 -9.0499663e-01
  3.2550164e-02
 -8.8009375e-01
 -1.4355814e-01
  6.7806192e-02
  2.3320787e-01
  5.1870054e-01
 -6.8092299e-01
 -1.2713486e-01
  1.8084900e-02
 -6.6709757e-01
  2.7986708e-01
 -6.1354160e-01
 -3.1422604e-02
 -8.3042270e-01
  6.4250773e-01
  1.7618024e-01
  1.5528978e+00
  4.5795366e-01
 -1.8585087e-01
 -4.7119367e-01
 -8.4959096e-01
 -6.5988940e-01
 -4.7815692e-02
 -1.1117524e+00
  1.1635997e+00
 -2.1423982e-01
 -1.6263356e+00
 -2.5399714e+00
  1.0133867e+00
 -5.6930915e-02
  5.5500352e-01
  3.4973869e-01
  2.3998907e-01
 -1.0160750e+00
 -5.3087965e-02
 -2.5733717e-02
 -1.4980317e+00
  8.0142222e-02
  1.8646902e-01
  5.0027543e-01
  1.2470465e+00
 -1.9782493e-01
 -1.1041551e-01
  1.0668784e-01
 -1.3328843e-01
 -4.8226580e-02
  1.1083612e+00
  2.5430244e-01
  8.4889138e-01
  4.0011059e-02
  4.1283476e-01
 -1.8620759e-01
 -1.7386223e-01
  7.7558145e-02
 -5.0903493e-01
 -1.1232686e-01
 -1.1749285e+00
 -5.8413874e-02
  8.1389770e-02
  1.5211061e-01
 -7.4178499e-01
 -1.7714400e-02
  3.3462834e-01
  1.2959366e+00
 -8.3336391e-02
  1.5662222e-01
  2.4372220e-01
 -1.2681812e-02
  8.0605787e-01
  2.1881376e-01
 -7.8150642e-01
 -3.8409096e-01
 -8.6990394e-02
 -1.0890403e-01
  1.1024879e-01
  1.1366798e+00
  9.7830757e-02
  1.8729433e-02
  1.0970473e-01
  5.6919420e-01
  6.9261476e-02
  7.8944281e-02
  3.8290866e-02
  4.7058746e-01
  6.5710354e-01
 -2.2294238e-02
 -9.5479888e-01
  2.0855799e-01
  9.4188415e-03
  1.4021921e-01
 -5.1139176e-01
 -3.5731366e-01
  9.4962545e-02
  4.2555076e-01
 -9.3817401e-01
 -1.1737226e+00
 -6.3374817e-01
 -3.3845890e-01
  2.7353269e-01
 -9.2314612e-03
 -2.1722503e-01
 -3.0135090e-02
  2.5673419e-02
  7.6317555e-01
 -1.6253980e-01
  3.9153200e-01
  1.2006919e+00
  5.8239424e-01
 -2.1505356e-04
  2.1879208e+00
 -1.4879154e-02
 -2.7371344e-01
  3.0962354e-01
  1.7879938e-01
  3.9518186e-01
 -8.7095046e-01
 -7.1591491e-01
 -3.9269564e-01
  5.6301200e-01
  4.3363473e-01
  1.1425120e-01
 -2.1876100e-01
 -2.0018493e-01
  3.9647657e-01
  1.3345141e+00
  2.7052101e-01
  1.7944530e-01
 -2.5271326e-01
 -4.9167606e-01
 -2.1052949e-01
 -3.0603185e-02
 -2.9530111e-01
 -3.0612517e-02
 -2.5652856e-01
  4.4078577e-01
 -4.7824848e-01
  6.9044679e-01
  3.3942741e-01
  3.5963604e-01
 -7.2246289e-01
  5.3132694e-02
 -6.7801520e-02
  8.6519027e-01
 -7.7001673e-01
 -4.1948944e-01
 -7.9415882e-01
 -2.9320266e-02
 -4.3358600e-01
  5.2428991e-01
 -7.8357452e-01
 -9.6786726e-01
 -2.9382914e-01
  3.7812713e-01
  4.6354741e-01
 -9.1655716e-02
 -2.2658964e-01
  2.3128052e-01
 -7.8417814e-01
 -1.1373124e+00
 -8.4560329e-01
  2.3926786e-01
  5.2924171e-02
  2.7343923e-01
  8.7006539e-02
 -1.1110099e-01
  6.8341708e-01
  8.9234126e-01
 -2.2805764e-01
  1.2164481e-01
 -2.1551196e-01
  2.7322292e-02
  1.8126467e-01
  8.1542110e-01
 -2.9729229e-01
  2.3038994e-01
 -1.0307356e+00
 -2.8743741e-01
 -1.6419201e-01
  4.0981729e-02
  8.3142561e-01
 -5.1258487e-01
  2.9931828e-01
 -6.9865799e-01
  7.3458046e-01
  2.9112780e-01
  3.6584559e-01
  1.6265330e-01
  6.5725490e-02
 -1.6619220e-01
 -2.1481121e-01
 -4.2627680e-01
  2.2887675e-01
 -6.2365276e-01
  7.7670023e-02
  7.0160365e-01
 -2.0484512e-01
 -7.5090861e-01
 -1.8642499e-01
 -6.2093341e-01
 -8.7574655e-01
  7.1256864e-01
  1.3948092e+00
  7.8849718e-02
 -1.0416909e+00
 -3.2259815e+00
  2.9735506e-01
 -2.5212222e-01
  3.5873905e-02
 -2.7075770e-01
 -8.2519233e-01
  1.8180094e+00
  4.7264278e-01
 -9.0226579e-01
  2.4818494e+00
  9.6805528e-02
  1.8944009e-01
 -1.4969617e-01
 -1.0619571e+00
  1.0167696e+00
 -2.3099616e-01
  6.8590581e-02
 -2.0501457e-01
  1.3578703e-01
 -1.3174413e+00
  2.3325527e-01
  3.1498508e+00
  3.0896062e-01
 -7.0084137e-01
  7.7599093e-02
  2.4728360e+00
  1.9940832e-01
  3.7655902e-01
 -2.8608504e-01
  5.2983679e-02
  8.7064505e-02
 -7.8359932e-01
  1.3174568e+00
  9.6188819e-01
  1.1990594e+00
 -4.2125292e-02
  1.2203157e+00
  2.0151998e-01
 -3.3513093e-01
  4.5957774e-01
  3.7065487e-02
 -1.1642644e+00
 -3.6051711e-01
 -2.1107139e-01
 -3.2979286e-01
 -2.4129233e+00
  1.3340635e+00
  1.1075056e-01
 -2.1415064e-02
  1.8911190e-01
 -1.1599997e-01
 -3.6033764e-01
  5.1043469e-01
 -3.3639213e-01
  2.8385675e-01
 -5.3360081e-01
 -1.4895026e-01
 -1.1778623e-01
  8.4838390e-02
  3.4005821e-01
 -6.2677598e-01
  5.3541875e-01
  2.1327828e-01
  1.1287589e+00
 -8.3969153e-02
 -1.9139149e+00
  3.6897606e-01
  1.2797229e-01
 -2.3568176e-01
  2.0164192e-02
 -5.4832256e-01
 -4.6769220e-01
 -4.9654999e-01
 -6.0479778e-01
  1.1075997e+00
 -5.9918338e-01
  5.6010693e-01
 -5.2177709e-01
  3.0396801e-01
 -7.0725536e-01
 -3.3396688e-01
  4.7755277e-01
 -8.7132931e-01
 -8.6157674e-01
 -1.9217288e-01
  3.5090197e-02
  3.1531787e-01
 -1.3500038e-01
 -5.3004038e-01
 -8.6696112e-01
  3.8248204e-02
  2.5166565e-01
 -3.3520830e-01
  7.9766192e-02
  7.6220906e-01
  4.8518065e-02
 -1.5184315e-01
 -4.2077345e-01
  3.1730339e-01
 -3.5227385e-01
  1.9897137e-02
  1.3302326e-02
  7.7518430e-03
 -3.7280041e-01
  9.9778378e-01
 -2.6880369e-01
  4.8154140e-01
  2.3899095e-01
  1.4045756e-01
 -3.6889937e-02
 -3.5898423e-01
 -2.8224358e-02
  2.5319085e-01
 -4.6704122e-01
 -9.5480189e-02
 -4.1581759e-01
  9.7658813e-01
 -1.2991037e+00
  5.2052927e-01
 -1.4330797e-01
 -1.4073844e+00
 -5.1960474e-01
  1.5713133e+00
 -4.4781175e-02
  1.6251872e-01
  2.7955776e-01
 -6.0064584e-02
 -3.0319878e-01
 -2.9184756e-01
  8.0458052e-02
  1.2320215e+00
 -1.3570312e-01
  5.7646263e-01
  5.2225512e-01
 -4.6438271e-01
 -4.3490630e-01
 -5.2852786e-01
 -1.3434790e-02
 -2.0955159e-01
 -4.8904270e-01
  6.1752701e-01
 -3.7666935e-01
  2.0024002e-01
 -9.3885499e-01
 -7.2029585e-01
  3.1919017e-01
  8.5054898e-01
 -1.3793901e-01
  3.6397886e-02
 -1.6920491e-03
  2.6635098e-01
  4.4934902e-01
  2.1512260e-01
  4.4978404e-01
  4.8267496e-01
 -5.0854927e-01
  7.0999771e-02
  3.1011403e-01
  4.6493515e-01
  5.1045038e-02
 -1.1861951e-02
 -1.1316067e+00
 -3.1688979e-01
 -1.6238585e-01
  7.6514192e-02
  2.8486878e-01
 -1.6732632e+00
  6.8942469e-01
  1.8201245e-01
 -2.8258312e-01
  6.6290921e-01
  1.7275387e-01
 -3.4631118e-01
  1.2461613e+00
 -4.0776804e-01
  5.7770967e-02
 -5.1531821e-02
 -4.6719998e-02
  6.0254425e-01
  1.3848313e+00
 -3.2432768e-01
 -6.7110807e-02
 -5.0676930e-01
  1.0204160e-01
 -7.2624904e-01
 -4.4518936e-01
  1.2084875e-01
  2.4582842e-01
  5.4787554e-02
 -1.8178093e-01
  3.1258878e-01
 -3.8857985e-01
 -1.2670895e-01
 -2.6096272e-01
 -2.7632344e-01
 -5.6512213e-01
  3.4727809e-01
 -1.2415760e-03
 -2.7006328e-01
  3.1665885e-01
 -7.8861487e-01
  1.2637495e-01
  9.0578333e-02
 -3.1035818e-02
 -2.3507486e-01
 -1.0443523e-01
 -1.3820878e-01
  8.3037978e-01
 -6.9548428e-02
 -2.4406132e-01
  3.2044324e-01
 -2.3939319e-01
 -5.2334383e-02
  5.6558806e-01
 -1.4990787e-01
 -1.6551024e-01
  3.7138127e-02
  4.5314455e-01
 -7.0206529e-01
 -3.0853578e-01
 -7.2483295e-01
  1.2330982e-01
  8.8396049e-01
 -1.6584361e+00
 -1.9304205e-01
  1.2805113e-01
 -4.3705255e-01
  3.3992150e-01
  3.6008993e-01
 -1.9967322e-01
  2.5362080e-01
  9.7356039e-01
  4.1224366e-01
 -4.0648189e-01
 -1.2073923e+00
  5.6237996e-01
  4.9496707e-01
  1.9982424e-01
  5.0719613e-01
 -2.9851428e-01
  9.4124144e-01
 -1.3328794e-01
 -5.6187904e-01
  4.3468645e-01
  6.9430195e-02
  5.9368128e-01
  2.3237616e-01
  5.0437325e-01
 -3.7521911e-01
  3.3905005e-01
 -6.1259794e-01
  1.3565785e-01
 -2.9097289e-02
 -3.9519572e-01
 -6.6444498e-01
 -3.5344973e-02
 -3.3475786e-01
  1.0593502e-01
 -5.7498112e-02
  5.6933738e-02
 -6.0283370e-02
  2.4291898e-01
  5.5833918e-01
 -1.6482420e-01
 -3.3004534e-01
  5.9346521e-01
 -4.5951359e-02
  3.6326298e-01
  4.6143901e-01
 -8.1869042e-01
  3.0223188e-01
 -1.1475772e-01
 -1.4662471e+00
  2.5631392e-01
 -5.3131813e-01
  1.0502254e-01
  7.9214120e-01
 -1.6403897e-02
  1.1959451e-01
 -3.1845254e-01
 -1.0591748e-01
  1.7892829e-01
  2.5552320e-01
 -2.7802908e-01
  1.2529603e-01
 -5.5845457e-01
 -4.3309516e-01
 -1.5277439e+00
  2.8106979e-01
 -1.2880158e+00
 -1.0675092e+00
 -1.7579689e+00
 -3.6687005e-01
  4.3773612e-01
  5.0538355e-03
 -1.0273582e+00
  1.0861024e+00
  4.1512206e-02
 -1.2316405e-01
 -5.6233788e-01
  4.4948366e-03
 -3.4248102e-01
  7.1197480e-01
 -3.2971734e-01
 -2.6856072e-02
  3.3953243e-01
  6.2355852e-01
 -2.9747996e-01
  1.3067164e+00
  5.8996812e-02
  1.0699334e-01
 -3.9263997e-02
  3.8351652e-01
  7.2499675e-01
  4.5532858e-01
  8.6280666e-03
  1.3070523e+00
 -1.9356264e-01
 -2.0415401e+00
 -1.8143423e-01
  2.9099181e-01
 -2.8857514e-01
 -8.7907398e-01
 -3.7841666e-01
  2.5248262e-01
  2.2441033e-01
  4.1628301e-01
  1.2395352e-02
  2.7512476e-01
 -6.4725488e-01
  1.3416298e-03
 -6.4520442e-01
 -5.5711305e-01
 -3.8477141e-02
 -1.6532421e-01
  1.3392129e+00
  3.3354595e-02
 -6.7582756e-02
 -7.2487608e-02
  1.9386404e+00
  4.3253866e-01
  5.9645027e-03
  3.2215869e-01
 -1.4430895e-01
 -3.6208630e-01
  2.1730836e-01
  1.1701530e+00
  2.3740701e-01
  3.4748828e-01
 -7.5624079e-02
  5.6870425e-01
  4.5046905e-01
  3.3751767e+00
  2.4981433e-01
  2.6407820e-01
  3.2667205e-01
  6.5570623e-02
  3.4003311e-01
  8.5881394e-01
  3.0395591e-01
 -6.8244450e-02
 -6.7077212e-02
  3.8402778e-01
 -3.0263218e-01
  4.1901028e-01
  2.3694921e-01
  2.3248067e-01
  6.7245579e-01
 -2.2255802e-01
 -4.9439464e-02
 -1.6271055e-01
 -2.6433328e-01
  2.3864338e-01
 -6.4626061e-03
  2.5216043e-01
  2.5213914e-02
  5.1735920e-01
 -4.6810657e-02
  7.3026650e-02
 -4.7464985e-01
 -3.6145997e-01
 -2.9410074e+00
 -2.4840527e+00
  2.3549139e+00
 -2.2638412e-01
  2.8950484e-02
 -8.8607687e-01
 -2.5254591e+00
 -1.8805595e-01
  6.3697296e-01
 -1.3264984e+00
 -2.2967501e-01
 -1.1513996e+00
  5.0674319e-01
 -4.9693599e-01
  5.1899260e-01
  2.3068039e+00
 -1.6211615e+00
 -1.1230273e+00
 -3.4534698e+00
 -1.1689312e+00
  5.0833750e-01
 -1.7558455e+00
  1.3377650e+00
  6.8445647e-01
  1.4721894e+00
  1.6883749e-01
  1.1820242e+00
  9.3526006e-01
 -1.4629216e+00
  2.5896721e+00
  1.9613918e+00
 -2.5773206e+00
  8.3634126e-01
  3.7968776e+00
 -1.3240851e+00
  1.9309600e-01
 -4.5353732e-01
 -1.2428672e+00
  2.2225125e+00
  5.7754207e-01
 -1.3327750e+00
  5.0971031e-01
 -4.3483645e-01
  3.7141556e-01
  1.0118761e+00
  1.0503165e+00
  7.9097070e-02
  5.9202683e-01
 -2.3572910e+00
 -1.9313732e+00
  3.6496899e-01
  3.5954508e-01
 -4.9636713e-01
  3.4895694e-01
 -8.4840345e-01
  1.5549865e-01
  1.6990618e-01
  7.1383923e-02
  8.8606942e-01
 -1.0322480e+00
  2.2304168e-01
 -2.5030267e-01
 -1.2450837e+00
  6.8177754e-01
  1.0379785e+00
 -3.1454107e-01
  6.6129565e-01
 -2.5975788e-01
  1.6653763e-01
  1.4254342e-01
 -1.4634641e-02
  7.7897811e-01
 -6.1811304e-01
  2.2329135e-01
  6.4678687e-01
 -1.8348947e-01
 -1.1624875e+00
  2.2251204e-01
 -1.1806659e-01
 -1.5145552e-01
  3.7010860e-01
 -8.4946287e-01
  2.4261889e-01
  2.6073465e-01
 -2.8795648e-01
 -4.1219088e-01
 -1.0684527e+00
 -3.7597053e+00
  5.7735749e-02
 -4.3434089e-01
 -2.0545155e-01
 -8.3879501e-02
  1.9772339e-01
 -6.2819463e-01
  7.7237360e-02
  1.5454276e-01
 -6.4031911e-01
  8.2420230e-02
  1.8965201e-01
  1.0297059e+00
  2.1183082e-01
 -2.7817345e-01
  4.8006546e-01
  3.8357396e-03
 -5.5991626e-01
  2.9364130e-01
 -2.8047264e-01
 -4.3917778e-01
  7.1425408e-01
 -9.9224758e-01
  9.0325862e-01
 -1.3976543e-01
  2.2098824e-01
 -6.9068760e-01
 -8.5067511e-01
 -2.8771651e+00
  3.3626145e-01
  1.8138669e+00
 -3.6307201e+00
 -3.4425735e-02
  7.3388255e-01
 -1.3380786e+00
 -1.7255083e+00
 -2.8038487e+00
 -4.1681867e-02
 -3.5856268e-01
  2.7678571e+00
 -4.4929585e+00
 -3.2586789e-01
  3.0407941e+00
 -1.1339622e+00
 -2.1449294e+00
 -3.0937757e+00
 -1.7075995e+00
 -1.0218831e+00
  2.5221813e+00
 -6.3448868e+00
 -1.4290801e-01
  1.8030766e+00
  1.3298938e+00
 -2.1054122e+00
 -1.4218525e+00
 -6.9234979e-01
 -6.9701427e-01
  5.3338838e-01
 -3.0590663e+00
  4.5582169e-01
  3.7359187e-01
 -5.3595066e-01
 -8.2228404e-01
 -1.1376959e+00
  3.3603293e-01
 -2.0542121e+00
  1.7776157e+00
 -2.6538736e-01
 -1.0706379e+00
 -1.5469823e+00
  3.6165853e+00
 -1.1139202e+00
 -8.1905752e-02
 -1.3761681e-01
 -4.1630235e-01
 -3.8710415e-01
 -2.6007745e-01
 -2.4152248e-01
 -4.4331223e-01
 -1.7574458e-01
 -1.0404211e+00
 -1.2519562e+00
 -1.1355211e+00
  1.5830658e-02
 -5.9423673e-01
  4.3238497e-01
 -2.0986491e-01
 -1.6955006e-01
 -2.6169893e-01
  2.2534536e-01
 -5.3158104e-02
  6.4171916e-01
 -5.1255941e-01
 -6.5736836e-01
 -5.3403443e-01
 -3.4647450e-01
 -1.9422513e-01
 -1.8391190e-01
 -2.6788315e-01
  2.2800772e-01
  3.3880305e-01
  4.0052876e-01
  1.8475559e-01
 -5.0596112e-01
  1.2899697e-01
  1.6874317e-02
  8.0859476e-01
 -3.3016416e-01
 -4.2150092e-01
 -7.9793163e-02
 -4.1391909e-01
 -1.0548346e-01
 -4.4645196e-01
 -1.6114044e-01
 -4.8242572e-01
  1.4403574e+00
 -8.1632830e-02
  3.3321898e-02
  3.5658073e-01
  1.0777724e+00
 -1.6433530e-01
  2.5771660e-01
  1.6164472e-03
  7.9888001e-02
 -1.3056055e-01
  1.0050374e+00
 -9.5526457e-02
  9.9725294e-01
 -3.5510698e-01
  2.3801109e-01
  4.5340323e-01
  5.2078527e-01
 -5.0920814e-01
 -1.6059986e-04
 -6.7565024e-01
  7.0488787e-01
  1.0192902e+00
 -1.2576470e+00
  2.3310525e+00
 -1.8583518e+00
  1.0214794e-01
  2.8993058e+00
  7.2343335e-02
  5.0876939e-01
 -1.0563644e+00
  9.9261969e-01
  6.9839038e-02
  7.3825467e-01
 -2.9283264e-01
 -2.2616587e+00
 -8.9198470e-01
  9.2849559e-01
  6.7805141e-01
  4.4773981e-01
  2.2709592e-01
  6.0310608e-01
  6.0836679e-01
 -1.4847404e+00
  8.3335942e-01
 -1.2102273e+00
 -9.8635751e-01
 -1.6686887e-01
 -6.7760450e-01
  1.6970749e+00
 -2.8226405e-01
  1.0753336e+00
 -8.9729697e-01
 -3.3839953e-01
 -5.3310090e-01
  5.4709077e-01
  7.5740272e-01
  1.4122619e-01
 -7.0982659e-01
 -2.4914175e-02
  1.0030015e-01
  1.7593084e-01
  1.5309118e-03
 -3.8142765e-01
  1.2523317e-01
  5.4361719e-01
  1.9469443e-01
  6.7841327e-01
  7.3459754e-03
  1.8934545e-01
 -1.0839572e+00
 -2.9773134e-01
  2.3748869e-01
  8.0077124e-01
 -1.5806986e-01
 -7.6143926e-01
 -8.7425721e-01
 -2.2050633e-01
  3.7651384e-01
  2.8366390e-01
 -2.0861432e-01
 -1.2127268e+00
 -1.7193475e-01
 -5.1883467e-02
  9.9114932e-02
  1.8086563e-01
 -1.1276600e-01
 -6.1458945e-01
 -1.3375118e-01
 -7.7051342e-02
  1.3962075e-01
 -5.2788025e-01
 -7.3835230e-01
 -7.4379794e-02
 -4.6482220e-01
 -5.6538939e-01
 -5.1260775e-01
  4.8897871e-01
  5.9058711e-02
 -2.2154215e-01
 -5.0216734e-01
 -1.1851862e-01
 -9.7868510e-02
  3.0241206e-02
 -2.7446437e-01
  3.4230161e-01
  3.7163363e+00
 -1.5025298e-01
  5.0589931e-01
 -1.9803734e+00
 -6.8331951e-01
 -3.3409882e+00
 -6.5946132e-01
 -6.0475916e-01
  5.3774899e-01
  7.8144646e-01
  2.9246670e-01
 -3.1813669e-01
 -1.0167809e-02
  2.5880936e-01
  4.3704647e-01
 -4.4202891e-01
  8.1804043e-01
 -8.5571873e-01
  1.9822749e-01
 -3.0177078e-01
 -5.4283953e-01
 -1.5578264e-01
  1.9122395e-01
 -1.4123816e+00
 -2.9743671e-01
 -1.9153085e-01
  1.3628976e-01
  4.1497099e-01
  1.0295486e-01
  3.6073205e-01
 -1.1969367e-01
 -4.4572005e-01
 -3.9351282e-01
  1.7992608e-01
 -2.2077458e-02
 -3.4404162e-01
 -7.0654207e-01
  5.4254770e-02
  4.1090995e-02
  8.9761317e-01
 -3.9419529e-01
  2.7946138e-01
  3.4829485e-01
 -3.6691087e-01
  6.0550535e-01
  3.8487405e-01
  8.4858578e-01
 -2.5841635e-02
 -3.6801815e-01
 -2.6563007e-01
  9.0241119e-02
 -4.5705199e-01
 -8.8123694e-02
  6.3985455e-01
 -1.1236252e+00
  1.0135264e+00
  4.1064924e-01
 -1.6689724e-01
  6.5717250e-01
 -8.0473316e-01
  7.8462595e-01
 -8.1843376e-01
 -1.1097400e+00
  3.2158089e-01
 -5.2782238e-01
  2.2881283e-01
 -3.6428951e-02
  2.1380502e-01
  2.1167344e-01
  1.1121980e+00
  3.4224501e-01
  1.4176176e+00
  3.4156668e-01
 -3.1803706e-01
 -9.0794355e-02
 -1.4588227e+00
 -1.9176900e-02
  4.1737512e-01
  2.1335974e-01
 -1.9028886e-01
  4.9908981e-01
  1.4133854e+00
 -6.1983049e-01
 -1.3757071e-01
  6.9479012e-01
 -6.9787234e-02
  3.3828622e-01
  5.0534725e-01
  5.0440669e-01
  1.2428316e+00
 -4.2100281e-02
  1.7766766e-03
  1.0693158e+00
  4.4228342e-01
 -1.4359882e-01
  2.0631033e-01
  2.0557411e-02
 -5.5872582e-02
  5.1289856e-01
 -6.2805670e-01
 -1.9323787e-02
  5.9008652e-01
 -2.0377636e-01
 -1.1193578e-01
  7.4664406e-02
  7.1093661e-01
 -1.2150124e+00
  4.5070462e-02
  1.6759649e-01
  1.3172379e-01
 -4.3152496e-01
  7.5911909e-01
 -1.6491763e-02
  1.1799458e-02
  2.6450717e-01
 -2.4847913e-01
 -6.6002709e-01
 -4.7547609e-01
 -1.4309946e-01
 -2.5576186e-01
  4.5732185e-03
 -3.3540040e-01
 -2.4641657e-01
 -6.5224135e-01
 -8.9505118e-01
  5.4301135e-03
 -9.9401951e-01
  4.4279099e-01
 -5.2955317e-01
  1.8605839e+00
 -2.9356951e-01
  2.0733276e-02
  3.4436151e-01
 -6.6400057e-01
 -3.8622577e-02
  2.3966348e+00
  2.1912628e-01
 -6.6873550e-02
  4.7345933e-01
  1.8996643e-01
 -1.4597476e-01
 -5.7685353e-02
 -1.2677968e-01
  3.2075729e-02
 -3.1297605e-02
  5.0444281e-01
 -1.7790201e-01
 -2.7526352e-01
 -2.1498775e-01
  2.9807925e-01
 -1.7765307e-01
  1.2412672e+00
 -3.5754961e-01
 -4.4289875e-01
  1.8470407e-01
 -7.2574191e-02
  8.7781519e-01
  8.1860423e-01
 -4.5899031e-01
  3.1382033e-01
 -2.7695665e-01
 -2.0468006e-01
 -4.5568413e-01
 -1.2023571e-01
  2.9169416e-01
 -3.5964307e-01
  1.0452445e+00
  6.5739118e-02
 -8.0155469e-02
  3.5184842e-01
  1.2762748e-01
  9.1125757e-02
  4.3226501e-01
 -4.1479525e-01
  2.8293937e-01
  7.5425789e-02
 -9.5391858e-01
  8.6338013e-01
 -1.3676804e+00
  9.3527302e-02
 -1.7228058e-01
 -3.3094667e-02
  3.4654468e-01
 -7.7999747e-01
 -8.4363610e-01
 -2.5388855e-01
 -2.5468567e-01
 -5.1428724e-02
 -3.9016539e-01
  5.1423734e-01
  2.6979506e-01
 -3.0429475e-03
 -8.2506493e-02
  5.6822038e-01
 -2.5917864e-01
 -6.9966942e-02
  1.3799588e-01
  1.4521687e-01
 -6.7946649e-01
  2.1675465e-01
  1.4523774e-01
  2.8294623e+00
 -1.0557233e+00
  1.4366293e-01
  9.8215413e-01
  3.5396434e-02
 -1.9974971e-01
 -1.5628794e-01
 -3.0193200e-02
 -2.8633338e-01
  3.1844842e-01
  1.0567861e+00
 -6.8076295e-01
  9.5845854e-01
 -2.5837204e-01
 -3.5825542e-01
  3.6004975e-01
 -1.9822374e-01
  6.3477409e-01
 -3.1106392e-01
  1.1609246e-01
 -2.7002075e-01
  4.3399981e-01
 -8.3826102e-02
 -7.8514606e-01
 -3.0649257e-01
  2.8999645e-01
 -3.6349583e-01
 -1.1872104e-01
  4.1826192e-01
  4.1288234e-02
  1.4402221e-01
  1.7378813e-01
 -3.3248588e-01
 -2.3004778e-01
  1.6108295e+00
  4.1385850e-01
 -8.7450391e-01
  2.1968913e-01
  3.7346154e-02
 -4.0081638e-01
 -2.2582130e+00
 -1.5980767e-01
 -1.1690701e+00
 -1.0528858e-01
 -3.3502355e-03
 -7.0268340e-02
  8.3281285e-01
 -4.9597591e-01
 -1.5053250e-01
 -2.5613984e-01
 -4.9466658e-01
 -3.5243151e-01
  1.3380186e-01
  1.1857015e+00
  1.5163466e-01
 -4.3261051e-01
  4.2838306e+00
  4.7935003e-01
  1.1382307e-01
 -3.9125150e-01
  5.8912617e-01
  4.2469528e-01
  1.6468726e-01
  1.6198565e+00
 -2.2722362e-01
  1.1493419e-01
 -8.5301924e-01
  4.7502136e-01
 -4.6995679e-01
  3.8213120e+00
  6.3435054e-01
 -1.6627381e+00
  5.4744768e-01
  1.1691335e+00
 -1.7363979e-01
  5.5636770e-01
  5.3948253e-01
 -3.9633133e-02
 -1.6503182e-01
 -3.5977197e-01
 -5.9451187e-01
  1.3262495e-01
  7.3805344e-01
  1.1792496e+00
 -3.1473425e-01
 -6.3000953e-01
  7.0560677e-03
 -2.6387390e-01
  2.6172211e+00
 -1.4454995e+00
 -2.2564730e-01
 -1.2060866e+00
 -5.4332089e-01
 -1.7566733e-01
  4.5004827e-01
  1.6629086e+00
  3.3516806e-02
 -1.1150496e+00
 -7.6662737e-01
  6.0187185e-01
 -1.1877302e-01
 -2.2779181e+00
 -7.7232718e-01
 -1.7099077e+00
  3.8528585e+00
 -2.3822865e+00
 -1.1900451e+00
  1.3214930e+00
  1.6983864e-01
 -1.0042975e+00
 -4.4943795e+00
 -4.5277085e-02
 -1.5975198e+00
  1.0467368e+00
 -7.5906968e-01
 -2.3631709e+00
 -3.3008650e-01
  8.1971157e-01
 -9.2711657e-01
  2.9195502e-01
 -1.1556405e+00
 -1.5110265e+00
  1.4173653e-02
 -6.4708918e-02
 -4.5979464e-01
 -1.7388302e-01
 -1.0169113e+00
 -1.7145172e-02
 -1.4937382e+00
  7.7750057e-02
 -1.2885572e+00
 -1.5486436e+00
 -5.8307409e-01
 -2.7501857e+00
 -5.3138077e-01
  1.1296821e-01
 -9.9470401e-01
  3.0636929e-02
 -1.6887960e-01
  1.9895479e-01
  2.4332477e-01
  1.5313097e+00
 -4.6044001e-01
  3.8221118e-01
  3.5962954e-01
 -2.7094554e-02
  2.5572175e-01
  1.0558298e+00
  2.0409106e-01
  9.6555465e-01
 -2.2297499e-01
  2.6523000e-01
  4.9809995e-01
  1.3955893e-01
 -2.2862093e-01
 -3.3707461e-01
 -1.1952327e-01
  8.2169622e-01
 -7.1722670e-03
 -2.2490478e-01
  4.5390567e-01
 -5.9395071e-02
  5.6797123e-01
 -2.8595102e-01
 -5.2490783e-01
 -6.5390682e-01
  5.8016539e-01
  3.8746081e-02
  9.6378654e-02
  4.5780385e-01
  3.4908447e-01
 -5.6103021e-01
 -6.8260647e-02
  9.7636718e-01
  1.5117548e-01
  4.6326047e-01
  5.5969924e-01
 -3.2037139e-01
 -7.5753701e-01
  1.1882678e-01
  1.8867426e-01
  7.4374244e-02
  8.4370948e-02
  1.1041166e+00
  1.2751191e+00
 -6.1115313e-01
  2.1695521e-02
  1.1766900e-01
 -8.0753267e-01
 -1.2157793e-01
 -3.5579681e-02
 -2.1224800e-01
 -2.2154428e-01
 -7.9042524e-01
 -3.6465046e-01
 -4.3173614e-01
  2.2816512e-01
  6.3983798e-01
 -5.5774719e-01
  2.2455402e-01
 -3.0408093e-01
  4.2970157e-01
  1.3315582e+00
  6.2626839e-01
  4.4962183e-01
 -7.9493326e-01
  3.5556647e-01
  1.4730125e-02
 -6.8211220e-02
  1.6325947e+00
 -1.9749243e+00
 -6.5020645e-01
 -3.3697689e-01
 -1.0938917e-01
  4.0848625e-01
 -1.9407625e-01
  4.0460181e-01
 -3.9306301e-01
  4.5696592e-01
  1.2992974e-01
 -8.6877823e-02
  5.0373083e-01
 -5.2715074e-02
 -7.9340875e-02
  1.0635461e+00
 -7.7519327e-01
 -2.8691947e-01
  7.1191901e-01
  4.1280258e-01
 -5.6548047e-01
  2.3693684e-01
 -1.7506094e+00
  4.8228687e-01
 -1.9265938e-01
  1.6856278e-01
  9.5813435e-01
  1.8381776e-02
 -8.5800141e-03
  3.7528083e-01
  4.5443848e-01
 -4.3787103e-02
  5.0855297e-01
 -6.2811720e-01
  1.5411529e-01
  1.6160041e-01
 -2.2414449e-01
  1.1424533e-01
  4.2291114e-01
  1.7375703e-01
  1.0401847e+00
 -4.0517762e-02
  7.7542853e-01
  3.8897568e-01
 -4.0083447e-01
  6.0713772e-02
 -1.0865089e+00
 -1.9959679e-01
 -1.2841728e-01
 -4.9684072e-01
 -3.3184439e-01
 -7.4116759e-02
 -3.4305507e-01
  1.3617490e-01
 -4.4919915e+00
  6.6312388e-02
  2.3957878e-01
  1.0288869e-01
 -3.6224073e-01
 -9.7574458e-02
  3.1342351e-01
 -7.9048234e-01
 -1.3283701e-01
 -1.0426842e+00
 -2.9555224e-03
 -1.1874018e+00
  4.9742836e-01
 -5.6807909e-02
  2.3036431e-01
 -2.0395863e-01
  7.6453346e-01
  8.5048425e-01
 -1.2273941e-01
 -2.0256618e-01
 -7.7619421e-01
  4.7980720e-01
 -8.5572684e-01
  3.4997180e-02
 -1.3594411e-02
 -7.4165449e-02
  2.3857889e-01
  1.1046437e+00
  3.5271880e-01
 -6.3285239e-02
  2.1113102e+00
 -7.1730173e-01
 -3.3862066e-01
  1.7012492e+00
  8.8010304e-02
 -6.2083278e-02
 -5.4270506e-02
  1.5523448e+00
 -4.7405493e-03
 -4.4409209e-01
  1.0434905e+00
 -3.0677363e-01
 -1.0332955e+00
 -3.7564018e-01
  1.1733646e-01
  2.1193199e-01
 -2.3062634e-01
 -9.4261461e-01
  1.0671428e-01
  3.4651883e-02
 -3.6862016e-02
 -2.1564700e-01
 -2.6969212e-01
  2.1743309e-01
 -7.6761353e-01
 -1.7936811e-01
  1.4993775e-01
 -1.5656045e-01
  2.6955947e-01
 -6.6814637e-01
  6.5122539e-01
  1.1231990e+00
  1.1485514e-01
  1.3735287e+00
  1.4064448e-01
 -3.2291433e-01
  8.4721845e-01
 -2.4905558e-01
 -1.9665837e-01
  7.1482486e-01
  4.6087241e-01
 -2.2913110e-01
 -1.0471592e+00
 -3.8665554e-01
  8.3992392e-01
 -3.2413718e-01
 -5.5467451e-01
 -1.8709630e-01
 -9.8718548e-01
  1.6839448e-01
  1.4422275e-01
  4.8745915e-01
  7.8081483e-01
 -1.1624687e+00
  1.2933367e-01
  7.1264684e-01
  1.2130184e+00
 -2.7281484e-03
 -1.8469140e-01
 -3.0135654e-02
 -1.2472543e-01
 -5.1641303e-01
 -3.8562208e-01
  3.1912565e-01
 -5.0605321e-01
  2.4238177e-01
 -6.9988590e-01
  5.7671940e-01
  3.5227265e-02
  8.9516115e-01
  1.7873190e-01
  5.9961107e-02
  1.0285174e+00
 -8.3144313e-01
  1.7085859e-01
  3.6298946e-01
 -3.9693630e-01
  9.4055402e-01
 -4.5297746e-02
 -2.1902362e-01
  8.4813483e-02
  3.3582294e-01
 -9.0049160e-01
  3.8223881e-01
 -6.5332808e-02
  5.9583521e-01
 -2.9065724e-02
  7.3605758e-01
 -6.2388372e-01
 -7.9737216e-01
 -1.7259271e-01
 -7.4112242e-01
 -3.8615286e-02
 -2.9710181e-02
  5.3092015e-01
  7.3395127e-01
  9.2459351e-01
